{"BestAccuracyRatio": 0.9652, "ClassName": "Network_All", "LayerNeurons": [784, 50, 10], "Weights": [[[0.0211084904199309, -0.010750288475222938, -0.004732925819691413, 0.023265883288841934, -0.034933294356754276, 0.06892890045474605, 0.10035745408345907, -0.06358164250238833, 0.02385335180743295, 0.0020257004334452416, -0.019364836521746077, -0.021848294088314575, -0.009403829653059782, -0.03875869050035585, -0.019444642357770017, -0.06754138766415442, 0.015494707986994144, -0.03108719243408825, 0.024683735784030825, 0.019954693776486176, 0.024544138547111048, -0.03706849277741475, 0.02198991615387944, 0.05036327849395419, 0.03693536950090277, -0.011390568059552863, 0.025165824696810123, 0.017130847325810123, 0.03687742645626495, -0.011179598906717004, 0.028640545993880367, 0.031848083064894075, -0.017868228767822174, -0.04400949347643928, 0.00967284555134129, 0.058972000265176384, 0.010362601442809354, 0.0706330330401321, -0.002901596386279755, 0.032462499485642414, 0.02619516162925385, 0.005040679741855455, 0.013482009446373963, 0.01640132433116928, 0.011018614939028103, 0.005181283901489259, 0.022167805468149344, 0.035413921630391344, -0.08764963105314993, 0.039717903535257774, 0.028821304788914332, 0.012398477256392065, -0.0027127557381837653, 0.014060540978646943, -0.014326983840028644, -0.018248859871478538, 0.0075244759659209345, 0.056608789946125296, 0.029230455304566503, -0.0248446624816201, 0.05475666071924022, -0.043389851290572636, 0.04983000267219692, 0.003328628930069072, 0.032523956819863024, 0.015575831934090345, 0.06516408429642627, 0.03516221472412268, 0.04382594252135844, 0.008130388895258692, 0.033010558352348666, -0.014371199842266563, -0.011297392183398092, 0.01832595834073475, 0.007639941575239603, 0.04839281457300591, 0.022508002954805782, 0.0506181881285788, 0.09762051677329299, -0.013607430220278128, -0.12379112322936248, -0.02940808623624961, 0.005090845377161805, 0.00904783772643658, 0.04676737710032708, -0.014623009469294212, -0.005029882521089784, -0.013385851213266901, 0.02471303621122978, -0.03635745019763846, -0.012199205541126523, 0.048157763601491044, 0.05382316170999188, 0.09274570006392328, 0.03169869972906764, 0.003186082225576952, 0.0506765200219338, 0.0034661476612973642, -0.037626009540038675, -0.01118624353350321, 0.028195290568909077, 0.04150888592339759, 0.07334019455729927, 0.05180820003995769, 0.040022259146150756, 0.03178885485101166, 0.0376162599083536, 0.03358894788016329, 0.05943242280666911, -0.01031301548484551, 0.009681711082901707, -0.012766155602228591, -0.029080374152229322, -0.019544688311835347, -0.08111064652398733, -0.00352276092475602, 0.03063697635842404, 0.0772513178377513, 0.02645409081152963, 0.05673812730053186, -0.029516202829122932, -0.020652028818478625, -0.03374411414599289, -0.011679377865105294, -0.05672556281734754, -0.03863738252345489, -0.010382843338170595, 0.03443148015409485, -0.00013662055804371877, 0.05584431630078303, 0.039751409962303356, 0.02263521268836336, -0.0016588615198555917, -0.0065089291081156, 0.013313334455634734, -0.028572253856854458, 0.00383797375072016, -0.010725565848919634, 0.025031907084120647, -0.05263596477940377, 0.04753814569392973, 0.03646707530886318, -0.03090576492174898, 0.006684244329225767, 0.024149291036654214, -0.011047402649611892, 0.02321347745935942, 0.00742670432282014, 0.022290565030494827, -0.04673029625833029, -0.023834159484319124, -0.030114879126035596, -0.02713242526103228, 0.052663702918482956, 0.041741540892149785, -0.004129308243570918, 0.011864870558084398, 0.0471200481470832, 0.009561100060061093, 0.06620127679963973, -0.007686085016797357, -0.03339695080103482, -0.04146311868629511, -0.022701522826357453, -0.002173081579849432, 0.028204726278498696, 0.013188484652622842, 0.011301705878236057, 0.05802184990457608, 0.056745320310528945, 0.03552985711202104, -0.0018559676484026222, 0.025323454233259265, 0.06257697895330466, -0.016705104142123506, 0.0336974412532284, -0.0011353233297128115, 0.027208702394247164, -0.053618710030192626, 0.021517317185831317, -0.023707635300959005, -0.04692288215106569, -0.03933071434629732, 0.07844861330933434, 0.0266848141065606, 0.04855110858104187, 0.01881809181133316, 0.00300610186907962, -0.053839609430801384, -0.023780936602472397, -0.055526068110692224, -0.07492472158203331, -0.07459494524308784, -0.032328371459391034, -0.0617775352393818, 0.05510867981722813, -0.002075909506830454, -0.023900969017510373, -0.04920185027257079, 0.031881330830654565, 0.01307876761656858, 0.0625489594472491, 0.00809014081021074, -0.005992495677023025, -0.07204742646208338, -0.011756655868986604, -0.06345305055390088, -0.026384994523965574, -0.04604536103055363, -0.030630101432960792, -0.012378970647574594, 0.04869003668821596, 0.06968187660606749, -0.0012556893985207777, -0.004525516466795523, -0.09029613262538193, -0.02269016777670517, -0.04986648016442318, -0.016991575648916877, -0.06564201278861004, -0.010734014448457124, 0.03175104493993393, 0.009324168521879502, -0.03813140813520455, 0.029631275469003016, -0.02584726626141851, 0.012482230742023922, 0.00019953681932446734, 0.042858515587957904, 0.07167446801964357, 0.02795390051975409, -0.008711531043898664, -0.08493802248511337, -0.050392767026086374, -0.014038325210514664, -0.03178848121356489, -0.031158044337696776, 0.008435014928215322, -0.03162091475172808, 0.05241061252759401, 0.04956363805481471, 0.01980938439700723, 0.04601024040626954, -0.0006944956085015975, -0.039700013158447796, -0.02772379205719989, -0.09093361587370465, -0.061286362276899355, -0.05352739622480349, -0.050615076140465697, 0.0005277624295505755, 0.01718479339253278, -0.047441366956166915, 0.03717555514858865, -0.02449058031917508, 0.08523055712184636, 0.022651025985838263, 0.005846500587802149, -0.06793714834837752, -0.03737282102854695, -0.07287482354250685, -0.06817652835696376, -0.07626391148339381, -0.056853924216168944, -0.002036344999934959, -0.021702704705052245, 0.06075376305850878, 0.0325097076997572, -0.00016051204633748536, 0.031494919260953796, -0.030337846949466833, -0.002050306709757847, -0.026939862375313768, 0.033912851249390204, -0.012931081233058849, -0.019765543133156968, -0.007039076789088484, -0.03389069296539134, -0.066919726481759, 0.010352862810960449, -0.01182290594060491, -0.06649356779517006, 0.04382464827794342, 0.02692481233184218, 0.026973389119024988, -0.01361760488803417, -0.026498534096208688, -0.07043182449591706, -0.08261924200034744, -0.035603391019679256, -0.044283321018859, -0.06667581606397946, -0.032460660252881676, -0.055935716652197716, 0.06117121611356604, 0.01898506813679292, -0.010505486304432083, -0.07510453676608063, -0.06354675705126253, -0.012958911123387774, 0.01230353426548332, -0.004184285971239089, -0.030018535836793554, 0.014937942234486697, -0.04287043552348766, -0.047557090246167714, -0.04654200244288155, -0.05593977141820377, -0.009359935520715039, 0.00558484965734586, 0.01846836485897356, 0.028201116495914384, 0.035533778831918356, 0.037533291894128455, -0.08635639905348025, 0.009758154875178171, -0.01721661223359784, 0.03291368851662297, -0.015384372397840866, -0.011119573514060127, -0.02322335566578437, -0.03989500597452574, 0.016949432876781717, -0.06806957011318934, -0.06383552376558907, -0.027364831180199674, -0.04922759812989825, -0.04378426417162923, 0.0008556313317896255, 0.02213735290352756, 0.005639254769592497, 0.03945426113455551, 0.020428360390018215, -0.04717099278743957, -0.014231384047536466, 0.026644392329784262, 0.011169734139057542, 0.0074964184897459455, 0.013750923329024613, 0.032251913389142316, 0.033358765954053855, -0.038293024260997226, 0.020915800839115067, 0.03140453890656078, -0.03576147609026182, 0.007794064976819147, -0.0281396987948046, -0.0070916177653947915, -0.05639656686238828, -0.07757672702053699, -0.0033794759708044007, -0.04251400413618606, -0.054034953102938876, -0.024357000138987804, -0.06806696886486857, -0.011878283842868539, -0.0644850449721192, 0.012520150654851153, 0.0066020594145601436, 0.12180409095923801, 0.030350776281371204, -0.03762871944166769, -0.01464339834757359, 0.03985165513688241, 0.015778424106068147, -0.014278052410479573, -0.05597730687072278, -0.040610957753864876, -0.017172396952841198, 0.025980156219534374, 0.06177650863666773, 0.03510335477273978, -0.02982523123435953, 0.02885776018573489, 0.05839816377881767, -0.02340579658263365, -0.1056896216175289, -0.010418008086690512, -0.06292820059149733, -0.05924486011835122, -0.060808388515409095, -0.0766089535361735, -0.03741415102941842, 0.0007733800978404113, 0.004142660141525809, 0.05787302723349148, 0.03066283040281259, 0.10832702021198762, 0.01565226697284365, -0.10206419728629475, -0.0029193166740710307, 0.03221063410883822, 0.03989678625469974, -0.04100174177513771, -0.004966432116392848, 0.01328341246558722, -0.03295974379897541, 0.027101963718796414, 0.01820239782522748, 0.05905548531088388, 0.02590237097554467, 0.07265366124473874, 0.042336984793441015, 0.022135945907657013, 0.028534057649256483, 0.020151480748926434, -0.05948907249494408, 0.0038801656943007264, -0.049923791317793245, -0.009493785605856606, 0.017315234105188173, 0.04408462311030804, 0.041478218874112315, 0.02601321972439737, 0.048159433743186125, 0.05029337742061356, -0.03413227376652525, 0.002878772545981312, 0.028352096014749577, 0.04129732464660684, -0.021159268346799927, 0.07412889939427805, 0.015667062107608914, -0.0022576953546922314, -0.035118217551341445, -0.00010724612530632822, 0.0335324259223144, 0.05022880035276971, 0.03041665355517185, -0.023290178896779284, 0.02903519516590046, 0.07116549703739464, 0.0054616638244147945, -0.0030665176456890495, -0.06786365446393162, -0.09133314197185552, -0.045816343151774644, 0.06861115871375816, 0.06582313625441573, 0.04101225603164331, 0.08261733668748646, 0.05048463922289535, -0.016971876885896187, -0.045843596784944256, -0.06015385005089241, 0.042442598027193176, -0.03312193401858998, 0.02654248447907604, -0.011970515670350412, 0.03038388307802437, 0.0026035567614778035, -0.08174986228145859, -0.04839532654661306, 0.06015743288408113, 0.03761132857846486, 0.05345604022688392, 0.04771843702951003, 0.009884347744575328, 0.0405141496126373, 0.07580851146132236, -0.011125691845468374, -0.026719801815206154, -0.09617993106340321, -0.04682575622327108, -0.04774148363280496, 0.07627471414517606, 0.0575619912789317, 0.042339272095554784, 0.014514617796866124, -0.04616804260349735, 0.00172634575658103, -0.02827675543261416, -0.004241805120789322, 0.05892726610019143, 0.009360568939097218, 0.048401331972153024, -0.02537518243289815, 0.014392044435222174, 0.021108837590637683, -0.04657171567332989, -0.08048589343963174, -0.008881971413242956, 0.015473074436412685, 0.03560626933159195, 0.06298613710083455, 0.030877261836296785, 0.03681752933328021, 0.012987341657899236, -0.027058740641052407, -0.04395204772963512, -0.01551119088016441, -0.07423129055444061, 0.030927779265566155, 0.03681602259344564, 0.0161510676797608, 0.03711335124152695, 0.03366923965741053, -0.0013515287962000161, 0.012811766569076817, -0.033058194074736445, -0.014795070741687448, 0.011991061174286811, -0.04690105050091494, 0.033580029256423394, 0.012301645641228267, -0.04682664049884648, 0.04842704758765916, 0.05160311618928221, -0.031122423453682022, -0.01212833746624475, 0.008629132950273998, 0.012803907640548621, -0.06066091490701291, 0.02003523344648708, -0.027040166028610427, -0.02368832875171619, -0.06248276048631964, -0.03129625738734299, 0.002123484579092795, 0.01809833883579873, 0.017157174544327674, 0.001112652322288014, 0.03097018207497003, -0.009088698732321567, 0.041227561645324665, 0.05545241841159787, 0.01757113218486946, 0.03377975256302544, 0.020667767665744068, -0.0014332267406645368, 0.10797785683567514, -0.07120055916673682, -0.0682555263019527, 0.006520380350196291, -0.014571041987552982, 0.022651605799750067, 0.008176852462870289, 0.02869246703235589, -0.009493652669469606, -0.05280881272394125, 0.005914730506884103, -0.019571189073958727, -0.032154765250522944, 0.030573052443191952, -0.03877683478955752, -0.027140887104183324, -0.01829462326926825, -0.029685242933036638, 0.01627436201471657, 0.046511452178154965, -0.015821706027902272, 0.011936635197989584, 0.011993802119418638, 0.04263558919814831, 0.0757406024815417, 0.025920591099856588, -0.05177950766743371, -0.012908480673049822, 0.034927843005578114, 0.11482903473534782, -0.012493309212766526, -0.051530180184105, 0.06412978464826971, -0.005133914263600878, 0.07085799575158304, 0.014710802896583516, 0.021500353940655303, 0.016976748711037784, -0.019593858083295806, -0.04910802830326676, -0.01698239616403047, -0.021226216689228233, 0.04328742221378058, -0.039859485421967315, 0.05014005487123866, 0.036292286292028235, -0.002571363295775342, -0.009708239872208039, 0.02246280739847786, 0.028210389252277687, 0.009847715272761107, 0.024504331912497682, -0.05651499363549355, -0.029211002575927715, -0.03051393211308367, 0.008190157193951239, -0.060768510147572834, 0.029627211146677875, -0.004383005977360523, -0.008385622081788547, 0.0550644853023671, 0.02393787589987936, -0.042011599404970026, 0.010578354230530787, -0.06152986315397626, 0.055115138364226, 0.031231602789032843, 0.09162640975349112, 0.026546469197101834, 0.034174247366987175, 0.08264273876127783, 0.02820406800460016, 0.038435611006813544, 0.0863652486384664, -0.001423652026033052, 0.04666435707666086, -0.018447950661050868, 0.007586886038665538, 0.007831585816849214, -0.03125300473309863, 0.014956391427538084, 0.018309576000145312, -0.04268369067836023, -0.016125379943015376, 0.016797518510815602, 0.03998289400258912, 0.05296539975862535, -0.0044253331820773645, 0.016934917143191997, 0.015999713413958814, 0.03859180450384141, -0.028552375603676915, -0.014536460579813896, -0.019710888507792745, -0.006177040066942744, -0.020548360471626375, 0.036306283482950924, 0.04871408120931033, 0.05425456728315277, 0.06042032564700298, 0.06380604355550032, 0.025656969558102486, 0.033934759117915665, -0.010428499732353259, -0.04783219972850035, -0.06096029942210243, -0.06122272959754901, -0.03609848088130354, -0.005852278971152312, -0.03222185803090131, -0.017646817433687872, -0.016568855123820395, -0.07415360301293261, -0.04791319495001656, 0.01136667610383867, 0.06682719561028762, -0.022064302501443502, -0.049099377220357614, -0.07955949218684275, 0.0008902382157313276, -0.02929207999715075, 0.008333757642583641, 0.0005417735996990789, -0.012982747391386414, 0.01307788777062685, -0.060963717215467554, -0.021240257659729322, -0.02376637896687756, -0.014999986993001766, -0.01811003379618435, -0.09055183367668253, -0.08337845199304142, -0.021693019216488512, 0.011128951932786721, -0.04341965614389062, 0.025626299596535132, 0.0001573897958177692, 0.04545792990398784, 0.01434639682653299, 0.014633294507393363, 0.03094644266806591, -0.009373790129363745, 0.01934968827365125, 0.023707069725525887, 0.04405063614481935, 0.029648066491461702, -0.031904036571312584, 0.03451045283768814, -0.05463401532618679, 0.016648841984811563, 0.04504055992967457, -0.019341882174168937, 0.020187895906017266, -0.005239154953119332, 0.019588595271000247, -0.03290104611323448, -0.09202736804782032, -0.07442205970976216, 0.029246047235700907, -0.07456597864412574, -0.047522495692077164, -0.010079332781326682, -0.008145719755792641, 0.04554147472862625, -0.009214201665135185, 0.021044115310070378, 0.01812117286265117, -0.03839257152159113, -0.049932134842689574, -0.02015248759809385, -0.039382989510994344, -0.003740810145337504, -0.03411647043034564, -0.04137530124573996, 0.03387204997263115, -0.050661309937223, 0.008527384540983321, 0.07326186761091541, 0.018367559918641863, 0.0047098364780384875, 0.00599728922738381, 0.05005559289833044, -0.07269189950918085, -0.0027561074195579056, 0.014777899080173061, 0.029896699396256367, 0.036815024042877606, 0.05395210809912325, 0.04599870671794022, 0.017667357484282366, -0.010369917240694386, -0.005938350284262652, -0.009971613011973553, -0.02298060185910805, -0.02495197220462323, 0.0008302254329942212, 0.013243983876108223, -0.021880578087525273, -0.028881479100958795, 0.04758797116135932, -0.06100196424336284, 0.06309851376611829, -0.00531789458035016, 0.03959335982959054, 0.053035104518708034, 0.02947620160635351, 0.052416026393257736, 0.11577103785827879, 0.050477882056410905, 0.03331239271050696, 0.08399582754148813, 0.011275718375617642, 0.0924144044474595, 0.08824643295580639, 0.02977710301662693, 0.06728904432761526, 0.06145647605479639, -0.018172941301342633, 0.0007037556141694677, -0.056961132575488405, -0.009209076525323507, 0.01821219972687827, -0.015209100712298754, -0.04159985975646556, 0.0281620828699992, -0.05965388032696213, 0.04475010336666182, 0.013548423047581833, 0.05084437340521243, -0.008413749831406423, -0.05647521944249432, 0.008691671717362268, -0.06124588735375018, 0.0030254300237411813, 0.04440194883462525, -0.028827031164192066, -0.020479068130740387, 0.03764337732821059, 0.0011692323910691307, -0.00780426408118777, 0.046628062712721796, -0.007633181850010733, 0.06974172578529185, 0.05153270073687809, -0.017507170386032927, 0.014101773140872666, 0.0158761061657744, -0.007628569364808721, 0.04025607901558856, -0.04484224099212241, -0.02409544716428184, 0.08250571783035861, 0.0698214191777585, 0.02040749834436067], [-0.039113025973760554, -0.010958630362597407, 0.03525042661739455, 0.004597575487240507, 0.010678632413611097, 0.006587145534085162, 0.0622570326114907, -0.07124836627584427, 0.05264581960100306, 0.036695203312716126, -0.009789115916468421, -0.00886105070778855, 0.03237958520292436, -0.034721960563446404, -0.01352320880355078, 0.034863454958952766, -0.0222524626241559, 0.028676606404374107, -0.01671302796668528, -0.005859765226642094, -0.048622296521453626, 0.03551161003969471, -0.009756408016546468, -0.08924926223568257, -0.01460809671678375, 0.03488765519599453, -0.009909948596397575, 0.0033556758210700464, 0.011079579000835072, 0.05229217122264359, -0.03958196737463286, 0.07829896491107713, -0.038667182592912394, 0.025397671963165135, 0.009438671887531948, -0.05350480054888539, -0.071551493158975, -0.0252782286750856, -0.002136777516631961, 0.07110096247540915, 0.014457377623216985, -0.07051127038199619, 0.029474407749618424, 0.0389113918491791, 0.004093201156059526, -0.050421528696321105, 0.038844998680882155, -0.04922848770546731, -0.038393993682824985, -0.005612178354498345, -0.001822117943437703, -0.025410153847026905, -0.03153533632414636, 0.008166652961923353, 0.06474085257128812, -0.04181915875486276, -0.009696172235452478, -0.003907835333099688, -0.0015542751272992772, 0.004481740178693847, -0.021421195899405793, -0.024219269336453214, 0.03954531310776186, -0.03734452738066886, 0.003464123985358398, -0.04823847219315039, 0.018638351808207082, -0.016166383826440034, -0.04681041842130137, 8.93164609287595e-05, -0.05702150894715614, -0.035234692867061504, -0.018955570865579474, -0.03778987428334712, -0.04272250022697805, 0.04305081306157204, -0.033179340087393296, 0.015453611892731112, -0.010224893524505094, 0.00246225482192503, 0.032902283317636644, -0.05158763880067336, -0.020039927755268364, -0.018066316565506804, 0.059114351691450365, 0.0562269880501519, -0.02668605605048552, -0.015624444871749443, -0.05253050064913315, 0.018556340498697196, -0.031207562558806853, 0.04669959457163263, 0.015386791580332534, 0.009532432675332322, -0.006855741287241307, -0.06173697106823965, -0.07724571564540346, -0.007749869489624578, -0.07729032955159092, -0.021966045489439635, 0.021709729960454147, 0.0133650609076987, -0.049103450226415865, 0.01301645382003799, 0.05502943997929445, 0.04785803628614295, -0.040573839657252045, -0.03575076777931045, -0.024339130704121543, -0.08666279699486154, -0.0047628174771834715, -0.02069464377258572, -0.0008660186096400886, 0.00042930476370826154, -0.03688946797266099, -0.002584143433709206, 0.026257934082259772, -0.06866445559017353, -0.07985047712718588, -0.01174519154155747, -0.06575469488870465, -0.013938419789816072, -0.01702897687836122, -0.12906547825332765, -0.05017054634774027, -0.06899757535696383, -0.07944755317099884, -0.012046529331480134, 0.057241011320779536, 0.036615510877595556, 0.031418454125047436, 0.02853224635987534, -0.00401918716596046, 0.03678777814927226, 0.03915646540284462, -0.0776563272324025, -0.0028438339275286234, 0.06976377725556947, 0.030115702909691133, -0.05504131077776523, 0.02290534955189208, 0.006436708138495776, -0.008226811984663646, 0.014666678265138967, -0.0312582411962058, -0.0037103836246318955, -0.04834030329039243, 0.004949865753362102, 0.008573459722061671, -0.07293677650131294, -0.024072119493792208, -0.08064104861963485, -0.12336767196494668, -0.0979778974108053, -0.0362109337447349, -0.09979117927625189, -0.033125650587188506, -0.04697108722728131, -0.04693930616252846, 0.005322350370805262, 0.02678149736199744, -0.017434403063979517, -0.07595822405949601, -0.03714806346969691, -0.024607898708856796, -0.034506884565068126, -0.023211987574322242, -0.03593819844867792, -0.07930932127493193, 0.014864762971316866, 0.024430326524825418, -0.01649418321413415, 0.05317668834789592, -0.011723726472613787, -0.012866851164964195, -0.05665067950956576, 0.01300613787437295, -0.04939159226527755, -0.04806218737084794, -0.007164956637195645, -0.014199365443414425, -0.02818118064706316, -0.06626604469916506, -0.09009094383351673, -0.055070262908363726, 0.012237119499410093, -0.05444073269183115, -0.001239744061727799, -0.031066373321881724, -0.012028369403896306, -0.018203330334485394, 0.0021811538591444742, 0.014054102653736055, 0.01822886961620339, 0.021532323430072085, -0.0022926567556339175, -0.06407946919958106, -0.03512536932748921, 0.018712538035528404, 0.10201920037546483, -0.00786082204189105, 0.0016910356541452246, -0.006176911537783205, -0.01645954511199846, -0.04993463989353382, -0.022480968677231327, -0.05684092611012806, -0.0032270611104607523, 0.0006259239081673807, 0.01442802374776307, -0.011932641545532308, -0.03602801521126776, -0.010658197951259761, -0.001837948351458829, 0.06878866302617112, -0.002400033470231703, -0.08410619267050512, -0.06519925487325326, -0.06918854051731653, -0.05956220078675416, -0.012593970978953366, -0.017797870820413494, -0.009358264813475849, 0.028246200754196683, -0.004412074445677341, -0.005061438606119953, -0.07672400326786838, -0.020629896768394114, -0.012334137886600462, -0.04826688430435544, -0.031818670287627734, -0.05698773589080106, -0.04305415199990517, -0.023498656793160034, 0.008042988178876232, -0.0405212980990217, -0.024145231105119746, -0.03964338864174078, -0.027847262062439516, -0.052926288917561466, 0.03767810801121426, -0.028748684803753376, -0.034136879963479215, -0.07596087236919649, 0.0015236167259692868, -0.034975503934950705, -0.0031926722182249504, -0.03489938948465794, -0.036574473788022636, -0.02813599069066228, 0.0012197854991447205, -0.006848886503122683, 0.003619945146231894, 0.033011007434268144, -0.005133698504054528, -0.008792641095908348, -0.027662394806180816, 0.015023087871576586, 0.017685983622497913, 0.053554277224552214, -0.06656805928967868, 0.061346131419374166, 0.006036384683765177, 0.0022814211446266115, 0.026433124512882225, -0.04254606343157216, -0.04280754808947847, -0.03069487784313767, -0.042565414068478274, 0.026779931126851286, 0.001385013209094946, -0.006207386410954043, -0.027263663752122445, 0.004542611613094885, 0.01656516695178292, 0.0063702876848617225, 0.024143374491517766, 0.014713601729134353, 0.0029893427483269645, -0.008706228627628258, -0.03503708620355098, 0.046049687884934375, 0.04108181326940179, 0.01705727111230752, -0.03888851767106525, 0.04439369696720757, 0.06316657042920189, -0.01867030131700971, 0.005545271876432012, 0.019920739987528375, 0.019100627997250163, -0.05187402252836585, 0.05535150043360682, -0.0013210920414489958, -0.05668204131753208, -0.09305875269614526, -0.06515630259132695, -0.002585939958956072, -0.017459563508533466, 0.016139078393524117, 0.03146444638642817, 0.06515765375810113, 0.04291419871576772, 0.11467606194747403, 0.05446517413956617, 0.04236256350182772, -0.024899517728649043, -0.008585530915378, 0.014422722840470357, 0.012244943085004734, 0.00110954173014242, 0.04562252406995905, 0.01212091609575762, 0.048081006880430995, -0.03333765927662869, 0.03443266512010311, 0.016849433758525077, 0.005457475312711345, 0.05441752599379901, 0.13620885687409645, 0.12389091065227022, 0.0684603715103139, -0.025722565073952822, -0.06220560557891524, 0.009703412531921378, 0.0927585166541149, 0.058373246364498116, 0.11231145780549787, 0.0766620511023996, 0.021184937013480103, 0.056278584863696544, 0.038297806860853614, 0.026055667428615332, -0.007971478196509995, -0.0068165184927048445, -0.039656378799154186, -0.0071067474659929665, -0.02207752075018332, -0.009736422204972407, -0.004786241162690083, 0.008013503298940971, -0.005872357940680524, 0.0635861372415248, 0.02016145580401022, 0.06937142901598203, 0.1100330781282241, 0.04043709665398135, 0.144386636239887, 0.026727137214449533, -0.10722507036985172, -0.08329808459604987, -0.06794385103827713, 0.07587743020027825, -0.004290687145225128, 0.05252646359494206, 0.007121055382164617, 0.05108137798140097, 0.07496668577452203, 0.10916324174701829, 0.02339495320671794, 0.03363079895142016, -0.020298412039428667, 0.0942076042198728, 0.06830464416377227, -0.00016526559661778832, 0.04690096356542616, -0.010203240363680512, 0.04942514285337999, -0.023924533460487247, 0.07119094002493188, 0.07754285122398322, 0.035053436708862365, 0.09410425400453945, 0.05308987868024898, 0.10501324582866513, 0.018360158949363443, -0.11181231452880303, -0.20169465162275133, -0.23301272062372905, -0.07734106578594609, -0.07684116848330759, -0.08947206272063757, -0.07105804008960051, -0.0011600987272054537, 0.05037742723496852, -0.00035313248393608406, 0.030363187122745917, -0.0392893971606855, -0.01727183917072788, 0.02464002267627387, -0.015761873817763852, 0.011715659330287788, 0.08844652357295715, 0.004616934500485401, -0.04273952155027554, -0.004266993189457944, -0.040405345647879856, 0.043382606474610126, 0.0700405373524822, 0.0012270569858055466, -0.016319649588159173, 0.048706674861499114, 0.042299360526043245, -0.050083227244790696, -0.20878772547173077, -0.24530829734999196, -0.14397187486915322, -0.06920488945767424, -0.08333865541918416, -0.10609742516095302, -0.04964616167273236, -0.04548240803977837, -0.02435141607494858, -0.03948090860602111, 0.05702573553066686, 0.05805604219389631, -0.017263400658504797, -0.053166783840903765, 0.012944355515062267, -0.0285506624298997, 0.0014436690037639274, -0.008803644532106743, -0.06759121347511313, 0.06523713060689108, -0.020777352711359928, 0.029097440611070193, 0.007416399042730346, 0.0016650098635742165, 0.07148218318199837, 0.023124116487193442, 0.010062364455261178, -0.1943865780696961, -0.2718197951116821, -0.19244856302401966, -0.04764030848669334, -0.056891710059642824, -0.13902743739103962, -0.06900079018008652, -0.007365378538403079, -0.011137452270342768, -0.07842142855716874, -0.013805601122880451, -0.010334234086173077, -0.028873290770996752, 0.005365063715894978, -0.006243972996800486, -0.01928979831549019, -0.00677489096207785, -0.03115790283284321, 0.03409544797937756, -0.019565106570528987, -0.10001783970398376, 0.03607879174965532, 0.013494050016389618, 0.0034378993329985223, 0.022893939758984648, -0.016709811185394344, -0.03150171141393364, -0.12456991481137676, -0.2721947491588105, -0.22352183863081188, -0.12238976983833737, -0.043423951120470296, -0.12320704390299586, -0.0747431410432791, -0.061053907477723206, -0.04301682057413746, -0.048999233648424505, -0.0043680210596119245, 0.0070766950625902394, -0.008190966390042742, 0.015235518670690971, 0.04602031056933928, -0.04284008921839101, -0.026305502419725246, 0.04715694131991504, 0.007483847467519044, -0.05395416914251676, 0.00693895778740374, -0.06993257714737527, -0.03170708272209854, 0.00438922251334123, -0.05340666216338424, -0.014201056032825756, -0.018180116725500566, -0.05544143403418578, -0.15960444277911826, -0.16732845627754805, -0.15998676536354747, -0.11070783917461108, -0.06905515026675371, -0.04858975636762657, -0.06363717295534302, -0.07858636060125473, -0.023715825731771854, -0.016446596276511544, -0.017756791832428218, 0.017934296793056036, 0.029633172837515126, 0.01619994831623615, -0.00497591837004434, -0.005562545608260935, -0.025403010862657335, -0.04111240367412013, 0.01934856552482338, -0.007265229156448353, -0.030877596107211705, -0.006004199531918408, 0.055163883679195384, 0.01173470898727857, -0.003658439219683666, -0.009270585387109188, -0.03131189347035829, -0.07910810423416469, -0.08759917470506093, -0.10029776893726598, -0.11383745044409152, -0.013142421871805693, -0.06917751923909471, -0.14398846107718846, -0.05582660827944004, -0.01642101913894055, 0.08032915703808427, -0.05112907972100554, -0.0015076434010481102, 0.020957069569302527, 0.08485735274478369, -0.009064659134017132, -0.008128997091849312, -0.005257443939680593, 0.04458751665518938, 0.004474213420311665, 0.0459196054302883, 0.1170886054559931, 0.04010511984629944, -0.07390327198991352, -0.07481953544462216, -0.02216607646609156, -0.09473074316955678, -0.05446745048950014, -0.047332179120056404, -0.05273264180270289, -0.01076502592999706, -0.04204266187664856, -0.04102937077299864, -0.006794618294504389, -0.06137678829023578, -0.03991354436244621, -0.03919372968702604, -0.003051667479048941, 0.03022714485815638, -0.02938680653333878, -0.03267690659390086, 0.005854241230650475, -0.07088648959487065, -0.016806626572113594, -0.026063696809066176, -0.06779861023081481, 0.02757623419756207, -0.037662557639329526, -0.12071622832388433, -0.022226267284373404, -0.026966275934934787, -0.011697839698978394, -0.07281398720150038, -0.08159163499271087, -0.022926711526354653, -0.11142018069328447, -0.006141690050187733, 0.006833832090379902, 0.04982337574773741, 0.01820253505473529, 0.0323883926427644, 0.010714507492891209, -0.02764185311757311, -0.037180792439176394, -0.018629556833144843, 0.02603727537055964, 0.01763657967823801, -0.026879101231542628, -0.02919597038093848, -0.006168767741320263, -0.010254657759272184, -0.02916970341097618, -0.052661126163593024, 0.01731009860039937, -0.045313484306782656, 0.06189535015319354, -0.07146380304491029, -0.011388559099849255, -0.02891011383460735, -0.013352682741734847, 0.018865576942003207, -0.027849561784832052, -0.00037159288956659553, 0.03549799350200958, 0.00036333785334536733, 0.0961156318929168, 0.04597638023572167, 0.07525470968761112, -0.02911845739082124, 0.003456798706760203, 0.017294969867658532, 0.020997515652618825, -0.08108522048737782, -0.05550863927012046, 0.05672359739170428, -0.0012094501814708919, 0.02015788733469411, 0.03113738315620664, -0.016766265100263272, -0.0068800468963359125, -0.01867510372367003, -0.05008019180202765, -0.022944892005805236, -0.031235696902140862, 0.03843317981872742, 0.0477893361322832, -0.014455633280602391, -0.05220544367915465, -0.06452557625290602, 0.009675363546643268, -0.0477911742263447, -0.004383138354006013, 0.03786183210058338, 0.01261391298673899, -0.009424626711816039, -0.000743991129783441, -0.0545010840773859, 0.03456669170417356, 0.0321344711811143, 0.03527953745749867, -0.019772048762962974, 0.03794298735040752, 0.04089808354293567, -0.03361604588642094, 0.00013469303645158808, -0.03186495478192382, 0.017182522361474724, -0.01467685812595294, -0.04224434253085604, 0.006352740335363646, 0.03516696112911719, -0.06752248269679521, 0.05147388348801657, 0.04890391571361475, -0.054331980312819224, -0.046323057177398284, 0.02623453208147731, -0.00788019355109649, 0.03847256618485216, 0.025902931448028448, 0.0430200845952493, 0.02886553949218211, 0.015236967123964877, -0.02867067735308041, -0.03516774299130903, -0.012942924136383333, -0.05741911346441702, 0.030435321076656727, -0.032874934179525375, -0.05407088826138099, 0.00995168983811871, -0.03514597570564807, 0.02437626874397975, -0.03159088776121988, -0.0632925165531627, -0.06917723390637369, -0.06395569638012488, -0.002480261097610086, 0.004936362369322686, -0.03150905802190914, -0.047619007177050685, -0.021031495508015613, -0.02841619979662349, 0.005500999897619434, 0.019234067702306845, 0.0011006959861158561, -0.018998339239609318, 0.015931933543451227, 0.006674897093069844, 0.013291417430564395, 0.023493819229852348, 0.001637112553597211, 0.017270410274597282, 0.017139706690043055, 0.022233427810452393, -0.022058319022464856, 0.011001730485062455, -0.03432030395261895, -0.0624090214259946, -0.11101672763473835, -0.011120181213665653, -0.023235897567789866, -0.08222675515329916, -0.03904274049271157, -0.018100543123077985, 0.028921703814162557, -0.03920281089601208, 0.018805749085962244, 0.004671685993088509, 0.022082144167873158, 0.010455449097424813, 0.029164259630821133, -0.05087208935262211, 0.059988371009452264, -0.0030104476025211175, -0.00887820783172495, -0.011090634843956594, 0.05889618391387362, 0.04957332387788719, 0.02543609620924349, 0.039569149697103304, 0.04440730270412156, 0.0011429034955110367, -0.0442735569125561, -0.027625109260270526, -0.011599312228257773, 0.0026693489034550046, 0.07102477783370288, -0.011891215502401124, 0.0430047247161272, -0.016729405331183063, 0.00997225129371827, 0.06415418322000832, 0.004112906511618436, 0.047408484663150494, 0.012555842479248056, -0.013113124048144836, -0.012813767199872785, -0.03915376822355835, 0.03063234072967042, -0.009014377213981168, -0.02743402442812952, -0.03281939551375392, 0.012012370106711487, -0.015425335368375051, 0.008760051943971926, -0.02105342872892381, -0.016943875361234366, -0.04382004891109428, 0.0018483548684621856, -0.01687503905885807, -0.024667874106008895, 0.00506567175788645, -0.008849518524231444, 0.01870983307476661, 0.016158602012346916, -0.0024172468072687515, -0.029197939348271914, 0.08909942831794838, 0.014296674014856082, 0.011528407820747691, -0.09830133609097912, 0.006071509243930895, 0.0984517973364218, 0.07785773452358939, -0.006760321043012033, 0.0170314196437403, -0.023895797446779377, -0.026355424007864402, 0.03187467129265808, -0.03145319147500594, -0.020872865372573022, -0.023881265831883786, -0.025208422443382617, -0.06490958397475889, 0.0026827430976332583, -0.005760133469573724, -0.015776498935554956, -0.027978531471933656, -0.03190931470422646, 0.014482703483499792, 0.002764062678306766, -0.04781126054424549, 0.016632470926718167, -0.054481431128499326, -0.046018193013567674, 0.033531410613897764, 0.04661457558362748, 0.03860612202788442, 0.0016423095899389443, 0.002912163057069445, 0.002176135998883035], [-0.040275685411428556, 0.014546138932363966, -0.039297681252267534, -0.006096986175028618, -0.013822067590974723, 0.06449228301130586, -0.02259992609214938, 0.04951074099748738, 0.024359098428082784, -0.015968451826896577, 0.014652708573549736, 0.023600508946525104, 0.02848315849886884, -0.051952175488944576, -0.006230899684993225, 0.03551634994897284, 0.003945927150009273, -0.025930406849956417, 0.01924345046307399, -0.015580986000181254, -0.01597784364221448, 0.011186001209219467, -0.04446770880905249, -0.0471173196268132, 0.010448390278084514, -0.001611216327952076, -0.05228385191789182, 0.0394344436927087, 0.03525943935913781, 0.009285085496281232, 0.0013525384333469928, -0.0004064644557741029, -0.0698822473556341, 0.03005370678040656, 0.015065229262142023, 0.07473627584017671, -0.02213660697291792, 0.021979618905549097, -0.015400958258915205, 0.016616869747124067, -0.06447870673049877, -0.03824847748031798, 0.014839283397457648, -0.0672760269965064, -0.017081890745434036, 0.028855429623532682, -0.03721763018423649, 0.024865678394134418, 0.010149940177705947, 0.006225783745171694, 0.02729249774099295, -0.07754794436422582, -0.003086178770092613, 0.04248126543540681, -0.045888009004605705, -0.021862855304137726, -0.0129798673874594, 0.06259478738858622, -0.03648731979659615, 0.010904389730595992, -0.027637313448835306, 0.009954643842476784, 0.022322991396492572, 0.011067309887452638, -0.02693532666357713, 0.02815962108921829, -0.05166121985405464, -0.020329215181392322, 0.03961696416741715, 0.011206769343478095, 0.07965333552444548, -0.03522756799735012, 0.018415341082819905, 0.02451294240722818, -0.046502987803578026, 0.020784540228358784, 0.03750204318124122, -0.06523878302123795, -0.020721307979849692, -0.049937707812505956, -0.04272583944344854, 0.023755695421993323, 0.06594959935619397, -0.0661928801922202, -0.0006160826309306839, 0.022771416652126952, -0.04145979249023955, 0.009600307595989547, -0.022844749793327224, -0.009889608533035972, 0.02525265267752211, 0.006065189084629908, 0.04973000540725039, 0.005940371595341246, 0.0033527918113355087, 0.025888110800685787, 0.02924404247696326, 0.023684930731409964, 0.0790766766533754, 0.02241698492018332, 0.07481700177126566, 0.014556227995790486, -0.030079877431450415, 0.02387022809083794, 0.08069652281014908, 0.04967127442022692, 0.002755999498436864, 0.03287729127464959, -0.003267308707959765, 0.021420597971175064, 0.0005508239004162962, -0.05068548729823892, -0.012310604827324004, 0.011352175570674073, -0.03962503715546124, -0.055697279191279425, -0.02058947141063205, 0.03687449554220136, 0.03303703882126105, -0.0063607663989853095, 0.01595246995758737, 0.03801770050459095, 0.11192562517173858, 0.06395045438454698, 0.06612943866292299, 0.03608488857208114, 0.11258244136573575, 0.027843269039570802, 0.03820378472465344, -0.005598616459331486, -0.02199570463026158, 0.023210060501631484, 0.003958691579831538, 0.006467567144515754, -0.006178567193446207, -0.00308599593216321, -0.029112441309302694, -0.01616518615463366, -0.02575182767205538, 0.003451630207874282, 0.0010346443356917979, -0.012295876891648658, -0.045959756747276995, -0.009017293395082938, -0.020873141308505008, 0.04312966428417614, 0.10996455319010288, 0.05673299919608035, 0.03808369069477146, 0.028828900261904163, -0.014562179912362186, 0.023154118682495797, 0.05194614586558752, 0.05756339257759596, 0.0014604718207743127, 0.05074009960502103, 0.03699947161871014, 0.025850831520619927, -0.055379827867824534, -0.014711827064610553, 0.00831831863173436, 0.04309586253740775, 0.007484186998909588, 0.012256901696094865, 0.035362674125650924, 0.03656032944352672, -0.001520890333753682, 0.018110547383460098, -0.006423028163857472, -0.04603329113409711, 0.014274462923555558, -0.0001666640703563134, -0.0013613436074985965, 0.00469178879115846, 0.01032188724363405, -0.05643965763354267, 0.03786502065063274, 0.02041944221508445, -0.04890637156664926, -0.05186990702570232, -0.08267288837646468, 0.012800119788383317, -0.019409558885966627, 0.11985541324335545, -0.05310374043778098, -0.036081213122897374, -0.07801006360670475, -0.02411131182239976, 0.03933025396346384, -0.04359755867745029, 0.0019965021982338163, -0.0015962767190147904, -0.020512780004561824, 0.06608140919914532, -0.01799354455757718, -0.11169588951903697, 0.055238744051095225, -0.07943810830778737, 0.018134047105789395, -0.011682275426836412, 0.050005223851013136, 0.010150164546273197, 0.03537865810084527, 0.03167174584871285, 0.007588806609942903, -0.01700407713716224, 0.007130549164227064, -0.05565913464502915, -0.02780016430877376, -0.049007689411028205, -0.07084641365521395, 0.03938450763376781, -0.0043935278359309, -0.06967061059430565, -0.09091612969207857, -0.05052760007952286, -0.06129640394074782, 0.009068459322483896, -0.03456788591057237, -0.08420361019726584, 0.029389753714560055, 0.02147482641161866, 0.07152468581710329, 0.012685016035566576, 0.015180223927765914, -0.0021741289630341962, -0.039801741964845636, 0.03911549357390487, 0.06247021287480097, 0.05660952816569108, -0.0017075834552877486, 0.05202845197897893, -0.013044484140456213, 0.020018324912728, 0.05554198106190508, 0.024819059261526326, -0.04582561296318992, -0.02197706840230812, -0.014013240854053331, -0.007193360297021791, -0.101975030293188, -0.07709447351650402, -0.03529975809680813, 0.005148735732585314, -0.03777662418853387, -0.0022896818384693326, -0.03234121343159449, 0.0418651803320336, -0.03112298646418578, -0.00216543757844161, 0.057491577178169107, 0.031232672955517748, 0.016372944324094005, -0.04466649448023119, 0.044148125639128344, -0.03309735650945566, 0.0392726196559021, 0.016493147296764096, -0.027988330847912708, -0.004249415715274117, 0.017933392309565047, 0.0012496776692139, -0.0337477736225143, -0.051107307187945844, -0.03767996514203365, -0.0569830595078306, -0.07526787594806464, -0.06362934425692575, -0.046093114657480304, -0.06918715309988767, -0.05172223910726565, -0.009152268953284562, -0.012956857032533766, -0.046433734511103025, -0.018435360781526057, -0.0547073939906645, -0.04822227562746513, 0.001392770088686615, 0.022618940647755482, 0.03242251770045153, 0.028343439839187013, -0.0237134386106494, -0.012616534868146003, 0.06962483376770338, -0.01853842242363165, 0.014952988384366765, -0.017565118601983072, 0.05203488698296539, 0.024295261455409136, 0.03102930148884651, -0.03256358036770055, 0.02725690882716284, -0.013275285058097672, -0.07884014135259929, -0.0247561406315531, -0.04475892049074642, -0.019608718185135366, -0.08386312385799925, -0.008786928093067498, -0.0030460022056823764, 0.06561370992000416, 0.00018213292469427978, 0.028981985440564587, -0.08732028371229776, -0.008521340787328623, -0.08346978254464522, -0.004305060255105087, 0.0025169545600487097, 0.009125349798605721, -0.01701700624814096, -0.050776523403292265, 0.04071698760719244, -0.045622491000925636, -0.01847437192761708, -0.009906839115800151, -0.015899174166672195, -0.10231327310737194, -0.07766027741975311, -0.024139036735475128, -0.10413199620329885, -0.09249912197933086, -0.027510219945888117, 0.06893493673388978, 0.0590745108094888, -0.024655180953550692, 0.0018452337935899671, 0.005511529813872818, 0.010096496581961125, -0.08632216968595158, -0.07204452766924242, -0.0929542597496515, -0.040966384358222606, 0.015512974768717805, 0.03770080966860424, 0.026657448847446644, 0.030305615533421773, -0.02055916096699209, -0.055604205341136366, -0.055938299996809805, -0.05133521344473305, -0.058605518607914416, -0.09441432196448508, -0.16768738185668033, -0.1799640312055847, -0.0905165627581342, -0.08110101270354032, -0.07226505656318387, -0.05541486514996031, -0.010922611940857646, 0.006770780722778786, 0.1550952175658632, 0.059930897568908376, 0.00895564850268637, -0.05503023780468938, 0.013346438671462313, 0.04787159073308833, -0.05189678103728811, -0.019336911052801217, -0.07281567197111949, -0.04342776684854233, 0.026367365611214957, 0.00045096217125983857, 0.05501607624095981, 0.010746162556571546, 0.05465340123318596, -0.0017557534263104226, -0.010488799228761144, -0.08395898773978086, -0.09897289837704538, -0.13161459146510784, -0.153781966472945, -0.11717607703839505, -0.10651796784516734, -0.06558533017963486, -0.08778257850284313, -0.019262672974533733, 0.08225881057080403, 0.1302729902388807, 0.11671635213265685, -0.0024448019036281193, -0.0458275965810013, -0.0572883621048878, 0.011286527616246855, 0.038350632498171534, 0.06858421805117339, 0.012734705658565552, -0.0028531584440274265, -0.01124896161984711, 0.0323282804182671, -0.0028495526964497633, 0.02403381246047255, 0.026446974901712845, -0.01724321666221617, 0.05712347134055986, -0.02071430931255835, 0.05676848830674134, 0.014152811960887503, -0.08702453780032035, -0.085263395645424, -0.0634371625053702, -0.011644072646637079, 0.08538081680619028, 0.03286986986688802, 0.035920767329653214, 0.13944889916753644, 0.05700949511606918, 0.12188777346241902, -0.013292145152445693, 0.06819710911029868, 0.009772913339213039, -0.002972910622340367, 0.024846351514578865, -0.05404885154516878, 0.006575950389568888, -0.048724767982144646, -0.0013858612348792475, -0.012183831330212551, 0.028920635356715258, 0.08818883934932045, -0.06897692799609968, 0.023686427584514787, 0.05180836552033222, 0.03136416233654558, 0.020106887016504444, 0.009271605096303396, 0.01628114739520631, 0.045270903049784164, -0.004271118597998429, 0.043957149630681557, -0.027160798696880994, -0.006310401930978013, 0.02367331170054902, 0.09096676082877629, 0.09249332745796034, 0.15510304589384874, 0.042333500176523584, 0.045407670627774156, 0.05457312865562949, -0.016353115707333096, 0.04544820155000946, -0.04741523141753729, 0.009600338241974439, 0.03681086969576876, 0.002501758163046777, 0.05539621611775995, 0.007549095438057924, 0.0559022527464607, -0.05962112860827747, -0.04831365143264734, 0.02548846416544672, -0.0034082252731257767, 0.021752290072298768, 0.05957142641763315, 0.0015277645229321666, 0.06292793712037387, 0.02175887294346436, -0.008066164374310035, 0.05550676999282715, 0.03248087472936047, -0.01938966507399779, 0.02115422329998659, 0.12663622570144314, 0.1118571577395853, -0.010666221679487232, 0.07162361874007622, 0.01223967045765325, -0.001220922550320645, -0.009482377200052143, -0.01682156066161855, 0.022487092408468582, -0.026192681710106143, -0.0013240877274959175, 0.056042065395768045, 0.1298174781193768, 0.05541523076328479, 0.03354437354203019, -0.07537846461697285, -0.005643674449648459, 0.0802074330698741, 0.046476985340187356, 0.04791160213434564, 0.08560890043610833, 0.044742027112092006, 0.05223980443767008, 0.05342634950766493, 0.045618135086603055, 0.027829130882783822, 0.007207353555154552, -0.030780304455585904, 0.02459974606457217, 0.08901921651025575, 0.07503238461064961, 0.025110704252036112, -0.006922716372381238, 0.03824314236683939, 0.05017476169015526, -0.009458054545320728, 0.0821477643202249, -0.025951667177525086, 0.02047992165135754, 0.0709121356502974, 0.08098840491985736, -0.00505725832115245, -0.03424328393972134, 0.023512577144784948, -0.0266010521000526, -0.01801836096985914, 0.043508907360479646, 0.05228607615749945, 0.0873000920364902, 0.06780106254462705, 0.05764122129607931, 0.008879241602995943, 0.1116432086463998, 0.013089415836645057, -0.03870902916219016, -0.051224148443222206, 0.03580230433756104, 0.013605016388252527, 0.027872014443992704, 0.05787172541239969, 0.03695457242846458, 0.0464357492340202, 0.07369519160798786, 0.02299572827711138, 0.01168304588306869, 0.05743820499920302, 0.07625288483700779, 0.11694298914025049, 0.003153519330207267, 0.08431137121226617, 0.0752442620313972, -0.003799029933087322, 0.05475215916058534, 0.03411042383247237, 0.044156380224416536, 0.13328639759797348, 0.03475506193991897, 0.08106863413699969, 0.08667815691960623, 0.011824607542903239, 0.05047074725307073, 0.07393809337939349, 0.012469259531534492, -0.09437287866716454, 0.024217300344920974, 0.017249352215716447, 0.011957649008039993, 0.03961732598590221, 0.0951887653018655, 0.02016275879547895, 0.002554602412194515, 0.04726316198787428, 0.03815547043928999, 0.014721371208763686, 0.06370294955885049, 0.07110478104540341, 0.05291942806485174, 0.048941287634476034, -0.07044788202017888, -0.029438417668887575, -0.027246267888073165, -0.0016259328005093533, 0.01857515266439818, 0.06305440190813032, 0.07629609035167303, 0.009352335981346377, 0.07190097435343211, 0.013114640341910842, 0.07527787453210875, -0.024991970720116368, 0.020404532093228903, -0.004203052536282383, -0.025333905361434178, -0.010525322220971713, 0.02665899698266765, 0.04186570396532546, -0.025087570050398852, 0.032133859910276445, 0.023385484524882143, 0.11853795600588415, 0.03772448710615865, 0.015096531754906953, 0.05504066433406638, 0.05775477490823324, 0.03731966451145567, -0.024230716538256602, 0.0069194532188436506, -0.0020281294914280164, -0.04091648260023263, 0.001789085138541784, 0.04162908156589691, 0.09277986602320375, -0.0046398100360443735, 0.028336532732100673, 0.030453102389575454, 0.008236893279791633, -0.014332966686615791, -0.07150201099488158, -0.06791463663591754, -0.031575381048897955, 0.0061042841237948274, 0.007480632054823204, -0.029901197345923888, -0.05799076579387853, 0.025889703675260802, -0.01933774155711652, -0.018998997827637823, 0.07098204386511506, 0.05278043960437216, -0.005126022649624597, 0.04494596384063692, -0.06344002041464047, -0.04208081957387438, -0.01764176054765761, 0.012523053574373402, 0.024490553923968962, 0.0007015103108933208, -0.04290697970792068, 0.0032627066447614545, 0.018534613673607626, 0.06472479762963565, 0.026722229775275434, -0.04382302936680139, -0.0268559795990755, -0.03912648027946916, -0.038775557176739577, -0.016959153653135155, -0.07260001923682194, -0.05883951993597132, -0.05021386911122028, -0.01906891520634569, -0.06791327309935782, -0.038057289784040146, -0.0029033961650813222, 0.028462538522763512, 0.009269892857521096, -0.018316025799639958, -0.012801595202015922, -0.07822660370994254, -0.004425811098603049, 0.06697572521925038, -0.06933333812835378, 0.015319038852748313, -0.0013855658407435241, -0.024336440838797362, 0.017942093550725537, 0.005777421677184126, 0.09916988653587953, 0.04199874748674237, -0.028615418687935747, -0.033655029249821056, -0.08615381753337185, -0.008611518010733621, -0.013087502370951739, -0.06776723042925133, -0.05072778498219567, -0.026689364130805967, 0.011249768519932668, 0.0050449091696528805, -0.017634495811916426, -0.06074661299810757, -0.08268815584614624, 0.012703507012266177, -0.09186174531182494, -0.04376089751808373, -0.018542978284925776, -0.01226008902034181, -0.01020184679069584, 0.001859155027476363, 0.03549221077813613, -0.017103558695811528, 0.013817215260396276, 0.023564011616556857, 0.025424692973651974, 0.042871821498437226, -0.021684900209578205, 0.03530341062974588, 0.03053446051023276, 8.052025448486524e-05, 0.010999006350663499, 0.060222734225687115, -0.02587754566646965, 0.050719836294424045, -0.004877513494761256, -0.008931944932461624, -0.02588695269398595, -0.06186301489463256, 0.015316946288660708, -0.028825055751057732, 0.0060991941693717125, 0.01478906136938408, -0.06110675233539391, 0.044666905929992375, -0.005679489406699056, -0.07531011442269259, -0.03726960922174789, -0.03127533710379688, -0.0375183800434006, -0.062312985880017414, 0.024484996618632664, 0.017905253573831322, -0.005218562084837944, -0.016084943506252558, -0.05270790187009238, -0.03368407634542081, 0.004937564517706469, -0.07680032488346208, 0.0027986218710312756, 0.006782643467691989, 0.03562335657767722, -0.08331392148405717, -0.0004629670092352033, -0.0805391809731818, -0.0330342247948409, -0.06563297133295976, -0.03581718027151494, -0.07048328394714845, -0.09921220177753541, 0.008889312372168136, -0.022549459107556274, 0.019905658098487454, -0.01616520561271466, -0.020106361643809016, -0.11609588895646178, -0.014012994919449422, 0.01827102926990193, -0.00952330972671178, 0.049881375833932866, 0.0017345212843820363, -0.017982791393968644, 0.02803131078786894, -0.019321622311380966, 0.021195314485154337, -0.017994133023484623, -0.051339557857774915, 0.004558996902202411, -0.03750946391265745, -0.04298349403662954, -0.006261426288808539, -0.09358964524995443, -0.08145362949243609, 0.0014817066124768992, -0.005621802815354091, -0.07624804197468858, -0.051633389742555956, -0.0704585260750998, -0.02262845242749103, -0.14830886556880057, -0.11842414453995949, 0.043271972748856025, 0.01716173948054895, 0.056900183400760466, -0.02257019390931399, 0.02083858816878298, 0.029686644462911024, 0.008737712341500187, 0.004707127588958892, 0.014377913365360645, 0.013291637844933675, 0.019693742004266757, 0.013835911889575257, -0.02543943393236194, 0.006624620238235248, 0.008262894743236389, -0.05715302979793547, 0.047647247858468446, 0.014182443176089613, 0.01925881731273277, 0.0020003085662196455, 0.030294082112600106, -0.0158497629474175, -0.01946101373109581, 0.049457259807800684, -0.056861809730178105, 0.03823585234303847, -0.026156494205985037, 0.004367457089683888, -0.03339978612869433, 0.02157747615458624, 0.009822077804115006, 0.02994800888127725, -0.017672991116667123, 0.06701787970474242], [0.01470294181043209, -0.058926361267464804, -0.0722764217471064, 0.01638912903779291, -0.024141945652455876, 0.00782605852053274, 0.04609108420981383, -0.008243315014161751, -0.032335057344476684, 0.03588437132082062, 0.011632447984174716, -0.0358476703835892, -0.0457600150206452, 0.05130939307942224, 0.03329361034783628, -0.025499278523212657, -0.04841865596307714, 0.017740092292596925, -0.004316962960212124, 0.022445399839416225, -0.049424742414654464, 0.025135917270750537, -0.008317338182373022, 0.02251028791724249, 0.05178250845015129, 0.018977365424926305, -0.01502732107978205, 0.002275559073278585, 0.06983491869227908, 0.053662000043028825, -0.04408048512767224, -0.014198055440237391, -0.028099430382544182, 0.024434003434050534, 0.0027526796996146076, -0.021343427998763858, 0.012659093034368378, 0.0034163562310569077, -0.02357036099110796, -0.0292911970548446, -0.04478707680664532, -0.04420223615989639, 0.01140310547269394, 0.040383470407295514, 0.04097740294686581, -0.060800982612159285, 0.02304467021724248, -0.026890561789093943, -0.01344243335371213, 0.020767411591363354, -0.0068644088485188106, 0.03137477778930633, 0.05293968998780942, 0.018836545539237342, -0.09119250400345381, 0.059644344254078364, 0.02512511006852822, -0.02933786313183578, 0.025458387962009228, 0.026694945704505067, -0.055661970969936365, 0.03417957423149822, -0.026671790109723082, -0.06920823787797255, -0.009479434177335638, 0.04506461073006278, -0.0413824334450845, 0.04581286501624394, -0.019801784613108896, 0.005542473984355303, 0.022734562978746407, -0.07687359339065428, -0.010139770448452708, 0.07000757073681423, 0.0885918220443487, -0.03403842414636956, 0.03234868369632023, -0.006801133247550406, -0.02452400229146174, -0.12087424618507502, 0.041737693620580836, -0.01796097887426857, 0.014467799176748388, 0.01108680741600715, 0.015232880737512517, 0.020348570322528924, 0.005842692574399931, 0.046181313954295956, -0.026466184742003566, 0.01977264786657649, 0.014196777392264815, 0.0385459034471897, -0.01956685367193666, 0.06459952715136698, 0.0589793668623406, -0.008075339401446132, 0.05027150475885621, -0.013349889837893857, 0.06152547873424712, -0.017520480201416406, -0.004587397557975923, 0.0034715912492047627, -0.002570629307223886, -0.038701019292272716, 0.05845074785142774, 0.02690458907625779, 0.06490413397448139, 0.04393980644538732, 0.05074196280311361, -0.007431751481511285, 0.020297761475617276, -0.02634110594358102, -0.00829323547785271, 0.0006470852749106877, -0.01297845993184252, -0.06973285436611736, 0.06094497290331302, -0.03781724243210122, -0.051666777391679915, -0.01762472847481061, -0.05628882444937, -0.024998681031794288, 0.03167488260616501, 0.022467834414861783, 0.004277964943217185, 0.013384969039926536, 0.012520585981957336, 0.055704784104122315, -0.013132019607657554, -0.011309912338511061, 0.016577890919143648, -0.0156312497140397, -0.045687507373458495, 0.026980975995738544, -0.03067634601649143, -0.009596114455135198, 0.03803264226613351, 0.027601441280911753, 0.006734598438927341, 0.024041200450957898, -0.019570992247984125, 0.004622029141174479, -0.05240177928984209, -0.033173848452332906, 0.0019447151321675981, -0.0005381485223465242, -0.03409400907085457, 0.017997877087508385, -0.0024412575892444606, 0.01551253863408493, -0.004143258732718522, -0.008877400878665296, -0.017204244385825462, 0.020201775428802766, -0.03364523514368686, -0.00821135642707187, 0.05986791686375449, -0.019674452540915342, 0.008747244045670944, 0.00984574961663813, -0.026309589770798326, -0.006437100698140995, -0.02647838223750654, 0.01616011507620742, -0.0040989926983525495, 0.0026181074138075093, 0.05865108054049385, 0.021680989678388527, 0.019013966852335844, 0.022240070961769103, 0.025571645665112806, -0.004318219702266233, -0.04236436154759123, 0.014160703550965796, -0.045082138653366854, 0.006180462120553406, -0.06611373249934563, 0.08644755279251848, 0.00519097136013154, 0.01527557912153897, 0.04232843378827791, -0.02399645659026692, 0.014309280118281848, -0.0014876556800824336, 0.004869222981197763, 0.05069900308207576, -0.01174694479390892, 0.022407927046008056, -0.04898909808743397, 0.049415487042790404, -0.00026769889813520046, -0.04454329553752711, 0.03968313226397715, 0.019141760545947125, -0.07957232626163506, -0.03613317652058969, 0.042857505209281145, 0.013634435848002282, -0.04437819046886837, 0.0284779163485436, 0.04430223052881548, -0.012408737813881009, -0.06123629446666046, 0.03793063330765437, 0.08456122447518358, -0.01840605557216456, 0.028286001077528093, 0.03407312260487992, 0.0059211309412536255, 0.012669938505458476, -0.03169618435373291, -0.005254852954820743, 0.021555371595776418, -0.015006291144350235, -0.04588798537455731, 0.011909731976888329, -0.07941156306330202, -0.0006742563406265951, -0.003750785149979101, -0.01141298576000688, 0.01825159489814359, 0.014026802014418917, 0.033063662719079796, -0.059914619091363475, 0.02636730330437465, 0.004889857216035887, -0.015046294727732935, -0.05306735488616525, -0.0617783619204589, 0.048847547585891236, -0.007568905091067704, -0.03825678332782994, 0.005940764194078156, 0.040834697053094005, -0.024754526172457377, 0.05697465352833544, -0.05958536617199784, -0.005965075921024199, -0.00694792780109141, -0.02052940394818704, -0.04007761612117144, -0.06929570035875873, 0.01224268878131339, -0.05469726993371007, -0.04143470139397125, 0.08748502940538228, 0.030340163943908583, -0.05355382095406166, 0.08573517898483449, 0.04832889250273147, -0.020288314969466207, 0.006214953017774859, -0.004792958045358726, 0.01979068667482278, -0.016105234325026665, -0.03911224254257362, -0.002452964132308514, 0.010930524216790069, -0.04658294346893972, 0.003957594265246197, 0.06119978249801932, -0.04201950221482802, -0.018440771504921523, -0.012335783921890426, -0.0028793996127741807, 0.06911693901259672, 0.007412847488517838, 0.016758976021318317, -0.005375419489520461, 0.03281292432646342, 0.002946414305764534, 0.0045498787865247215, -0.02019781635808638, -0.01781603147038787, -0.02880753326714084, -0.018900269548188253, -0.057368091005089016, -0.04983133272811817, 0.002707191176224697, -0.014685615400637455, -0.03270578687706463, 0.023439366539877514, -0.004079965028748703, 0.030567805181990985, 0.044606705200495984, -0.03843363725049836, 0.011816266246699134, 0.03208459964043504, -0.005485984349605282, -0.0012393688486475735, 0.008313067464559577, 0.00971711158557889, 0.03647467404622813, 0.02158881540491975, 0.035847216925729224, 0.0034200499347401005, -0.013283793199150337, 0.04559288980455141, 0.031235526933266294, 0.07119501017075586, 0.018611091803088904, 0.04660036563153006, 0.052378008605419586, 0.05277979977173765, -0.03191031992196717, -0.043852736623522785, -0.01264632016795319, -0.059198203418273324, -0.06346815087065373, -0.01805556985695208, 0.03567279639730705, -0.006103672371220032, -0.002782248680761616, 0.00039235712250483394, -0.01010913120368315, 0.04283959226548995, -0.030929121343620154, 0.026615304716635736, -0.03020322763685444, -0.02512912743900106, -0.034697222285462834, 0.04500406659720373, -0.037743778873862883, -0.005063278932072079, -0.04195181849995055, 0.013410462306072807, -0.05890842132134583, -0.08965164974642602, 0.017369756090563907, 0.02520896295570136, 0.008554245978373788, -0.05375453134305492, 0.028043648934260427, 0.039250190510812334, 0.020728973232913617, -0.06468471850464225, 0.017172231838419573, -0.02957450514419328, 0.022064519879459055, 0.00043785394591555545, -0.01148809394997144, -0.0518445838244031, 0.0449646405696682, 0.0425461338126387, -0.015323375812055772, 0.028691301094125564, -0.021369853298739794, -0.011560492898345348, -0.027323123696746564, 0.007050988437127566, -0.007706630722784412, -0.007641079992748674, -0.035490303175957146, 0.016210813927376506, 0.04842226106498394, -0.029932935303620754, 0.0078124876649190616, 0.018013568144126392, -0.010910109186553104, -0.02889450029923397, 0.038578841246422864, -0.02127009432722788, -0.026490692401471092, 0.04000431552463768, -0.007003054901288025, 0.03817713157785576, 0.0007767074273958147, 0.09162450231429739, 0.03809052556848536, 0.012347381833655012, 0.0011084283490568826, -0.013326430452087687, -0.03415078660235225, 0.0378602255399603, -0.008533033409297364, -0.026468435853793056, -0.02378678050357233, -0.034983625646685494, -0.014719276843272469, -0.02958165377217482, -0.03239374027767286, 0.0526409147139451, -0.04002609481853096, -0.07091540364483143, 0.04806013307337861, 0.02213687545062955, 0.01270798346962194, -0.008039149598664277, -0.0007381579560078562, -0.022421209967469397, -0.06064985236945186, 0.044567175402331016, 0.09308664597383882, -0.01702613896896739, 0.05242302136404627, -0.012298807045071245, -0.0004988000648223038, 0.07208529774592984, 0.05835335018278697, -0.033374643413257216, -0.0072051483603532696, -0.01866598756460328, 0.01873223187572237, 0.04508688423359876, -0.023823113179995473, -0.05348578601777933, -0.0687061850584197, -0.015337927313973581, -0.01738334460090019, -0.04332149067146646, -0.025924552452407233, 0.028243672435205824, -0.050079659129152444, -0.05342118398929059, -0.020490493477315012, -0.06373063175272514, -0.034930844367318185, -0.0071104201849831105, 0.029027144514647114, -0.01682541689051886, -0.005638602652594538, 0.004382462561845937, 0.013669717054849652, -0.043121645290164455, -0.007759698110556085, 0.004891185132057087, 0.06764326800955037, 0.06184210281992292, 0.014579778671475726, 0.04311044873643386, -0.0010426429846309196, -0.03225381605738032, -0.06618153474443994, -0.011251419472402586, -0.004821443380243207, -0.0198634632317587, -0.0325086883491481, 0.03425580800567403, -0.04816532719619336, -0.028930950857700845, -0.050515753018474045, 0.025959961351611032, 0.03196506421880147, 0.029955388728935745, 0.0020898682994729715, -0.041883496730905, 0.021218440394763765, 0.057611211709563216, -0.005450460629417603, -0.014941835245191938, 0.07514722240230542, 0.06700372690244895, 0.03317062902894254, 0.04428259471923353, -0.025278867888036717, 0.009544566183879657, 0.03472158113390468, -0.022658915915309986, 0.0035871116999754604, -0.004396038052814931, 0.02187408803000245, -0.02319293291335655, -0.013212604262022863, -0.009636253391172318, 0.027552866226387272, -0.07912865297849257, 0.013958879220928089, -0.009487849287619924, -0.016401687884064847, 0.023935151048644274, 0.010537497191500397, -0.030668696630440587, 0.020674757384242896, 0.010085427496688322, -0.035192770512383856, -0.01637118663031926, 0.019546590253106184, -0.021991936995364926, -0.027139867298135757, -0.00753012288707199, -0.006664801075250841, -0.09057798446956877, 0.04406577023691494, 0.04121294818825853, -0.03156513643381878, 0.012524175141293007, -0.0068997305096638924, -0.030684996903103973, 0.007653252217957028, -0.017059510419579992, 0.0404362980801535, -0.03329013591270419, -0.03827871412933257, 0.003302692152167796, 0.013961745742079213, 0.05498178430253984, 0.0025705443568653373, 0.07473155676268425, -0.012245427214517813, 0.090915414754042, -0.029025431070024234, 0.052097076292127405, -0.023671902624280757, 0.020866437807172292, 0.04281312684483561, -0.0003583850973938085, 0.03543930325232843, 0.08491206357721877, -0.014523325780419509, 0.018378830151540956, -0.014749905832313708, -0.019826990002265493, -0.002639052060903673, -0.001271022424461142, -0.02311422673176192, -0.05581176910462592, 0.00801009009685784, 0.054462491859234144, -0.025254085667013527, -0.10497879168223236, -0.02925018667369237, -0.0046699937514398425, -0.03456117179096833, 0.024311102895834942, 0.04500922386302329, 0.04758379537253761, -0.04164883005343423, 0.03382008558972911, -0.027988883285184722, 0.032909443088659465, 0.015562585549042093, 0.04397403066283216, 0.029420064088204183, 0.02993276257850274, 0.019544210923967915, -0.010303352238203754, 0.010323289918428789, 0.023144269126664056, 0.0335236370801106, 0.06805033205498835, -0.027078196596993207, -0.01904890392436553, -0.0562161088765322, 0.019748730959903316, 0.01050555779760052, -0.008591831851165023, -0.051188401588826725, -0.05051298369737478, -0.042716476956451324, 0.005573113553515192, 0.012517187603650795, 0.02797531367852708, -0.007175348430712659, -0.0007926353220170934, 0.03441157728456824, 0.03260413078503315, -0.004020651663659147, -0.006677331614219857, -0.04043211334759882, -0.015075709210094752, 0.06556038075440498, -0.005694063321452812, 0.0018330148363704562, -0.025016466347518595, -0.020784836018026533, 0.02782804073767584, 0.018685931949761925, -0.027270337519136136, -0.025415002256874975, 0.07985973746206187, 0.04080212016567086, -0.0037307086858072045, 0.04053912119917747, -0.031669336004352, -0.06641138849492526, -0.0007453834162956234, 0.032086440409771315, -0.0463341345689975, 0.022078532980532757, 0.023693431486913417, -0.05637842955664791, -8.977638490577777e-05, -0.04472653735316987, -0.0211419990262872, -0.0273355299139599, -0.015267894318645201, -0.0517609561456251, 0.00016147536575307863, -0.03016773330888724, -0.04445722324378827, 0.025685376697566483, 0.004806062439763907, 0.07120975029478377, -0.04741087161762899, -0.01214920312488887, -0.022200006972763326, 0.02814071739778093, 0.09533777869301586, -0.049970511147647396, 0.030159596531052057, -0.0498800656619927, -0.034510055273498895, -0.053209135524310315, -0.06566851764622443, 0.013620543750852022, -0.02636607883123376, 0.04593598860972743, -0.027745080050268878, -0.03797957064953545, -0.018694968864100086, 0.05949370343103621, 0.04349216716430474, -0.02887014494298879, -0.04431958282897376, -0.02330370653029656, 0.026972302771509128, 0.0006102682054300321, 0.038511481327886975, 0.0015234468199416104, 0.04179508937377229, -0.031180565100835802, -0.0012553474666766012, -0.006778813790391301, -0.0354836943896658, 0.00861074328322654, 0.0171270718673621, -0.006161133122901945, 0.03460457546009226, -0.0027186872535297536, -0.012738889889269522, -0.06387902547904653, 0.004467044947318166, -0.041777631380422516, -0.025733474851156048, -0.01236345021752321, -0.007401260966186713, -0.023754588940679073, 0.01923285579877212, 0.007692460321666763, -0.059174346681164856, 0.040452912262896455, -0.04165881708276125, -0.06327991345595485, 0.01187372759246971, -0.020922673228931463, 0.011928873285287824, -0.02068152692896862, -0.07808001542113432, -0.037935706770811865, -0.06859917334492417, 0.012706854399406248, -0.0015390606436460027, 0.033914348751886356, -0.0004324791062483891, 0.009357637367393154, 0.08641314565095974, 0.0830395403585118, 0.0030645767304276934, -0.05290804480116217, -0.023886858070014536, 0.018203313809830396, -0.033420162992994336, -0.04773608050962196, 0.009908880486305635, 0.023016731519327295, 0.052451802142678174, 0.014171815732093496, -0.0012955375181848904, -0.03466295033716648, -0.0003935204772537158, 0.01276810354064779, 0.026943050806237292, 0.024537827727961304, -0.013651483101013296, 0.024657679204208353, 0.02452007752133078, 0.022594831066905234, -0.008610337602661574, 0.041673765921708204, -0.01743807012242588, -0.08339387041863669, 0.056328423525210926, -0.02024394696958376, 0.05465342007069537, -0.03376050217903488, 0.0368072544258524, 0.009251171845141622, 0.006025017298391456, -0.00325857766457545, 0.056875896830013546, 0.029024678276715395, -0.014592524889699273, 0.036359505432920776, -0.02206014300004822, -0.09864110902078597, -0.04571707192189655, 0.019242749246054156, 0.03923844512657857, -0.02246077951321799, -0.022618312996638624, -0.007190965694084916, -0.008805957134247597, 0.0287840713259535, 0.005632823620882647, 0.02052177962502043, 0.07024511012238946, -0.061592315219093544, 0.05311460803573358, -0.027515797071674394, -0.023151929753413965, 0.05272249635565921, -0.045203863912275564, 0.0460492336990321, -0.011473796124453272, 0.06358234840141724, 0.030585955176850137, -0.033533925540716845, 0.016696236905860588, 0.00040199738897841254, 0.009690775272472679, -0.009331386971513226, 0.060421128675152376, 0.03862575512713049, 0.016767370739519883, -0.003984614241598204, -0.005824955958836075, 0.010381412448923094, -0.024623827016614804, -0.03734641224013407, -0.05807019485279502, 0.026433906482193438, 0.030122742010291102, -0.041054258833610136, -0.05949325856494146, -0.00625787122525515, 0.001198175422393153, -0.05755178853996489, 0.04964311060225856, -0.020610021489557317, 0.03616307985597004, 0.02364609257085407, -0.006079217548237657, -0.08783490761725732, -0.0030389586440179926, -0.06945171708154811, -0.02884497160936517, 0.03190350223425074, 0.022765799810515065, 0.052314090269852384, 0.04912267365392971, -0.013606948687020531, -0.03671837047242627, 0.043478745874557224, 0.00532880661717572, -0.022666725872175768, 0.018948771185934108, 0.04682644401877003, -0.027816131003876976, -0.03909642681450394, 0.009365247484683497, -0.042590613395108126, -0.034152940920278485, -0.018551067639610067, -0.05001096425653756, -0.021230755180075025, -0.05513296239030735, 0.033116971137236065, -0.08278404667953018, 0.056526425279911745, -0.03377273576730173, -0.05123285022185496, 0.045631946395693075, 0.029248042919665457, 0.022934517321170834, 0.02757223024760405, -0.0015833128076305374, 0.002301221253670334, 0.009780813918137708, 0.0027930106183167536, 0.008526496236104584, -0.013153661654203808, -0.008322416460647677, -0.09495793973969201, -0.025308268659313477], [0.0070375366590652395, 0.03346899628276585, -0.002891776855607647, 0.010733838536947805, 0.04479314300096594, -0.02513333848326654, -0.0343783569364427, -0.029077875268813613, -0.015873959831307776, -0.011197407438181503, 0.00730085558064708, -0.017979917082468235, -0.056560238755983164, -0.039934105787152986, 0.002311737385302533, 0.009822577508583702, 0.016840784581300377, -0.003568206852714507, 0.01190280683736246, 0.00016751368913530185, -0.020067093331494062, 0.051467675137966816, -0.02563626158576094, 0.020620494870519486, -0.029419544349701017, 0.014386813907797774, -0.024252613927873482, -0.032794620332893556, 0.010539908226476295, -0.02468661878464121, -0.01487679551170113, 0.03306939587202205, 0.030704280195625242, 0.046190185730245796, -0.016783654224035126, -0.018572553687583895, 0.03306428134842856, 0.004881349346798252, -0.05971936521418914, -0.01610798715009428, -0.01834684281036863, -0.00810505109827398, -0.019379676887936143, 0.03513837063791967, 0.02006629398509715, 0.003124158860530067, 0.03526935933616012, -0.029717723868562668, 0.02257496337250834, 0.049721714033463385, 0.017061672502990635, -0.04139780103905667, 0.0038425338023848296, 0.012421107537898966, -0.04203185495059502, 0.0248613531749396, -0.05666516617216073, 0.03498179676724305, 0.026662317888361927, 0.020934673333382392, -0.019875884551076462, 0.016557358928984776, 0.009617185333657933, 0.016198214169776265, 0.009277209965705167, 0.042315709492554, -0.027408773915542604, -0.04741815199384126, 0.006304199899243469, 0.032716609021971876, 0.04421701574713528, -0.0714597472523323, -0.025378220260455765, -0.0037334422483554083, 0.024209567206930023, -0.01611303472203158, -0.013535755485601143, 0.024626130432882278, 0.053226890362122706, 0.017869947647744105, 0.02792572552659142, 0.0009103735641941424, -0.03148159196874243, -0.017924266745831894, 0.024247087468209465, -0.10991228118515814, -0.044103158941248465, 0.017406872472200446, -0.008916657670036533, -0.05140246772567409, 0.0506551799131949, -0.07168078644441588, -0.03481411061532522, -0.025179620830096124, 0.015307458803467103, -0.058576687438770536, 0.012640068341789207, -0.00839098237658723, 0.014544345700549785, -0.018925887577869595, 0.03558697978468368, -0.042641195740866444, 0.021418137599145123, 0.023708734013332584, 0.030027859479696127, -0.07785226638060747, -0.0285416319409923, -0.0005431465941048678, 0.001178730489716965, -5.605849393604711e-05, -0.02938569263408764, 0.058995139556602696, -0.010148565230438973, -0.008690776355621686, -0.014881145520330295, -0.0526859597567012, 0.0020235223102600033, -0.039106136123697566, 0.07124592172298731, 0.024764422886873697, -0.0338539019392191, 0.006281947384608945, -0.00046896245119283327, 0.05233591601767752, 0.03043220421294432, -0.04446116554192437, 0.07658708384696436, -0.02412953006502393, 0.04282306816628133, 0.0019956642241854227, 0.02830560661993573, 0.03412370808362909, -0.01574638132719635, -0.0014430681308453621, 0.014692520954788336, -0.085801449006241, 0.0654631091714106, 0.08539239504459449, 0.026359536208623722, -0.031380630707616895, 0.021397894341969616, 0.0029867256878298937, -0.022055129085262287, -0.015590259869572017, -0.027444330457748165, -0.050369177289767135, 0.013292752391512728, -0.09024775665579945, 0.008243805271895955, -0.02248981618801254, -0.018357740859956468, 0.01250768610741163, -0.009223045862504952, 0.030981335240619357, -0.014906024748416843, 0.014845789584142238, -0.00984976538226745, 0.019960134217427213, -0.0253095159451908, 0.09381229479475679, -0.03203136263901699, 0.07516841818704134, -0.045436023039529, 0.014059359889859404, -0.03735063735458804, 0.01055006666113634, -0.04229751834103991, 0.020243184445704967, 0.027432222242670605, 0.004642314392543986, -0.01268413989734955, 0.043660475633611744, 0.08734846650061866, -0.0530762778533269, 0.05053799608515056, 0.008405404812867048, 0.06700692588408234, 0.00044551791898291254, -0.04822302868583418, -0.023524600186954375, -0.00857833329349795, -0.0003734754568129919, 0.059820502504914316, 0.00860820657113214, 0.03625777800673539, -0.06024012846863954, -0.031646258543962705, 0.003680008630096139, -0.04343676794548212, -0.020037421647307353, -0.0200988444086887, 0.02799857443750408, -0.04395467581564271, 0.03885854594281035, -0.052188403425432836, -0.04051228329001223, 0.02083071856906798, 0.015579847218693156, 0.005745324357433363, 0.010078203238447795, 0.02542412019172659, 0.042098539661424184, 0.05665229241584548, -0.07468238702649248, 0.04293647020551565, -0.014703067134512944, -0.006249095231407893, 0.014347220843955816, -0.018631588265732656, 0.03829562074123129, 0.03619276900490547, 0.006614985574241768, 0.08852926449746348, -0.04312391672909894, 0.007784841493743039, 0.023165135403174966, 0.006789749270697626, 0.07573092962687944, 0.01796587508628311, -0.012992106798450071, -0.00032945460703186745, -0.06642498124907223, -0.0031178804537354446, -0.011398964276483401, 0.044129702261957796, 0.03082536386117627, 0.027209131885115007, -0.011916021748463271, 0.03571392942357874, -0.003132086217727379, -0.011723971747016207, -0.03995496561980209, -0.05149105232861443, 0.0023805807992072834, 0.0021611528816985735, 0.018847212013977235, -0.024397889504990604, -0.020019668535425784, -0.0655803881514456, -0.021661208007390586, 0.06940388195117085, -0.00970337884408055, -0.01793739611535945, -0.007265100001924024, 0.03206845517066799, 0.04021594223713081, -0.016664299218770308, -0.0019674113537063278, 0.03549327037556159, 0.002900466779432683, 0.017093404140114555, -0.008735009750374277, -0.06983616082974337, -0.0026473314722907275, -0.01881443642350855, -0.002587649197182659, 0.01277992391148675, 0.09296861359363466, -0.07841672587607966, -0.01965568380984481, 0.025007576064349522, -0.005798238079357805, 0.008623761875801573, -0.010612048505931537, 0.00581823884179654, -0.0026505758325223263, -0.0402540357107999, -0.021643563119190468, 0.023098680917766606, -0.0011359379322553379, -0.03644713219028627, -0.001571451071743908, -0.000956681042406037, 0.022322583332010586, 0.0264320279151991, 0.005468560479310794, -0.020498501142894438, 0.023758897151997194, -0.023113797940436668, -0.026612030237986393, -0.050006174681692044, 0.03763404674413233, -0.08013826879296089, -0.010312413446736704, -0.014003150897602122, 0.049439435404665985, -0.03237704474302214, -0.038179215833092486, -0.012855049633073268, 0.030205584852891525, 0.02798504198319472, 0.0032552168291703847, -0.052929215773307524, 0.007884636776913881, -0.00839027850071722, 0.04926995272374173, 0.03719960550245529, 0.04110605766230146, -0.04406722078287449, 0.03053647322121249, -0.03025903718414203, -0.05489731625232051, -0.015021916015608686, 0.044668536216656556, -0.024413132719089882, -0.01964689930526153, -0.059249595758418386, 0.0864287331718383, -0.0038014947582661464, -0.007844383057465357, 0.01911602288171443, 0.03907821613272157, -0.03100098889246063, -0.031128786250947775, -0.025859182518450742, 0.03517136538870775, -0.02328912353769484, 0.019753057691165, 0.015939940385026313, -0.06836609365349385, -0.011464349831827429, -0.028592821724654233, -0.09973736759176191, 0.0206645080969515, -0.0015151561924717394, -0.01307181663136985, 0.016037084286416082, 0.05533867742294043, 0.04492741317418941, 0.05237796739178304, 0.011941028577364846, 0.03320391277754812, 0.044221483539049186, 0.004367589294604874, 0.02709388204716492, -0.02959865471929559, 0.006600915167537018, 0.054040097138565175, -0.0418085555046734, 0.013252856851758471, -0.03571488982177906, -0.050903371591576096, 0.02775978567435982, -0.01759745108584184, -0.037983025017325846, -0.1169446767846605, -0.05458252129717428, 0.03366089934620905, 0.032458836509898954, -0.009815813788676159, -0.016139653927533745, -0.0111149244762977, 0.01510919555221091, 0.03956923984997971, 0.025017076619830773, -0.014015091735216341, 0.017944125400721763, 0.013368846653407708, 0.036098631212630086, -0.048450609114040935, 0.02960631021840266, 0.015530545476315053, -0.02328521987845577, -0.04342609973938367, -0.029799147769247896, -0.042835788740037684, 0.016133596862206247, -0.06914336228666369, -0.002185524792128958, -0.02191100648589317, 0.005766721735739782, 0.03563910581778815, -0.039988552003634804, 0.04074149961851682, 0.04269818727965403, 0.00390425214235138, 0.041080996324003305, -0.037792798384923734, 0.03529591766131095, -0.04342482174864217, 0.014069703562801798, 0.02158517027511569, 0.034432904012884416, 0.029613347942336322, -0.04381144815421051, -0.002917334803236412, -0.017211985717768802, -0.05766207991894013, -0.009773747385588932, 0.04214715146814409, -0.03491046677551746, -0.01902464911763704, -0.02408385664555827, 0.001569243309607018, 0.010183737993733571, 0.040542891759537826, 0.03792080856424428, -0.023253754258156477, 0.020123146839453255, 0.053328794583769816, 0.01538265862415421, -0.06620778325315162, 0.02502267878837011, -0.09902181863853211, -0.028090179830417165, -0.031026524903215506, 0.02932558137548515, -0.05489415841992003, 0.0438505460567805, -0.009067283172008814, -0.0015162746671886684, 0.010097616687110166, 0.06766311509055888, 0.0024022315433626777, -0.024041196226628585, 0.012608974817559317, 0.01751929685900035, 0.024571372786962514, -0.008173459528423854, 0.04366594824359414, 0.007683822620613609, -0.015234391706876215, -0.021220320242768702, 0.03774499331064956, -0.030062623161379476, 0.0495974375532635, 0.005961980357834719, 0.06605754900962404, -0.019993596577583213, 0.015132767226582121, -0.09378104787363596, -0.011915129860696542, -0.006202169918797099, -0.006824640652697357, 0.05420140998356835, 0.0657817440658156, -0.06768833538468293, 0.01537320450783954, 0.02825319351229922, 0.014126231053313643, -0.006363054956775834, -0.03834828360968419, -0.0035195312204945395, 0.024890067532920907, 0.08184640584651504, -0.024513053348646008, -0.025288041913757314, 0.0005681152946406516, -0.002221315836599469, 0.008461389887457267, -0.09084972133380893, 0.03098255018623228, 0.0005705404097330434, -0.004932816606050751, -0.02949989759052644, -0.0005460192812750499, 0.06395456043257429, -0.031971586623796074, -0.04453769408189988, 0.011611023327252836, -0.011087498315329349, -0.007453865867334833, 0.023035822310848313, -0.010920043361466536, 0.048593597630393406, 0.005173529267561874, -0.01625497487101376, -0.007251815646453978, -0.012895601789189054, -0.0004529926021425412, 0.0015073167687839858, 0.007678365988330381, 0.01830326743383636, 0.011314990673740855, 0.0546193102990123, 0.014565297192288482, 0.014653309059785898, 0.0645121135203943, -0.08495202341123832, -0.026311965051305397, 0.03196386196973989, 0.035939819482470395, -0.040925286229522066, -0.011893090120060703, 0.05778294109519531, 0.05784499679425998, 0.021570233695972104, 0.03296421003945508, -0.01598645229436515, 0.0287137256268724, -0.00249836749086722, -0.023499233932289667, 0.005191210924630756, -0.032051668872292376, -0.032387938984664154, -0.003405273162599997, 0.0356755442042518, -0.03737147000202886, -0.03954822074490504, -0.005423920407977622, 0.01676974735878506, 0.009696634005434754, 0.024192948378565525, -0.0013865903250961718, 0.022387806314631553, 0.00430877588842314, -0.057406360225287334, 0.09809819164499141, 0.022009187841342835, -0.04553957764165083, 0.040367464767975016, -0.01772930246096902, 0.016921501286597706, 0.043228352495527866, 0.020427212185014542, -0.007964778247550017, 0.028263191661271996, -0.02309434993724164, -0.009310725177197313, 0.025230729062629714, -0.013275830643903544, 0.04118672530915348, -0.04967176111279482, -0.009216047001099511, 0.020064498248286777, 0.017118857047280195, 0.04978063848732167, 0.03482699366543479, -0.03430155884006834, 0.026105289176774914, 0.01789517587865705, 0.029484665528156463, -0.06181528699191617, 0.04223654293830761, -0.009498398501952393, 0.013557922306389079, -0.002553135271844313, 0.0003858740761192495, -0.0344173375515776, -0.056274192936287944, 0.0010915449500282473, 0.00356167685585769, 0.014922812607912584, -0.01471431544586388, -0.011439082483082536, -0.015264163144959056, -0.014764450118479816, -0.04051833367720488, -0.022116611978816487, -0.023894832649293752, 0.06891957004683866, 0.03672588128435569, 0.04075255774997328, 0.005993241899847333, -0.03258708907674326, 0.011939315984881524, -0.011730365437451916, 0.015712233327665706, 0.031093264242307548, -0.01790651307171699, 0.012316711970783684, -0.018014818308897593, -0.018796380323258817, 0.03777250716422152, 0.037811383971435755, 0.04327321490682244, -0.03533542109623546, 0.03219502959018599, -0.017255413991022685, -0.03494248149658386, -0.03615283627308587, -0.0003595833634999223, -0.013885570456722009, 0.006025413443161103, 0.05263904472953155, -0.016040468353308943, -0.014201700459241138, -0.025130633395829344, -0.019247383372705863, -0.059729594034216064, 0.05885886099601828, 0.08414777286984565, 0.006994082930125669, -0.05410936507800033, 0.010165760661339474, 0.04800880660318142, 0.021352965645016996, -0.02466771106419475, 0.03271701291857092, 0.02862159732831352, 0.03399094684919266, 0.010953429418674821, -0.007035875190734109, -0.02190678309053182, 0.005094573838927503, -0.03156733318478653, -0.002915483537696856, 0.008861969285175195, -0.025972786871101643, -0.0002670104605833578, 0.000228007223163364, -0.012005676433228071, -0.012841077360584518, -0.018853836510886044, -0.02244901588349729, -0.03246318155638604, 0.07275078878886468, 0.003636054482444712, -0.045400704111678965, 0.05137411354813683, -0.03176866710550287, 0.013159494701952915, 0.0765648118470457, -0.028598006979046967, -0.03161008438008985, -0.01755602489262296, -0.07131907114061191, 0.002521585354692091, -0.05973651646492102, -0.016418367662559878, 0.036800152670100665, -0.05423502753566656, 0.0059243806835602795, 0.06683512919066233, 0.005797061143054644, 0.002497062925391803, 0.0843658876202827, 0.011577558311896276, 0.01350371759338618, -0.022351251151734815, 0.00874375450060595, -0.001694943190307715, 0.03300136789321159, 0.02404094653813209, 0.00042149314088730025, 0.028078429544772455, -0.012450335571699975, 0.03119271821299074, -0.0049225026469143455, -0.04828837724980538, 0.02300238067800831, -0.07162946931311055, -0.012616434414466405, -0.021529682409573175, -0.03469613472681608, -0.01556802475256012, -0.005507745049478724, -0.018984570149151375, -0.07043460130161802, 0.02597728529899517, -0.012283063527047904, -0.012496385277985305, 0.026469108872173835, 0.003403580077526264, 0.02146023343513186, -0.026931385181234998, -0.010750719815822086, 0.04249359603635374, -0.028607622634930222, -0.02104626730864259, 0.015640237175420013, 0.04354607264539067, -0.02090760210165287, 0.003802038958275671, 0.0007615586447144799, 0.0008541618534931058, -0.07171771627232183, -0.01869391387084036, 0.01924280668597984, 0.031874360086468795, -0.020194366137368264, 0.02029308227172092, -0.0562314593901889, -0.04667270189075196, -0.011032835224360386, 0.002243014346044368, -0.009101922625352105, -0.002085425144964874, 0.002912797209071473, -0.050762252086813994, 0.019951188120748548, -0.03583144449617263, -0.0072221332085684944, -0.03328212391955502, 0.02801745392866078, -0.008991424334936497, 0.042870251474015846, 0.024880193089314478, 0.006070686977404919, -0.041466456775157576, -0.01586142090699887, -0.03394765599154524, -0.01038555739570072, -0.03796733744458463, 0.027510434854450014, -0.008446085595600648, -0.009659070687746008, -0.018176306889404654, -0.03124489034686087, 0.07326333914760504, 0.06129793256549887, -0.0006353609068343063, 0.10438595837674368, 0.03890525424191355, 0.023068544682758957, 0.0031627990792939403, 0.06285391066807837, -0.00914857150074134, 0.0023611460727740704, 0.01926611091949385, 0.010807695277641988, 0.02287769037315165, 0.03452239798242624, 0.05018750167475553, -0.01780834884025885, -0.062499745703891496, -0.05875016975741607, 0.008043287407438583, 0.008033619865868664, -0.042414022725870505, 0.005560072199203163, 0.020903849055991148, -0.041522719404721686, -0.048556020130675684, 0.05078602868540168, -0.001701156459772165, -0.03642881881715255, 0.04887638658009652, 0.033837493410808925, -0.01115575765149984, 0.0033205970839145517, 0.0069899918930548715, 0.042757915862503396, -0.0628235507943356, 0.0054317635019407945, 0.03591425452556513, -0.04393995286625065, 0.0198286042107181, 0.006537398120002392, 0.006844144086319837, -0.0020527210515197693, -0.09962720772764229, -0.00914827681432293, 0.04597230365767003, 0.022487650763935777, 0.019710446915155326, 0.0053469069880782176, -0.03531151279802612, 0.013096433843880538, -0.03281007111689377, -0.02507955213901398, -0.037343886915577475, -0.009944741485316577, -0.0861032158656978, -0.0332910418183728, -0.027336000415594152, 0.017412462596178818, 0.01628497303450661, 0.0031373509093599525, 0.03987167639180583, -0.028647714094052267, 0.011327349894984533, 0.03696755530337432, 0.07645364217595996, 0.016100896255983328, 0.014688012286803775, -0.013454335794524517, 0.07207433186896497, 0.018059443124083085, -0.026315000602332664, 0.007406385057638554, 0.022606473392023284, -0.02123287297625848, 0.03517827395531512, -0.014287644902328237, 0.03262747900517924, 0.01732434310010061, 0.011094974153566651, -0.04345489216163676, -0.01979150210116035, 0.021347747306197765, 0.023851699102085483, -0.03319161385138494, 0.03044498778625112], [0.014346803355700986, -0.012743447475401817, 0.01868571020682258, -0.014525751047685508, -0.015945745138236957, -0.05763625388806006, 0.015160680541654042, 0.0048430050348878565, 0.049686985284821926, 0.04412040777088549, 0.042569030407275776, 0.022576890170601497, 0.04413476963499496, 0.05041363592044438, -0.017909448464083794, -0.07251269466032421, -0.00860706332722833, -0.05045469062273724, 0.02516944719412098, -0.018884423660812673, -0.012320186779082415, 0.005075494012824594, -0.027934008683748703, 0.04534633966251726, -0.029531407046411235, 0.015023464870158279, -0.0029820229267013094, -0.013561396174584382, 0.059025004961637026, -0.019575173076111625, 0.024293072800745674, 0.013741468129197704, -0.015112971356175349, 0.04692761348480079, -0.061428085883177004, 0.02381612063911406, 0.043045490319984836, 0.03301480274484519, 0.011924123685179578, 0.00036610993071268936, 0.05572524089951514, -0.08972861329940394, 0.005207329793791113, 0.007556823857896844, 0.006122340806873299, -0.002792557915802744, -0.01505413038496993, -3.73436714064014e-05, -0.032058267875007804, 0.03322642345671764, -0.03431374454888703, -0.0003408520775430078, -0.04037366289376289, -0.0017640159607710056, 0.013681882419129229, -0.012670118534046875, 0.07565429355236922, 0.0017763930318446116, -0.021368081457884623, -0.054383447313779906, 0.0458755793698372, 0.037521404484665864, 0.05448984107847043, -0.018299471716326888, 0.030097949516631334, 0.04680721719742583, 0.01841061224297717, 0.09565394051919592, 0.04576532096282318, 0.04839213959168771, 0.015496852829678836, -0.03280618252217177, 0.07037861347496988, 0.0922791393329728, 0.03719127839361209, 0.07599707062143998, -0.021098108615415268, -0.016855230456527048, 0.017534484588640663, -0.0518411628801726, 0.013425717870073938, 0.007390942923570732, 0.0018160194587531814, 0.014205010030937004, 0.03875185704442106, -0.0037110810478965537, -0.004914266584331388, 0.042684915464999584, 0.03835936185903459, 0.017198868803915097, 0.09141895711047818, 0.03258966105230578, 0.07446074562002207, 0.0056442951075865, 0.030192099303197547, 0.07488957107291705, 0.007122925211131543, 0.06492658364456447, 0.017721497952700917, 0.07324142667914672, 0.02817222376120784, 0.04418135154547485, 0.0780988215407032, 0.04759342964313224, -0.0012842936489622077, 0.040385906984984905, 0.06393345108022845, 0.06129110425577884, 0.07582850530130907, 0.05730852923435923, -0.025019823048208007, -0.041056004738522216, 0.009593886038035706, 0.052527142846584024, 0.0343395710958836, -0.062298773344963705, 0.02801307792489318, 0.026489715276102305, -0.019186486837870977, 0.06358814377598997, 0.003933385073922337, 0.07743846711950324, 0.03192168430720926, 0.06740389632553175, 0.011161713582507705, -0.005486462381379128, -0.028065725597320446, 0.05980725172359539, 0.03254565049902449, 0.03947877349399852, 0.029110934515362438, -0.007750302609277402, -0.0005192010038420113, -0.033789312652003696, -0.022627796911528206, 0.011408967420628434, -0.02149770017141665, 0.013401278292974788, 0.04602189589926163, -0.026166045764523475, 0.00024325295841041883, 0.02833904358555538, 0.017183900583224696, -0.010766276932223985, -0.08829067658725055, 0.031502648797029804, 0.008674580277513647, -0.01338432708348758, 0.054670456037082454, 0.010130237452965892, 0.09945851214596609, 0.03745988815858244, 0.04866348339213711, 0.06290036093960763, -0.0021350687234301586, 0.017012121109042478, -0.015917433842615722, 0.004583682818397768, -0.008398771246066358, -0.009367670802737723, 0.028801471007444724, -0.04612420568412843, -0.017481716352267133, 0.013999391044492281, -0.0067547679744545406, -0.01938854290431032, -0.02509066972320971, 0.011012589135144302, 0.005453636279964026, -0.03159588381825138, 0.03053714625930036, -0.05220124323496004, 0.020363562896067812, -0.004557300937436789, -0.016978279032437007, -0.014086598215376325, 0.011950646595553487, -0.033522188895249126, -0.014585228052009654, 0.023849616926886176, 0.042348094896725204, 0.0072137344973958635, 0.013650376880055394, 0.04736123883166741, 0.05411716668094203, 0.0036130966662961915, 0.06888912894067463, 0.011361000778293232, -0.012251740823802287, 0.07273758761593657, -0.038563420724897664, 0.038575122878484414, 0.029047390091271563, 0.019162956043891077, -0.040776786583853836, -0.05181294960123333, -0.003477898422267186, 0.029903598185780273, -0.06982232917583024, -0.010662233361893004, -0.013831973464238118, -0.030660491318682318, -0.024154273164107093, -0.04412341055246581, -0.0017077521852907078, 0.0004808906263997174, 0.009604651321427753, 0.031190428555137647, -0.01815732681847637, 0.007747927086438067, -0.005031341071559984, 0.012346959656201176, 0.05224534425269491, 0.05700907208828978, 0.054008836234980984, 0.03865951862358049, 0.0073951564471344735, 0.008190679823077637, 0.04106845329518523, -0.045607059919935855, 0.07212768206177592, 0.024976915049562152, 0.018628490082439428, 0.021332465529503845, 0.0009586501845942389, -0.06939274945542613, 0.031836362925370974, 0.002679266250415876, 0.006523379983135162, 0.0395335122480964, -0.06741886726913406, 0.035735901546771316, 0.026732666333820817, 0.09088575404355365, 0.05746218822355059, -0.0002637952139853511, -0.0031163565961380506, -0.011261186549507732, -0.0033263264302466674, -0.029810639457360188, 0.052352741569839246, 0.03397206548961376, 0.042416244943930204, 0.004340434566173022, 0.039608895225709304, 0.01655874846473917, -0.013244626265742488, 0.06610923739976096, 0.047900854749340416, -0.0022554548800490693, 0.08668277335537462, 0.02352201158114434, 0.05579664137003465, 0.03240882473717608, 0.011044323152873495, 0.061768864492086094, 0.002750016896448114, -0.037742328654145715, 0.027085910847824777, 0.008619838521834226, 0.014426546584295274, 0.07871909750665156, 0.055751892313168086, -0.05353133193330419, -0.03987881168504884, -0.05829937378985734, -0.02334114211272641, 0.005537339004529161, -0.008431172156902715, 0.012355550041459875, -0.014082824667758773, 0.08131531644944699, 0.06556137132857781, 0.07132271195760873, -0.0002953979485278036, 0.0526175497119356, 0.04407265573963007, 0.031713572518325274, 0.0037407259187669253, -0.0041972386396627644, -0.023680088236539262, -0.010513500737524559, 0.026451464857428983, 0.04766190263835028, -0.08003141896340218, 0.035830390468608996, 0.03619598906012608, 0.030284623666497975, 0.07155125313526997, 0.054664845254173484, 0.035682175319432304, 0.010296119492060595, 0.02286644782250416, 0.03569953518100876, 0.0011118005699572396, -0.017656154860607603, -0.0674030134093846, -0.00537417766718795, 0.07125639226244361, 0.00883270049462496, 0.021111496850083105, 0.06405897005590495, 0.042055206190487984, 0.11608883124442707, 0.05943505835832088, -0.016951755046405757, 0.02636158006236834, 0.045843601247245895, -0.023329851722712836, -0.0631180057508396, -0.03818404949825405, 0.032660475138707123, -0.016653804488186916, -0.006197104515806886, 0.08797632018401244, -0.004753439991581905, 0.08756351197169458, 0.02930177500909114, -0.0164121297615044, 0.043639884890223336, -0.04072134785501962, -0.021399700852262196, 0.03274073970721865, -0.03829269845219202, -0.03309029885787738, -0.03481146745656239, -0.06676045257411212, -0.018922808332570155, -0.03443775809754093, 0.026282447031127268, 0.01491458113135251, 0.08777709682028699, 0.09901001151871983, 0.03259226723838544, 0.03579461269082826, 0.013218322685652222, -0.021723315759412706, 0.01231779406721001, -0.055572724520187085, 0.02802793364460626, -0.037528732100370894, -0.00700791413368731, -0.02087109033052438, 0.03895519832496012, -0.010349730908887406, 0.004042942042377069, -0.015842982856468634, -0.03924147472829913, -0.05189402157976286, -0.007000329474564482, 0.042825111344819033, -0.08339822708052276, -0.04864925544482774, -0.06263422149952994, -0.0805682255830213, -0.006696897250706464, -0.011805165430961455, 0.03245064864109701, 0.029041470860186085, 0.11626077161402273, 0.07528002633733721, 0.004981876390377104, -0.03684887387173373, -0.04407656251281864, -0.07582606155186995, -0.05080207399426946, -0.01861846414197286, 0.012210354758928033, 0.06257113306416912, 0.007483115015112059, -0.024346458285902692, -0.011917988664973801, 0.05911369520077531, 0.072329248227775, 0.044948947919992, 0.05512104537857746, 0.03103769621233617, 0.11704163790197301, 0.03945865037469306, -0.08819367842031556, -0.0554588685238515, -0.05705648450110322, -0.005846617889974316, 0.008499153195245773, 0.004542194203569082, 0.04007327049889948, 0.0766146858937352, 0.11898536075701943, 0.07300484063612929, 0.06003679825784756, -0.055340920359742786, 0.06838146928356649, 0.04644963893110065, 0.013789034066856144, -0.03234016113194931, 0.002744830836796985, -0.01992432664417103, -0.007206841672780706, 0.024325152176128396, 0.08460256409221013, 0.03418100176679509, 0.0489735454633806, 0.04356856716652491, 0.1048484211624264, 0.06789732470619897, 0.12870984708100386, -0.06383267685774324, 0.037582258468973534, -0.03761501056945484, 0.035665639635709664, 0.012624120954727954, 0.00027312308383974527, -0.0015449806970968035, 0.004096544989363005, -0.0022692853297933573, 0.03464362001465108, 0.05303520647918784, 0.060429996075457265, -0.0023968756719195124, 0.04197115440539676, -0.039350909160331356, -0.020441167298132997, -0.019619602640101864, 0.018677401699207244, -0.004679789324118692, -0.022024499573528065, 0.05550917340750881, 0.05219791425557959, 0.0016040615831245757, 0.031191406697261597, 0.07927787785568732, 0.07493920570668962, 0.07283269345200423, 0.016670361956866747, 0.00883958345813052, 0.012458510093269667, -0.07120260490038927, 0.0005614018328607589, 0.09048429154324925, 0.046329175994542726, 0.02806776988240982, 0.012805928249461914, -0.0014719814063380802, 0.005573586174347215, 0.0990586495822798, 0.010606910347845824, -0.032090800428655586, 0.015282086862999162, 0.03578799306267644, -0.018360552419835894, -0.032145791773324835, 0.021512810079480756, 0.03188655067653122, 0.023733957129309164, 0.0035600457828875486, -0.0014551830559946532, 0.05023778355022744, 0.00559226760932888, 0.09013525947603199, 0.055301562653410095, 0.04984479977618087, -0.052131231553285584, -0.0075799727578078225, 0.0013952984255433652, 0.032719279292135486, 0.06593131863768037, -0.015170843769933018, 0.004240337835123364, -0.041613740766975826, 0.018116233554667044, 0.02573588153988381, -0.014022348771242208, 0.03172896425596002, 0.05099056988477949, 0.0468574213892109, 0.022801316684744694, -0.05237652642496538, 0.03420629621186196, 0.03925555202129187, 0.0332307622184109, 0.00889624533158954, 0.004904663978821528, 0.003799893089412331, -0.019626297168392277, 0.024465965825422216, 0.013524487355625205, 0.033600337448860096, 0.032899636643773884, 0.006619166500484078, -0.034770702164276884, 0.0007190647187212162, 0.005209684917524921, 0.026127905893185168, 0.004609257643772891, -0.003954540927104996, -0.01405645248728897, 0.0768256974575192, 0.008899261775221382, -0.013578351430489608, 0.05466555136492811, 0.04581616792427899, 0.08865322426899344, -0.00016529961271457172, -0.01410792378109637, 0.00012014113278365835, 0.00921264278335818, 0.0190744186372866, 0.023396759975334296, 0.01737050486507921, 0.0010436132011582215, 0.09098819623244499, 0.0021975907791598357, -0.0071599082842740466, 0.05223086557371575, 0.176061627485156, 0.09789904001951799, -0.010016311520759722, -0.04359827644686541, -0.08419778049844218, -0.0592338423612875, 0.028102599170474772, -0.00029522658241768656, 0.0067493329405345975, 0.026682897261213874, -0.057609994121408326, -0.010431099655176506, 0.06315403213480648, 0.05793002231198139, 0.07511723743204553, -0.005007671205900183, -0.014974067721801057, -0.008771564669430361, 0.046146504574623166, -0.03747260312653743, 0.03717082370430491, -0.009575382715630704, -0.034172080847088226, -0.0027302698599109307, -0.00037525727360528273, 0.007357995885125008, 0.08379696609421201, 0.016680878241062114, 0.06062971124057436, 0.08820875723502367, 0.07086265234060794, -0.056243178058385704, -0.03710365390028161, -0.0056526784635200535, -0.038681054902494676, -0.0014883373211658395, -0.003040101595488632, 0.004884719533148029, 0.015151748312691808, 0.025807116506951677, 0.05655090432684177, 0.03906198460371746, 0.04222057184997691, 0.011603020331068598, 0.022228927759533116, 0.04582203832391877, 0.03719560144489998, 0.026918718957581526, -0.008385614303273782, -0.009946162558879083, -0.055058110080867084, -0.025180069437299647, 0.006671060790351656, 0.06869667854892807, 0.07460373904893484, -0.002373874602817485, 0.10494126661230851, 0.09346090495712847, 0.06617783104896055, 0.021858473459274965, -0.11153938849724458, -0.02924318364412007, -0.03194434864154847, -0.05081310775552518, -0.05666857198842906, -0.02463804959679964, -0.00822670982435274, 0.06405706433707115, 0.013383527300334925, 0.026314204050111797, -0.02945396324056988, 0.03515106947482915, 0.008425134550396448, -0.007989383679841127, -0.013420970990835205, -0.061427620016669376, 0.024650408016720905, -0.01550347013967853, 0.06293724283069302, -0.05183992305195156, 0.06248584239456057, 2.2633758560639044e-05, -0.017542657755023026, -0.004053519880920139, 0.02616785576633083, 0.036205726426071075, 0.04590029597588147, -0.02329157285879585, -0.04585396224071239, -0.030845076524556547, -0.09542550270199228, -0.013997948370170186, -0.0787624391692097, -0.026404636818890357, -0.07477630841764867, -0.006574429184491304, -0.02103418336830429, 0.029517050113583992, -0.01674343398520421, 0.03214790021296716, 