{"ClassName": "RvNeuralNetwork", "LayersNeurons": [9, 81, 50, 10], "EnumDropOutValue": 2, "DropOutRatio": 0.5, "BestAccuracyRatio": 0.9461, "Train_Loop": 50, "Train_LearnRate": 0.1, "Train_Lmbda": 5.0, "Train_TimeSec": 10725.503195524216, "NeuralLayers": [{"ClassName": "RvConvolutionLayer", "LayerIndex": 0, "InputNum": 9, "NeuronsNum": 81, "NeuronsWeights": [[-0.5141418428116639, 0.14090239467252325, 0.13603103277001785, -0.5577879783539464, -0.31251650750116466, 0.08794202472324858, 0.6582514847427399, 0.11833202764030921, -0.12250377705634916], [-0.007173623168811919, -0.0050798433373677645, -0.003719523075684825, 0.11237465216841637, 0.5583768449104621, 0.03165438702458564, 0.06759663336053276, 0.07142720610007575, -0.24671149005001614], [-0.10668372575378854, -0.18529509174583395, -0.43817773670026283, 0.6718042094805302, -0.1266192829507604, -0.2661847045604877, 0.45921867919821124, 0.14120269863565718, 0.013439886188697871], [0.20435966075049472, 0.09830593942274, 0.16376546563019273, 0.30108311558295187, -0.7640179901062014, -0.3974447352293067, -0.1205693076348278, 0.19061693756445205, -0.1955386389681414], [0.16152814479779112, 0.12085070590377006, -0.3785572450935482, 0.046749500513297765, -0.39220912301194505, -0.5874969369664359, -0.8114468599134462, -0.05491847117589199, -0.5580440784185033], [-0.07187799524987899, -0.059824172476514836, -0.5204004844143444, 0.278508703707673, 0.26947131288240866, -0.40089749298382027, 0.19331940127258865, 0.8280388810060122, -0.4813615925046079], [0.23315233142097072, 0.377484721705779, 0.27069652965012797, 0.528443764109426, 0.18637889787416392, -0.15766335006304766, 0.42483515686307943, 0.5115702197965281, 0.2549626559376228], [-0.031432250200899035, 0.5494612417186883, -0.282265968930922, 0.017892583498213308, 0.2875977300573458, -0.2782432074158152, -0.1930828939583815, 0.32418014028133324, -0.19119830511272554], [-0.3330776521191453, 0.6682227043383276, 0.02410925728662157, -0.39471718001124606, 0.1612452684643277, -0.78104264626602, 0.6860045651431497, -0.17004197332688092, -0.6427287690517663], [0.26760647235196794, -0.16917640843076429, -0.1673964562446112, 0.04769341088700988, -0.3586735165642825, 0.4146227198335555, -0.6066463196222589, -0.3947680621100978, 0.28066314502689005], [-0.27792472373022614, 0.3883823590020563, -0.39226940134174854, 0.261925244203882, -0.08402938324413155, -0.44460915979961074, -0.2836224218752399, 0.3256182318479524, 0.5102197154425893], [0.0030324333060742555, -0.33707606152891545, 0.021164410839596328, -0.18148687976582678, -0.34615415678281863, 0.1390077683342992, -0.7447130094452935, -0.2644748885575258, 0.30695356774069615], [0.0007778263709174535, 0.004106888345735697, 0.12564698266684818, -0.005878401870621195, 0.07577304209346035, 0.20948979677159504, 0.6093826282126701, -0.17607552163897677, 0.021256300766148876], [-0.16818154689937645, 0.2596210093518714, -1.2910214467688803, 0.30594020896729907, -0.6219365335768154, -0.08564330065133641, -0.2833557977492984, -0.019207426585131897, 0.49628782698616686], [0.8342033652495777, 0.24457206201613524, 0.9764068597583405, 0.12061375516786871, 0.1955628877999325, 0.27451913434010405, -0.36920034330438034, -0.28114277234197865, -0.6287169299485499], [0.8760428141110957, 0.5228897573238719, 0.7004244130364341, 0.4076496595719164, 0.008347124652278916, 0.017751675968910943, 0.39704734098214284, 0.05277861879082744, 0.2481723597436493], [0.7540152569881571, 0.19736427734877002, 0.044522501372059, 0.6435347380471784, -0.035409831834919414, 0.3355152100515635, 0.2110332845457238, 0.6429985026201358, 0.5022149368782678], [0.41286509028461443, -0.3640207074325231, 0.1369704897927283, 0.27316254680946533, -0.25198826293969595, -0.08434400953457176, 0.2105168455117751, 0.5002918940221799, -0.4579102222353407], [0.2252350345956399, -0.10534113322676046, -0.75841478258238, -0.0011861364081837626, -0.12052557940627662, 0.1869361604110702, -0.6055625838262911, 0.43768487384049504, 0.1665230056871769], [-0.31808004671631696, -0.5432691172257115, -0.5910499465158681, 0.00692886328925725, -0.49352190241510185, -0.25842687919394697, -0.37437943869721557, -0.1985143641659198, -0.14527630658023297], [0.841203236266242, -0.44846500551527113, 0.013046242837503857, 0.10449456067198809, 0.4002304566810387, -0.09741586220868202, 0.2711434249133657, 0.3682956389985807, 0.7893282240297611], [-0.6360141170493109, 0.15392871067635203, -0.22697838869964093, 0.16637656944896617, 0.014850230570659895, 0.13931697058142425, 0.2810960802171433, -0.017616632163966934, -0.2812435011514948], [0.830369304580847, 0.12325933163780475, -0.15577940922119027, 0.4028644436183161, -0.07162831963434961, 0.040452264456171366, 0.5103178581733919, 0.19874059720916173, 0.17164735951560797], [0.3482784202688394, 0.1284251194450143, 0.21393362862209203, 0.3204208728845833, 0.08696861646567403, 0.2183244580501904, 0.5955824607364594, 0.09513813206188013, 0.01116125819468797], [-0.029119177846199853, -0.2836355261863329, -0.5619331070022827, 0.10101361319156414, 0.15412975966327244, -0.7665940944079734, 0.07745397134152467, -0.06241883085674898, 0.03514825594246414], [0.2644041855260562, 0.37091732444391007, 0.0836014152726854, 0.423530761787203, -0.13334063032701088, 0.32729763638208953, 0.3642194503053754, 0.38127290299990874, 0.5883654467866065], [-0.8654825986176807, 0.24207187655966267, -0.07099474684922556, -1.0939193925135808, -0.44503269582793276, -0.6391699630637462, -1.0566553893683823, -0.2334237854291958, 0.19300996420358796], [0.0019124930254066017, -0.35862775745911124, -0.04253850877914159, -0.04370878705606581, -0.018407784319586496, 0.36974874846986777, -0.2413988256639933, -0.12700543381608273, -0.0437310220777977], [0.3620642738361158, 0.39384098484246016, 0.2108477331614542, -0.1373294243108976, 0.2910573352208983, 0.48158871904177547, 0.6483726147970453, 0.18610022047382274, 0.20165019370972187], [-0.04974963978330939, -0.38234295740661045, 0.8280916991071001, -0.07345327464607834, 0.08078644242093, 0.533168173061616, -0.014901426307653617, -0.34902192289620804, 0.40475931766258505], [-0.18702637075530187, 0.07524978302062253, -0.04538741104847048, 0.1330493229814652, 0.18699559673802604, -0.5599003908782133, -0.9478178274443525, -0.5910544904933129, -0.5555575505617002], [-0.2079512281199457, -0.17022248236163937, -0.19625036136370053, 0.3035988012506546, -0.11098509394053989, 0.09808775410752511, 0.5075353460160105, 1.0729010257353615, 0.3763584773016478], [-0.6275284601251103, 0.0981235752863687, -0.21233948641012992, -0.27710524858234176, -0.1844659266566262, -0.22519694188886707, -0.2646945855548393, 0.1869475535245647, -0.14514244392275846], [0.8416025064930374, -0.17172067998075008, -0.23679928684819168, -0.5047155224148752, -0.2587529794369808, 0.18904567418394766, 0.07005171962390848, -0.005831736449767159, -0.3349426058224141], [0.6457912632184017, -0.4741308031439419, 0.1479862381466284, 0.7622304512041111, 0.04899061921171391, 0.9897014709529536, 0.3035875207585967, 0.5016609434727867, 0.5063545483074148], [-0.49367807196882035, -0.027229115549263026, -0.4475949989588593, -0.5488733108160229, 0.050974216840009155, 0.3156431837879501, -0.4879718337554733, -0.21899360442583352, 0.05831770276076272], [-0.07115166945733357, -0.09975742463390534, -0.48719382211703177, 0.19205746762110565, -0.12133486684563206, 0.011151293280610016, -0.07784202643853001, -0.010835314072508269, -0.06180438751835956], [-0.21125106578252761, 0.14587879280323457, 0.9228822345519191, 0.13676571901421597, 0.11032749223459277, 0.33113306809331033, 0.47058987520424017, 0.4957119916076348, 0.2857896061432452], [-0.23911613443492144, -0.3773731261400679, -0.22681192448944415, -0.03387609774208806, -0.02660567381928808, -0.2036574664743019, -0.4323655750995071, -0.01557224870270058, -0.4467763348580692], [-0.12400457121869629, 0.15727304465578226, -0.9873215813375138, -0.03444164613904436, -0.12032198085637241, 0.03473358113572619, 0.3112811847353008, -0.11677919775564226, -0.7744042548536222], [0.2374550560593059, -0.40688165143565336, -0.7544622108201448, -0.08273646929711648, -0.3549419645818154, -0.20139460508417484, -0.40269522767669974, -0.5344126200235493, -0.3487318522077502], [0.26437910705827744, 0.39446961808190706, 0.40015128455438886, 0.16247511645930077, 0.11775067492444191, -0.024816023976897597, 0.2508291247895152, 0.2826202651637917, 0.0658710091245665], [-0.25009736391635967, -0.2200657240042227, -0.23622808349689156, -0.17785450064522218, 0.10866426258310365, -0.12162621268892472, -0.35963539767550545, -0.3434880765530019, -0.09995405489407475], [-0.14015477441423094, -0.010431793939675185, -0.2788233119833127, -0.16569523428432928, -0.029222451724494926, -0.5427039292427275, -0.4232510420069763, -0.18650177271382007, -0.3287830023448843], [0.18027274111090252, 0.05857633310906579, -0.23869023955411836, -0.3440365067002695, -0.5514994960688362, -0.04600553639900692, -0.378145160404244, -0.029561596973262647, 0.11237203239056677], [-0.4758735488586305, -0.07509468505513657, 0.16708846265243762, 0.47176135431683025, 0.1703158791962471, 0.7035976833776608, 0.1845712012573306, -0.5174068243407046, 0.407209489348909], [-0.0334990417258974, 0.00594445385643624, -0.11309325349908432, -0.26866356359644583, -0.27070647870499986, -0.4941182326156143, -0.43933265568887997, -0.01076394986187115, -0.17226113211653904], [0.31875549289978183, 0.10310491154271763, -0.003982004975034121, 0.01946752963042468, 0.010754520019494777, 0.12805626392538721, 0.26882448427914496, -0.02889027393966728, -0.16741841145982486], [0.08195124521042779, -0.3249224921998249, -0.28119523254405393, -0.4359796847884296, -0.27818060465145983, -0.0711755002734439, -0.16453778141756262, 0.12410477616072858, 0.0046675946030149545], [0.13403366785798898, 0.3203510365628632, 0.5539101479677132, 0.5388016402825265, 0.058714250366322045, 0.18226785987123675, 0.22434034241918557, 0.34729893026783015, 0.38118996090246665], [0.1675466751254187, 0.17467886413820077, 0.2488350006640607, 0.07952247192911667, 0.08046053040974377, 0.28848506127342244, 0.42996862752401416, 0.11382414248937608, 0.13802932199499457], [0.15699355269508852, 0.2821033513324294, -0.8028019881589742, 0.39477534259589336, -0.0533775461785864, 0.13633588877284022, -0.5037781469702297, 0.5358476907216129, -0.26678790623421605], [0.1310027904394918, 0.10878607990858762, -0.08842114055580996, -0.18591771813518002, 0.43585958271633196, -0.05577079955918329, -0.5530556346992843, 0.24402767379874704, 0.3166704641534], [0.576417509841618, 0.37524566753507704, 0.34565338123348166, 0.39959821799573025, 0.5418838037007079, -0.0785666914852897, 0.4557218001098794, -0.1730884417892789, -0.18371039473780715], [-0.31423902450467933, 0.08502462677171392, 0.4228454994930094, 0.15247158997571336, 0.22946740461827456, 0.2834678608004893, 0.3829049877089253, 0.07540791064595471, -0.08328501953120478], [0.11539120597751686, 1.0014551125810454, 0.2676703033950461, 0.19250442273151389, 0.18024821349747702, 0.5751552441469184, -0.3076727535336771, 0.3799845187273097, 0.023189535671507465], [0.39931613050697684, 0.6890978881712463, 0.5316880816327795, 0.15740448538018673, 0.010913276789273568, 0.26619103341826045, 0.11092130023254833, -0.18096809320639518, 0.16453466931006716], [0.8836888964371836, 0.738124431124619, 0.7597960084728163, -0.22495946315370766, -0.1691092743427506, 0.16736169806818665, -0.11359281736751314, 0.022072390700055122, -0.14869415712237738], [0.34295692545782147, 0.27357120787457717, 0.11022671577585977, 0.3996940388019106, 0.07567518387206074, 0.14480902989327457, 0.3072959158795903, 0.10731096186884231, 0.3209357216440719], [-0.17473930961211995, -0.11863878269233281, 0.2692646718108479, -0.21672057996880442, -0.30808893763348405, -0.3809082148763971, -0.07998479084562811, 0.37955860624397486, -0.48002250094902804], [-0.9164747326433371, -0.42995738950416545, -0.13569213382637935, 0.14896420666349328, -0.4835807845645558, -0.17252573973804142, -0.5009256553442898, -0.13100866185349946, -0.7065092338179128], [-0.2904863545193422, -0.11094715367901321, -0.30255667957422616, -0.07077578698578833, -0.12996773977098494, -0.5600302531099282, -0.6499463284371382, -0.20306113850073076, -0.6005455841820728], [-0.49952592623570896, -0.20406247192898325, -0.17369597689097846, -0.5733728834825386, 0.026490704912986173, 0.18231591519696758, -0.5891223775345461, -0.5439409569914799, 0.22881895156179657], [-0.4244892841153004, -0.36723488109684393, 0.3032944330754491, 0.49017322986075795, -0.19373468268212435, 0.4217120135537357, 0.2872649551380817, 0.1177569618184911, -0.02734727845602474], [0.06800554648771971, 0.8941028584773155, 0.0981973509731064, 0.025255174996691884, 0.12739964326526304, 0.23452768789341577, 0.29997208369330075, 0.23316028163320396, 0.18088828726961556], [0.46141385512688415, 0.03029149858122976, 0.74521800106596, 0.25124347565478455, -0.02239005725833412, 0.48513239854769385, 0.6541284493872549, -0.10028205197209385, 0.32099943015210736], [-0.41570467888976487, -0.5018802464999849, 0.14217719200160123, -0.040261216627054654, -0.3017872389967261, -0.19404811299762922, -0.354678476335239, -0.10289835135472952, 0.15109512078105544], [-0.7923126535674413, -0.30983610428202674, 0.4281090986426678, -0.4467840942528098, 0.17538604060686294, -0.16101495393585538, -1.1512738690656454, -0.1887952557030316, -0.08177430727567332], [-1.0361948271417234, -0.04117804740351972, -0.24414412502031047, -0.17247523234854834, 0.042115825136625616, 0.24033293796847432, -0.6734558008638812, -0.5262369739371984, -0.19710784473622622], [0.25643090847289474, 0.08194397129476663, 0.18408340581971108, 0.597106334041548, -0.18662628564770178, 0.5746551384452496, 0.204231933629627, 0.46953551136059846, 0.5495636636912719], [0.4808200957331292, -0.23062655777836436, -0.2564082830962133, 0.11411375292624858, 0.1925683715137212, -0.8103295945354752, 0.4812856939052179, -0.10257693181860664, -0.45119534303524883], [0.4765449974195865, -0.08455366456672274, 0.3878678352068528, -0.2931580947789339, -0.07015013086113758, 0.47202625549807103, -0.09984071878581774, -0.11969909706990049, 0.3054259780869284], [0.09362321341002892, -0.08533649594579541, 0.5645148353734019, -0.06099427361095245, 0.024192619451900613, 0.10505475669011242, 0.35709964136677025, 0.08012030264686267, -0.7167239452843869], [-0.025088482733184866, -0.033919924074202586, -0.23523468058213004, -0.4440162589992734, -0.006181911583464826, -0.18019190689699316, 0.43424007016348853, -0.044110655653927994, -0.0939289268702773], [0.505449813395812, 0.11122769797023298, 0.15249534261732944, 0.5018572095736472, 0.12427950765975834, 0.9419019467641109, -0.19431666616568052, 0.38912279642864317, 0.5207948185878343], [-0.7148019665912337, -0.04038009504412056, 0.10936899927931333, 0.10793805322264717, -0.20028981280537794, -0.1555647717593635, -0.23396862891084316, 0.1443620945014182, -0.3449643599741415], [-0.31025926663911785, 0.06589722974167607, -0.0009780176156125885, -1.0893256105828164, -0.3634519214472426, -0.5700567243466438, -0.4415661993228645, -0.05070831323051435, -0.650008515341225], [-1.020045186658413, -0.5507373191281787, -0.33774009842988445, -0.4267835813897081, 0.11980495357864528, -0.15318413481061566, -0.23377316204489948, -0.29304909607290586, 0.11456608960769302], [-0.07773747436066904, -0.02954931830135932, 0.1955478032931247, 0.6393212896229269, 0.13767403261927652, 0.36865496098245404, 0.7685503175241004, 0.4462586707006257, 0.36596610205457264], [-0.2015373122310192, 0.11073815526648535, 0.5810036739332985, -0.2321628753303326, -0.2830263437681092, -0.4549227810382137, -0.1546538577521421, -0.3854968755983914, -0.009044900246247349], [0.5535325928762266, -0.12343489445135748, -0.010204242512966678, 0.30163443163684467, 0.23105328530686425, -0.20425317994795722, -0.14992628028163826, 0.1307486592376682, 0.2270539268214338]], "NeuronsBiases": [[1.12061979782619], [-1.4784791794746668], [0.618715912596983], [-0.4495626327723432], [0.4606782731735455], [0.8850422234425089], [0.1680068799845782], [-0.46817938649010155], [0.5402910399656933], [-0.6598332954342362], [-2.222373384030801], [-1.3395463119548017], [-1.1149565720579526], [-0.6026190056637624], [0.6407912548893896], [0.35517442536068494], [0.6247258773805482], [0.08288205429044718], [-1.3271293089249439], [0.6242998140362932], [-0.0003445366928931494], [-0.8042784059125937], [0.002532952923111181], [0.006393923435002763], [-0.4349056815096411], [-0.004007250331809246], [0.8742828507008654], [0.0020442485519211965], [0.0046742764018607545], [-0.0035203487201386353], [1.3297758038263907], [0.18658049176508723], [1.64068492147856], [-0.523743928555267], [0.006307336961991647], [0.5648760286819003], [-0.0018080427665174011], [0.29883306853246383], [1.3756732641834302], [-0.8162252837572648], [2.078941655238339], [0.0027565123897133935], [1.507836325605044], [1.0149721609797826], [-1.8168246036910254], [0.4731899608531527], [0.4640230408526593], [-1.342301938899379], [-1.3398113120091522], [-0.0007334103808867491], [0.005190064066523492], [-0.9384509904414822], [-0.25674116148704046], [0.008955663902226657], [0.5125187033550791], [-0.008117343210851499], [-0.0009454186304652887], [0.25857019458039715], [-0.00039055180221826707], [-1.0737941564176248], [0.806588302080528], [0.8682428648355779], [0.5022287900858907], [0.16997029984739961], [0.2376044093475286], [-0.001236449942094355], [-0.5533842054677901], [1.116770758927252], [0.9355424413978426], [0.0001339759435107277], [-0.4028990198678463], [-1.21079553827788], [-0.8014270138539583], [-0.09407753935230831], [0.23568079558019472], [-0.8461527078882973], [0.8259531699408177], [0.71934738481703], [0.026233516703769128], [-2.4274982273450463], [0.43846088417359397]], "EnumActivationValue": 2, "InputShape": [28.0, 28.0, 1.0], "FilterShape": [3, 3, 1, 10], "FilterStride": 3}, {"ClassName": "RvNeuralLayer", "LayerIndex": 1, "InputNum": 81, "NeuronsNum": 50, "NeuronsWeights": [[-0.01730532113948965, -0.05387321926089707, 0.03717234459460912, 0.08195772923385743, 0.39137540580877833, 0.014041582969055043, -0.05832904157518679, -0.06924766505368424, 0.19255370226646695, -0.17472155225631605, -0.022685202801444634, 0.2157117827005086, 0.04769768946485264, -0.07701002116812995, -0.6312912625380438, -0.45138574018584565, -0.04444720555572066, -0.0952624280171889, -0.0746116402305005, 0.10719146735513864, 0.0754634626839604, 0.03408070337202377, 0.03376415915750577, 0.2358631894741945, 0.008758343625462012, 0.12275780982768957, -0.3143721015971763, -0.14355540875909215, 0.1644568728568231, 0.06441019866361626, -0.3390818358402512, -0.01860765476983338, -0.1509302755409263, 0.052799713194784895, 0.08550191529046108, -0.2716207734487181, 0.0863360273682433, 0.13041071928089676, -0.2114816301247718, 0.22539325564842969, -0.00431805624955155, -0.01996074790121582, -0.06239155413790072, 0.3110852406214706, 0.18407491716633462, -0.054850328453388546, 0.12544782767494111, -0.1368410750712029, 0.059335759231673633, 0.007792555504379176, 0.02183041451104382, 0.007705810334474006, -0.05241452547037492, 0.07280283054677104, 0.0601696583471988, 0.030744552858321134, -0.030640970638149512, -0.06807133320747226, -0.31731492339156564, -0.133399929405659, 0.6206972331572697, 0.07791321418313252, -0.046546286566235266, 0.09076075250346356, -0.028231809001330304, 0.11431009223803927, -0.00504276870279391, -0.0571919189049314, 0.2567092420418276, 0.07780983451530175, -0.12743652522227186, -0.03408822337801822, 0.12547677220419595, 0.0008297664066595246, 0.13808605819033717, -0.1984731339389979, -0.08282406735449502, -0.2567209435817956, 0.010485231671702696, 0.17142161735539252, 0.10748004592908073], [-0.4642057777788128, -0.12432334020808332, -0.14791938812178032, 0.10398730937102335, -0.03497864265729673, -0.1464381978044389, -0.2677744808764263, 0.05089775449261645, -0.377644795734782, -0.20428530185747032, 0.00314437878162387, 0.12447794025582969, 0.004349562693249448, 0.05738004452173922, -0.03050054110896565, -0.1191734737496945, -0.34808728563399877, -0.14852755432914763, -0.008129661015244172, -0.13532997923043721, -0.00953122275004951, -0.11389578945378376, 0.14149538128504352, 0.1101825884533645, 0.15754986774348034, 0.08764431130324364, -0.039931185136772705, 0.050089752424433615, 0.11627551670402114, 0.12324265211159863, 0.8839343485176913, -0.8558176221495004, -0.19613798644370267, 0.1804860356015552, -0.15580578459948466, -0.02115948811069588, 0.09150192001293293, -0.5903546666865038, 0.9683240400074263, -0.2518643710409133, -0.020025875975915288, -0.07613488429305976, 0.08800769270147406, 0.021730119601937294, 0.2430666124240862, -0.25295150993023474, -0.09191657029440446, -0.013413741120891711, -0.023117984284511155, 0.1900132330484028, -0.07525453392709232, 0.07065282678835626, -0.028278024379007234, -0.03926849717499717, -0.44386780156767036, 0.08086218531325956, 0.26876011466861666, 0.1626969420412455, 0.08208459268989168, -0.15241491906454493, 0.09685735485647118, -0.0014375250859796533, -0.32184462893358423, -0.16196346023450284, 0.12807149064204637, 0.15947756563201737, 0.032778401926335035, 0.0038981685597337624, 0.0377842997657914, -0.0029420476580524395, 0.0006851377222378552, 0.08896387568789191, 0.17394707223405748, -0.09767567966751549, -0.06989981533241957, -0.09674980763370784, -0.015613337256965492, -0.03189314104266876, -0.12907082927072588, -0.16220729292787311, -0.17758162880368808], [-0.21634154407098932, -0.12305781974661996, -0.0013068666552970018, -0.07192653454004676, -0.022303494935468456, -0.029888414447914673, -0.11434881844834396, -0.010929952212064506, -0.11424462643721003, -0.015574811006296914, -0.030619055089193943, 0.16246895083897547, -0.012241412048194223, 0.03617343942470498, 0.20366799946980163, -0.3717917359083771, 0.12529743246958136, 0.02376827828397471, -0.07211695933461909, -0.3148998105465688, 0.10357778164139951, 0.012361875593722699, 0.029039865718216623, -0.038738141048351965, 0.22963207366636576, 0.05863208730927152, 0.28084830644821185, -0.023170124802310715, 0.09976500986258877, 0.04661067091120795, 0.12608246557423142, 0.09821161777692103, -0.49193783962229887, -0.13119077595810066, -0.2996688927888379, 0.3389096292062749, -0.0273712954741907, 0.038134810476633536, 0.049417111507767716, 0.01011779216343572, 0.14722792811176252, 0.2224133867173776, -0.16953207729435593, -0.014987685311067686, -0.21958013827347045, -0.14987421546284363, -0.45681688695768163, 0.3166748520205258, -0.12243864174048176, -0.2831958419990769, 0.382385522721713, -0.05121307525527493, -0.17799482015948967, 0.05957333939504671, -0.15273673581866065, 0.23250158757730904, 0.08015115176575413, -0.08753417831767653, 0.20525451557636235, 0.014589341451291066, -0.029669948218217043, 0.18135839398452525, 0.07049082153162901, -0.13840316053938176, 0.21024721285989226, 0.026513827415191135, 0.027924550450596934, 0.5425257331670047, 0.4081060289361156, -0.5096691810278854, -0.050446802242586644, 0.10289912705027662, 0.10348806714198049, 0.038037625644057264, 0.04594290067082025, -0.008537743202289887, 0.18144438025312704, 0.16789914892975433, 0.03313413864317913, -0.09749596209382445, -0.10693188321479453], [-0.7087760734460323, -0.10153796808862328, -0.5371303705333891, -0.07909912799557724, -0.2687812521748433, -0.5563562980108975, -0.028563532728768617, 0.04078695978308283, -0.23350701385583245, -0.019419109378027846, -0.056321367516784515, 0.11159854376338646, 0.13721811970007752, 0.06388740239736446, -0.01471206225483998, -0.20687936515222502, -0.30662515164315557, -0.26064590488252076, 0.04623903852785033, 0.04426121514707013, -0.04121379132381366, 0.10659536874442095, 0.27172982704651566, 0.5554230213263845, -0.02392707925605229, -0.03248096817349462, 0.31854556222785796, 0.11995523628530258, 0.04031081606083183, 0.12743349250695524, 0.5771722893197264, -1.0968010228393523, 0.3648266997624024, 0.2094513159442489, 0.02987217503276387, 0.04798045715922482, -0.12689498214126696, -0.17049825983242192, 0.3451117724785253, 0.03222593279704829, -0.016645071542148206, 0.11770891016005544, -0.03218011578937776, 0.24566901269075891, -0.10569449045319974, -0.3693896539681454, -0.2096284631199324, -0.24862893118073603, 0.15660764782416706, 0.04613648695780915, -0.1691929591381922, -0.10570233332354849, -0.1496703231112121, -0.30612214404313354, -0.3536232166416398, 0.2746919709975585, 0.06051074652425693, -0.0057107295589681265, 0.14843430956957537, -0.093093876294625, 0.13250231651219982, 0.12939079735774114, -0.22763774036574733, -0.16921119635213513, -0.07840881557741539, 0.11348620947349392, -0.020859278931869413, -0.05530595179759747, -0.1388778342033715, 0.1288021383280794, -0.1346087610847983, -0.06551365743609855, 0.016817364127081853, -0.16981486674159607, 0.05712680116283067, 0.04446855484549706, -0.1697109809684093, -0.1852705394443592, 0.2298466840113988, -0.08410360673308646, -0.10820462584895109], [-0.36216697255484614, 0.06471238538823346, -0.16570264503659668, 0.011378364669417414, -0.5954197069273203, -0.07843356133784203, 0.19950165782711954, -0.12464698025412442, -0.24099401921454022, 0.03306847635028626, -0.09398880668755852, 0.09917951663780643, 0.010964447028375126, -0.09118192715064607, 0.40916614191999, -0.08333393748276596, 0.17296915079242026, 0.11966778659802008, 0.18890693343607223, 0.06892143722130775, -0.1622588537076028, 0.09223150563971746, -0.19965766161880047, -0.2274003383984819, -0.034446606899385904, -0.5482896946271056, -0.0551678979632249, -0.08826536305357485, -0.19888914748652908, -0.061468226920606, 0.3991399592841128, -0.1339305103414431, 0.2046695768519341, -0.04501045970026992, -0.15027967302919507, -0.04459778300562651, 0.008264944435046143, -0.2956599098179884, 0.21301392841821876, -0.035339889752169264, -0.17428283658255192, -0.09661469152056562, -0.02322499243880183, -0.4465776960642236, 0.1366441321106371, -0.09034616011002768, 0.1213822320951971, 0.088475366898995, -0.10752268331127933, 0.10827575735857493, 0.03361011615833469, 0.02429968042025715, -0.0893923725993809, 0.08457744346723038, -0.3509658527830292, -0.16526346121493815, 0.04452795958461656, 0.08130431154613799, 0.4028536064474068, 0.09171593103164416, -0.6897483700999248, -0.25951353319587983, -0.36200801791782744, -0.056386069308113844, -0.11420461063970858, 0.11834313701884865, -0.042471517264278495, 0.09836537394606357, -0.1270287324504281, -0.2373098766050528, -0.0450697072413184, 0.025883313838068724, 0.12126887893581555, -0.08951572600101687, -0.2710426343436691, -0.026130040094191793, 0.41112452755183454, 0.4880634286160848, 0.08526038488356223, 0.03328957417469334, -0.2602778862620131], [0.11251460854876233, -0.08780653658967348, 0.08092038758744757, -0.10340215795375812, 0.0998461114938525, -0.028590327785700774, 0.1186814556588214, 0.2005397829162875, -0.037504390621837386, 0.07661490798534622, 0.07944171582919705, 0.07967196644063422, 0.09264000874979984, 0.14694156888841364, 0.03720758683956154, -0.005147609233053089, 0.22061430076445887, 0.11311048805050015, 0.026561558058008816, -0.027829577897731307, -0.4228277065364975, 0.11778207201223949, -0.022397182346343626, 0.1511783001282083, -0.12750513374149106, 0.1279796434165249, 0.18112624606310387, -0.06773040860742864, 0.04393164750449875, -0.27292366818553465, -0.19540919430660303, 0.3017863914556145, -0.008975826302812254, -0.02167939316836063, 0.04741169168739397, 0.05613189405220044, -0.24597828924180884, -0.2514804236771431, 0.34490145352701085, -0.04559138934702008, -0.11999431901646852, -0.07123855929945411, -0.14207184565213285, 0.4054995272365513, 0.16945291255159167, 0.012124798164034932, 0.32776174703874317, 0.17389347151064274, 0.008292986857229019, 0.056506634598574405, -0.28579724107810023, 0.03848300475638872, -0.012947097429079825, -0.5286754695139568, 0.19470752367302846, -0.23858814935031447, -0.1859795461959471, -0.018369622088618805, 0.04157449143662283, -0.06256686920776379, 0.4882359291139959, 0.9183332293404488, 0.018712920554929405, -0.1165493086140136, -0.446980333122825, -0.09178625710368106, -0.09334966099547808, 0.06947312795386681, 0.3228468727559483, -0.4841132179270621, 0.06714423607979071, -0.011166651521082137, 0.16108180348493809, 0.017432988298574936, -0.18862770001795656, 0.007992143471067241, -0.08772819409447151, 0.013451641959756335, -0.03382492284174746, -0.0055007199551081855, 0.13730596530489877], [0.02637837132249898, 0.08790328585209527, -0.10918263295321058, 0.04207392356081871, -0.14513547884550723, 0.17756045587360686, 0.08881831395203467, -0.004918508524653422, -0.06577116983696592, -0.15190741229601143, -0.11240380191958356, 0.09276082424602455, 0.060585378424210586, 0.09006789726944217, 0.12233729025819032, -0.11881608600590382, 0.02382099742710501, 0.14043347329596864, -0.402573538495625, 0.6049823230668714, -0.19185604373566392, 0.15670030609639843, 0.13305385668414613, -0.1882011006099012, -0.11712978646809805, 0.4604533636179371, -0.6841937132198952, -0.08027364142727142, -0.1004479719642256, 0.12192518426515876, -0.41680691273624987, 0.10304899541313291, 0.5783824883087754, -0.07826211326932069, -0.6210182173901587, -0.19701369025603307, -0.07390397884734136, -0.17408274382220343, -0.23654522569511693, 0.0950084705591068, -0.17126200586250748, -0.1272136706189311, 0.1755696337193436, -0.16393610680907952, 0.0012786066318415527, 0.020366398241924724, 0.15649575909152144, 0.17940937106217061, -0.11897807377018894, 0.021454326610850852, -0.05574725947190604, 0.018175843068590176, 0.02778290831851917, -0.11866441839124137, -0.07702036337294368, 0.10322844513805873, -0.07515919079342524, -0.0327025363939028, 0.06246285578461632, -0.18788311739661434, -0.18768579057999601, 0.16095053222577546, 0.146884526531792, -0.1403715693677177, -0.09763542667456108, -0.16816404614304564, -0.08336748294479497, -0.1017697242379384, -0.3080491251874505, 0.19033391382428838, 0.09849559283657848, -0.11112917567421067, -0.2571847936460067, 0.044243971746869774, -0.22680973194358187, 0.07551834905710458, 0.1805462732135274, -0.1604467341527225, 0.17162536964868658, -0.00996454040601125, -0.08522351709875833], [-0.2943949498189344, 0.006037950512660131, 0.04038047579374939, -0.23051478773309808, 0.019808495555199476, 0.10864188925722554, 0.22518010493948962, -0.01904342138132394, 0.09534540487750692, -0.06960295737855071, 0.004461169204871114, -0.024111211460123665, 0.10051878692818159, 0.012483946570014925, 0.05198130822865227, -0.002100691510784454, -0.012700333672875284, 0.013706744864236535, 0.0433016509581294, -0.22177151214098936, 0.07413660617844205, 0.30680649357238443, -0.03721744355244857, -0.14731690424043103, 0.020179780684238067, 0.06797629393461499, 0.048131366645023585, -0.01590399102698209, -0.1059467248623548, 0.11126266608035953, 0.10798366041536046, 0.0036482890750261193, 0.0804594111340949, 0.1334986950062228, -0.023362431736185314, 0.15218377822494952, -0.032280901039892534, 0.002077609295096457, 0.03836818583495824, 0.1262321031914965, 0.005623121523957592, -0.08859557799975155, 0.030405769468872246, -0.11891988288427016, -0.19969164577402912, 0.28762213146387344, -0.06052132297380489, 0.22741746712417077, -0.1047641105251552, -0.12618590494798965, -0.009874313832665703, -0.10581853404298021, -0.07127279041056468, -0.06451840816641001, 0.06985753673992276, -0.1033402585423861, 0.06407823515850887, -0.021316205562678877, -0.1394946477991336, 0.18723929085824056, 0.030972852026444262, 0.025553047044924653, -0.28519125320765615, 0.01756797218412009, -0.04146353421391751, -0.038967075680774274, 0.11660398389833847, -0.0582386834504767, 0.14266517412962978, -0.015969287267164976, -0.02107457611962389, -0.07431404908561477, -0.20908655138228271, -0.13534856614580038, -0.07024039864661102, -0.032668844679771915, -0.05574831304966085, -0.21200119208142607, -0.02418609820221553, 0.007967623047403616, 0.0714393286198353], [0.032581817939871215, -0.22243420182526064, 0.0993303758303655, -0.02959181425313489, -0.20884101424251952, -0.051097226248051984, 0.2985331177632496, -0.012994986372918993, -0.06042336284550096, -0.05765021438403706, -0.04259209496534581, 0.04467514208538984, 0.14162519241310093, 0.010344552891752068, -0.08495458560118861, 0.625058540677607, 0.11609697798135549, 0.02593360086595518, 0.03437552824570515, -0.37100190293191526, -0.03699382942500404, 0.11006439101417397, 0.17954482147678097, 0.14815398524277026, -0.05017645954856999, 0.2006305523848234, -0.17515067923838282, -0.0630174172343526, -0.15245277526128748, -0.010456735089169793, 0.2860346839148933, 0.12429991272941225, 0.3410090190756071, -0.16608033346055093, 0.08594001547587496, -0.09145398819013466, -0.009647129667532974, -0.23667590888559528, 0.37371826833523186, -0.022586802359383477, -0.33416339153710495, -0.2021379510969544, 0.25989475597308426, 0.3123922048960552, -0.08206882252599423, 0.13985896438378692, -0.07240081730383596, -0.06695179946867008, 0.08948226019901948, 0.16572640623413543, -0.40360742917493564, -0.013694063394761468, 0.052889705881743784, 0.27317683796991954, 0.1675297929365678, 0.23771433778652354, -0.11065391155915677, 0.15681657243247699, 0.025578438930187408, -0.012272052243541063, -0.3362828043217147, -0.49461530193845044, -0.3686734830699581, 0.10401496522194065, 0.25639104949917446, 0.17845744049097814, -0.05711615455804729, -0.31314716290915573, -0.576713874438423, 0.1440594945594741, -0.11690715412655207, -0.014967682558899749, 0.0930980000497374, -0.09197755060239737, 0.0389299261080051, -0.014222032556918765, -0.05517151941153039, -0.1106600522832405, 0.11230252488395487, 0.052711825309041394, 0.020130019719889897], [0.1242292446875686, 0.08136950326949444, 0.2932699529345931, 0.0894543985470113, 0.023554397462047044, 0.14369393117706014, -0.0935103903590656, -0.0535124887358921, -0.009968748820157924, -0.039407868895795194, -0.07302570384370492, 0.16332181059580125, 0.14927526190660062, 0.015220124886671944, 0.09689436217981423, 0.01023460983865574, -0.031303669627474745, 0.02572242316932836, -0.021644913502615364, 0.008683655921214988, -0.1438154756531146, -0.05975967559843441, 0.17256000583720355, 0.1747530704152765, -0.0025790090608901507, -0.08036176672875522, 0.028893920703405462, 0.011290213988373146, -0.0716212927481581, -0.02148700541453956, 0.16341840055482185, 0.1213275804140211, 0.07592030175757591, -0.19343344774563045, 0.008113397912812627, -0.0009249781530088038, -0.14751658446029028, -0.011968333838279334, 0.17744009610647768, -0.12608641680733912, -0.19863398232826945, -0.13101215536139085, 0.42787652618563593, 0.3706673761928181, 0.058634711840138146, 0.3557790281932878, 0.07423192267171667, -0.050519109290953094, -0.014252517015738934, 0.09692461833985382, -0.23773797373967848, -0.15822306598026598, 0.06938338030767242, -0.19387720921386015, -0.02319901117518034, -0.18833327968315877, -0.4624606669489998, -1.488869042387417, -0.5673980040160094, -0.000945084161419777, 0.004620168178446086, -0.3370814639064524, 0.23703862737068776, 0.0037617791115403323, 0.19128955702797715, 0.15936603307510686, -0.13281447250523898, -0.2364595817695507, -0.14092447795885146, 0.08904378067947588, -0.1779660018840379, 0.03733484690851028, -0.08318874304990975, -0.10341041497510992, 0.27433014356713725, 0.08908980171451779, 0.05016513068540025, 0.10604396768847787, -0.01965135725290121, 0.22995991990389722, 0.1139625512635492], [-0.0013306131184018055, 0.06533421340802326, 0.08595986889692193, -0.059228783003882395, -0.13327004510284113, 0.0011720171538346445, -0.1648116018483946, -0.25526261969408165, -0.26247907683787286, 0.08456880035474515, 0.00781299619508281, 0.010521268153575921, 0.09344747913013356, -0.1001898794987063, 0.0005437907950877912, -0.15429904440666808, -0.2572367989564537, 0.20184372035722192, -0.050753295113173676, -0.13445022036670853, -0.12415808353884339, 0.16250747643765123, -0.12412210347679872, 0.0920137498825973, 0.051662768169818664, 0.03176821676175693, -0.0027579532190868112, -0.05109975959752773, 0.26438700736008847, -0.07812153402665888, -0.1350421100652234, 0.035755208073246364, 0.041157281836868925, 0.05950627062984707, 0.11197304113116581, 0.07434787672640593, -0.06582373711951589, -0.07083493610321596, 0.17090695009490556, -0.12016912779664521, -0.0881806792089837, -0.05392669255271655, 0.058518336230191786, 0.01831697273679678, -0.011392798138607555, 0.0016479306820524782, -0.09160575427900064, -0.14310759122596464, 0.1894942608476637, 0.09074745275227226, -0.02295092822804596, 0.22338335840780912, -0.13884013826818029, 0.12761150659107903, 0.02884457359157686, 0.13420283534009303, 0.05397464355996371, 0.09231753859957872, 0.04094562894849015, 0.0029700617823727456, -0.03840234475062349, 0.020838084637913146, -0.04414096574535366, 0.12682369352316178, -0.029462785883863713, 0.04687435429065004, -0.03237603214055999, 0.09464002758427667, 0.017496083237776978, 0.17913316878700922, 0.0032084723573763876, 0.07037052456766942, -0.03959632147833619, -0.04190945260338836, -0.15742459258829034, -0.10068183455528766, -0.03617522582837776, 0.09287810446441204, 0.0091815434614795, -0.07669614189043455, 0.011882551700367271], [-0.17675168741317246, -0.1893323938465538, -0.17662408614523112, -0.038033887422075335, -0.09005166926085639, -0.19532320637276526, -0.2359331134387185, -0.08697706035928437, -0.046716018397780265, -0.06024849427520134, 0.003562835788096826, 0.03757739676148755, 0.0267262183885834, -0.15973860943376308, -0.15695851499250354, -0.16114262150737918, -0.1763845659189636, 0.050590952501134594, 0.046117685100516406, -0.039856911481410275, 0.06875513885836484, 0.04662948332156807, 0.0788883619412288, -0.10915855260109893, 0.019681958819913928, -0.09017655430807994, 0.021356309185501594, -0.04586704238561147, 0.1400313591807892, -0.10653137351801531, 0.4199579195685812, 0.016369167730527687, -0.33272639182524694, -0.022830244266151312, -0.23878398499285178, 0.06842157597484769, -0.051156755155467915, 0.02879839896541716, 0.2697222841749683, 0.14541212578101168, 0.578277871839401, 0.06063564599836383, -0.2576248396113148, 0.07456995785360444, -0.09355073601199082, 0.013151146770453146, -0.023672402448654192, -0.08073891712403805, 0.17006887923618258, -0.2813892472513571, -0.20354890657308247, 0.08920589343501814, -0.12572445432340215, 0.016897361468775556, -0.0999506586415105, 0.43314109092385034, 0.37095029328557, 0.31026906070718985, 0.559742184908637, -0.1475000431163537, -0.18325480874390188, -0.23808250680809165, -0.2180504894246247, -0.06637133603348414, -0.03234178130872689, -0.007252446670566372, 0.0065012021053837115, 0.06327651222013272, -0.3401919735975691, 0.2826577473916051, 0.08600421268198055, 0.09936610865688661, 0.047148768784618586, -0.19633844453863256, 0.04751455011504633, -0.040192901227830945, 0.02360086220991372, 0.0683003087177809, -0.018915862902167183, 0.013635347298844006, 0.04114339289536048], [-0.11260131430361506, -0.03313920071421368, -0.19174682569138032, 0.08436475719651475, -0.12210397399963073, -0.385690835588735, 0.23615733474868467, -0.05521021488874488, 0.09439055141798364, 0.08754349779000052, 0.011351325134496954, -0.07004401660226733, -0.03679587740867373, -0.09728509771796331, 0.06403448056410369, -0.005937470025578593, 0.04391762851796847, -0.01531708455226688, 0.22556556347342843, -0.31186757359261513, -0.07959513396101735, 0.08067140591927356, -0.1035100280661127, 0.08847437646744548, 0.21622190884444567, 0.006820318451144594, -0.484959162405316, -0.08017715714698269, -0.17342249440331153, -0.21531357814259094, -0.5475498744827737, 0.25672462489156084, 0.2507134241247027, -0.06135263613726264, 0.034414308361128076, 0.25130574613849793, -0.04727540350698965, -0.053203094350054596, -0.7274203860401592, -0.01110096631405053, 0.20108547251877573, -0.1575008523746502, 0.3053095334757227, -0.20364804433263992, -0.03350416254486106, -0.0805404547928704, -0.01612583015980083, 0.13385130851559873, -0.009632552184430014, -0.18650191794086507, -0.019126762598067833, 0.1713141378201604, 0.1590643933868439, 0.09169238226553295, 0.02988665059198873, -0.05032493291329581, 0.1596046215825573, 0.1428065334680731, -0.035155426224625655, -0.12131304230540836, -0.2914678694539926, 0.14628744318314496, 0.39526188070531054, 0.07291389348232497, -0.26875856320851926, -0.19612761847596918, 0.05344395802764454, 0.020694591280875013, -0.05435427529132467, -0.04073009275762385, -0.017557047625529138, 0.04301053998327292, -0.04546273205254798, 0.22147145201499255, -0.13478621133959987, 0.04822143549042314, 0.1354247503531558, 0.2690129042114376, -0.08352150361611958, 0.0039370294849661, 0.04665442750225043], [-0.3223686003490358, 0.1885437148146239, -0.03094117233370817, -0.0967035356875727, -0.04484770369002919, -0.2090425581728495, 0.08569583162872835, -0.14601036224272138, 0.15570076001594013, -0.08408570058764323, 0.24441626814604842, -0.1512449757391766, -0.1006311751218968, -0.08565424236084604, -0.041432816350069866, -0.019609866010057375, 0.0245719286578579, 0.15489007278759018, -0.010833367461894651, -0.13816233559129695, -0.07865945167192041, 0.19440284603016822, 0.1668631004327383, 0.0259502441271836, -0.0574618335886722, -0.0800711940899004, -0.08252899229192939, 0.04329794398951574, 0.17460450140866987, 0.05064361066284302, -0.07342258114904206, -0.12450862366776044, 0.03028546408101264, -0.11155819758066972, -0.2593510400149975, -0.07193851979138004, -0.10484409455121615, -0.11846080552449928, -0.05792137952404556, -0.23340240283261215, -0.009960438080215272, -0.01489621382188613, -0.00743123104802219, 0.10330055283751309, 0.18345944235094858, -0.12945470197981712, 0.0695609529509476, -0.08220488505111045, 0.04743856471124388, 0.08911126271222733, 0.05474798171512107, 0.04452431817014394, 0.028117469529787928, 0.025482910098017543, -0.20610626833743534, 0.11949233535666852, 0.03524567321842225, -0.14169032344838337, 0.09187032402939939, 0.05883337790239887, 0.2184439903670689, -0.13060716161852443, -0.10214475936260052, -0.10373666254475125, -0.00043335912641087826, -0.12367214718290416, -0.04193229590136997, -0.31301614040139697, -0.005605698008987598, -0.15397381886807854, -0.07437895625326242, -0.07659610315930035, 0.08029398366017135, -0.07733469311257749, -0.16425117242531437, 0.04035617413136746, 0.0959266938950108, -0.1140062298987498, 0.09832796633504194, 0.02771454443523061, -0.03258898298494958], [0.4210565226287099, 0.037182168085522674, 0.2962349903559163, 0.10573803472534217, 0.26289407809213955, 0.14272505575141015, 0.08149071630851498, 0.14248110448224802, 0.10097037326907776, -0.11274705898729964, 0.1731698442728936, -0.042126120174081676, 0.15375637722640703, -0.14743906734755885, 0.052129647263060436, -0.16119288693076453, -0.04701716628915632, 0.23889673312366252, 0.1594708305940213, 0.3682260521616494, 0.11532584073236736, -0.012431022910639598, 0.007739766319880348, -0.1801345223422879, -0.04289327172455522, 0.012730535860877594, -0.6095876216074138, 0.042409896780066646, 0.17106855824281042, 0.09240066925138302, -0.34596244921388225, -0.07987253755616436, 0.17960202956486276, 0.10654351833347193, -0.024334683961980807, -0.2055083511233262, -0.21434372379366862, 0.06020164508958585, -0.3050779852049767, 0.014746166986678093, 0.21042727235138445, -0.013701897662994478, -0.2111707684767106, -0.5564762821045338, 0.034585335858908946, 0.013867818406654034, 0.3006148816108149, 0.06459908657190193, -0.03915769066827447, -0.006389858537735019, 0.32590988828776724, 0.08734186636252873, 0.012028071339120594, 0.009832616112279941, 0.07399533324396555, -0.19642956337790343, 0.10416741476655698, 0.15226201180964744, 0.10510131122510266, 0.2015844938524315, 0.29963310558475165, 0.3227053360726604, 0.08904805533315993, -0.0033824515329312745, -0.26574125119756126, -0.17132461040849625, 0.1471541705971316, -0.1208446667653271, 0.15603705858074887, -0.030840605307344546, -0.006399478991320864, 0.08588519384472479, 0.017123322849054046, -0.003615636599220624, -0.1829163288784196, -0.050149471728042565, 0.06102572234857419, -0.11311513111840936, -0.04281597308642723, 0.04229852948824257, -0.09944500657165112], [-0.2062681589149953, 0.06853496542348823, -0.331987691819558, 0.00954576441443989, -0.03996203113563215, -0.0663147664989679, -0.05320066927763534, -0.0721689933606671, -0.09140990687337938, -0.14676525331601553, 0.06929351731159486, 0.1571492411738099, -0.04458003644425021, 0.02440041929391756, -0.04298251592961786, 0.6956967535009113, 0.15910623307654786, 0.09001075520277182, -0.21542264909134132, 0.13483405877128946, -0.021007428308546797, 0.03337726363282462, 0.06133206906344471, 0.5158861684396748, -0.029122288743448757, 0.03256376729283036, -0.023500676151999616, -0.0036644026704847647, 0.03462231983322919, 0.04418507512278826, -0.13552018879598332, 0.0637642736462682, 0.8813569136216504, -0.11057533085075152, -0.7369614737140309, 0.12718543382534517, -0.016407082834048674, 0.1713984739155973, -0.05565037913985703, 0.21614182219542288, -0.010648461374807522, -0.5141858633737206, -0.12121926256326673, 0.13232791987801557, -0.036686094108774985, -0.3994047956641118, 0.04260784815740184, -0.25648495838931074, -0.025336609924446425, -0.3088356156097126, -0.036739267354252, -0.021724831775251505, -0.20442727084753737, -0.08077249491611785, -0.16698636784807291, -0.05726416087481983, 0.01983590212418009, -0.06416436229293805, -0.16155945967127402, -0.007219738443718314, -0.15231782862205123, -0.09747198129273016, -0.305071821800548, 0.08620122205307797, -0.013880379230490908, -0.1070398364115942, 0.26962580217075016, -0.2374232103219379, 0.12685373684066428, -0.02345569731579321, -0.028551155074811166, -0.08647643861716284, -0.19297582744317848, -0.031290212636536086, -0.04530529443700091, -0.01549834962262363, -0.282001431658812, 0.08013513149530281, 0.2349163349131865, -0.23886831089290617, -0.15268540270552763], [0.11994455185613485, 0.17908647970801636, 0.00928849519402263, -0.07544689592342385, 0.16144937217619781, 0.13054631933938168, 0.1979731846299136, 0.061971434151918275, 0.2721541671564443, -0.0502394295638355, -0.1071933835401448, 0.0660031982697324, 0.14514415013891052, -0.08530533288119686, -0.1342980152833734, 0.2298442037409041, 0.22761713088374508, 0.17454439942754701, 0.1712526336921953, -0.22118697907370932, 0.23431731646624213, -0.04249354610208667, -0.2879131906988599, -0.4443632038159231, 0.13731675070615817, -0.19176968398342284, -0.3522095455826225, 0.030953150871081987, -0.08037818014064325, -0.05970461172473109, -0.31053900333147794, 0.46765031537899604, 0.0685120132014043, 0.15508324221150052, -0.3575539481832871, 0.2274147969235051, 0.024352016993180584, -0.024515067411451822, -0.03143778422455448, 0.051338041881806316, -0.023878054848069118, 0.1710274243559015, -0.0663328505306024, -0.4952449467713833, -0.03922543154744667, 0.2673302588460735, 0.12473135416702394, 0.23646135943604094, 0.06160612701707786, -0.0407077014638998, 0.061765302946874955, 0.028420457584933986, 0.259029691273616, 0.19278296546752874, 0.04367760685498805, 0.041810311431223206, 0.04648578001921983, 0.009820747380451482, -0.029189435200054507, 0.04434754098049724, -0.3715705736639237, -0.08300772794730953, 0.42771939103523926, 0.07438209981390784, -0.03388355604807239, -0.25651872367170564, 0.021939169805896545, -0.08486025880673333, -0.38303555325401223, 0.10476087890477633, -0.12994878015705646, -0.10847736931780655, -0.07427585133043925, 0.045444849047322836, -0.004446990810989102, -0.017655735211768192, 0.1330913692200121, -0.00046077878956303557, -0.3322450563035508, -0.10680112009320418, 0.09948265002509739], [-0.10625850890217332, 0.04131769995436579, -0.08744442613110147, -0.11178984273508169, 0.036158050143421196, -0.13992290947566954, -0.10346038070494373, -0.04522094551324836, 0.024035955722987168, 0.1237821442654682, 0.20420593936519726, -0.04283413943822555, 0.061784563039594405, -0.01174101230678802, -0.0495507725363817, -0.1826984630513534, 0.09924607859275864, -0.08687436150849397, 0.1289805722489723, 0.16786532601974996, -0.00881199730170792, 0.18518187734103753, -0.02035139898362313, -0.049340745276558524, 0.09347775067534714, 0.0538081050003515, 0.05951109844755022, -0.0044418248625815344, 0.04773673693404219, -0.03049133649961917, -0.10091019100064799, 0.160842407802944, -0.022171493933397436, 0.13709916440663086, -0.09234370982029035, 0.07587457196502416, -0.1199491025441817, 0.002965998413461094, -0.024912725532282687, 0.06480026010481416, -0.19126465069387993, 0.0074929601383230855, -0.25107318650913074, -0.14760017763995417, 0.03969969724055651, -0.10293031949154154, -0.02206691288056158, 0.012253893268727813, 0.025443252125696595, -0.021206117042675124, -0.10350743538212577, -0.02253777006284628, -0.16785045681490568, 0.05898404448626414, 0.1501301377601803, 0.044512375632396024, -0.02869073544417628, -0.20643834798364782, -0.2179151907917485, -0.1424497754182246, -0.06867031941627008, 0.09340347434127141, -0.05184447922223618, -0.0028380812117019282, 0.11317121495939961, -0.11235732408178165, -0.03074212569036475, 0.18893520735987276, 0.01702794023363935, -0.014926039855237576, 0.0590793638100126, 0.031016223251874902, -0.05970388194979728, -0.0798896126804502, -0.14486645096418435, 0.0013855427947750852, -0.030445688684326226, -0.0008898788615183752, 0.16403801081833605, 0.15785547277912504, 0.18324614243142967], [0.08545931237914417, 0.01396822216295941, 0.06457238266239747, 0.060602486699344996, -0.0591972397170179, 0.08695412243060135, -0.01156833683555665, 0.0654609789343839, 0.07837775317942645, -0.008504537399061762, -0.1306741264414786, 0.10673303059092448, 0.03251751486771845, -0.11055649501748341, -0.06623445006219247, -0.058937653535513224, -0.20873053584414814, -0.07007040371048184, -0.037423972532840334, 0.1396940434274621, 0.037162845923387776, 0.22423516893925427, 0.02576410075283072, -0.12109475990873772, -0.20973277187533873, -0.07135888574264274, -0.011339475241140585, -0.061293367647281646, -0.11778058240208651, -0.11230076654879019, 0.07415057254639837, -0.06902858434079204, 0.285878913477788, 0.35055970691397603, 0.13917601988954315, -0.10430053344556993, -0.14935904927443186, 0.018408476604235433, 0.43417714445723476, 0.011250677252328738, -0.1285124000680589, 0.20876500561385647, -0.14238032881155385, 0.10798339635753205, -0.33334768450112195, -0.029643382471993468, -0.06910048222979207, 0.07180423034473292, -0.1693162486798376, 0.22889944705892462, 0.1366872575661357, -0.2507819659542332, -0.10829870089557135, -0.17340099476623227, 0.3493332242030828, 0.08433858380978945, 0.0017674332702797965, -0.00258035065549437, -0.05315641235415972, -0.037396876479954835, -0.040860438476057935, -0.15090187740196165, 0.1440458387027746, 0.09557224213602751, 0.13412887939051135, 0.37488863646327736, -0.08251848288548896, -0.10415844283491268, -0.15211100951134807, -0.015103796916929315, -0.11977593198289074, -0.028421902414242736, -0.28343364559860973, -0.13701127014975775, 0.015896831035324466, 0.015206781822407565, 0.02866998155820171, 0.0875955678777351, 0.16674985733467665, -0.16125779294539125, -0.025155818023543334], [-0.034651721636236435, 0.019081657901882324, 0.1338396609400177, -0.13038597237231936, 0.015657710240824848, 0.13602776821902876, 0.0682806017705675, -0.010073429393496784, 0.12862070803736828, -0.006533879262813504, 0.04760654674170653, 0.01647737381266808, 0.029474990678049887, 0.13291574928500638, 0.02625453036731986, 0.0446968385712994, 0.19062508279493612, -0.00870319387913793, 0.04730723351159475, 0.12330495431130059, 0.014712067316654736, -0.17152776065190878, -0.2473172918675712, -0.10668546504664647, -0.026005531822658644, 0.3312494804745077, 0.2519589209710248, -0.01672429937814315, -0.010703869120076643, -0.0027029622684965663, -0.03649665135994003, -0.08984238547414114, -0.1486697061568659, 0.12000199367707684, 0.26897938296691687, -0.194438658497703, -0.11591295254070151, 0.036846621481875654, -0.1786110294676386, 0.03225111902060463, 0.2867842736893981, -0.2236140248325303, -0.08938415756696091, -0.39444551933557864, -0.07638982324372819, 0.03429784048599024, -0.13415138479218516, -0.08913415365629626, -0.2008409763843909, -0.09470412935719026, 0.05020882785942256, -0.09146395821210798, 0.22482603640552656, 0.16641863489049655, 0.18031157061997433, 0.09702643845732384, 0.3253606213453207, -0.14033890506122096, 0.19836052386277597, 0.22758669046220603, 0.08494008244989266, 0.10670120256221564, 0.11084473505191397, 0.20780345248920987, -0.0014819073934386185, 0.18770038641998857, -0.034994528590845446, -0.0478530333388295, 0.25893859425421556, -0.12241442898601193, 0.04541893423020751, 0.04099771514024764, -0.20761630028829556, -0.061185850939418356, 0.233540377268673, -0.050516834447748515, -0.20094278632643053, -0.033300452984852555, 0.028103637712108623, -0.13034391070663207, 0.07803598476939823], [-0.031025083785197752, 0.03204308875215106, 0.012014081609912098, -0.1583281563931215, -0.2723681122118241, 0.13844545504817432, -0.01959902922523488, -0.04509752855623647, 0.17989906446150078, 0.09381313884895534, 0.10039943076229524, -0.07282649293376223, 0.019730905172684693, -0.14393448318903235, 0.02665874451132975, -0.5105423726322887, -0.4860234802487282, -0.1986928480973375, 0.033172018210943094, -0.13766721307950552, 0.21088852742382552, 0.10422412861515978, -0.0993946367255447, 0.025185469472286847, -0.07390295867382563, -0.5127933715254357, 0.6161663082562336, 0.15850514727806658, 0.28802799087844005, -0.09325212651903916, 0.1505534805234497, 0.019273649484000618, -0.6105305815178511, -0.0388417532551656, 0.21057191664839559, 0.1054688719557639, -0.11722621171675976, -0.10833322464496446, 0.27618661607246375, 0.1657925160906195, 0.144431786636967, -0.21823730578129802, -0.3435197094496979, 0.12871067784490817, 0.01836032198573368, 0.08730490357014446, 0.18692782577670858, 0.021949503614048124, 0.11268646607770415, -0.19007660089211748, 0.0930082483660482, -0.0027596205618363435, 0.08405772599743755, 0.014457474932110258, 0.025668296998757282, -0.08894614639761302, 0.046918854752104396, 0.07808881336285967, 0.2706213322972115, -0.0759351368177537, -0.2623192202782546, 0.031239040695001195, 0.34618730925161517, 0.1150833507640237, -0.07279046732973231, 0.04066918840332864, -0.2244661996182564, -0.2592025206910367, -0.18784779564133086, -0.0507635792644869, -0.2009358312134988, -0.038961526225421005, 0.0362189232175819, 0.016820692850941885, 0.31794655401900407, 0.08792721321302008, -0.15332560385503172, -0.006045559813876245, 0.11786690624743784, -0.01932509021017663, -0.03673302617686692], [0.11845243352253339, -0.004385180345552473, 0.05784799125740922, 0.08790957101689029, -0.20533892502694792, -0.03231592604712923, 0.1132443529763564, 0.07433887089357143, -0.018081311616663327, 0.07742379518773435, -0.16809806927815818, 0.11251579095193313, -0.1726638522401568, -0.07134903733461623, 0.0655940514105341, 0.21428328500933772, 0.07980895500022799, 0.0405663249261229, -0.07627967148756067, -0.12753506373136358, 0.005571442082736415, 0.10842705652481609, -0.04840043028974423, -0.09234698533352108, 0.0695887440301656, -0.008797011675731096, -0.04362581844314929, -0.004690332135401769, 0.04757706342387991, -0.23058994742742656, -0.036320872439068355, 0.05073025680406803, -0.10059011507235464, -0.08618608937100114, 0.15213088188627488, -0.10499647912905374, -0.15266502786348354, -0.09253412589504441, 0.1698589422768233, 0.13456790898204818, 0.005446067969661982, 0.16451629246524888, 0.06404541620373863, 0.08320571778748072, 0.05409105306138093, 0.060608317938399665, -0.031486382058463325, 0.19508629028799435, -0.16027253215371132, -0.17262127958187556, -0.06583861959293827, 0.04749961296430309, 0.030646140349188365, 0.09313096505339527, -0.12534218210902945, 0.02801202273820527, 0.29668080993352225, -0.03487459516238691, 0.030074988261861363, 0.021547437829110106, -0.19259850748572857, 0.10155036496410925, 0.006515515644576171, -0.05824955002962011, 0.127640230895285, 0.13346126158635122, 0.12209326738250602, -0.0029765708301601945, 0.028282912230083567, -0.15208706706560926, -0.14455834902007736, -0.13402013550166184, 0.03250641543077331, 0.14383620036750644, -0.30400447569509476, 0.022993304953731523, 0.03698048216595541, -0.045382003658213946, -0.06298568895885337, 0.018589308936487206, 0.14507238790955035], [0.0022129942920267134, -0.07959456078303033, 0.02301246077946191, 0.11368266910252821, 0.006195836525867267, 0.03205332081609885, -0.08205569246693359, -0.03306316489280895, 0.15864124047488098, 0.06379943372051186, 0.00025312662764261095, -0.17552074940091864, -0.2801114214175427, -0.05595797006158318, 0.3481270297082332, 0.4871040460562677, 0.4030782352449412, 0.12186051332910387, 0.09576023514457324, -0.22757434434363313, -0.056483284751275405, -0.09427159408002343, -0.07918798296910554, -1.055048499203661, -0.1580526413540866, 0.22132373066078873, 0.05286636155174721, 0.07083318023230294, 0.1196785105390102, -0.13922912710046648, -0.08247265126237717, 0.10215427780632447, 0.6918251707935468, 0.11117356679613662, -0.0993104014754439, 0.18638987653131808, 0.020187031484004362, -0.13421058798441826, 0.19532355520213915, -0.06682770026103453, -0.10107346465183517, 0.17226877755407877, -0.15147480848559378, -0.17639159872632285, 0.06544451434200044, 0.08466011098982415, -0.2316057727050305, 0.044969206026208075, -0.029566885173904836, 0.22636255829694857, 0.26388403492623314, 0.03240875358538827, -0.053465356992559686, 0.12643202336013054, 0.00044681870923922847, 0.3098696436649889, -0.038245853015009816, -0.007742692932190203, 0.1719755233263784, -0.2437497183806515, -0.17046255898189225, 0.05324298519535047, 0.171507288101662, 0.20814462932364966, 0.12394198972101964, -0.2518897857432173, -0.15147951036965254, 0.11818543097042918, 0.14471119059585316, -0.012815764389318805, 0.0661385790171331, 0.15430633774994165, -0.04488188391902546, 0.01958219197133752, -0.0985605223018345, 0.1667144605691098, -0.29016164923187077, -0.37018406847517044, -0.22757278937502656, 0.027991602849870758, 0.038174363524064364], [-0.06367985140957168, -0.050152281565185516, -0.24918940966362546, -0.0038069093035907717, -0.09871471545628385, 0.004470318839509775, 0.1586810422681529, 0.1393532140310597, 0.05313717617494118, -0.19865849538181687, -0.0465876138286208, 0.07274317046077339, 0.11585207353506233, -0.06143375676855906, 0.2421352947287977, -0.02394473260034831, -0.26839934005599486, -0.1571899772047459, -0.09154399777658882, 0.08157952371200743, -0.12132817473825544, 0.06538442565023844, -0.12379047616645576, -0.019617595409054382, 0.17730264500234433, 0.17981346513043314, 0.11661209321161682, 0.06233308979492377, -0.0032087638808223854, -0.05034487260053052, 0.08533836419607248, -0.10854172559216876, 0.20651150827856443, -0.14726259343279077, -0.06691939169625384, 0.048499820694348786, -0.12445466416191635, -0.03591902211223237, 0.08145127354266535, 0.10934690862212268, -0.07968546927226133, -0.034402777683832764, -0.02118761249004091, -0.04856345150705836, -0.03643940080445753, 0.006289523150044823, 0.17886427237449218, 0.07588880799017059, 0.07433744809050052, 0.01898299699676775, 0.02547255387743135, 0.11255141897294063, -0.1445821192386947, 0.06078354619491006, 0.06490287271431192, -0.042814127998206296, -0.01687377153901178, 0.004922604105361564, -0.12421444792545108, -0.08742721418039816, 0.07199800422488524, 0.00032136248367555843, 0.0005318445960392729, -0.024312552253111158, -0.1454180644007107, -0.0825363436745476, 0.005642456821747135, 0.12515184223146428, 0.0816535195800661, 0.07148331856425953, 0.1548159281465644, -0.00025758518300035755, 0.09587969616865283, 0.06738793168606487, 0.07723398621512782, 0.0886593169173964, -0.15690107413503152, 0.03304293413822227, 0.10391598170852986, 0.08828922345222107, 0.12208334797221163], [-0.08454972086742006, 0.05149720611155648, -0.050720796361048585, 0.05511640679800913, 0.2252401318661099, -0.1298909543495242, -0.13495145550244286, -0.024465870463378805, -0.09494140903333444, 0.1214537159899916, 0.0975794773827347, 0.1771646027937101, 0.04692956935779588, -0.03968530646620069, -0.08720545230150868, 0.06609820247342252, -0.19128860762358688, 0.07179171755390491, -0.05138207168907235, -0.12237802179640243, -0.13925681733597572, 0.11226179839444633, 0.06849054790701993, -0.1510148619801576, 0.044977314908837884, 0.054495213779722856, 0.13961111310323696, -0.17521199708610413, -0.15898131464128418, -0.08814016627305554, 0.018189634050234788, 0.21316135678516301, 0.053028944648611534, 0.03328383774120937, -0.0038523120578759433, 0.19771537545638787, 0.2923299610662869, -0.0925177194469265, 0.23971580375450982, 0.08962669720580793, 0.04622867259502905, -0.08007723445487265, -0.021697679300363138, 0.05275486255549765, 0.011053848389023239, 0.11110150552871888, -0.2254664924978742, -0.10826962061663362, -0.02443223325170552, -0.1508603555137818, -0.2805579233956265, 0.047052512646736724, -0.19559462125933605, -0.02834599705481934, 0.04814452232845426, 0.11359656059799836, -0.03176634393507823, 0.06708289998985173, 0.23292760822305622, -0.026911642755851728, 0.11639504701824041, -0.20310664597507286, 0.047326759198820297, -0.02989045756209203, 0.1091291057200792, 0.1431829322027367, -0.14471207054430046, -0.15716533003940497, 0.002390446558237032, 0.0923541005632028, -0.10728312281219754, -0.03279474068498646, -0.011093471076766332, 0.02161604773603862, -0.3163282868022643, -0.0029228401021106566, 0.8138174748909776, 0.1475794367236532, -0.33739047819952517, -0.05707265200591057, -0.09856791484406435], [-0.19352990697013375, -0.2496838940928183, -0.054232703423727914, 0.006439711408045571, 0.27241575847340527, 0.0004358542942582379, 0.006323208157725925, -0.03911894145239521, -0.06552455413539371, -0.2852513332715681, 0.0321075220086289, -0.11660773081773582, 0.050861654518145054, -0.034419478538214636, -0.2486869216058792, 0.24004023917636544, 0.006568165840531532, 0.1728392327896608, 0.1279459191762181, -0.1109830441103528, 0.31473164409277476, -0.061215893824838434, 0.19960211444950207, 0.02367085351106433, 0.12745830274515998, 0.006202285910926073, 0.1672704827062023, 0.21957031596190835, 0.19957456942883764, 0.18228452935693695, -0.024453088144115065, 0.1428075926630006, -0.10385269739798932, -0.01669688527895818, -0.11645319728011687, 0.13753532812443295, 0.011081197793379608, -0.009738328390038232, 0.24163257673436864, 0.04249824739965316, -0.1148727642846276, -0.04502887508871802, 0.10998736970173209, 0.06782548304451777, -0.25481854400008525, -0.19431528785349217, 0.23525299163998678, 0.010298685753494428, 0.1406422868191234, -0.40529390457212466, -0.26989142218224194, 0.02191154324390724, -0.019365469310283007, 0.1946443569849718, -0.08036648889743934, 0.0775862898625537, -0.26922789272466446, -0.530019737207848, 0.13606680595926218, 0.0025626864025865307, -0.1284838486027368, -0.1786804793488502, 0.0798291499046223, 0.1884710952513162, 0.15996955592384798, 0.6208562701379817, 0.1948264752621849, -0.49730403803730233, -0.34932621672046993, -0.07814405294664978, 0.08253461729155002, 0.05085520120353751, 0.0068706365366692085, 0.11189544857766867, 0.30994151405921594, 0.026972643959311017, 0.11607742014290844, -0.03275726410731432, -0.07984998728968919, -0.012475463622998548, -0.10111347916248435], [-0.008323627054724754, 0.08450622857644716, -0.00593363241034086, -0.11602788263488478, -0.1691954505984818, 0.059988970627133785, 0.04074353875154807, 0.07238361023337218, -0.025620255671315793, -0.11971385102804469, 0.015012523095446309, 0.02541208780985826, -0.044185952104217815, -0.05572413243237077, -0.05636148105436348, 0.04564112919502444, -0.19114147199258752, -0.14409841899571904, -0.0469912494290728, -0.019578356240716507, 0.3707845525379886, -0.09609635645281536, 0.10153228215012658, 0.18881180274853962, 0.0902214628481531, -0.021407560468771975, 0.30018961590377, -0.1832234274252324, 0.15243081818056636, 0.11294062525705775, 0.25249799496116193, -0.2996065640158181, -0.31536208826032325, 0.040330870119554864, -0.17001274747145712, 0.0836588290918431, -0.17009238893196094, 0.08136030848578761, 0.18405963418994065, 0.038016212259946634, 0.4559382188529711, -0.1376684324522886, 0.3567396013672841, 0.46724489724578316, -0.1213174415780629, -0.13265521678835862, 0.21040392902189814, -0.0014074502504251745, 0.0030314516175157374, -0.2332408142521544, -0.22715562952522125, -0.0033149451158397936, 0.11103572863100164, -0.06595795342617278, 0.06984783934850874, -0.2417221440961767, -0.3441459060457844, -0.28440377387450744, 0.7374615421544586, 0.040870143353374334, -0.12295433917400705, -0.12664098861474812, 0.009874563914869412, -0.1274079645907641, 0.020516754364179865, 0.13493902057942112, -0.10094661887791717, -0.4390712905390111, -0.5306435234777044, -0.008852726897378631, -0.17791162526230117, 0.010512156382091346, 0.17591777999150177, 0.014903010957874753, 0.3000777752428834, -0.23552306443934398, -0.1257299945890629, -0.11514799116414734, 0.04819056422273514, -0.009068730702134306, -0.246534369401923], [0.22033171453016145, -0.023940844726549018, -0.03391882454905055, 0.03837311517731241, 0.0687459078022661, 0.134786979473241, -0.026683533207907336, -0.13542049029297454, 0.10835322593856775, 0.044660673115934135, -0.029166184797563624, -0.1366148300706546, -0.04868547938066895, -0.05678068381556383, 0.01809071303502405, 0.05275014316146949, -0.13721050022480744, 0.08595552047966198, -0.0974658852129166, -0.005820842769682567, 0.08052407213717912, -0.07870043994225584, 0.07397433533712608, -0.13568650190667284, 0.028272427648638028, 0.16662657803565073, 0.09997553731183317, -0.0958828474795877, 0.06758079569634087, 0.034588653663383644, -0.06863724702139258, 0.04796145777748507, 0.063615042793764, -0.023017215426691537, -0.2739811775581049, -0.13732715442285387, 0.07313096185105647, -0.1334156697414676, 0.09815415817738267, -0.20346106435919198, 0.13668010291984894, -0.08174173374511123, 0.020498787808922357, 0.1425427899264913, 0.014661630240759397, -0.004114427146154807, 0.0789318277623203, -0.019075862169845324, 0.0741217817762871, -0.1467996866751758, -0.012949101593183063, 0.055607858173053214, -0.12683003238827326, -0.13581557442715464, 0.08797832246571796, -0.13410873946143145, -0.041143540083415905, 0.11144260039216664, -0.19059984872714575, 0.1191023807865635, -0.03090449552049192, -0.050005799293164274, 0.11267929856030176, 0.03251068869947685, 0.0454894427282145, 0.0728429618625755, 0.0056801635298884805, -0.06048933608973005, 0.010237900437424428, 0.008716396208999473, -0.08891657089434833, -0.21774060172017376, 0.16284334197232864, -0.06897799818081783, -0.12594160408897054, -0.04972257875330532, -0.030547159419398888, 0.052621398232553955, -0.058838124407323486, -0.03611290382016528, -0.03717691789398516], [-0.16750175161163863, 0.16684139186838673, 0.09109693503053987, 0.04885757848503171, 0.009407136145299885, -0.22193014954837056, 0.033189491550942425, 0.03967272296705962, -0.26049218897553417, 0.10908096069936964, 0.09411728371467501, -0.030035725908121074, 0.2688405493265892, -0.030902636078291412, 0.0019912764010536956, -0.22417351932081497, -0.06255082976010651, 0.04490131203667184, 0.03388487541221561, -0.08909315870396704, -0.0008874074317477589, 0.19294087669108453, -0.20362032336896407, 0.007740973537444687, -0.0747882798367348, 0.2676530185460326, -0.16841350049953036, 0.22341861548343667, 0.20412957117013353, -0.10844469865439063, 0.004593660522850011, -0.07008735079604402, -0.5165284921905974, 0.053248854001010155, 0.12443831196682917, -0.41911332414098956, -0.017619962636585648, 0.0028121495669281293, 0.04360709781356232, 0.049320625351281386, 0.01702271338326988, -0.39442756022905073, 0.8522967646723004, 0.36663502478263854, 0.06016375386306313, -0.1494097127978606, -0.24697145212497784, -0.018878164777376978, -0.04205753761117764, -0.08759104479172336, -0.06853076250995363, -0.005291832594252085, 0.3135667186091006, 0.01700960556214011, -0.10753560687813357, 0.20144528168833048, 0.13895090877355992, -0.13304507235740745, 0.1595974824045323, -0.12960886015428785, -0.07975696434184375, 0.21303335571720566, 0.3241339343156927, -0.13187652355975044, -0.2850406972794776, -0.033825127096546885, -0.04954654502483113, 0.22793637867463762, 0.2413173797441482, -0.3003216158926493, 0.08480866124751761, -0.010442310877724488, -0.33423514896248324, -0.0032087788388504754, -0.10125460708096162, 0.15529531383937986, -0.1539170091197963, 0.020099029268497284, -0.10512321735164702, -0.022897503209876303, 0.03294137066818387], [0.09709791695002351, -0.1808001024589849, 0.07300847261776928, 0.06740641689300494, -0.02149942898759089, -0.08463985984933858, 0.07812977902373601, 0.11906131708066862, -0.006244556110736631, 0.033754736843288516, -0.17463628666038722, 0.07498712453231801, -0.06710327191573214, -0.06113446574078515, -0.04491782810995493, -0.03869908552655591, -0.20954309438916524, 0.004843930916256588, -0.07082446465463473, -0.08098269862575708, -0.11577212882189593, -0.058064727391079214, -0.12069261978806739, -0.11027204657169982, -0.08944270717287127, -0.018946744890733898, -0.16483727562980907, -0.054427584617106436, -0.03972451483218166, 0.07679191038675119, -0.1787065182887156, -0.11109480878171665, 0.1585894574311761, -0.06904259880563757, -0.03837514642329957, 0.047549910068444855, -0.10861501691589993, -0.19161062318567781, 0.11778113281836212, -0.07346733582240786, -0.15016771994813674, 0.011963764899178303, -0.06474369426483305, -0.16365575494856405, 0.08328672008673507, 0.05008966895920431, -0.22786843152374756, -0.10622307774454837, -0.09948268020115308, -0.11704402898936024, 0.0030119383586810523, 0.048400954492499086, -0.023978936883993916, -0.04875754522544915, -0.05958581290147755, 0.07529218331956594, -0.18086445241627977, 0.05888777485556023, -0.22986078733443208, 0.0063927265690036155, 0.08500993805808907, 0.0343750634166256, 0.03933680190052594, -0.07947153133500882, 0.10188131950842566, 0.10056854883587142, 0.1039032989666843, -0.04875417422478537, -0.10652418733364834, -0.046930493307000644, -0.0008056886446048758, 0.24981132598667477, -0.016043723157502285, -0.15116532888146447, 0.225512984114019, -0.09547049831470582, 0.08490441456685617, -0.0032820055347159687, 0.011759317043833971, -0.020528111186473217, -0.16131428081672664], [-0.11590169640893515, -0.18992760074906256, 0.1644578746095412, 0.036792814179380746, -0.15239048598544877, -0.1426823784258661, 0.08027955522233575, 0.02384887925362588, 0.014836594898429232, -0.16813988198657878, 0.09431612627464699, -0.021124112999558783, 0.042647219931523685, -0.15409903493387672, 0.11486567762835746, -0.1579387317854006, -0.4385077556822599, 0.140589591197897, 0.05177938845413407, 0.006566472139259434, -0.09380495325412617, 0.006866136498362865, 0.05672422373886317, -0.14020011963956508, -0.16688434951540887, -0.2912513801139367, 0.13244799522762415, -0.07410489090923324, -0.024350236537499275, -0.11082551794832085, 0.12959347038802238, -0.08865550603148507, 0.7529625166427156, 0.07412310549010254, 0.01014139550875123, -0.10336944511325048, 0.08966083122293751, 0.23794354048446473, 0.15174768455918283, 0.12737916661531545, 0.18258186321020556, 0.2895146086073768, -0.2451467536196749, -0.14321545925010787, 0.10105980073300742, -0.12019793261367546, -0.051697867621109166, -0.16281815036863942, -0.18046931957260579, -0.05748824803162709, -0.0766916145843956, 0.07078685413908231, -0.16800947029458327, 0.005028375229464564, -0.15122447271689032, 0.03371561204271658, -0.03054222520802148, 0.043316977658475316, 0.31272499464520676, -0.1523901388593795, -0.23178704720599014, 0.09042241326197607, 0.011852727253295364, -0.23399740259459778, 0.05412117150755063, -0.034997361559236925, 0.003350361866021071, 0.1567546922450646, 0.03929265123153999, 0.017714589877115376, -0.14654232736576095, -0.01623509257997355, 0.1633742860353528, 0.2149392703075991, 0.1517808769331599, -0.053385875534598906, 0.2685770692574701, 0.4396388144281825, -0.01126534706039658, -0.001426055482503452, -0.07803976105966522], [-0.17022607383080007, -0.04355470949194732, -0.05070615141140806, 0.22856211925866043, 0.045356331937488205, -0.07955378054404795, -0.03460002598198475, 0.05696835304339281, -0.11024649003835617, 0.18012991126287348, 0.1219456777005841, 0.11886475682452863, 0.23771530870892318, 0.04138759779269429, -0.2391527039980147, -0.2892063400627076, -0.10422811651121805, -0.10044488759943664, 0.05330421912913977, -0.2841621727692791, -0.005819072014840021, -0.20360751316705417, 0.05180978648528156, -0.19189032319762248, -0.08338451156763323, -0.07156412673531044, -0.13990130090353958, 0.17081151703166564, -0.12476744016964224, 0.036711508009374734, -0.010831886479444367, 0.22615069523546813, -0.4264205804387362, -0.004019300329078751, -0.16661566912736692, 0.15579121669001647, -0.07881791039657392, -0.13201689981868595, 0.2872473791904494, -0.05791374841834324, -0.25683068595996805, 0.46884593926231766, 0.674428813461034, 0.576312080657951, -0.026082286728987134, 0.025641871918109068, -0.024213017848286306, 0.03693505638713656, 0.32069027927659133, 0.061957747870057964, -0.31259320567158017, -0.14258930899925387, 0.1776652385848407, -0.4128191697961887, 0.10866265655920139, 0.0730596995710984, -0.16071101174997543, -0.34038522389183185, -0.1675041745936669, -0.025197511125869834, 0.4085650397632857, -0.03057885226828093, 0.26746221544702237, 0.20621445859997847, 0.18907454892739453, 0.280191583968591, 0.1560018341589986, 0.22996755661004345, -0.16127398853957656, 0.2503647242761194, -0.03874237662274185, -0.08698196064282487, 0.03127748728222743, -0.08651581315034623, 0.1626553704380783, -0.12143820323133767, 0.2512644756941532, 0.05133905862383363, -0.08645335784186182, -0.05206799258653225, -0.12004087530876477], [-0.07290021522202822, 0.05991854336754451, 0.021217149136333158, 0.0958410115752539, -0.03772032874897457, 0.0232905217662337, 0.08264624012505668, -0.10015740230953224, -0.08082469001301097, -0.25106189192636436, -0.07867601673306969, -0.018160334781001156, 0.15457219660977323, -0.058073172086490175, -0.23717278705429112, -0.14588878751954681, 0.02134418885837809, -0.19030390095099325, -0.013397446826520075, -0.09540724567920944, 0.08795565156530194, 0.06052365886261273, -0.12233458962958704, 0.0742456254518529, -0.20930076245514384, 0.022802996841527118, -0.052084666006059765, 0.0839423455074891, -0.009310817931713082, -0.028466295507598525, 0.07839240485002336, -0.19195559064048492, 0.07442783961531468, -0.07068340669884318, 0.14061956952185398, -0.0336870688827938, -0.051967653288198065, 0.03998654943390526, 0.10741006818145418, 0.07416422615742056, 0.24538725259452812, -0.17871770030609568, -0.08978588564232466, -0.09793046861516039, -0.14880416959617251, -0.047338077512974995, 0.11753923856348364, -0.12794560525634321, 0.014818676502728806, 0.010969849675719713, -0.21966722917293482, 0.12200326369124366, 0.10400420971436104, -0.04468966481213388, -0.051757370198357695, 0.048837203118775784, 0.09922607681389134, -0.11687900002077115, 0.02486272280541681, 0.026364767355633936, -0.13059547464523322, -0.12260184475791175, 0.02436104493447952, -0.23860451615324468, 0.054596417831530165, -0.028267346130366484, 0.004151229592737684, -0.10702305641299327, -0.0038676754213784353, -0.07787782352473717, -0.10769242563687116, -0.09943429599934522, 0.05639871111295268, 0.06868108989942504, -0.23416279453729016, -0.018990285615441565, -0.06855669068737166, -0.04821650915374624, -0.027972340037254788, 0.06587441363465603, 0.04007852926062893], [-0.21922561077886518, -0.2806147828031955, 0.09709377563885216, -0.2230453698207145, 0.04207068416915217, 0.043457106209700544, -0.05138485150313207, 0.10756091753440104, -0.23517251747042056, -0.0438374354375598, -0.10663431305614347, -0.04356656098857314, -0.15322263295437996, 0.15417512500340882, -0.010190608179912927, -0.29814402379652893, -0.12690196609109103, 0.01132479441957241, 0.0814365023673391, 0.030013732940419965, 0.15418597420878946, -0.2036810177657452, -0.05853702233505048, -0.265751779510854, 0.09808906384885395, -0.2919438825195332, 0.39475391864716675, -0.14074242423210737, 0.017656523741701777, -0.012894933422131405, -0.19019880918179227, 0.0597951907053037, -0.4548900449886219, 0.017674877740690965, 0.7066311245083211, -0.36258742043540576, -0.03379766392438736, -0.14913854512158495, -0.19782704690728614, 0.16790131112979736, 0.1165136683146052, -0.34185351938240766, 0.05957275873063616, 0.5294923434172265, 0.131827654551091, 0.04550087992898678, -0.10537091447464113, -0.2862778061690623, -0.024188263749010543, -0.1180813312110843, -0.04567911992266591, -0.22976075828731932, 0.024084722466096914, -0.25424518739891, -0.005121971347804786, -0.2390837007713155, 0.03355775242067396, 0.04520670247267426, -0.015080263192425449, 0.00869039787340258, 0.0705102205878674, 0.13511371198015898, -0.12438950832983131, -0.08050069359838147, -0.09412243114152564, 0.07342234269816826, -0.09411827790826925, -0.10892214581111587, 0.06509225840071277, 0.08914158874404214, 0.14543512412832482, -0.09374640291180823, 0.024853949128553383, -0.06386091507770299, 0.022452154733281056, -0.12018500544502514, -0.13205978124608844, -0.03851762425354109, 0.1232950680645375, -0.12872799176299, -0.10318995801070084], [-0.0790147799614988, 0.04864942540848974, -0.03400957913593758, 0.0539099138122471, 0.04234030246371046, -0.10367489521901586, 0.008925018609742638, 0.2036821487953105, -0.055918777079393855, 0.25498570913882523, 0.02640719147693814, -0.0006957648145233082, 0.016882791591874387, 0.03984657795080555, -0.06738668080512585, 0.057968110560060127, 0.10901495614381382, -0.024097705969470036, 0.16846602197045016, -0.015248862040392682, 0.03748229217984722, -0.016763690559386712, -0.17266229144887368, 0.18013210154063372, -0.030569513990073363, -0.028894153960543907, -0.10802145254446034, 0.08700454821750729, -0.016522584182523795, 0.011781805404030489, 0.04249208570519401, -0.15560238056376025, 0.0842804866811992, 0.05354995255117981, -0.03167074500466967, -0.012674871474240648, 0.010684241494760265, 0.04046015681354857, -0.020821856959530472, -0.03379110999412174, -0.004076709304468798, -0.07095623980700311, 0.07977899566514639, 0.19542716632241675, -0.15899545962506761, 0.08377112004259023, 0.02060435636528541, -0.1711047506914266, 0.031096407142545603, -0.23315938821248217, -0.06794872593728728, -0.06044391374825597, -0.04538305832978962, -0.04404532917152102, -0.04640058691551538, -0.14025857268315275, -0.16463015551519167, 0.06537848465533153, -0.080784243203951, 0.2511034244310841, -0.011540198082602364, 0.10959546901906922, 0.10167256650291097, -0.06468230655189544, -0.02190028448297889, 0.14990506331189035, 0.005842846093278118, -0.12076070761866789, 0.07074264061731135, 0.02546178991260046, 0.021337546631409247, 0.16238124563873366, -0.0016429447702449602, -0.19398450252425872, 0.04276675355129459, -0.12715126940366375, -0.07695021893434342, -0.03450645881623169, 0.05740984453601098, 0.18877283408183315, 0.060964984190743414], [-0.0026552384508052376, 0.07438797352397872, -0.0661373971685717, 0.0713536089022561, -0.09167242011215823, -0.15855841238019217, -0.0190193319546778, -0.0960767184811981, -0.19044294272275022, -0.028092450884698233, 0.06769092633108736, -0.112611679704097, -0.07091156668633702, 0.14950839649309927, 0.21376888825562623, -0.06421800655419158, -0.05112472266914807, 0.07206227149407352, 0.10897662870485135, 0.018435950178031055, -0.08454953400067677, -0.044249607799392236, -0.12656872610583478, -0.009455578252689785, -0.1741476060564945, -0.001947279566203496, -0.0013844232599607906, -0.07367575979916749, 0.06293532999466099, -0.0369685612308764, -0.09074293543384768, -0.07533302113032715, -0.02464305134621537, 0.02757397296613633, 0.05246743648995617, 0.049792542140645546, 0.03967729276678175, -0.022791205233245557, -0.03455202776633849, 0.18341438843388894, -0.0573432230969578, -0.04576225462733502, -0.23034484001870417, -0.03191744447150069, -0.015925691174494654, 0.0008709334580726808, 0.001049297566415681, 0.03335890948665056, -0.0801029244046475, 0.1271489399606441, 0.08979819707537634, 0.014630697041659436, -0.007262163173707632, 0.001994324770292209, -0.03501546044696313, -0.07304397971239059, 0.07780938492184282, 0.09693826041051704, 0.00258983291058855, 0.08726985156344919, 0.12532556956003005, 0.07928432334659542, -0.047203896392086414, -0.12672044426550041, -0.12040734963564154, -0.07982510383848218, 0.05633557906791252, -0.14260487517161213, -0.005712316440133618, 0.11024880100701064, -0.09641465006889655, 0.10060710355499704, 0.042811521296197134, 0.23888243826591868, 0.08199848846680186, -0.025885633239528007, 0.08740668507169384, 0.11664663192519292, 0.12090583526833355, 0.04107636910233849, 0.0543667815655151], [-0.06638167013308238, 0.1576077572500979, -0.040902622455338856, 0.06890561175346004, 0.14884166378379685, -0.04735382907663643, -0.01538862282965405, 0.14948876646687928, -0.1333615143179242, -0.19040983514989737, -0.10606433551749937, 0.18763929088262654, -0.20845097715192293, 0.175616360130175, -0.38306793484209056, 0.16302038656147338, 0.14570405375379125, -0.10349979382469866, 0.07285839332066965, -0.348247334061154, 0.0011927814162503853, 0.20394029990747625, -1.384690332372163, 0.43409722614250174, 0.12896216139405162, -0.39207731795849116, 0.21976945100507755, -0.05842194082235724, 0.06637828615279628, 0.10035493096724958, 0.23106474968500224, -0.06297045420026129, -0.26739708373731047, -0.0995969515985256, -0.43111660452961437, 0.10729897429244031, -0.10400156441264052, -0.07637775768266714, -0.1003984652944362, 0.25318185255347697, -0.04114987828369782, -0.03820676912358151, 0.11029817117909645, -0.18813894499657205, -0.11253980304460799, 0.1509868826032021, -0.1550541218929084, -0.007432677216386921, -0.06013043360772213, 0.047378530154546385, 0.04083464877142556, 0.19400001388908225, -0.04455422265101614, 0.04671984211177082, 0.08934747803584991, -0.1573855321005922, -0.09295244122781532, 0.04105550126816316, -0.09594238430881336, -0.04041637083624004, 0.06884832436077244, 0.26624929947148845, 0.224115720485483, -0.04231712134305637, -0.3419215358646337, -0.554540305291559, 0.14839838400609984, 0.27848086741609535, 0.20492673282097473, -0.010682549096343709, 0.006132117197508097, -0.15508006956698883, 0.3200336999326392, 0.1642029396158135, -0.5210410652182523, 0.04520589726917238, 0.25102370223482895, -0.17636389627804652, -0.00802459165491736, 0.004069192793610809, -0.11679953611740888], [-0.05535871897526631, -0.03404983618072533, 0.017938207369409122, 0.05993596749428103, -0.048578293424171796, -0.045842370663256575, -0.15028085348300252, 0.1465425448285692, -0.17136869060322404, 0.044811084255759026, -0.21280021983735498, 0.00787022442572692, 0.11738646152616143, -0.0585482338023913, 0.045861581506494234, -0.08561941091784415, -0.2223355232054827, -0.08358455604087352, 0.06419325194326664, 0.024307147192347164, 0.17284182453730323, 0.06707297192659425, 0.12180766132905388, -0.14626978489831488, -0.10610218255272647, 0.10954428248770566, 0.004047538278986428, 0.15878851183506773, -0.0910565798702059, 0.05514824571325552, 0.10762537063001042, -0.15515094200598, 0.165941255321466, -0.051380523483276645, -0.12803293308956695, 0.06475640769898032, -0.05767307120870114, -0.014227113270852037, 0.3161399484020051, -0.2266226814358973, 0.2322869755772475, -0.14134219599866749, 0.06763632549306198, 0.09802342055960926, -0.09358254754304324, -0.02033352336055321, 0.09364594820880695, -0.07378942785720097, -0.10585325036178503, -0.026629632644516833, -0.47440312901649473, -0.011729573277981587, 0.18493848358109227, 0.1276081867725742, 0.24588488094058156, -0.013843331542046691, -0.1065976131971096, 0.09617742357204342, -0.08421050771638607, -0.17094084488113118, -0.1818813146536158, 0.09357655143826346, -0.13588131064947934, -0.156956413642761, 0.047872875401620385, -0.08366634065046365, 0.004426071392307603, -0.2868656424903765, -0.3936857321389922, 0.21081659900934557, 0.15771390235859087, 0.06811555987329213, 0.11438452103120247, 0.04039215575525607, 0.09499178564510002, 0.09379441502405794, -0.10855354167693379, -0.06845359092102193, -0.10206969974342281, 0.12464811106712546, -0.028726405347753572], [0.22286644384624732, -0.14056706975962255, -0.03294958873383945, -0.03777139236661378, 0.01773340409013864, 0.10421665626953434, 0.07254814595883924, -0.0784235488094647, 0.08396165414179652, 0.147724215382731, 0.04655871856714202, 0.11064219261731811, -0.03020009044108293, -0.20781132029819965, 0.13545028672824072, -0.16984927672622266, -0.031200539850806595, -0.04371279078289661, 0.1077567668293698, 0.10443290448491152, -0.0873283355419212, -0.03469672856502679, 0.18741261785618485, -0.05713353095787126, -0.10682572154297086, 0.11035319178010385, -0.23014384274649563, 0.012969299779798778, -0.18189170297892301, -0.004164104934138345, 0.060011414099035695, 0.10277775317175906, -0.23947581019829572, -0.049895926800133675, 0.07460177864330937, -0.15383914504116064, 0.011420585445177475, 0.019302534965062165, 0.43153722763003327, -0.16716673021148745, 0.23821344162373834, 0.086388461577887, -0.27950598872179533, -0.2026953501346455, -0.13575131095251447, 0.16443177363498532, -0.017477158785426383, -0.13463260701808002, -0.06367388181651534, -0.38097331797652373, -0.6381526317149736, 0.041745345596646166, -0.025158210117858196, 0.013874248500316778, 0.12132724650607768, 0.25939443774956994, 0.28661299071827656, 0.14021421870180026, 0.4995422504891533, -0.02985399807125481, 0.4334907133270043, -0.08170576981205462, -0.021533579757153403, 0.03848321907719967, -0.20214907481922734, 0.038237766394288775, 0.07416486828624637, -0.20957079137588672, 0.07459744136232839, -0.17874215288445305, -0.011614330846181412, -0.009690901277021841, -0.08318776366253357, -0.17796244758305016, -0.0879145026985087, -0.07950805595188613, 0.10240326808327832, 0.1735559101516141, 0.026466691644389057, -0.11067721935517237, 0.06796026102975834], [-0.1201801313739975, -0.0298456483571545, -0.08495808088958609, -0.02567957495746263, 0.1294449224366314, -0.1696322129778667, -0.20922855096298656, -0.04129324808676494, 0.06473076534003654, 0.05656090238235731, -0.10774701679727489, 0.02581447437393818, -0.06644098640008528, 0.02639302848789066, -0.008754715469714578, 0.021675411063227783, -0.15214698045948813, 0.0038816013495800187, -0.033298903226013504, -0.03657280510772113, -0.12885078719758203, -0.12741175951828787, 0.01578300130601954, 0.08564106870272653, 0.039868232761098264, -0.04825838054696799, -0.05147642086854826, 0.08095964252794112, -0.01808835997510184, -0.07641501721816446, 0.09062130117390645, 0.04656340290986477, 0.3598106994826721, -0.09214298935388648, 0.3268517560995948, 0.12559648998176964, -0.0537637464376133, 0.09667071513294802, -0.13447046913940536, -0.030594647462192315, -0.2617795142426296, -1.2490193668332101, -0.480368802116552, 0.09557145236153504, -0.10029206351146495, -0.24535609506736694, -0.11866493461394778, 0.04112093642242663, 0.027701268728303155, -0.218764601414041, -0.24110851318416882, -0.2386799667199437, 0.033212131755991726, -0.1605998965942391, -0.13364378719278674, -0.04829944269918445, 0.09144579510048194, 0.047885333882909546, -0.04021928001335064, -0.23159243423081216, -0.29848129785218536, -0.09412495478887131, -0.2415299264589811, 0.035597674331481574, -0.13325073057011952, 0.041075314052944456, 0.027953314496126758, -0.009196802095719697, 0.15036535927507716, -0.041526657342845705, -0.044143804199457376, 0.1629803460181856, -0.14584785751255433, -0.1968283579891512, -0.027474786640011347, 0.005499290545152741, 0.04965003783840412, 0.15367647379295718, -0.06514996020131161, -0.06712196360980416, 0.039010714505627035], [-0.06100975568416255, -0.01872295133810751, -0.07008890796836717, -0.14818902801238992, -0.16037158690037354, -0.0241066205085391, -0.12343202174505959, 0.14604414073546287, 0.02846355706118555, -0.21632745183375246, 0.1212209244724906, 0.0309049170433531, -0.19498460962617659, 0.08027428626690258, 0.06514531330619454, 0.07525570644484833, 0.43845589168763804, -0.21388103636462322, 0.1520303211486913, 0.2750808346582521, -0.050873463409247976, -0.0219812037445154, -0.06607722991805279, -0.16765440413070715, 0.11209475921362524, -0.13097126018161684, -0.2825355565023041, -0.1560012720250851, -0.22438697006510722, -0.1652098345401743, 0.009939798983557404, -0.006161205055606213, 0.020556532969842778, -0.20505989080984138, -0.027818029502024826, -0.293329425696857, 0.25752939803268543, -0.15905101947011888, -0.031632431706724154, 0.2589056701079387, -0.07902842292489222, -0.12655418221846584, 0.2573649162958833, -0.36623550012803213, 0.05482406243033052, -0.3427272819468087, 0.1237723614610397, 0.14785340249824727, 0.05593456799405613, 0.07086691326104257, 0.2590594886924573, 0.11119804074042795, -0.1377897194607331, 0.34230730467125997, -0.08319947751801829, 0.0009924707200424667, 0.27400880877227224, -0.012371408073231123, 0.10065636120120226, 0.06665139583451915, -0.2970665513906082, -0.17941954151840447, -0.27008195613642705, -0.0008985199603832302, -0.03819901664970062, 0.19783251026247112, 0.2053693185345188, 0.0825173610153056, -0.25313412837829163, 0.029469577040028238, -0.03178355086418859, 0.09583234739194525, 0.03996201999224849, -0.059907658587622196, -0.6729430963619255, -0.10042901336700667, 0.8198384543768317, 0.7715396014024777, -0.7223834610193407, 0.10865146267313523, -0.13060294158779115], [0.6876630477908073, -0.025431835389180077, 0.15876568205403946, 0.06390493061363973, 0.1929356380398856, 0.38464243236830137, 0.1266915565389213, 0.13220783046932943, 0.23010327244881024, -0.3066879504317675, -0.20856158139589265, -0.17410287226371604, 0.2430267864628151, -0.13191758017235877, -0.1055960825308142, 0.06322243526638562, 0.037921135703329716, -0.026366923662476175, -0.014318775287256672, 0.15950915191476017, 0.011196925778669129, 0.022058392682365795, 0.08579671215632038, 0.02972351186962236, -0.10211362989685863, -0.1422869515385141, 0.05349741461554108, 0.11660389934121689, -0.03991990478366747, 0.11798290763577186, -0.18517134780274294, 0.02149006478873288, -0.4397326905114594, 0.03098321010552121, 0.3737829580129641, -0.13352115868754147, -0.2787233088297141, 0.05940904344634852, -0.4344262623616485, 0.15823723221527075, 0.09494217563155194, 0.007896026005629019, 0.08091672520599796, -0.3968136346569685, 0.18104484398381537, 0.19408121120472796, 0.025776396253299586, -0.052795973482997825, 0.0888752861343072, -0.2923668028647662, -0.282277325701888, -0.10993588537549275, 0.1028280323551726, 0.08613938682417455, 0.15969268062178843, -0.12229058358486705, 0.0853084380229782, 0.10544447766204774, -0.3582347673872826, -0.06028841021419202, 0.01765504550950052, 0.05488677331855396, 0.22419267988778854, 0.14779646687560682, -0.09277008448539747, 0.19257908043598448, 0.08657732624624455, -0.3077705521236335, -0.04921155771531277, -0.13634312695713216, -0.04135938053257074, -0.024320533007315986, -0.07719987863667428, -0.04525224693155166, 0.12772834043085154, 0.17272778795264643, -0.07954772569798695, -0.10246557009029882, 0.1373378581932677, -0.14617251850445281, 0.04779915709923994], [0.042784313619351734, 0.12660486487937905, 0.16643751659464526, 0.05459882947073832, 0.14399270688240853, -0.002924054571326696, 0.13815555105161867, 0.18665671526297503, -0.06636761358079467, -0.018744674333801198, 0.07793063579682644, 0.008493517219192828, 0.19246229341190413, 0.17207049676056274, 0.03194174803844766, -0.06888668141960551, 0.022682430790536695, 0.052496612245550085, 0.0016639307174392227, -0.09369401098802733, 0.18155179726646303, -0.11682524271608569, 0.0576398568119455, -0.016849501842250442, 0.019297873503321152, -0.040988504745153385, -0.27853922751494403, -0.15629357900874005, 0.044524721753313914, -0.017737583992560573, -0.0008820852288519402, 0.024776002017718332, -0.1959372067526422, -0.10015648979298669, 0.03684474521487915, 0.20990202527450846, -0.09756196807004465, 0.1186359024144344, -0.005734641204369714, -0.09400616846197246, -0.0015863416002656037, 0.33172763776498987, -0.49342479905900377, -0.160682275712749, -0.12570697408659381, 0.012307007029608066, 0.07889154458664631, -0.08572628214253775, 0.0707472136892923, 0.08353638856802716, -0.042464660000556216, -0.07884971407953695, -0.07824689170654682, -0.20485707699890016, -0.00038463599083593563, -0.31910004868980835, -0.6895277450452294, -0.8062464065061108, -0.577368877528697, 0.017759980079076462, 0.07860084669787815, 0.3791955823395045, 0.046640326496453006, 0.05543148490098234, -0.06584779789404235, 0.02039431229710982, -0.02366326726268669, -0.1390096224973831, 0.5177129489759582, -0.19733441349998462, -0.17247034154071403, -0.025407428011445358, 0.04288498994129846, -0.12316540807691524, 0.4813309485287459, -0.1571161842777012, -0.16702010544674825, 0.06501598495384243, -0.2042077828757766, -0.03372571163237937, 0.11568399952964786], [-0.029517265656868533, 0.05925910456938336, -0.1078683550692891, -0.11413825800948439, -0.03725732996776091, 0.06867372933726808, 0.20460432946478233, 0.04576675812036237, -0.06873578442268098, -0.04449486663142015, 0.004566179382779162, -0.13151348335612306, -0.030634817172670907, 0.07396525799341046, -0.13760928942500705, -0.10637485618713549, 0.0231511854127566, -0.023360911059534722, -0.0959036209778605, -0.08498913777672251, 0.013244289406469104, -0.022371785065508683, -0.04033129721263898, -0.15748933898826148, -0.07731575507402812, -0.020748246282076773, -0.05148704503912914, 0.05891436863717065, -0.059139263804916756, -0.028794980365524248, -0.044740590062603613, -0.0007449975614449689, 0.055332467102348806, 0.07179233473456821, -0.010997495844143643, -0.052878555350450863, 0.022361244777592423, -0.17599777113379245, 0.017575323733262, 0.38566811513933336, -0.044776630599753516, -0.019029312796584385, -0.059569008404899364, 0.10193979620866184, 0.023376998915932028, 0.06955900012924258, 0.06419158694166285, -0.19502149965876245, -0.09247660920185384, 0.17582661712358916, -0.05569688173704214, -0.14674480473467813, 0.11184773886714436, -0.1786903678397904, -0.1446701617847418, -0.08813737824395156, 0.25958774708910165, -0.02129286913697645, 0.12718631076502668, 0.1878401272732812, -0.015055834987280905, 0.02947480544701185, -0.27009782367403123, 0.13409134495386324, -0.15030350051406208, -0.07426249663164466, -0.11587056195038795, 0.07219362594281017, 0.01004567901846032, 0.046200389554200895, 0.086936502762342, 0.0903149576965615, -0.020026668360103226, -0.02915516786467905, -0.19340722652724995, -0.06687269066874729, 0.12472507686442867, 0.03991876403611014, -0.18233068665464527, 0.13643562642618803, -0.0423928590785822], [-0.2797952992790125, 0.1369443793959645, -0.2151987348945687, -0.18478179842575274, -0.06527155643574366, -0.2911654912012726, -0.019945813881743202, -0.17961932859998456, -0.03403063133934824, -0.04770209508965911, -0.018348617073865335, -0.08340705101003348, 0.06381428455239935, -0.0026565331152285086, -0.1649581227604607, 0.034398127284551765, -0.017443319250907197, 0.043377287576739615, -0.16069336183528826, -0.07620570510724539, -0.08274345553974152, 0.0318126187692519, -0.07257857292452344, -0.020462266096275075, 0.004411083370748494, 0.11388533217727255, -0.15134590034321968, 0.0818957523170843, -0.09955372090390094, 0.11720233543027905, 0.32745394905417496, 0.02708699288179029, -0.36775805613319745, 0.06640834190258987, -0.04724888331725856, 0.07645799152719773, 0.02108293303904676, -0.15929399479465395, 0.24237017977243833, -0.14542046695487176, -0.14913634295452333, 0.17551021497504934, 0.2292844279348816, 0.3048916915027361, -0.28980062254913863, 0.0004096605727318744, -0.09373714445878922, -0.05667687933266295, -0.07299044422365814, -0.21998791983646876, 0.1287753419758792, -0.004194396080531257, -0.05544383421147142, -0.07479802067390076, 0.018886666261385267, 0.21356056063724535, 0.08103255348410944, -0.12323940252282162, -0.04943870117833786, 0.04701397375550358, 0.09611069763368915, 0.6042739539593793, 0.077386653130995, 0.046768089800856616, 0.04012074995087176, 0.17117453429683394, 0.09079409270782218, -0.14673037505482348, 0.06325308025964797, -0.5039845123116102, -0.12717733460463693, 0.12411091808659395, 0.11479193837081351, -0.11851222353590364, -0.23139259131513465, -0.12989203163937518, 0.31082586789250066, 0.3790710346363096, -0.17905632715634254, 0.10372907336533249, -0.13617535375234252], [-0.15400623489397444, -0.03894082708390631, -0.2555294395405763, 0.007130823604886077, -0.026364339359135503, -0.44837397765027, -0.11339528656379708, -0.161257048207286, -0.22074933250409856, -0.2137293286800993, 0.006116049036158475, 0.10941255475549534, -0.1515815138201019, -0.005840471534751739, 0.15773802090854408, -0.1957658873811351, -0.233992100525174, -0.010927053207208966, -0.04600848349550788, -0.1286304912004015, -0.12126983350665295, -0.10447195345556126, 0.023292588565823825, 0.06509369992555229, -0.009422557410261783, 0.15815858221887963, -0.025699974435002722, 0.20566553890967595, 0.10343506764481762, -0.015129762404601817, -0.34977599524904307, -0.08463199811147092, -0.2167680627271187, -0.030858255512222012, 0.09485605874121884, -0.07682801293300945, 0.15213118369960235, 0.09721263818227978, -0.23935585994747477, -0.08606153346121469, 0.7896121767027741, 0.22953066999905675, -0.069345614535229, 0.11282855782547754, 0.04948108127142976, 0.051688143583572065, 0.15369110080375764, -0.06543077049102554, -0.02186852386020421, -0.6846918699381374, -0.4814370756032262, -0.030002639206479276, -0.038057287984993575, 0.11005690834961487, -0.21641885661675753, 0.042608205325614566, -0.17457506833924927, -0.4231787137331519, -0.03501921534219957, -0.09201093559493767, 0.03389132715169648, 0.018025585013955008, -0.04384867912025045, -0.10366187887790339, -0.03919434358690325, 0.40362246721376194, 0.03157676408936675, -0.20478203547277676, 0.005547040650764939, 0.09584974259876387, 0.052089923116722545, 0.12849047309319328, -0.06501847803712807, -0.04239820123994164, 0.4093731407609378, 0.23234251803929462, -0.21239166967598805, -0.10824099983346097, 0.29534759673996874, 0.2129035824289674, -0.18775334307239247], [-0.07793436982621875, 0.041797844327738136, -0.08043813033009216, 0.019449260948225824, -0.32960300447867424, 0.1349830579700684, 0.049203825128236296, -0.17071158689629948, -0.1687589649344006, 0.08265337559363879, -0.11411962112838175, -0.19204065310882215, 0.25830826266950707, -0.015989772381065682, 0.262628092394736, 0.0829617874375849, 0.21706041372667317, -0.025158589277264186, -0.018506670309297545, -0.1545183817034194, -0.13262846009910756, 0.1549883550511285, -0.1610155243057451, 0.0224226253549792, -0.20338572673044808, -0.08819617922125497, 0.2224873241681488, 0.0150187505702984, -0.07725847456397, -0.08068196263037823, -0.2689790491890931, -0.05416827105414308, 0.08702425295150681, 0.13790414227246428, -0.1813266707357851, 0.466626589425791, -0.05255676230993161, 0.07178869414512128, -0.4055900463269733, 0.06185247779179767, 0.014360816080386429, 0.35458224022785473, -0.5397579990083552, 0.1631108747056618, 0.011789600895995954, -0.19063427482782064, -0.05053287512025995, -0.21094758320406404, 0.09266477826331804, 0.1420254583601466, 0.5815907748065852, 0.019537761939352513, 0.16676461138482782, -0.06341899107574114, -0.04165433587690313, 0.14035595248900054, -0.05543436818008524, -0.09094404337566114, -0.4267374328034508, -0.03725047404856399, 0.19385912201068461, 0.0029481162945566713, -0.301227708599942, -0.03789683324612833, 0.1114264363296264, -0.5541067371400966, -0.06418238280623195, 0.4403215647976708, 0.8260784328290449, -0.35880742853683073, 0.06199133592079466, -0.1747435172193207, -0.023116552603691467, 0.06742749036266597, 0.19963929270633332, 0.030801222139971957, -0.25729027323876236, 0.010550890336720301, 0.3073569836556012, 0.02814468949498668, 