{"ClassName": "RvNeuralNetwork", "LayersNeurons": [784, 50, 10], "BestAccuracyRatio": 0.9713, "Train_Loop": 10, "Train_LearnRate": 0.1, "Train_Lmbda": 5.0, "Train_TimeSec": 146.369713306427, "NeuralLayers": [{"ClassName": "RvNeuralLayer", "LayerIndex": 0, "InputNum": 784, "NeuronsNum": 50, "NeuronsWeights": [[0.01552566767559437, -0.06651624879603861, 0.01247720827604488, -0.00927696434562605, -0.053210246281171894, -0.0327539355920845, 0.07527442489322365, -0.016038518668851882, -0.036271944922066375, 0.022652727470330394, -0.029618941511908182, 0.03610923855229143, 0.0354926889041978, -0.01390400767316849, 0.043198362995076345, 0.018231296161463476, 0.017037169282619242, -0.028871967659782557, -0.02904506940225867, 0.012196487798041116, 0.03402579749140982, -0.013217541689270145, 0.011431783554739908, 0.026216136688231872, -0.0014213922916791173, 0.015898754124049834, -0.021821067607352355, 0.04805623441680385, 0.060210288892135845, 0.014204407453000395, -0.013536795771442078, 0.036110812581683284, 0.03190067441079136, -0.04603872406522802, -0.027124287422000837, -0.004037426191807014, -0.019420567448911377, 0.04303117544678109, 0.020480438911742373, -0.011540063611511565, -0.0007208388196077608, -0.04349383188823846, -0.0110787371726123, -0.007928762743685185, 0.04067601037360529, -0.06243858043060732, -0.05391725987909974, -0.07895568940356279, -0.07013388196766682, -0.011054651933757289, -0.007452041717983902, -0.051496939009364966, -0.00796608999929821, -0.03376558992131178, -0.09065485233139813, 0.025914486243231793, 0.00030341836608744233, 0.042541448773701425, -0.0033590331442503126, 0.08313348868473634, -0.0008027339948104049, 0.016528455430776814, -0.005671544960593503, 0.05949121662194701, 0.04022731023424162, 0.03909733445188154, 0.005846665947299814, 0.014405165578423978, -0.033053774639211574, -0.009064215616160769, 0.013786882829807959, -0.027979203749271344, -0.015723202794125313, 0.049442522610350946, -0.01688186927669754, -0.012199133207715639, -0.0748129530711892, 0.0232109827969263, -0.03653649797019788, -0.0010631158547251814, 0.01226894195735098, -0.019076795968877295, 0.010717063155285655, -0.02193241079242747, 0.055528967666187055, 0.023369406368935704, 0.027134177754714005, 0.037877235493978326, -0.0025586279669214543, 0.013573213812714752, 0.010276349913227255, -0.03996006976431807, 0.030228080564304725, -0.04667070977434522, -0.03285759051117798, 0.009280931801630341, -0.09179415946076507, -0.03757310796931573, -0.050986044412381734, 0.011476242628709362, -0.013982466042283662, -0.04190717240654632, 0.009146638667959712, -0.019742010066010413, -0.023113629952978252, -0.02178163754438111, -0.0038729679998926827, 0.022085158482274693, 0.06415541331885273, 0.03716516601763381, 0.017207826101174366, 0.006407449552955002, -0.04946603835907901, -0.0026102273466090163, -0.0164400373410074, -0.015058609327593637, -0.00788125591082221, -0.03726420794955732, 0.0023211402127936887, 0.03097819668801708, -0.0023448580100517195, -0.005838468172270321, -0.040591510123310276, 0.0941626507045417, -0.052902016421600626, -0.0032037096957654395, -0.0429885728322328, -0.002999630798392648, -0.03415025009767666, -0.07996366955534864, -0.029058311879952534, 0.009243315824230078, 0.06922744109337976, 0.003766802167069111, 0.01491429307879744, 0.022201381097793346, -0.035620885983679386, 0.0328849208215966, 0.016912605587706256, -0.01293108972524494, -0.04972808292310869, -0.0014439310779008321, 0.030236000336860712, -0.043050323408841684, 0.06132067453930693, 0.1136091672922461, -0.021460916719360356, -0.00817677789931638, -0.021867532757524514, 0.000990812157692002, 0.0001975092971368916, -0.01648329308518918, -0.04599938125047393, 0.027769238232571554, 0.03008800287265138, 0.014434112499299675, 0.05874532740848637, -0.00940073339016619, -0.013839783081942914, 0.00832830643218186, -0.04701698191097186, -0.07417411505004967, 0.001627883777831404, 0.006737204362133502, -0.019804373903460896, 0.003941997994389093, -0.04466746332608879, 0.009037531411644801, -0.01402427091301312, 0.005272951685670236, 0.018816232752902524, -0.008597143350423065, -0.010548888012669011, -0.04587981738814768, 0.05690185994924861, 0.029830156212660625, 0.021037222815435304, -0.07522225281504864, 0.014215284620206227, -0.0028820639226700435, 0.041888896536947356, 0.019701871564050184, 0.046310046636633365, -0.001987456204632665, 0.07972469390017149, 0.04414539575169659, -0.020193855003806112, -0.051961345007432755, 0.021038340263007625, -0.030297595027858556, -0.03423312751858094, 0.06281547205706159, 0.00979452862006857, -0.01416393027322647, -0.0023631703207547374, 0.02734825670453109, 0.019711179053701934, -0.02824594888136092, -0.004291419507918617, -0.06338319685441547, -0.05136920144819818, -0.07584627346028294, 0.011895544616427854, -0.007837269728807213, -0.008751324190381734, 0.03687766743611077, 0.0053705564815942, 0.017802125234580274, -0.019950764883944323, 0.051759279513316485, 0.04329232312318751, 0.04727525504147681, -0.039033098668332544, 0.0535600865286088, 0.08999872625097871, -0.01952457492984273, -0.03728920863273174, -0.01302585002485827, -0.01673580389906451, -0.042918251468532606, 0.004375748583333078, -0.002092366922700144, -0.08084290888776312, -0.04769605089764316, -0.02769351177932652, -0.039962237906372954, 0.030420652551906423, -0.022500004899246695, -0.060333793072925426, -0.060107686600095564, 0.03969773476348233, -0.0037688626641346713, -0.001710788135547244, 0.03911290067002709, 0.030527701143858475, -0.0835011132364997, -0.018562055503627363, 0.04907237505700753, -0.023956046883904496, -0.10797254173237258, 0.0008973799888351587, -0.009250052935835685, 0.02467983029146267, 0.05618117743795982, -0.011015989668322023, -0.05405740703654597, 0.008620151771615752, -0.015469300354758624, 0.0015825021912209006, 0.07081589081663331, 0.009998226924295573, 0.004575718691366364, -0.026050319019062688, -0.0004446644785836714, 0.008471924686560897, 0.033845516954214054, 0.017631407066808664, -0.019070193511396303, 0.061351179424718745, 0.021277419651614598, -0.039943760681772425, -0.007024409804529523, 0.041670434043574456, 0.011768161172275388, 0.0010471112613335883, 0.05088354684962629, 0.0338463680777909, 0.06811123176036568, 0.029403205836777052, -0.03143319490507112, -0.03339740808185087, 0.04839622891114738, -0.0009417181357157257, -0.038172886076237054, -0.0026842500779334475, -0.04646577548242804, -0.014225135685077021, 0.028523116328541837, -0.006781968697755337, 0.037713130300461896, 0.03489087483578173, 0.0834806035482837, 0.060562428339389164, -0.04286428702222766, 0.02862520406607817, 0.0024208427280566426, 0.027007616940363202, -0.020897579301612554, -0.04395815564593118, -0.02313275461718731, 0.038671577363851406, 0.03699320498314227, 0.016016363376818117, -0.0006034049219925949, -0.05592932647859653, 0.027203710837586728, -0.07794387326110777, 0.07502462232460852, 0.005367237139618223, 0.04309989230255143, 0.0010185877843064386, -0.004253501894483381, -0.06644754273815819, 0.022188486017816537, -0.06528238648262191, 0.06080971473020738, 0.021156453858915285, 0.03532867852244682, -0.014091223484766323, -0.0590935288899687, 0.009980539300491701, -0.013322640638613048, 0.023335131780457836, -0.036983597717189495, -0.024455841517161472, 0.0024074443199729478, 0.008186242490401103, -0.04909741908121933, -0.019448778744321996, -0.005445573334688228, -0.0923917768224475, 0.006967837107925449, 0.09700337230691407, 0.001619710188255043, -0.03296767632214635, -0.009183551645915698, 2.0843622859396408e-05, 0.07799174697281737, -0.002895281844480049, -0.011944116623736362, 0.005040684228289705, -0.015310779654975109, -0.06263378971035863, 0.0026213794978265444, -0.058792685407145266, 0.01468861591026422, -0.019588971406095734, 0.013330080134704056, 0.029194397438507026, -0.05673708083341618, -0.05448472347891591, -0.048057456991276684, 0.021943935049223276, 0.013199194346380031, 0.034729005040135506, -0.034578603628781075, -0.04653087684022668, -0.033089614373584604, 0.03492866576186487, -0.048826626492403505, 0.037777742294655046, 0.029630937336341617, 0.0434130072373306, 0.028175938458273927, 0.02811676530217776, -0.005932288585462566, -0.048044115170680565, 0.06536689249400582, -0.04116536872658473, -0.08270874508228486, 0.055405074576310484, 0.05263356459635681, -0.01944394706278943, 0.07698413901131809, 0.024741197263257013, -0.015450040528975426, 0.011206462678680784, -0.01491173096005235, -0.03695570287611439, 0.04122404325013592, 0.010055677532993319, -0.033965902503135165, 0.0008033050465009889, 0.0019661882010019657, -0.01873333793817849, -0.018937612659519952, 0.013064295641085315, -0.05443250082146757, 0.00021079423905275284, 0.022773935606574383, -0.004054054703941735, 0.01932846084229423, 0.07857818002396924, 0.02874791224373467, -0.03177805932005708, 0.029948260465066556, -0.02670222749732771, 0.030452278492143547, -0.018278394806497202, 0.022298888029995263, -0.03871923144546106, -0.012179230882225132, -0.017760730101363205, 0.03886865556449715, -0.01892588606462355, -0.04661258931305898, 0.04947293908274849, 0.0006422356601387536, 0.07471111672244872, 0.052293882527538416, 0.06147888515703484, 0.03835299728123297, 0.028519827465807522, 0.013227549166609315, -0.04679878216218113, 0.0069105729018135555, -0.04304509146045869, -0.00990082733910997, -0.0002302328275489931, -0.0382577351182681, -0.004697429498202506, -0.013656787996872335, -0.0020382269609681247, -0.04113349045824647, -0.001129811561822198, -0.004477727944792221, 0.045934333333219855, -0.039160905152348296, -0.029831278298525152, -0.022589893337368577, 0.029317040482146197, -0.01861733452939334, 0.015050289860567117, -0.038104988997391724, -0.06196932190072887, 0.036636279791894606, -0.0027222893276155073, -0.02092139395476479, 0.005445022184335698, 0.020755159798999306, -0.026035166920273283, -0.029646441303821287, -0.02670683961129579, -0.012091444504653933, 0.02831765382402266, -0.046133651922280236, 0.01434790691546199, 0.0010690458881583518, -0.013040324041690931, 0.011368664527933926, -0.001725736299736045, -0.00557522332768949, -0.05258265174141864, -0.028351993739338374, 0.005710404716282814, -0.008756734073259569, 0.01012695434413635, 0.07076656895065271, -0.02107939528257843, 0.056501482221575805, 0.01805771282039477, 0.006272558045426847, -0.05796805591575643, 0.03834548547830573, 0.07345211123003445, 0.03387060648362546, 0.02789618885392296, 0.014666884465053716, -0.007319760022409476, -0.02327341203060326, -0.015867268257631958, 0.010705766508278472, 0.028880452142574196, 0.03980652571297082, 0.005777772418800483, 0.049695974311504056, -0.03729625001358447, -0.07525846461845609, -0.042670337875126974, -0.03794149123478663, 0.024173399043456115, -0.03998962641842322, 0.010947207232302672, -0.055501015684642226, 0.008558605163610846, -0.02440059162739951, 0.0913734067513591, -0.07307947652737584, -0.0671332712933869, -0.023924022460719306, 0.007439869999913678, -0.02702867382003596, 0.06364663779025775, -0.03389391432605564, -0.0227311105095752, 0.040800453781744524, 0.01884868973359541, -0.0217010212990553, 0.017386037108495542, 0.061704203365136386, 0.07481020003149191, -0.00349344823324655, 0.02400267384735697, 0.021218967061381985, 0.05722975984353552, 0.01905983887203529, 0.013556275581184512, -0.020604572189215603, -0.031097590007977027, 0.056789145001632846, -0.021600153569629438, 0.07670682977995438, -0.029889307028532083, -0.0467997933534626, -0.05317231914818269, 0.006552912555424181, -0.02911447031597081, -0.015886239770331018, 0.06676460332510792, -0.04554577631138038, -0.0364633674248667, -0.040327911391152875, -0.04211929790413715, 0.037493974522773484, 0.07507743181687827, 0.01618663528953327, 0.023511352054391237, 0.039590424118138116, -0.002836272218140468, -0.032484340618819676, -0.04754872146745875, 0.04314958832410144, -0.03556755602379773, 0.009897282808729058, -0.07569500494060406, -0.03864800944796143, 0.04394007658129684, -0.0022659694776357934, 0.03516410511768051, -0.04380058308138709, 0.01429090191509741, -0.0381238843238695, 0.007399547736871181, -0.020044248975192698, 0.007417024413027401, 0.004505887009849905, 0.0005875189832654687, 0.001968633213643523, 0.010365879323606213, 0.025102824492918886, 0.03955429184572793, 0.011403282807135245, 0.046596724329963056, -0.026103654992969003, 0.02306552945564574, -0.04553474987876177, -0.02207359647468196, 0.012969025023142032, 0.005299620491209948, 0.03993926548328005, -0.0277194201527324, 0.016880331075331725, -0.0018995982991328862, -0.03987310120680929, 0.057428400528535935, 0.03855565142681079, -0.02617589734856452, -0.037967790823819327, 0.023730591798501916, -0.015053637180205937, 0.011365882277619862, 0.017451977354415497, 0.0448016118635358, 0.009109397211995166, 0.05023234214224405, 0.03249418435243567, 0.0058259186381853295, -0.043240745568179945, 0.017178196267142107, -0.008652120662580578, 0.053904296770421835, 0.044465554506263945, -0.02993346964182649, 0.014424074856121136, 0.03318775278964368, -0.037883393095970115, -0.10954635949439209, 0.007512245006707897, -0.07085089740177936, -0.04861213005136475, 0.05804877160027748, 0.02902409137567045, 0.0045282168570746715, 0.02814362225224071, -0.06670253333690791, -0.014743434791999861, 0.015062012438941097, 0.04158707248539887, 0.05582232039716489, -0.014860038442587662, 0.057352042333893516, -0.09119016866347741, 0.05384689600976586, 0.0006139333780028933, -0.008507461411553965, -0.009042566508515365, 0.04467388535031576, 0.0563675556817775, -0.005310454191153813, -0.04471731393361898, 0.010518698521652237, 0.05230382641416118, -0.04549453881277977, 0.04962124759593087, 0.03057799317782992, 0.019254417241984928, -0.027564767300829917, -0.0018991559252692683, 0.03338985499236652, -0.016585219167422394, 0.006639639131277121, -0.02465092477612506, -0.06119404188394838, 0.023543794212431163, -0.04578916545256908, -0.03396595279278246, 0.02087318421852315, -0.007798104185669945, 0.00957978602548533, -0.03813227820575139, 0.03147934975568754, 0.030470410910159392, 0.0003027468208490599, 0.023160344356776934, 0.026304307203963578, 0.021049788439357498, -0.08093319723972826, -0.06882483851869273, -0.03731885069505844, -0.0017418090291536235, -0.06107621407415776, -0.029364801712972427, -0.06457657932614048, 0.03783459408969127, 0.004023804911080846, -0.06902904871933513, -0.0807790792045415, 0.029907441246546373, 0.013637899362266262, -0.007456470367985439, -0.05272269302324185, 0.007355425331357951, 0.006547558222324427, -0.030315742851803558, -0.007954371285515448, -0.006838094178695297, -0.06519757905096248, 0.0003083096351429322, 0.012053460807747154, 0.06209742744589036, 0.001360061547301988, -0.013416140723707243, 0.00145848488684538, 0.01724332576602362, 0.009436883557749158, 0.013896125792114827, 0.011141221532955306, 0.010705824727467114, -0.0005056473538882798, 0.008434141780038732, 0.027169124384629408, 0.029166095777760484, -0.028379488101183424, -0.028289337691116044, -0.0020921652046762265, 0.008997020908653341, 0.02479336345764296, -0.005313793039319936, -0.0025968230926771366, 0.027104195366570917, -0.054262721045624025, -0.025960951468251375, -0.0305262540850904, 0.004326958765578461, 0.005039783531679696, -0.059229898151302675, -0.010457726143729409, -0.06357682661417749, 0.07482463586910577, -0.022181670908768037, -0.040772923577267625, 0.023023779434902605, 0.01962444532553387, -0.019532972714715165, -0.034510367678424844, -0.043116057869674373, -0.011513858723286264, 0.0029640222874681645, 0.019481999361467762, -0.02392193896076152, 0.044576946276280706, -0.0005400473477210586, 0.0439697995332972, -0.04903085763951035, -0.010243616082439266, -0.023599268390629567, 0.03281479638438201, 0.005146599561957877, -0.040176838911415255, -0.0305061758795035, 0.06087283700338161, 0.036360386817434906, -0.00033288368058067555, -0.006687498926923804, 0.01326064155023576, 0.013107363779056726, 0.0223451558887039, 0.010308254738785045, 0.03853942375717949, 0.009725108536557748, 0.07886919398232013, 0.013713906626261823, -0.03600975370317419, 0.01624800793744822, -0.003912117163684476, -0.008017462960749342, -0.0052332728412786385, -0.042832708763563355, -0.029814533666452227, 0.027037579551720165, 0.012270886162408935, 0.0007045456330283587, 0.020921706693115407, 0.04778914152834253, 0.013179801841033198, -0.033847631416553545, 0.016982902357975452, 0.015315137070390469, -0.03874757772156758, -0.06921942565158232, 0.00858439574709628, 0.013347078180148145, -0.043504673728492184, 0.0317949740379713, 0.006507937873052595, 0.011693367271943204, 0.003350546225208158, -0.0167444216427578, -0.005408244804204185, -0.002532448412915485, -0.010107793594325617, 0.0374071797117076, 0.024172318478311812, -0.05392997144276313, 0.044146532682527724, 0.023696666263457327, 0.003894649283548046, -0.023290479633202715, 0.02232606895336057, 0.0376508544459902, 0.014702698097138428, -0.03460535932857922, 0.029731734095126784, -0.03866863548447268, -0.026027856533634677, 0.02371955417911914, -0.000516056378243305, 0.027394718112857826, -0.06524564706006686, 0.03224498065918883, 0.037267418121879205, 0.03157238482761858, -0.02752540224084858, 0.03905431910081111, -0.018074667205610403, 0.04610453170832291, -0.00661653494012042, 0.003978778693681822, 0.00511907060881776, 0.024022856501417385, 0.0016977241365370536, 0.0017445488822551453, -0.015939631094507845, -0.041696909391192034, -0.04000252085756653, 0.05419327008539886, 0.00031815442666934126, -0.06748879569555953, -0.02679535394566046, -0.036488808849959746, 0.08144523615738349, 0.03652998674599835, 0.030171334500885348, 0.008277757473329376], [-0.014023980300635435, -0.005462807566131089, -0.0452532159782243, -0.0013956819477279757, -0.04219210365883902, 0.04269820482659053, -0.015555163813142965, -0.025006468032299143, -0.020927659623266683, -0.05542054234760555, 0.02235274985545548, 0.008037287844466768, 0.066667684479646, -0.05356559041424878, 0.02583606578813427, -0.00742453517058024, 0.057918344590688356, 0.011625427165602043, -0.039960877353769984, 0.009700117590574738, -0.06430712417465993, 0.00019736346297556754, -0.018840335842421622, 0.01855888203779366, -0.04390822557685554, 0.021474336262466774, 0.06312059250303004, -0.015478260797310975, -0.07333727282582024, -0.0034018708997619806, 0.026351397963637214, 0.030357203597131458, -0.004436042880242766, 0.030551910177925117, 0.05225633358291585, 0.02715984668397196, 0.02184085548447623, 0.050225571696204285, -0.03544302564456699, -0.02500615365232614, 0.02405469316262938, -0.011589734896853774, -0.030650769665657655, -0.03949143143263693, 0.06952601726707061, 0.04427885518741166, -0.012272139352581805, 0.032400099940856505, 0.0029427223979514466, 0.062048334725106805, 0.04890087206759753, 0.014048889648892135, -0.04517022546077911, 0.0230432753255985, 0.009990089403076776, -0.02184365224060971, -0.01969376146796098, 0.01941350888472176, -0.04140066984473857, 0.05313097223213543, -0.014351860441629451, -0.05219172938421016, 0.011028224082922537, -0.014163818365311474, 0.05333424511661407, -0.04158015033396285, 0.05779549550417941, -0.03593440096993436, -0.0276273583314799, -0.02614753896612671, -0.02593524462111552, 0.03163141884274046, 0.028119721011150026, 0.03656744412498558, -0.017579552473324857, -0.01722907094123404, 0.048531154693964206, -0.02190836320450303, -0.025053759968407228, 0.03379542422510081, -0.05486365702020975, -0.02425211702078194, 0.015575467272612773, -0.10052985677134164, -0.024896667866400234, -0.07310012530349921, 0.02661846669285559, 0.01357791750803986, -0.016786065570100473, -0.020556628687795644, 0.06578559450691875, -0.014002757389118827, -0.04245654372879899, -0.06894383812858608, -0.018545637759204522, 0.007018839134225533, 0.024101058095754933, -0.04476130871218679, 0.0028080251245946423, -0.08804335992585803, -0.03640167855816113, -0.04389497088401327, -0.05876742016507488, -0.04319518922737575, 0.015185639417896416, -0.08773302120200592, -0.022808044517789648, -0.010962859708564943, 0.00131139825443379, -0.012567933764534842, 0.00978628466127525, 9.055245008845182e-05, 0.03957703171064084, 0.08659061514309856, 0.040756728444449566, -0.018766026839979754, 0.029752198301384078, 0.01591016720178316, -0.009109983263081699, -0.008997803418607703, 0.013403582145577781, 0.009382048465200642, -0.037717983573692035, -0.006664126145125061, 0.011511839056838396, 0.046292354374135286, -0.0376076715177163, 0.007564335948441262, -0.03894645075836926, -0.13756123213063257, -0.10408997912161112, -0.10210922228623379, -0.007482540575834354, 0.012238759799627925, 0.018624652189087418, -0.03246752847206557, 0.04015876959219022, 0.03636691614615529, 0.04870820296857874, 0.01689740056967105, -0.012062968923015548, -0.06251022738584633, 0.023948335694022858, -0.011175606748467615, 0.07732205162001453, 0.05047479514289894, 0.06352668716888632, 0.003330242872441078, 0.005712485029503164, 0.06447336723827542, -0.025621897436690966, 0.024983972812618133, 0.030762805297496185, 0.008677771816314685, 0.012931343586599288, 0.06092921443706217, -0.05176403639302378, -0.12294767436452207, -0.050305396753315995, -0.12639855565957897, -0.13979147838857572, -0.09391423622041103, -0.08590117255665301, -0.031107232115615356, 0.03920650247976726, 0.030418128957027987, 0.004799057589616596, 0.011444646881539716, 0.027314226308017598, -0.09247153242448258, 0.01931107195237633, 0.009791101330854327, 0.0053621585876380195, 0.09747620767298146, 0.0570896390043246, -0.009765802161960681, 0.02355296660881641, 0.030414921618217055, 0.026692146823731694, 0.01715730583732629, -0.004661729304217487, 0.02056220952096045, -0.017160409607348704, -0.03372522980146394, 0.023271030145626082, 0.01827925771866052, -0.04910271946491995, -0.11492986972689934, -0.09665408610075175, -0.048086398618942, -0.07419301014080121, 0.018207355155707396, -0.01285525120384318, -0.0006152055347926881, 0.013746368628320365, -0.03029690800291541, -0.05435997933975329, 0.011086373078156323, 0.007421396697961165, -0.04378486732042613, -0.0031800909097964088, -0.0021957069352980946, -0.01355748925021735, 0.06640889780933906, -0.023052832036849203, 0.021776308698820038, 0.0015795419995211413, -0.015802678538660672, 0.0004405432721175615, 0.036213289027345906, -0.06118868150132797, 0.023196497826673466, 0.007214241552401261, 0.059492796627979794, -0.04344268219213919, -0.14987516282132787, -0.10165537452074616, -0.10101502702568367, -0.09040950910025664, -0.03306698041550141, -0.03097877267589642, 0.0343718644490768, 0.03669441927010246, -0.01579121454522806, 0.02200216564459636, 0.012058417006144148, 0.024522328317905247, 0.004682777398542236, 0.07833018313399107, -0.002982567319324788, 0.04676097153687282, 0.01784540572753871, -0.02158807573138637, -0.004087985066702425, 0.00033627548790471807, -0.08701626820624771, -0.01124514433106533, 0.027127203888960446, 0.05092533184834885, 0.03972893023556092, -0.002601609109345343, 0.047600330251615815, -0.08188174752001184, -0.14433500329916646, -0.13146349684374256, -0.13871536309604354, -0.000520807379872897, -0.049246592372027075, -0.010306578843158868, -0.04286813426619016, 0.009721615243584659, -0.006612124087231804, -0.038741139181641175, 0.0004943706342232195, -0.00651922368887118, 0.03524861506823471, 0.03943528612988607, -0.043263068172784164, 0.007118857015785497, -0.015957132665438956, -0.009192622071858999, -0.0819755494085397, 0.003920843489433061, -0.019201504023513442, -0.03433360769234754, 0.12364188095424572, 0.03808027123011759, 0.15252935287908564, 0.06307852429553168, 0.027257587554505847, -0.06929869430175219, -0.08962293350541538, -0.045419078238758556, -0.09071535480464452, -0.059961946691186936, -0.08014631635755008, -0.08464095012279577, -0.010735994180704235, -0.0035332685432299784, -0.03342770361296851, -0.0472525493513887, 0.006715920186958199, -0.0100228732725172, -0.011513370111106572, 0.03751436778568034, 0.021118050607691397, 0.04071029084511888, -0.10395741715472646, -0.03798018701703628, -0.05404925938130731, -0.04324704295104055, -0.026195801384532844, -0.04008330417678785, 0.11532187171260332, 0.09766106866391933, 0.09305317438767892, 0.059029397081312274, -0.049213750848087226, -0.07532608398089247, -0.10357279890290623, -0.13340078718633439, -0.10389424386929971, -0.07008756706538777, -0.06656039799378645, -0.057728510403536916, -0.01785417301125817, -0.018466537233158314, -0.011105190616012521, -0.03770566034809123, -0.0493360115760333, 0.03419938545850429, 0.02437666410452763, 0.026827773336983097, -0.006365805822055922, 0.0009809614732248567, -0.008455309965326114, -0.06619895121521562, -0.00015067031184292918, -0.02392205364245459, 0.03931622713334581, 0.03083855179390344, 0.08192612852771863, 0.1354093969485378, 0.03792811442728147, -0.003699213181017668, -0.016224922899288372, -0.043670190120987655, -0.033301181190125054, -0.06743564982974129, -0.06875881826894231, -0.027309284283695695, -0.10542257327082363, -0.032349765040791116, -0.044246445059392236, -0.04793015516718287, 0.01758337942600521, 0.0016400708284134119, 0.07733272111071576, 0.03484160420855366, -0.017725912362788063, -0.038961278315584776, -0.03593584579900669, -0.0917082194249795, 0.0687089526718012, -0.03797976004477411, 0.05180446539061658, -0.01597459683800546, -0.02564836193601366, 0.07565416548254246, 0.022937933553462485, 0.09666635274313704, 0.05220059207437804, 0.048543302052349344, 0.019146505143263062, 0.014583160716236297, -0.02375394901139534, -0.022461227340264293, -0.07161512802968116, -0.005366755700485799, -0.003475133829970259, 0.004313335081189245, -0.029229792224022538, -0.0013335545352751146, 0.043322784672531804, 0.007740214095127048, 0.014190757911075224, -0.005255253065337057, 0.004675843758476179, 0.05847655160010241, -0.0020878783272445397, -0.004955916287296232, 0.03285523147703473, 0.04331225119171281, 0.053826678004805034, 0.0618727395992618, -0.06484496650505124, -0.021099778826703313, -0.0029141749655442503, 0.05737827297911017, -0.03297430345979208, -0.03425181283002459, 0.07338772073484312, 0.015081518098794489, -0.01327707806659424, 0.037003767268889924, 0.011880235507219807, -0.007255884159472908, -0.043368646136124525, -0.007563294612337039, 0.05295351584785966, 0.047847062046842075, -0.04135946368655292, -0.041219437001274485, 0.0259649031965014, 0.058564130942796874, 0.010929012581903378, 0.059773742663440564, 0.006965542052391726, -0.07196875299693935, -0.059245222939688404, 0.011762687495436333, 0.007256337245363818, -0.008370857615307944, -0.04999705929272278, 0.012581423654168117, -0.013941783725076548, 0.043766298156230274, 0.055702075908515655, -0.0024075076004470035, 0.0386477088425184, -0.001814799430476489, 0.08919185582311406, 0.05986451559800007, 0.012096281314014573, 0.029213596493361055, 0.01081036157397129, -0.002968382367647589, -0.05482026559282444, -0.048800360087633846, 0.05843429645905, -0.05571193025347585, 0.06019531217555709, -0.0008761186281020498, 0.010806714166810298, 0.04706709514122644, -0.022591126845035923, -0.05350037673473518, 0.03974638993176606, -0.06329900997223908, 0.036597452651345355, 0.0029656618486929125, -0.07714966055597196, -0.030095677598888055, -0.028264877521101187, 0.04949398671832759, 0.011865676885033852, 0.029759945396100336, 0.10164487781169065, 0.07661882355698536, 0.06901362653317007, 0.012262166545454542, -0.0007293843481950259, 0.01615309401323678, -0.02384324780334723, -0.03756449904889352, 0.017641739435017786, -0.014380791474130029, 0.06479008948298545, -0.01781413945333759, 0.02565809758594553, 0.007663585423393921, -0.023445366794405648, 0.029114428694332388, -0.04338391727273328, -0.04605194018876638, -0.001221250897485763, -0.0004538835206225472, 0.03368784504787145, -0.01130712007169397, 0.017022859044836178, 0.02896369507177665, -0.015457856118010881, 0.09359245109527287, -0.014347970132817026, 0.05563232752303113, 0.032922158995058654, 0.00793378247098266, -0.035422921073874875, 0.007362437314703415, 0.08193276336275954, 0.05203488949343481, -0.02500417536163553, 0.00039526935077784184, -0.09823365382489473, -0.052798088769792084, -0.038437067503153545, 0.019473268559561458, 0.0024874388045992733, 0.02410362376273689, 0.014735041198839484, 0.0028741695652881438, 0.010889913933502247, 0.013750976136058517, 0.037072744829311145, 0.046733717419554746, -0.055143970123353335, -0.04744221514230811, -0.1004126031815136, -0.04542690862012607, 0.023905970407088303, 0.09038727758628536, 0.031971141342328396, 0.010206868826675975, -0.07353776349982832, -0.023939499979133735, 0.017048628503405175, -0.021883805550167956, 0.052635594302965674, 0.035430985798576176, -0.023083846731371583, -0.01781994125298059, 0.03536743790491361, -0.030540062653577796, -0.07497708260603743, 0.07344657267708218, 0.027218960481705544, 0.032538840806668065, 0.004386828816453914, 0.015527946879059718, -0.0023095441703418857, 0.0022571491073572194, -0.06397178675807096, -0.10536075742227867, -0.05842413466801278, -0.06472407197677907, -0.10825235270969515, -0.11750969504922137, -0.023849702236587677, 0.034225305905080904, 0.030579037445420065, -0.006471110451232966, -0.06340127716130109, -0.05722919402455115, -0.02360305684423622, -0.03844005716926982, -0.050293208709971386, 0.005246195748906041, -0.026802864729011635, -0.029744224999338178, -0.009217117232607715, -0.03734986647095631, -0.0678380318762622, -0.00426374355817505, -0.03626721308595249, -0.01826849815733873, -0.038511793278413704, -0.028923409218010687, 0.0020071091048753436, -0.018619787898024945, 0.019558841578729013, -0.03689136954276042, -0.046451169361371815, -0.12807269452425304, -0.1689821582061559, -0.17045872646863072, 0.004592834174471881, 0.04609133817730892, -0.0025964639796394354, -0.03991933193574613, -0.02795293772083276, -0.07470546037126445, -0.03176901462341378, -0.03263741098079064, -0.09559215204179498, -0.0946841193095075, -0.04541727920046149, -0.010988720562981499, -0.05338100606461234, 0.06881782553732584, -0.00811297323048237, 0.0693161976724596, 0.00014069419856229756, -0.0023093562491737912, 0.031033205524756087, -0.05365559473795982, -0.021759495365698347, 0.01442075988626036, -0.0014307985962569156, -0.06505555300326119, -0.09451558722195746, -0.08920331439326133, -0.10218635176048783, -0.11367302666173014, 0.010085282405680433, 0.05617987837898405, 0.02118714552071918, -0.00818164003369186, 0.034227310562888295, 0.04762610093339771, -0.038650425454687574, -0.015683432376717495, -0.04331794211924509, -0.02097590604217071, -0.01731656807306061, -0.03522677830131688, -0.045518968624825656, 0.01627417729913803, -0.006924357507819258, -0.0072119030180799225, -0.04415889089182487, 0.006984599997788554, 0.0309098049500261, -0.020577097563971764, -0.05380468306215516, -0.007421238192330197, -0.038251496375590284, 0.027430869740630477, -0.057779423649063105, -0.07038520655424527, -0.06659489248229129, -0.09879947480292386, 0.005484691972954286, -0.035432589188085284, 0.08241340507213449, 0.06948298010536257, 0.03285797255076766, 0.03189365598371107, 0.034368087576363046, -0.012578889322384542, -0.01738554238885058, -0.11443261791199012, -0.0025183623829992882, -0.03390748320207098, 0.03907017460303245, 0.01722806637925835, 0.005268975856674464, 0.032415243094382526, 0.03533833377767812, -0.034762218209374106, -0.023422677517045083, 0.0051197856211941005, -0.07748709785981946, -0.012660443488217902, -0.03662633226815161, -0.00838750244137726, -0.04907938584689926, -0.03638193978323704, -0.004193310974281091, 0.010027556204981157, -0.027353984892303517, -0.006647037749433812, 0.031164034734700957, -0.02396491528537585, -0.003288167614773058, 0.07871155997129786, 0.013736197413521473, 0.010056624559357076, -0.07743049479079901, -0.09997403371323921, 0.0034011957169597794, 0.03438995997865379, -0.016730994377962757, -0.05153155236434877, -0.0690386481748462, 0.015344361721055997, -0.004320016038045131, 0.0022204178481941648, -0.019452882212524024, -0.002730933922442965, -0.016419740733142014, -0.006346603239282355, -0.016449339804891577, -0.05322529701965023, -0.09182637739048859, -0.02247433034534647, -0.02338638223347353, 0.010744669647090593, -0.06661671627485331, -0.011212022364465684, -0.015994356567805755, -0.0462753251459703, 0.019687464398116538, 0.03252478572317908, -0.08215223229248392, 0.04086564089144622, -0.09633738451738227, -0.06288461617485712, -0.09895586765750337, -0.013491825601562426, 0.05729616999394332, 0.020832229193537846, 0.009299260909639395, -0.02254785795906971, -0.006174077073312058, 0.01364161505833811, 0.02065631299317696, -0.06705793167530952, 0.0006495404643874705, -0.003543531877883264, -0.03644057598776552, -0.050677283348017785, -0.037668338931352206, -0.054915349755701406, -0.035499728756464385, -0.02770878844687284, -0.04604321003553111, 0.056553013118771665, -0.03210338337677257, 0.030191820358407864, 0.006781363098440577, 0.0169635805978887, 0.018464356072893748, -0.037905550640997376, -0.050413276332804305, -0.02029496625815419, -0.12991562576435656, 0.04934072690109563, -0.0241355829937506, 0.012327802663875388, -0.015667074486434174, -0.03055551859508166, 0.030540672269306974, -0.0020306661049566055, -0.025454634657844085, -0.016516203016187885, 0.05113574075138825, -0.011202774824795012, -0.005070449025684697, 0.04722033187745239, -0.01581807679526209, -0.09876346979003037, -0.010038699348809892, 0.10606543795705704, 0.05085890987139756, 0.01315780073463811, -0.02048186155887771, 0.048328891511617025, 0.043983076692918004, 0.09293141262139182, 0.0175024229051024, -0.008933810657128354, 0.09373202774376291, 0.04037510463494481, 0.033280377119653023, 0.02657351550375319, 0.01641567753184942, -0.03964514941644004, 0.03924140783212256, 0.01032757287249388, -0.023306073871696337, 0.046010689756813786, 0.022984724916989142, -0.006618236509975223, -0.03217217398457924, -0.04477516986443391, 0.027985213980514196, 0.005206806525325987, 0.025218077197575788, 0.02812100768913249, -0.05137207284662311, 0.0015865511899944649, -0.021688588914567056, -0.05532994743826075, -0.000336111025147015, 0.039536994606213675, 0.02047574471021295, 0.04084725243436775, 0.02594717227316659, 0.0020921591138520065, 0.017288643058995645, 0.014865033907109018, 0.0634518523817605, 0.001530227383820992, -0.0026787983520513473, -0.03513695835036011, 0.018266919918328534, 0.0522412260747952, 0.03477850643986219, -0.036165727101414934, 0.06016681195975048, 0.0033959824416889316, 0.05244450187627693, 0.052071829096586204, -0.05322312728809238, 0.039461027999346115, 0.05590188028124908, -0.01622629387637447, 0.018151466843488742, -0.02540013475363365, 0.06451028815160771, 0.027731360899636476, 0.00045150308451797857, -0.0046404796502023315, -0.008689143463027583, -0.02765301264479118, -0.007648733720044351, 0.018047771900164187, 0.009447991651743494, 0.04736277015724567, -0.039421149727973004, -0.010037798898782316, -0.09051753707453322, 0.017948599461951188, -0.04767873121572825], [0.024581622725126318, -0.012257271026335044, 0.02069821567329133, -0.013683428533655975, -0.026450103401967736, -0.025623602610219984, 0.033623465587780975, -0.0608236789487373, -0.0387190121602124, -0.005045867030550218, -0.016553100623358304, 0.01820275476061984, 0.02364412393759088, 0.023001831248723414, -0.004643001095629706, 0.009438408411431025, 0.01689652755614403, 0.0135377003714583, -0.014649976255396772, -0.018010361359953715, 0.002999364540806112, -0.0007484476548361112, 0.03897126990239822, -0.020158794565460356, 0.05890203994513591, -0.044147066674062804, -0.006010782922973252, 0.006758791700880576, 0.03888246389554989, 0.014635864007758025, 0.0294492305398655, 0.009530741933996226, 0.02675934285959839, -0.0007305325801679677, 0.00961109506613031, 0.039080305329839596, -0.03569354348206053, -0.03008462401237943, -0.024866974939615545, -0.05735746736530791, -0.01073930519403457, 0.016839260539515004, -0.023445734466839577, 0.04924921077821162, -0.06272909617374352, -0.01640156542112218, 0.06261040841798579, -0.02811540120727722, -0.027332929396025496, 0.04776305646839374, 0.030138650862881082, -0.011068559226984307, 0.0069568012984203, 0.039142446738632784, 0.026316558236946844, -0.02894204975724488, -0.051775703726623615, -0.04694382124035384, -0.020113300740139783, 0.021914570622640562, -0.01648646364029926, 0.06394183446566558, -0.0590298358857244, -0.07332049730080029, -0.0205613427950558, 0.013275523776897554, -0.023841691411564416, -0.07369656641861491, -0.043490093200250726, 0.015648120264307265, -0.033098613391863686, -0.052569150385839744, -0.0025890118206906105, 0.02108586372620841, -0.004225124667626199, -0.03451338585911451, -0.012828949967185092, -0.02465277268770444, 0.052849199700986456, -0.022003353270155034, 0.008607487273344374, -0.01525567939630876, -0.0006489958435356261, 0.011031795837245633, 0.014876464592409874, -0.02086181527615493, -0.01037356338464713, -0.012534299132080118, 0.04523618372518944, 0.031556223428827634, -0.0017356154208813973, 0.0013103645114135147, -0.008315329915877944, 0.006124907418838563, 0.018356840670370002, -0.001300766397713524, -0.015831268097234348, -0.03053808937885526, -0.0078052236372308705, 0.04977143589980029, 0.012518138874016788, 0.007289204316124692, -0.00608306685099606, -0.03716814082330723, 0.012012223683063516, 0.010566558855347238, 0.0047812131851749, -0.05469530363323165, 0.002227017324133218, 0.03997041827884243, 0.04584727487785233, -0.012597836408047425, 0.08128304173789744, -0.025423176725299954, 0.0373842197081259, 0.05637686526947797, -0.02420614992345336, 0.052135951683876976, 0.014374750298479112, 0.046964663056161614, -0.036407201667300375, 0.018709551853050566, -0.027790881150490276, -0.015877622193916485, 0.041696920495302915, 0.036076878637623724, 0.050938206126796774, 0.00988306628609591, 0.03576278228964706, 0.06792126801703058, 0.0014081503491915174, 0.052277171339903505, 0.07266424861862592, 0.018448334408831892, -0.005542380572468161, -0.04446565748215806, 0.030160234368571362, -0.07086733214065949, 0.0112599865990297, 0.06676435019473335, -0.017832287862666038, -0.03008268266829872, -0.029051100503127626, -0.015594501548685006, -0.05795232257257509, 0.029856325891241077, 0.00903081970593852, 0.002667025961394761, 0.04529236992975365, -0.02328374107497443, -0.0013974364907261417, 0.02855382733540876, 0.09263829330650994, 0.061721334347934455, 0.014036741364060754, 0.01725075526853755, 0.0032914870655508756, 0.03498236338408442, 0.020493370433133023, 0.07805253982836315, -0.02351087591420501, -0.022796078073534596, -0.03615257382177805, -0.046558161940729675, -0.06196175987723684, -0.0029165976378811953, -0.005391418063015105, 0.022746038718853886, -0.08401164803788211, 0.024401883276053117, -0.03443433883665484, 0.025736271705729057, -0.015997790192658658, 0.002211436332686494, 0.04953037428953288, -0.027217243506330053, -0.009540859000650078, 0.00872409510444154, 0.005074465879513001, -0.014192706216061795, 0.003833324409653564, 0.0814597047701845, 0.025015355811366758, 0.0898438671224161, 0.05267301802307469, 0.08211468407869713, 0.03690328306571235, 0.07132410797053115, 0.014822071139642765, -0.022002376313380145, -0.07486203033025143, -0.07964433032549663, -0.005032281747409277, 0.002361266684905702, 0.03345625828439395, -0.05702466683089944, -0.03389422561557146, -0.08089441837690192, -0.0018399640041705414, -0.018887413266045955, 0.036729130701926405, -0.002276726080159137, -0.015043405178391277, -0.055186029932889714, -0.04279212170714787, -0.02514794894995747, -0.00954693339966579, 0.0126611696822541, 0.07086634786860756, 0.12418591724104762, 0.1111674449827385, 0.08765318457427407, 0.035695118166727, 0.041632426889830855, 0.06559916580697898, 0.004389567015148937, 0.019169808404812895, -0.03510819975572498, -0.022037824896083785, -0.034020441794347676, -0.07932836537379566, 0.0004167690140478138, 0.06729702968780435, -0.03460312696326533, 0.020510785622321837, 0.02714071902447458, -0.04392182879358273, 0.0013404931702891516, 0.003960797337834213, 0.017308066682980412, 0.03826563944014313, -0.01124122939792124, 0.00029070222690938375, 0.010930183375875663, 0.02328664143450541, 0.01721318884543451, 0.05592976729516717, 0.09555983149435825, 0.02551230725185164, 0.012014017723082995, 0.016835092501627475, 0.01827674453627078, 0.0579272136722303, 0.06201696794521087, -0.013206295828789261, -0.02826369458675197, -0.058501955256418846, -0.04956144176061202, -0.009509467288556823, -0.01614595291712816, -0.034070127700659716, -0.01184838332143881, -0.0013720162554690996, -0.0171206226802778, -0.035730990614580835, -0.0013916914986750674, 0.016265906212993377, 0.003625575089926128, 0.05877345564471512, 0.027784617782560077, -0.02732298519400257, -0.05240920489912542, 0.0603815936051122, -0.03647800534089796, -0.02108318882239388, 0.005619844271069153, 0.1046714992239383, 0.024127264788204757, 0.04752165896826447, 0.023666535253135234, 0.0210014057712039, 0.0005817087271649353, 0.01356785645879065, -0.005655764342006518, -0.0680324732001083, -0.05892045094307197, -0.1291412434640049, -0.0516303943112894, 0.014813187696344562, 0.06739674912179536, 0.06445105969851787, 0.018908348679122253, 0.006177805887376434, 0.01971123189654477, -0.009236260654262769, -0.09961736805421662, 0.001375160280481629, 0.06194144284923158, 0.0072378902229285795, -0.012355501316242218, -0.025454276539313956, 0.029073484274152246, 0.027850429182305316, -0.08798771931940894, 0.07932255323570216, -0.07580304599528713, -0.019412882091010702, 0.036684708429931046, 0.06877462420216775, 0.04610910727831986, 0.03366867116945738, -0.0231684497609814, -0.11013792206010357, -0.048683584366952797, -0.14790881611316295, -0.09846006879581141, -0.07987124370860256, 0.003846659672480307, -0.012650959244230677, 0.01802008978857654, 0.07311365926135292, 0.017467214557477746, 0.02874406059615324, 0.017297624082933047, 0.004778508192546979, -0.00162578127739198, 0.011827517491591125, -0.004499551711555393, -0.001015821437566307, -0.0713829788070522, 0.002542950832474403, -0.01128613814453543, 0.07173421188117915, 0.008880026283958044, 0.00551762651960431, 0.05220623010278814, 0.03906627117455102, 0.05364976752962451, 0.03347879273406321, 0.0005045909725342419, 0.02742546282955562, -0.09008818357323821, -0.02727911923206354, -0.04640241088090636, 0.03448143629911488, -0.02916127434772304, 0.06401998813423398, -0.00804969799999962, -0.011485963811843499, -0.006028699479748972, 0.0047665080455542444, 0.04299921826941849, -0.03495683143794327, 0.03160387409480489, -0.10875783262983768, 0.04589690259742248, -0.06828065921939479, -0.05447855362826135, 0.010851398565777368, 0.036260266697748816, -0.01775664403526619, 0.0068080997015928305, 0.06618241141635967, 0.07185162231514546, 0.051392088264552035, 0.10210686253452646, -0.01826031123497243, 0.08156170367081399, 0.01418377922264615, 0.04340867208160262, 0.04477539851554046, -0.01493988847366049, 0.010234513956974058, 0.03009813487303081, 0.036221915769469176, -0.003104807052255647, -0.052233189447174706, 0.0009413215883436098, -0.03854603799345172, 0.01024399516869804, 0.026467732430431698, 0.017283219904677443, -0.05081674909853746, -0.00694341600859868, -0.04488108294971925, 0.0015480023845483306, 0.07130040095646299, 0.007832556666029084, 0.034696384404543555, 0.07536165253866882, 0.027696361552898285, 0.047557105311428975, -0.030099531738516143, 0.07632865900914608, 0.10116186874782752, 0.04335813204812074, -0.0673536851495174, -0.04845801234917436, -0.01937101947138718, 0.020640929149203194, -8.640434455490531e-05, -0.08106371760051614, 0.042485148321904975, 0.027273202267889925, -0.04311212214125927, 0.00830005134203769, 0.049955664946265944, -0.04266299844565084, -0.0426793138608831, -0.056503617658958595, -0.035399895980414514, 0.022399347393532, 0.017911142544048783, 0.0990195458861669, 0.008980244775539702, 0.05258334272605905, 0.04961398412523998, 0.04755657866451907, 0.05562016219722834, 0.05791737381135376, 0.04640709778694043, -0.006989834375006239, -0.0086044292407053, 0.024990323216609447, -0.08034278753639529, -0.07928179227113574, -0.11272432525119935, -0.025771153517618387, 0.004462404585028539, -0.0024354878776112047, -0.05830004569724987, 0.015165944591870715, 0.000838132511757814, 0.03224650616219811, -0.027994062198240216, -0.057657342235387245, -0.09251103193619029, -0.032333996814892706, 0.09035874213016999, 0.015363719186335889, 0.047174358321891555, 0.03356855435625342, 0.02489693321894707, 0.04537634593296352, 0.07211485118592632, 0.060214294590294294, 0.05330583227346116, 0.053121367750370165, 0.02809654272433943, 0.055461387570090795, -0.032037445845872835, -0.05209808615305542, -0.02657480518433113, -0.044411286757827316, -0.06053977694248137, 0.003862936866984091, -0.007161123831513916, 0.03657293693445034, 0.07996981837325183, 0.018151850847269998, -0.010941212206378483, 0.009528454396938118, 0.043660863464824104, -0.02455822629643369, -0.025531401880425363, -0.044986018111305676, 0.05891842239545759, 0.03290199612843666, 0.02583287881349062, 0.05474090785027388, 0.06314927566130207, 0.03594221800113897, 0.020211052969572044, 0.025224731188752444, 0.015389552313925399, 0.04366754435546053, 0.010760536169540997, -0.06818840903732626, -0.082231861516617, -0.049721014386036246, 0.021052364373950163, 0.0018176715627266009, -0.0752581641979467, -0.010997427256980946, -0.007878476162852947, 0.003984102108879448, -0.028179442700537342, 0.003688637640175797, 0.0036652155502403068, 0.04974205418016707, -0.03799949230924465, -0.038456747167927234, -0.10943921523867464, -0.015290437186625023, 0.04501154328887754, 0.0563501875758247, 0.043460872560571066, 0.03441931065163641, 0.07803265655813121, 0.04762463354916226, 0.0505709001491218, -0.03100746422243613, 0.027941096574445014, -0.01497839596371178, -0.037875083442325326, -0.065392469124652, -0.04268288110890937, 0.012161777501853207, -0.01982383670139032, -0.08409900145237413, -0.07157519144906012, 0.03590847716550182, -0.028029171159130607, 0.03271492016083128, 0.038897304002485346, 0.01587571047795462, -0.04440027716696771, -0.05642791039798967, -0.027505960499948707, 0.014698273381990068, -0.0938377881281764, -0.06986461921188972, -0.022518547466902197, -0.014343384118461654, 0.004361723436608635, 0.01609107669755537, -0.00041286087066030045, -0.041232173575089855, -0.08359444069092967, -0.003919285569295965, -0.022101962783287493, -0.04113240314212768, -0.002694926592333962, -0.04465940648698446, 0.021020966810244027, -0.022264789956213584, 0.014783193410217544, -0.023091837317031072, 0.03344509830967822, -0.05262532321663333, 0.035335240037909665, 0.020440505710475457, 0.10289536692014371, 0.01038683553175279, -0.05370965898843694, 0.020301229939253897, -0.05526831436973472, -0.02555122248703587, -0.04238075307080514, -0.024042886864814487, -0.06184202791824643, -0.04251550033796631, -0.024104014974194652, -0.09240048754496938, -0.012274989877703415, -0.029704270122012134, -0.08582945370982915, -0.07926236106095362, 0.024633338450055556, 0.0034245687128990725, -0.015940452245927623, 0.006430177133398739, -0.018525399988309862, -0.03434448208527543, 0.04017399231431176, 0.0011120528267544827, 0.024147571257010458, 0.04974699490555558, -0.0002134971025315802, -0.039466303552047936, 0.04391045018787231, -0.005425207884223876, 0.0037719922289196047, -0.03159739735197016, 0.03594458116599183, -0.024381533701872692, 0.022739535850218297, -0.03213142827534472, -0.020480214471355368, -0.12178580285798164, -0.050584175615700055, -0.10272940997554268, -0.060840085048886446, -0.03459350133324418, -0.06605968202376918, 0.008430619957079954, 0.005439378873045539, -0.014257544523161237, 0.036537229523412755, -0.01079164739082121, 0.024466945647201435, 0.06678230826292042, 0.016046539989777984, 0.0288820508166487, 0.0552469769924831, -0.018786104256118426, 0.03231074365855476, -0.03659919046902219, -0.01860493715735674, -0.028131226073223225, -0.01286415817724638, 0.004848383127311869, 0.01381137142434399, -0.008198353792138836, 0.0695065409509886, -0.0039192498319056135, -0.06949501485636303, 0.0027979709943856674, -0.02438266972280145, -0.005708111214439125, -0.024337423632356348, -0.04687044550449575, -0.016542529668710636, -0.005249659353623667, 0.006669259809578142, 0.029205552283856285, -0.04012229790293679, -0.031001770831095576, -0.009846971238346611, -0.06396890976613277, 0.014531566188752378, -0.014813916304214176, -0.032175779916351226, 0.011876298097916113, -0.02446084823552581, -0.0360259533630708, -0.017062433856584222, 0.0030572573541176305, -0.011839277262357253, 0.015703149440917104, -0.03414275220243967, -0.06539913610494043, 0.0248746656316964, 0.034339082691974554, -0.031589759475426506, -0.0433869402594458, 0.01888564682266891, 0.053980712487559125, -0.02716674462514253, 0.01796450082184013, -0.01911211386312789, -0.03152536792343141, -0.053413849496897085, -0.04647540836541672, -0.0288202781134867, -0.06524219777495985, -0.009309260348529257, -0.020338717237158428, 0.026849444889791227, 0.016206909631182966, 0.04658045489345306, -0.0006425957867654698, -0.018413356019779163, -0.002228398846029965, 0.04589437332835723, 7.814553906148682e-05, 0.042806943279135534, 0.010749713290171891, -0.031352525486061794, 0.011145853382486411, 0.018744700962709887, -0.006459850058592332, 0.09446015995498894, 0.04754893897131524, 0.007476636548271312, -0.019195910139615333, 0.021466752596748014, 0.023518136343494665, 0.006385145418548389, 0.018654874767364986, -0.07154613376602782, -0.03437315862117327, -0.017405010904394627, 0.011959704729760967, -0.06081299841536234, 0.06107512692871111, 0.0026595951435514358, -0.016929403884328873, 0.04396210390798868, -0.042678497675456714, -0.01804240288959461, 0.03429126909979461, 0.017488534434319206, 0.06672167363172496, 0.004764314814885366, -0.03257737561089609, -0.039092581765679354, -0.05516381332942588, 0.005790355049225919, -0.004486959444678293, 0.07532433197359567, 0.016633036796110275, 0.0945534181337241, 0.028149666932815072, 0.07803197967347221, -0.03069248562732665, -0.06267921345149693, -0.001538127121574193, 0.05413697692497403, -0.04579503670283347, -0.00634874683809552, 0.01065586934720935, 0.056867538902331524, -0.03242234637557234, 0.006555361276222177, -0.01463598893816361, -0.03401266805675872, -0.05388307194405904, 0.012023155817651034, 0.04706081046082477, -0.008698643612794222, 0.035603891840156734, 0.005282812338087263, -0.001535616329039566, -0.04182461135917831, -0.006293661719209534, 0.03795112106203191, 0.03202509792915882, 0.009227812356423308, -0.014558399864381425, 0.07539346631699634, 0.008075688788746021, 0.026773166684957855, 0.045515563052516216, 0.05604487865745131, 0.034130243649965065, 0.01695948866254706, -0.01483203796794255, 0.027824107573729818, -0.029827360664652747, 0.014957970934222796, -0.027787792396968842, 0.004139168022523014, 0.008066707368477775, -0.01923087875010522, -0.005237727528715287, -0.04752986071363465, -0.012266614797213226, 0.020661874157383964, -0.017419478979198537, -0.01632762417149885, -0.07002303535378272, -0.0022832889518582767, -0.01297577405931334, 0.015473332588723871, -0.05778035565600083, 0.03467162364999494, -0.04442664999163191, 0.0349731034084866, -0.03515078075213059, 0.034683690662296277, -0.01253918907817527, 0.024351048146418284, 0.011358066211211909, -0.0357425247647377, 0.0073541665699577916, -0.009609759683457418, 0.02341347566270158, -0.0066011355960100306, -0.00435418700143677, 0.007944883488468587, 0.02948694706234315, 0.04550773758449777, 0.09697776391346448, 0.034522344699011345, 0.021382476203005842, 0.03586756832032591, -0.029620945055288516, -0.03271451115506395, -0.012444932728586882, 0.03698994181627137, 0.023010487121074827, 0.011293032719944054, -0.008571566127231884, -0.0958788478762706, -0.01433556963054118, 0.055465359275106894, -0.013088865864254924, 0.0032961002813110905, -0.009149267559109798, 0.010398001269802629, 0.004800576200012938, -0.02464071816145938, -0.015403984533365006, 0.04896061101248842, 0.023983466830655772, -0.02575914696747295, -0.012602729428548771, -0.005790243437790407, -0.08688419103057031, -0.036823665776619295, 0.0006598509360257832, -0.018454870442246994, 0.007865030333863406], [-0.009217837520398878, 0.031064762061636282, 0.07679032923859001, -0.01267397489692573, 0.06018311684514003, -0.03525174469615493, 0.02886143885075122, 0.002039245231769412, 0.001198397802305979, -0.031951817563504493, -0.015457671434210679, 0.01793531684895582, 0.043944390584670055, 0.04709737703100477, 0.01754423590714403, -0.032495603802958274, -0.029437505729399245, 0.07091749033386929, -0.008985092578128509, 0.030727925369830482, 0.0285470791203303, 0.029899822923484996, 0.06937364126296815, 0.011959843734477683, -0.03138414378838352, -0.00289453268719472, -0.002537099483236125, -0.02862010740873542, 0.006275001890466712, 0.034106893088594784, 0.125267560417016, -0.03086782862703241, 0.10714983668873224, -0.03480621590490231, 0.04430797252702674, 0.03215376241966034, 0.01645711927310565, -0.046990148051219476, -0.017408673858398765, 0.005474008085604014, -0.00038988721308585853, -0.03803704662599718, -0.03665355295761381, -0.0006860973591812662, -0.00951284465681365, -0.024061151177403487, 0.02808083274169137, -0.004837615722388845, -0.031518641852910624, 0.017665616451787877, -0.001080675259336539, 0.1024255059177829, 0.05757520581739041, -0.02283939922375855, 0.019745835047446807, 0.0269550755798238, 0.04889809283152015, -0.021832098252307582, 0.03874878972646479, -0.001742293906996524, 0.04812329387125986, -0.0025251297081662002, -0.028047609593982663, -0.09327263602308951, -0.021639868350929403, -0.06283514187063909, -0.028795133067392484, -0.021880295760068277, -0.019069865774792718, -0.017708362176779534, 0.0096093648162697, 0.007877584318481927, -0.025870922907910095, 0.0177018436745356, -0.015356702250836603, 0.005785766620594236, 0.1205871118740008, 0.002090066513232547, -0.017850826336395943, -0.010658706138573748, 0.03416948419835452, -0.020921001260616405, -0.03827187359142899, 0.023874661306731576, -0.0037510187515389275, -0.005267714137959574, -0.019950497483481433, 0.03702019275647344, -0.0025201369226231546, -0.008114858759001047, -0.009240900328892784, 0.020594655743434383, 0.032450713167107854, 0.01985899057548451, -0.021848907973925302, 0.01233572243855335, 0.011846999909476118, 0.020113787256333542, -0.03975533603191318, 0.04138312160139896, -0.04318696741129073, -0.02187896853098078, -0.058704302527663066, 0.048057689533731025, 0.0070341120455413315, 0.008235138341489553, -0.030510247988291928, -0.002396579935047586, 0.036196696175828234, -0.03072570709360911, -0.015933600798459572, 0.02023555610493605, -0.0011562680315680095, 0.03657792656077823, 0.02454408178295772, -0.0050314835113276805, 0.060779810344772374, -0.0647982260371174, -0.019259755197498868, 0.05244589490061275, -0.11828024186393735, -0.04699406870535231, -0.04559913856995972, -0.01933807999451346, 0.03579664225699363, -0.06332154333176543, 0.03459907041610351, -0.03458567588090475, -0.021526515182761972, -0.04784671551416685, -0.016964216206529513, -0.0012178320496445017, -0.01521356803175194, -0.0008917609693779678, 0.05648606077836118, -0.01238871678053245, 0.03130905295687104, 0.00948366692332516, 0.009976371248355705, 0.02419312624005398, 0.02580602100289042, -0.04527035498754604, -0.014457960118837638, -0.027721512149565218, -0.00870590638367861, 0.027595500840853354, -0.0032055488421987776, -0.008419032619312187, -0.0015063073530125549, -0.0024312711291369455, 0.005007610776206603, -0.03642280512880569, 0.07308988006165895, 0.05295946632260734, -0.01384750772118665, 0.0406545634076527, -0.031969446377957934, 0.02588951410806788, 0.015372077711024166, 0.023995816898188967, -0.015090607458766937, 0.02535976582569988, -0.0006843129678477877, -0.021876979260165293, -0.0047683918015513985, 0.018247457695265222, -0.005558652157148724, -0.023841833558953526, -0.03980116782680432, 0.06920034227309303, 0.03762315284176999, 0.039873065305908076, 0.02111494135888797, 0.03345597637684893, 0.03748493293686794, -0.01274460377493411, 0.001193033326880836, -0.02285836888873577, -0.04306538637040065, 0.04005151852572427, -0.10056614451146237, 0.03481711073251601, -0.02674038525889535, 0.045477520558561586, -0.025301872640136565, -0.062526653093108, -0.05889992544194167, 0.06564329357286504, -0.047387251015451846, -0.04527780424694739, -0.016915843107911138, 0.07233613283408002, 0.03606603083740686, 0.06447437039146543, 0.017300124058564223, 0.0359777774678367, 0.05653907557165803, 0.039550922853684535, -0.06271155293613398, -0.00043203951463813143, -0.012275553833920832, -0.03801673115523539, -0.0011838880653799006, 0.009777849566550091, -0.05335057869620715, 0.03593049445279991, -0.014454306383291387, -0.043070833736907024, -0.01321816135341961, 0.07664060117235173, -0.05331923122796435, -0.011421487300238533, -0.02462665718444839, 0.05612155625944003, -0.028807729268233873, 0.02783201724884905, -0.009806977435313507, -0.026672934361340776, 0.1082584709102545, -0.006905408941892329, 0.048135858958692886, -0.056048470368440566, -0.0185872332099573, 0.002274224866245067, 0.039767292373526865, -0.03240481037524471, 0.040181734458988254, 0.011497589940145613, 0.041497674757015976, 0.0034983742862182586, 0.03480299723050175, 0.012665525596854108, 0.01203741273947109, -0.03818568114602462, -0.008132496342904225, -0.03190143270579495, 0.02091715423730761, 0.03388850095892475, 0.050235999295712194, -0.05842213314882065, 0.037598847394197554, -0.009439004534788664, 0.02409675217568334, -1.8503603053606975e-05, -0.04861403996735202, -0.0031045468419881104, -0.05015849651771307, -0.002136154055228421, -0.04570564151665759, -0.05543713987942188, 0.05448141749093949, -0.028600360581382777, 0.02083042466158464, 0.012596177604783513, -0.029492897917459827, -0.025003037091449985, 0.023598846841422907, -0.03361990772966082, 0.05913302493143448, -0.026481168777398697, 0.024620827668703105, -0.002785858424002983, -0.009680818710178344, 0.024552669164816306, 0.02818985069832708, 0.009492852635429922, 0.013818993878015957, -0.018310127064064454, 0.01017744859266896, 0.041314946691588306, 0.09288932956209837, -0.0324880170877682, 0.005386313403630321, -0.030531373936740647, 0.049083751737689904, 0.034829903425587096, -0.01369116420087514, -0.01400625549348367, 0.027190366051129566, -0.002651568672788727, 0.015661462182568687, -0.029338591512692618, 0.08037138602497086, -0.005761480478457803, 0.022278695594527363, 0.012231798165717797, -0.014306599113075705, -0.05609047032289723, 0.016554522079064878, -0.05050816273022335, 0.0145561089656964, -0.02310024852712469, 0.038706017587147847, 0.024391732244224636, 0.002742217882277189, 0.036470322383077326, 0.0519398796183532, -0.0446557921262909, 0.0065955973350992165, -0.014234760942117938, 0.02147663794389575, 0.018655300196185862, -0.06057876217102442, 0.03634652670163237, -0.05608661294587013, 0.0317551911609037, 0.014113612288810955, 0.061123087560641144, 0.0018958855941050335, 0.04166386040781505, 0.005685929184713859, -0.021352640545762143, 0.04308826117157128, 0.0021693384658483766, -0.052202831824617386, 0.010684008312790375, 0.02394742213993148, -0.09926738943658932, -0.03072637820811638, -0.08447220239683284, 0.04516181880606681, 0.0281194229711678, -0.022944441427654134, 0.024608770294055154, 0.022039429857381092, -0.018776545996710668, -0.008310008671116989, 0.06629797415667175, -0.009008011844105882, -0.031208449435074108, -0.06346110673030082, 0.024600333308297053, 0.01838299025598999, 0.004830336229221554, 0.05485872722557698, 0.008677355198715023, -0.005792489485378399, -0.04073266355465412, -0.04515431184784018, 0.016787362725433543, 0.01242876176152065, -0.0013217611321600328, 0.01776144803304447, 0.004817607659961269, -0.022523340400449485, 0.05542762175827665, 0.05402372249070442, 0.03243724621840697, -0.01047532392034492, -0.03237463134916914, 0.04734162674080894, 7.41721040753857e-05, 0.04061529144577455, -0.008869245951255338, -0.005026616123855925, 0.0218778291776332, -0.06866993672245965, -0.00839138577023053, 0.04454934660917968, -0.036858671373346856, 0.006680531618301289, -0.016565424090121236, 0.03222731730491261, 0.028400960382958078, -0.03617574381487736, 0.05682844016967765, 0.09840980257280312, -0.009608766892312593, 0.030082672317193408, 0.0011883712130239987, -0.00032572064056770635, 0.0015624389008972773, 0.029003215298415454, 0.009818951012775426, 0.008253748973781736, 0.012999187982211013, 0.04248982387770546, 0.006218616854776771, -0.0036783323182203453, 0.051672936774211656, -0.032551357445023396, -0.03628962441691781, -0.024785516986768306, -0.005415434423437236, -0.013791007574316587, -0.00920974186674381, -1.2501194938086057e-05, 0.009008097033526728, -0.010285230224524594, 0.037045214415945334, -0.0322661522248895, 0.031029085128553423, 0.04365743965508817, 0.013701866724515952, -0.008536134964032355, -0.008983609430042158, -0.07264537835680725, 0.03894005608616021, 0.035213175952179855, -0.026922057808915028, -0.01202386512563323, 0.020057852690679074, -0.0055371621094770455, -0.0723847881568253, -0.004967715891825049, -0.05971552202153269, -0.027031981724559558, -0.03582355891416301, 0.005562316964313407, -0.04550719970877247, 0.022301565951944883, 0.020130855994545147, 0.010242271763129845, -0.017762401752143712, 0.11034719537283831, 0.03021059270750751, -0.02488976450654462, 0.01854149142212915, -0.0006253525856054633, -0.02698819942283389, -0.034810976997789136, -0.000733757376092146, -0.010499238595440776, 0.007868581310623813, 0.038891278326657126, -0.020652514563649606, -0.01008693838432863, -0.021395009671203783, 0.05533768970531981, 0.07833643143814013, 0.007868356393268872, 0.046759576987491815, -0.00033690090395956687, 0.05321417517492568, 0.05994051760685709, 0.004758106370423708, -0.0027913502292476475, -0.009242089282070123, -0.01756743458566682, 0.0003315308459430905, 0.03790949808032356, 0.034553476829053124, 0.004194811707948809, 0.04588244099290192, -0.021780319749060358, 0.0255193761424968, 0.032816702389516644, -0.005144737302878412, -0.0033131841674922074, -0.01499197906896824, -0.08759821333485444, -0.06930455164323616, -0.0292373224237697, -0.02903741373490243, 0.011261573744212867, -0.001538643562803026, -0.032690349226651684, -0.017108129644832396, 0.021817592808154047, -0.021025654614699064, 0.009312315289104409, 0.05663548042184253, 0.005667168709422983, 0.03697412146703387, 0.01744948072638681, 0.03761642155519097, -0.009138401833947029, -0.03461676076504002, -0.036071083368185916, 0.025331416542054373, -0.024007076071846562, -0.02540929078271095, -0.008914443188718394, 0.0133675230812495, 0.061915948238577365, 0.014771406816914216, -0.0015523442017597775, 0.03305925561320115, 0.0006804725116706963, 0.006088014289030344, 0.004459822906482358, -0.020951844758060067, -0.0781455700599443, 0.04371886706775928, 0.04946664090743982, -0.0017349910230802148, 0.01003368888316299, -0.04979880982853983, -0.018086898332585373, 0.014231835535657433, 0.028916179737019536, -0.012910198658229174, 0.014819971605022622, -0.041096574797366996, -0.03586933525854115, -0.00729096127025071, -0.0033892545015340608, -0.004813010585201097, -0.010075965218129484, -0.024793802317246438, -0.04778431233102349, 0.029862434001930834, -0.00963077425106212, -0.03988012951713236, 0.004787781065540286, -0.019214841263863938, -0.002629294368333817, 0.03283897631211844, 0.026108611369879915, -0.002582747947062238, -0.026738743122878106, -0.007906714634610318, 0.012403170075369155, 0.04275327397593422, 0.026567526413909828, 0.0017146680306207626, -0.010264577745350048, -0.0523215178854358, 0.0076843017597821115, -0.01038763365589593, -0.07433069519290758, 0.06503222693275083, -0.023839878632352877, -0.017711719496989287, 0.008151959931582511, 0.0950766321178199, 0.027367676302785526, 0.06571710966587298, -0.03905397659684009, 0.004475135710733649, -0.007970335050415405, 0.025165789733367184, 0.034333698567136035, 0.06992569266921768, 0.03800125479899103, -0.02160252859011994, 0.045271429144780106, 0.00243812275546287, -0.022538334120522946, -0.010837502784794718, -0.030983602391600026, 0.031558942239193935, -0.019283880698435663, -0.03279057451510561, 0.02172745581606251, -0.0565741824586287, -0.04469517289428905, 0.006106081457227916, 0.011627672512017226, -0.031060425861823553, 0.012856982513678181, -0.011773992059761332, 0.03477654468244749, -0.002617207842059992, -0.04792400121989988, -0.005103096226034956, -0.035207379249538893, -0.008561319193159975, 0.02622746537823269, -0.08100529588428133, -0.05346382585463218, 0.02331598172860722, 0.013128777068095265, 0.0602023571470202, -0.00689875733133421, 0.028577366334431618, 0.006993180957700406, 0.010548307894281002, -0.059728256387648324, 0.024491940353417407, 0.029449212208606447, -0.009943731874856383, 0.046031419997951344, 0.024634611122825473, -0.008541995878801133, 0.01753575720149936, 0.004135929835817271, -0.02138548516119929, 0.01336743859447349, -0.010262181492608992, 0.018305210806079136, 0.046049310766139544, -0.04936595650392504, -0.014525237528511916, -0.006617862197839519, -0.030339318189558918, -0.024643129196609177, -0.07444273270470994, -0.007932509538892902, 0.006952740679213981, -0.009720495019855975, 0.012610154579996551, -0.0007070928876029015, -0.026400499677764252, 0.022041960335251635, -0.019555209949317743, -0.02638040211641923, 0.051083374006078354, 0.0074001028032783705, 0.012332361811834471, 0.04978364315984522, -0.0311009514472246, -0.06438324244039353, -0.0014762777915306045, -0.028398926083470593, 0.001186160579278758, 0.024253113255786503, 0.021528132256046273, 0.04831552371166285, 0.029085331472567883, 0.005393765478048869, -0.029016503622613727, 0.0030647594804146827, 0.05531421911566557, 0.012549467302102749, 0.019170661410308373, 0.005212766454988221, -0.04150334449395459, -0.006982150251592724, -0.05454488924584298, -0.07277809920328616, -0.023578283849998737, 0.004431240627913507, -0.021152108311827424, -0.012904054839997525, 0.005360123107614989, -0.03767395111893599, 0.0433214939504255, 0.06894374433307489, -0.033604314245135075, -0.09907279814929115, 0.06504534016348269, -0.029616808158080564, 0.03729488018380168, -0.0402558358886177, 0.07521308950638474, -0.010013026322634318, -0.0406340874585434, 0.026639857117117836, 0.10342442948255566, -0.011505512049317575, 0.01801854351143051, 0.024240682185272762, -0.02920946222125702, 0.03219431828814222, -0.06325628769121559, 0.018009761088602777, -0.020751865844094386, 4.0789253137218894e-05, -0.003622996145649121, 0.02695361944883862, 0.0005453192934563425, -0.002344604741267776, -0.008272950029748484, 0.026415454381013725, 0.04648638656665937, 0.0015643255688894432, 0.013394693129295154, -0.03847975441247138, 0.07966686022776791, 0.044912607792229796, 0.014358309873466658, -0.00021866327416305244, 0.05916889631473905, -0.03751986981655243, 0.002803460734631652, -0.023120507107415974, 0.008552789388359008, -0.030024680008900118, -0.06778264116253244, 0.024269708098923558, -0.006392013929995667, 0.05383357364182252, 0.010060288310949723, -0.014824879147382791, 0.007489939228564045, -0.032735313363014135, -0.0021865404888545205, 0.003069907431481556, -0.04481571644007598, 0.04448695849731753, -0.02582218242375085, 0.0076824102241719525, 0.017153183348315896, -0.022305076411818038, 0.004271764005539075, -0.0037372049895765883, -0.007940266782622036, -0.026576239852472577, 0.0057392510696596885, -0.007845183207593111, 0.02378549580347055, -0.012314499205292416, -0.015137762213071355, 0.04204398082705282, -0.011590900757231418, 0.016834369255128847, -0.012646247447475419, -0.04108677216805875, 0.07096281097154843, -0.011243789418119694, -0.02190073039909435, -0.00893924877940938, 0.01824160898064773, 0.04720039663437731, -0.05460587637529462, -0.024563513040551602, -0.024180141885452294, -0.010674079069252279, 0.01082185300404418, -0.03184728797010501, -0.01487105420206052, -0.05106894365517194, 0.050401483961717355, -0.07468081059995825, -0.025798210449526623, 0.0016595298505575628, -0.004409652561099242, -0.003470907580904643, 0.047712827070538574, 0.05678543001835427, 0.006263805449827258, -0.012736569807989262, -0.017555392679354225, 0.004183678255381119, -0.05917886555031301, -0.03037690707303158, 0.0157044037958543, -0.07253535006024203, 0.016602539792843343, 0.02474868057799551, 0.005932617874786851, -0.044240299828672024, 0.026976135154217745, -0.0019921276734703075, -0.032696693170642235, -0.05168421398139466, -0.01200870006581038, -0.01413371901000532, 0.0448642065309162, -0.012332173024425828, -0.01626254116682199, -0.012821746717117126, -0.05481714095058908, 0.021955408679085384, -0.004249900230548792, -0.008398534149360625, 0.024499009247597656, -0.004374368608050316, 0.028131041896121867, -0.011758093029166833, 0.0023284247549936743, 0.013395225535361563, 0.016455334883532385, -0.04007424980348049, 0.02836268894024679, -0.002712472508782837, -0.004218577387812206, -0.007302342820111123, -0.015533716173679425, 0.06262954060812218, -0.0030190653357908236, 0.028927519822595903, -0.003283107030384883, 0.008469346919131147, -0.05147887909037408, -0.01873391046809919, 0.024516443491915865, -0.025254847140048498, 0.008559145821757088, 0.021771713236660578, -0.0023092608688523213, 0.011937597974754573, -0.0324801575537254, -0.002791370767911101, -0.027154272181804707, 0.006364309571154519, -0.006540642339145629, -0.011900913913413571, -0.02011292627087576, 0.016301780312694737, 0.01857338671065917, -0.08374127682540397, -0.020867569245883833], [-0.06867950727270111, 0.035147343269586066, -9.047770359768167e-05, 0.052039782276566526, 0.005146156059824811, -0.09080794694427834, -0.01346331971871623, -0.005810495061379954, 0.028387004131086187, -0.028119551989050893, 0.0019611108261268183, -0.004824316996225207, 0.002238213643130392, 0.002602515365789272, 0.06476771943156902, 0.007755187395695077, 0.010613871386322133, -0.02148893502673303, -0.018176689309679868, 0.024095111817811297, 0.06273183367397153, -0.055589150087023344, -0.010753185235312117, -0.06541608860214453, -0.03317043523005978, 0.07815594131847906, 0.004215955670198089, -0.08173944717992658, 0.0250781129593183, 0.00875593284966323, 0.0005958572710631956, -0.0014544581797422927, -0.021904238381356054, -0.06557240288291608, -0.03960751333405775, -0.02342964607142547, -0.05780942982123144, -0.028168945197609752, 0.019759115556426465, -0.0326063858219349, 0.04464261274751211, -0.0026231197153106177, -0.023469413009780914, -0.03626541777739641, 0.008342075556682324, -0.008546442971105184, -0.005057425020936, 0.023754876729792505, -0.03771294713552112, 0.015436403120051841, 0.0609085554266552, -0.05489577875528877, -0.013833334297011824, -0.04052689207484258, -0.06623120676910536, -0.01653333958067399, -0.013831417565194353, 0.010901528677618481, -0.042287970544080865, -0.04413957295227655, -0.0068348295957055254, -0.017511545845264383, -0.05157451915638631, 0.032448790425529124, -0.0654049990379561, 0.0014693372389330832, 0.06570945913781777, -0.00920592242963258, -0.002239369614346718, -0.028118792983621268, 0.023779565876295428, -0.01276769311219276, 0.0005200573433887184, 0.020592231686757938, 0.04850251630188014, -0.08309956812413163, 0.01021762952108952, 0.04253764218494311, -0.015468801642011552, -0.030258032736684645, 0.04568576797081306, 0.01792405023281552, -0.03902474643670437, 0.033131203525244866, -0.08409765249933075, 0.0021978961076657357, -0.05208858921265912, -0.024664736366913725, -0.00885809652414277, 0.03831722061654413, 0.00956094086232733, 0.006677699926483226, 0.047583482645183146, -0.026255595862890547, 0.046478138351097334, -0.0017144745745940454, -0.002797429587939647, -0.002028945366246641, 0.025724053587918117, 0.01961373058406781, -0.005470517432818601, -0.048154605611990545, -0.06566937996088669, -0.05233767485645187, -0.030933087977277625, 0.0262332924470948, -0.017162215639691066, -0.03108225014409345, -0.023659234985253564, 0.03140962843698609, 0.03763051933338015, 0.03214814833651227, 0.07968495244082922, -0.060617975309643975, -0.015183808716667413, 0.015083880617953406, -0.010063904382687526, 0.010199770091988497, 0.05147791295219791, -0.02006550053312146, 0.011148889065489576, 0.0055190045640647195, 0.02437169057355506, -0.00946462435682126, 0.06194859732785117, 0.00803456163415266, -0.0063319462512700896, 0.1021626179494, 0.044847509412363984, -0.048583704136471666, -0.0610785247373134, -0.03404114839841781, -0.0019472616706611755, 0.016063457423588178, 0.005763713368567788, -0.047737722177277835, -0.034537091557356694, 0.01029121360819092, 0.026251742445706622, -0.04432661102512927, 0.026736869523206187, -0.020132168823870072, 0.018883222046211724, 0.021185748613453775, 0.05578300523002668, -0.03276667267219865, 0.05850909365593634, -0.0015090191525063937, 0.0020525244290669196, -0.022979897720546167, -0.010378134194272755, 0.013719151432896313, 0.04468998120306882, -0.0212766185087879, -0.02848239234779426, -0.049387952676200685, -0.01187993485215917, 0.033775169914648705, -0.004719347980510819, 0.03132860830624264, -0.04313735878673625, -0.010042085734777663, 0.006325160044835048, -0.048739495426624736, -0.037377897795290764, -0.040059805341264416, -0.010432034457085865, 0.02513211119128124, 0.010702003771809418, 0.04043460985141859, 0.009035424167258636, 0.03572113098154092, 0.03236596610587561, 0.0905064117692743, -0.020931202638033445, -0.00852350779898083, 0.07296798094311785, 0.011503211034764515, -0.006062991707922579, 0.03458113993876287, 0.04392686134418319, 0.01739679108109398, 0.03144307767874588, -0.022638543150168423, 0.012149409479516225, -0.009404824420270465, 0.02241047886926089, -0.01333575384549444, -0.040825401519988445, 0.0015323566045009579, -0.012792656954365557, -0.011295272617350749, 0.01994609275553733, -0.051335013508206476, -0.008969861493956982, -0.008511999398464844, -0.008550247847575838, -0.022405056556433166, -0.007789992289681033, -0.009443033953765586, -0.03224844461500882, -0.03513389719941317, 0.02263195324686584, -0.03787498522373494, -0.005745729003738568, 0.010182933608609543, 0.0259767822118663, -0.03478364420022915, 0.08609102014136764, -0.0009380563722936815, -0.011836523800470655, -0.021876830737028063, 6.094908042638968e-05, -0.02953832842579686, -0.027393870412570003, -0.0837369863689421, 0.032213043629989, -0.023475515727333408, -0.01349350202464157, -0.03624419678418848, -0.037389308622049075, -0.04396429973214526, 0.03287379626979015, -0.03221535893269534, -0.008946229621271258, 0.03521456232424824, 0.015889370861266457, -0.01682190682468417, -0.013822484774590426, 0.0028590368556687834, 0.003747900137014117, 0.027717178780079583, 0.048927785330201215, 0.04140889696243967, 0.0034193262503228257, 0.004055052566689191, -0.01000534911169846, 0.044713624723305805, 0.0019307405966142886, 0.008576351835479319, -0.03966343160626037, 0.028835598172411124, -0.031140899646851645, -0.0028160465571556927, -0.041740914062713165, -0.013320804214945426, -0.05383508421621157, 0.0177877511303307, 0.002515712602482855, 0.03237891708733732, 0.062419561618414963, -0.016499818538728422, 0.029736413988915012, 0.003988005011863149, 0.007201516724097465, -0.043072399838962036, -0.0026185655509211253, 0.008428903567491836, 0.024472170886069376, -0.022465415234260853, -0.037481840861512405, -0.05025231383508963, -0.04893670204911847, 0.01280346385526069, 0.0017324985044195257, 0.043399248670971675, -0.0038375044013985666, 0.0513938323846955, 0.020669493345519454, 0.003418302707099102, -0.0735539942028336, -0.03867891357425438, -0.02521781036652146, -0.05587316289557746, 0.040355827607091825, -0.018598314327175406, -0.011980481477834065, -0.05901718513767079, 0.057176121433005114, 0.0026970574092333274, 0.03754575946755164, -0.04183333070846892, -0.00864905831769483, 0.021710291782339974, -0.054995565087788474, -0.05170118437371464, 0.028068201777779567, -0.044268454604202444, -0.013179498996543545, -0.02065180061967107, -0.01605475069023159, 0.024439959325361676, 0.05836594171598495, 0.04090338572155978, -0.06036782650731834, 0.026015605804338905, -0.023978785855182937, 0.036316359283023215, -0.035056981397045196, -0.05350136025256799, 0.05928051645027367, -0.0067457858716542035, -0.015205662454271879, 0.01857153527813424, -0.02427871981169813, 0.03901832449922723, 0.03541623017898008, -0.07093197258358767, 0.005641433192057601, -0.005172451268242672, -0.011965585620479348, -0.016577551931599672, 0.019303138054222607, -0.05248685767546763, 0.00892784729977615, 0.022147060491594126, 0.011005352949367555, 0.028568912204909657, 0.049625722748134565, 0.06580527682456923, 0.02218522007150722, 0.008861635457765974, 0.05570174482248583, -0.012498379519986, 0.05530805880790329, -0.012422845838195725, 0.04117671426796207, 0.015109237827455753, -0.0239393475294788, -0.002799161288351332, 0.0055812760968951035, -0.04512329880554076, 0.029378354463304928, 0.023565749107488484, 0.032156867226505736, -0.0531340292193213, 0.0052481189762427286, -0.020268151469167977, -0.009324122578491922, -0.023277046297642736, -0.006617892198141495, -0.0322932679968508, -0.00541849219957778, -0.04983102561196863, -0.001202175474668269, 0.02952073811114356, 0.05346481666746083, 0.03473185064462963, 0.021733422426104525, -0.06710091721896919, -0.10149072942904898, -0.09000771219241785, -0.011709559769916734, -0.10225107128456022, -0.04955771571354956, -0.036129493809008546, -0.01978398618325968, -0.003452374161887323, -0.017202876688163626, 0.005472274583741906, -0.08708525807718959, 0.021301495631217034, 0.03197500042013112, 0.014200584982668983, -0.056686044655533084, 0.10086871337276693, -0.031225454834790594, -0.030907174366621205, -0.0495523651478669, 0.013003370890753275, -0.09417882942967162, -0.002884154270188039, 0.028890778282226408, 0.017749422814331662, 0.07131261388114048, 0.04879336285659159, -0.04392320226121764, -0.16985547255404634, -0.09658936618475555, -0.04254144703542414, -0.02666403942707767, -0.04894577953348782, -0.017957491614688438, -0.000915543907944657, 0.06484813550273516, -0.03921941438737849, 0.002500689464066517, 0.008250669615958625, -0.01925143669262155, -0.05809908096084484, 0.04473393159329728, 0.01202920412722584, -0.029964683386627472, 0.029917457573240647, 0.030072665559032354, 0.018740743874356296, 0.006779320370427907, 0.026052370343650457, -0.051860240223821796, 0.038602490789411914, -0.02299406055295151, -0.01274048605949134, -0.014794582713983552, -0.03671814116071163, -0.04079727981779073, -0.07975272828554264, 0.04975985747638293, -0.0041389118240729526, 0.08284932171662636, 0.009746685894244222, -0.024198034109987245, 0.023559051333585004, -0.009087315604484015, 0.014823835374371723, 0.028585875561311157, 0.00564975769601292, -0.0010875320418188192, 0.005621804843750616, 0.006219885744076505, 0.0056141194439006965, -0.04103573093500392, 0.01629377209977542, 0.04090764419300053, 0.030452912257903607, 0.07754448003212497, -0.03960118788335325, 0.007730577378704445, 0.013106745964936113, 0.019239499260226313, -0.06081039676394045, 0.025283469109470096, 0.001978531323247665, 0.005225105970835422, 0.052692278069175244, 0.03613419860333347, 0.0070777158512067406, -0.002915025623486201, -0.021075628956562596, -0.003983008113098109, -0.03929260200242975, -0.02790535755705185, -0.008799943960860333, 0.006087994455466798, -0.011351618546902432, 0.005881631588880839, 0.0042419217315212135, 0.016660036686519514, 0.017005766625120655, -0.008050652873813126, 0.029272267086440568, 0.013983842314066732, 0.004284211441190608, -0.08597231434326567, 0.051094325722219884, -0.02292514030293411, 0.02288593671948732, 0.02308643936831489, 0.06280438072527361, 0.07868511358716447, 0.12092382884214957, 0.09010867157443271, 0.11360275601538629, -0.017496408891301933, 0.0058230129955337065, -0.06959626093111417, -0.04049442838026753, -0.03344439505391878, -0.06196537733018925, -0.0019969803379815453, 0.0021464909994020624, 0.050137576533542644, 0.02355840719545893, 0.034506510435092785, 0.0450352735203482, -0.022767926195603003, 0.01833189205225538, 0.04711521936866494, -0.01861522318087106, 0.03590977932378491, -0.011142213863864334, 0.012992190611666139, 0.038655523529965846, 0.01687900616165361, -0.07499765467573791, 0.015366308042467325, 0.11367591354206098, 0.15489050693623277, 0.14141745233799385, 0.0492707726516189, 0.10964249768511587, 0.025113311887392072, 0.0028464976088031302, -0.05921550907795153, -0.026914914667641336, -0.04043099808591618, 0.052046242045588206, -0.022335240054346176, -0.08852456563096298, 0.00847850226597615, 0.00502519172375663, 0.021789309336105577, 0.008841436671670507, -0.03315547105152656, 0.0651088965011452, 0.029591713844913548, -0.031376040987533854, -0.015829273508810474, 0.01372673613306682, -0.01845318564558382, -0.055045996503309845, -0.07937912142893896, -0.024200526848553547, 0.010869385784038689, 0.013984259292996406, -0.04021392178989281, 0.09532850135711553, 0.05044234503188774, 0.10888806919124588, -0.070386791020185, -0.06101013444168026, -0.07378675441153933, -0.02537054714431241, 0.019764295966758296, -0.04416963410691037, -0.01834662145137506, 0.039025446056754405, -0.007597390483668424, -0.008655006306416196, 0.039540610823038766, -0.030364750906759077, 0.04595885850113734, 0.01628133188214396, 0.025066106704662895, 0.03084464336193423, -0.0010026326474024537, 0.0010416998223334783, 0.01481500852139775, -0.08025902424936343, 0.004872149475674576, -0.005388214957062841, -0.007979436188960617, -0.048006366195787735, -0.0920429458601966, -0.07262184909050551, -0.08486839123689097, -0.13448502260191822, -0.08753071578429952, -0.07464639437739676, 0.04504430713906022, 0.023222620506917854, 0.030703313192892726, 0.0060414411881326785, -0.010265501033868963, 0.05758036053702883, -0.007524753344526446, 0.029860602385733657, 0.026499741296582047, -0.0352037022421578, -0.029280893283645776, -0.014921703815366333, -0.02681401444643757, -0.009382393379672333, 0.021272006504110215, -0.062077831013110416, -0.023153524824226453, 0.012795846771054959, 0.022287659891120252, -0.013611826355830824, -0.08109330843848635, -0.024110772450754582, -0.19016684787707253, -0.16079649326434348, -0.20179194149410887, -0.10654793932640708, -0.021541698041951735, -0.07962168731585888, 0.05892175081034447, 0.038734479183946624, 0.06695325070861634, -0.004538867983900463, -0.0325400799308648, -0.005794670291337264, 0.09731484639623567, 0.09809245322103936, -0.007351260328540873, -0.04283387973778687, -0.008173958280580597, 0.03579381221431231, 0.024391935629140125, 0.0256824080581661, -0.022712027103375585, 0.012078943335740106, -0.010415884011714796, -0.0008567267919119151, -0.0020737175521307774, 0.0014445999707183791, -0.049046205762153815, -0.09219583735762536, -0.03844076835401506, -0.0296526748436342, -0.06356731889539463, -0.0744770490456948, 0.008264071342514803, 0.023622710810709772, 0.0035955490522844432, 0.07143230550655531, 0.0710001943577162, 0.023210840415433386, 0.014360118049698464, 0.05057918314470232, 0.05556418703648048, 0.014976574442266218, 0.019949835329925027, -0.015125189433484405, 0.010474707295444568, 0.04315333695267088, -0.03897285696714579, -0.0017476710679099144, -0.010868580189289776, -0.009288518458146076, -0.0036777946859252496, 0.028372830456880382, -0.028174930708942503, -0.02499973659913379, -0.04538287479930203, -0.06178700510537315, -0.016488545486290924, -0.024046534036337927, 0.020287508771473787, 0.01666310856434027, 0.009236015716690095, 0.028842039254129852, 0.008150404711905816, -0.023775330283445945, 0.007337756425694572, 0.027859569788094923, -0.0009226394153518732, -0.046331904425864115, -0.022316275556225604, 0.06170815329981365, 0.009283957120496159, 0.06617332137263793, 0.038493355488136656, 0.07796010237412321, 0.04380980916548778, -0.008417597195672985, 0.028567827384331283, 0.05322155563402684, -0.055110151415504946, -0.022784780581010997, 0.025885343170579448, -0.018216206041159276, -0.07672270002829604, 0.022872551819963723, -0.06590240181398727, 0.0571783201211774, -0.026305200684031124, 0.041722743522829495, 0.026441071613995122, -0.020318201443102098, -0.043674760353575086, -0.008212406317768936, -0.02876884378445427, 0.01386453572280484, 0.05904813673652202, -0.0010835257479856265, 0.03603631936138778, 0.010558447817123034, 0.04359329778853667, 0.012790020346390285, 0.03666224008941064, 0.05264503949703798, 0.015045384095617594, -0.06882839110237775, 0.016677725466791752, 0.07523564438678189, 0.02757018617538891, -0.01213623143855066, -0.03825475399074166, -0.010348048075515832, 0.03207268720404285, 0.01726185365820983, 0.05158619779293903, 0.07068095134501748, 0.08233680998875076, 0.0009666987028529623, 0.049388985802246, -0.012828913057947616, 0.028059848190794122, 0.054336282240508856, 0.0019263438287676204, -0.041856821904985526, 0.0215206050855622, -0.004087611186563353, -0.017769392503175028, -0.03622936285134846, -0.020145953440198247, 0.020500416001222904, 0.00637716679890612, 0.027233220389090745, 0.008516488681604083, 0.0010903515009345875, -0.012191447266867536, 0.026265278541927974, -0.0420052017795053, -0.004522240627885789, 0.021139010961642963, -0.027826178049158764, 0.006324505265981371, -0.018732244403244436, 0.05396834233992919, 0.10091922646914914, 0.08629874744008358, 0.09136715211052267, 0.008244652586802834, 0.011670626783715884, -0.014625747369690337, -0.029121897265470837, -0.016681229671643927, -0.02183495088597516, 0.0032051843718213153, 0.0017003167845622265, 0.0034012314102756895, -0.028019565166500275, 0.004193008304280299, 0.02439603292466035, 0.05380902374369075, -0.033371950616984905, -0.021483864189701475, 0.03935671923750373, 0.012473860251538613, -0.003988108434304751, -0.00638308668204475, -0.021783906969913242, 0.004205122376573038, 0.030229728575191222, -0.026034923003621264, 0.002359689217981101, -0.03561375045168734, 0.010771815775012234, -0.005789376022557233, 0.04368726109456167, 0.0008451801034830411, 0.0074069497868417085, -0.0073683990321387295, 0.015098485288758526, -0.02344457224872776, -0.010118772220622577, 0.04680010174905021, -0.025879890153581674, 0.024659630829802822, 0.07511991444784469, 0.04085671862147599, 0.022428534020349163, 0.0050643069963993105, 0.01811296676499859, 0.024463470802579223, -0.022140003547687772, -0.022665357656122175, 0.05748182107246081, -0.07298588296117785, 0.011488934594113372, 0.050833538667273796, -0.06146222938867039, 0.04187346219216627, -0.011075553759109853, -0.003603563469263104, 0.04247689823252048, 0.07116324548567016, 0.028279939824883655, -0.04476605337108493, -0.03025351753098915, -0.017877331718602587, 0.020496051639325222, 0.04099169130982918, -0.008625732697653357, 0.03491720124506748, -0.01023571176200726, 0.019307134609723164, 0.030485501604835347, -0.017711113722718528, -0.03734168659341323, 0.04878460524415638, 0.002874935474883916], [0.0902443442362707, -0.10529261337330251, -0.021450532464244405, -0.010779313173962508, 0.006045051742446039, 0.037132573787684364, -0.0007784659641558356, 0.01614296415440341, 0.004430235252947423, -0.04484928384608481, 0.020160000683601877, 0.0142510055639674, 0.05578297154242245, 0.0184569707678675, 0.020126472342289165, 0.02908181047957532, -0.028352756220094647, 0.013820316277275995, -0.03286628876539046, 0.03593742192567292, 0.0039884843914927024, -0.001074460283869059, 0.016042695932406918, 0.010036599497828645, -0.0015047945857128789, 0.033544856253454006, 0.03576360588037804, -0.013881794047136417, 0.02657963242577901, -0.011102575664714284, 0.04184457859900318, 0.042973358495690776, 0.04811348889579001, 0.055383791800805854, -0.051493383057373436, 0.05706036340255136, 0.033178328708940434, -0.003988434930818643, -0.0009192135684460019, -0.0562753524644034, -0.000823041207181013, -0.00820424166482685, 0.030594184307136667, -0.0016692654084776914, 0.006319129694988808, 0.024792360691147784, 0.04280761945453098, 0.02668806211193984, -0.0036502276840590284, -0.04712670016310939, -0.007854091762668674, -0.004304347970799602, 0.01841798517352799, 0.03075461604232243, 0.007297527341086099, -0.001947866851283509, -0.022001185643225504, 0.028741725663868428, -0.03096357275836608, 0.010692184739632895, -0.0031753782202011676, 0.0003575089562602598, -0.00899464318760531, 0.0656125595135748, -0.00967508912273811, -0.011080573759783484, -0.019581592958172054, -0.060552815919280266, 0.028981695657494286, -0.05080880609248105, -0.00783558129776873, 0.0726527878085132, -0.06821110816468422, -0.015818072227174688, -0.08275636721256971, -0.0823632159461249, 0.0032360033789708693, -0.027910910485029052, 0.07911160406488262, -0.024740118196868922, -0.002770341777714438, -0.004489451916280439, 0.025230576211440592, 0.032036570695375945, -0.026700415451178076, 0.05707124549872629, 0.0006268867182976575, 0.01145141027566071, 0.010807443773874749, -0.017671379089126527, 0.05904486545314125, 0.08567943906749241, 0.03529270556829623, -0.00664200624241549, -0.009607519901883757, -0.018304273775558197, 0.01593576733133289, -0.07960539641542622, -0.040535402458098044, -0.029296059040086427, -0.009701237703589112, -0.002762204316809023, 0.004898874477296701, 0.07369794873496528, -0.03714946800580728, -0.052858293757483986, -0.023255872617607365, -0.02985833762065269, -0.0014410833337701024, 0.01013827405006236, -0.012542539468768193, -0.06470091601938066, 0.061871103300670804, 0.02192533906692616, 0.019771490802592395, -0.008504325604867703, -0.08659783706955092, -0.02374018245894041, -0.01737595427832056, -0.03665377504548767, -0.015454010828706394, 0.04843228634079052, 0.015832147642421142, -0.028608767930660157, -0.014023152578660113, -0.04321914988399033, 0.004869307831650262, -0.03546359887734779, -0.018030993148343263, 0.03792692394059807, -0.027365166873783885, -0.07687702239032064, -0.019626594362301946, -0.059148213383595154, -0.04349915676378036, -0.003251138640393242, -0.018468691877797323, 0.005603156595844421, -0.04012977258847749, 0.0064698671926695685, 0.01694568925603512, -0.03322035542538004, -0.021802204157568988, 0.04729817994275147, -0.02862292007185762, 0.03955376085539987, -0.03512204794672806, 0.021849939985488124, 0.03826434389237588, 0.01064036143818405, 0.020181588978678746, -0.014545758184122204, 0.031228260372284426, -0.010427471706704295, -0.00023827707718974942, -0.03745317195463271, -0.04497661049832239, -0.010094969912703197, -0.008770143977347078, -0.015254381575145004, 0.012189654480934294, -0.014581812186018896, -0.021409640966610265, -0.023355110875026126, -0.03391041327585727, -0.00869444352835488, 0.005516503310962918, -0.04839222071718058, -0.047606121251196024, 0.04796984320574431, -0.02618289871567861, -0.007019147052248576, -0.04087254251280108, 0.010653957786151401, -0.0124426473706509, 0.009035319499414725, 0.03556507428710113, 0.011946727278952666, 0.017374904709501243, 0.029411096531343595, -0.02724931143331744, -0.0059323679252371005, 0.03656845926265239, -0.015880276514529765, 0.05194793097694653, -0.03366412879217974, -0.03378345570989762, -0.011535962709738938, -0.0016946866084827364, 0.0221273917435095, 0.028098722460821103, -0.03948181729415562, -0.013517468146624353, -0.020497036868121005, 0.060645635159949654, -0.06409636268463723, -0.016313248174623533, -0.03144161141252623, -0.007250416693104843, 0.026358120549020918, 0.022163024425962213, -0.014538303390187305, 0.09660768160133676, 0.05234865211213143, 0.010273805938957175, 0.045655460573657644, 0.03121772625447952, -0.006501390833513452, 0.049212741479813846, -0.019780518769764877, -0.039365519728764946, -0.04331886846484827, 0.01260677254617089, -0.0588682656771448, 0.009704797749633747, -0.014195406933444598, 0.03823541341766605, 0.010343953121780276, 0.06106505908654327, -0.004266361700268028, -0.00579766139418392, -0.011124942245070605, 0.03586972593949064, 0.0020729798010882595, -0.04154089195335177, 0.041279091764832646, 0.00937037474979311, -0.004470411975855405, 0.023854930198599963, 0.041880933954195156, 0.06501647015010945, -0.001108834913643158, 0.014292177386237, 0.049723359311333974, 0.05946033249456231, 0.02109506661886712, -0.008901242018425116, -0.006380864257540337, 0.018159498290797722, -0.018612735191603363, -0.05266958842043308, 0.028890891840176205, -0.0057312720553354, 0.053626995312524295, -0.008332664356820514, 0.017441549435500345, -0.005866338584816405, -0.0034485482300841037, 0.007176304069900812, -0.03985789379891724, 0.04237002041975251, -0.034870922992993034, -0.0033432709608333974, 0.0492488582573017, -0.018622776166335002, -0.03359157906498601, 0.02960791267238372, 0.027358687474559586, -0.01551160635847713, -0.01244470775461567, 0.020840662896562258, 0.023022008104538073, 0.024847236824986525, 0.017554938929393474, 0.06091593832970849, 0.014383658250130677, 0.05704071640852645, 0.10122179940009157, 0.08129328030254968, 0.002176739229396734, -0.010629497326173255, -0.007030216810584893, 0.022386104629954207, 0.040524202522726205, -0.03147527178603182, -0.00828508075872057, -0.03390586700283135, -0.057823399203543346, 0.02364332843148457, -0.04649800544891049, 0.004650654717274898, -0.016842373214599818, 0.04546237186186303, -0.08568446528844254, -0.01053295854940625, 0.018226265454886568, 0.015468554733055006, 0.014498544325753336, 0.06726804888663002, -0.012490351890264435, 0.02694912863502318, -0.009868758557099835, 0.060209617053731346, 0.11687269939146916, 0.06599661067671694, 0.03609692529462835, 0.011921062283112373, 0.0694835507657563, -0.031227405868584916, 0.006927410527727201, -0.06773601606834123, 0.012345333153950967, -0.08447999556123943, -0.015983817612350917, 0.019927375726006252, 0.02118509694680488, -0.08517675484961809, 0.004285883718010457, -0.006690259933883829, -0.01060328339986366, 0.018876046641655403, -0.013875239200440113, -0.008291637860865352, 0.06591961129640933, -0.04884355111661949, 0.028550777736019006, 0.016898643085678133, 0.05542356638813991, 0.005654835040096931, 0.04482601783347027, -0.05831058733959681, -0.03935921174468865, -0.02713270095747762, -0.012016922358468029, -0.006290006185182213, -0.05943492682532246, -0.020292531827028462, 0.04079920657443815, -0.04675548767239427, -0.028334921827635026, -0.06057123600531778, -0.09368629710759728, -0.05459421595146787, 0.024748395207396086, -0.02146425015393047, 0.02338222753539861, -0.04070522643940171, 0.030150939874880732, 0.0405806855089939, 0.0016261815324409934, -0.038386677640390415, -0.09524582249743699, -0.07479926945433826, -0.16464023330922656, -0.018477905787461706, -0.03128409583494082, -0.07528846730125814, -0.11410440706309438, -0.12765925084558255, -0.12825857738151158, -0.027465025195079942, -0.07148519704611674, -0.016576488713643974, -0.0886425402399126, -0.0632308728852275, -0.031025683396783122, -0.015505854508783362, -0.05473477481922216, -0.04063912241964918, -0.007467520526497678, -0.0178134352293502, 0.03563223382717299, 0.038046459890055125, -0.02060914646104245, 0.039311363070087424, -0.036650722577987564, -0.03844211027927635, -0.0660591391914212, 0.010864404925320812, -0.13846730839711463, -0.1406537519795962, -0.16574036548179363, -0.1509881290730397, -0.13267782533905595, -0.1550741910800995, -0.14216618221482466, -0.16517494975625804, -0.08380202840970807, -0.09956257807001594, -0.0015918745367105097, -0.03135979924030975, -0.007776840839549201, -0.055773534559653566, -0.042478140240864784, -0.0468455690786147, -0.038522411359109526, -0.1347146534147689, -0.03247602932514534, 0.024147059402051484, 0.07548868586226759, 0.03588820478251452, 0.013812677448943149, -0.010824574937221035, 0.025219608642897257, -0.030492726626788296, -0.02653406875388406, -0.060595223340309236, -0.1299182494463632, -0.18718169865125353, -0.19434428978326493, -0.1788288457748696, -0.16260814859767345, -0.11598122221856147, -0.1094943945274699, -0.10126510517721732, -0.032965672650883904, -0.03034482279677068, -0.04597478378109307, -0.009050030817818461, -0.05543482427906742, -0.03100810250168527, -0.08312603018093465, -0.07829069486910625, -0.03821318549636622, -0.03877474725329108, -0.053684229859357, 0.02293436267714083, 0.04031717652109998, 0.06483989484768206, 0.0048775338659941365, 0.05660917491101393, -0.025112612467116435, -0.028336380669866802, -0.03733966375258764, -0.06313006104667813, -0.142547754320809, -0.1849185019334432, -0.0890546804022149, -0.11611732627213939, -0.13027363907085987, -0.048104010710050465, -0.04126651248017139, 0.022045259275552367, 0.121536374863969, 0.03310999593638892, 0.020646664699887022, -0.030451743198820515, -0.007741772953672801, -0.041119779527721896, -0.01490188070664885, -0.03777225048779009, 0.010328788770589516, 0.00014094914932523956, -0.029627488514925027, -0.005212477630477691, 0.05621751397000047, 0.04099376795061829, -0.049485075986222295, -0.02129140951256162, -0.016486135824766393, 0.04880020635470648, -0.01847739010133798, -0.0769329667979698, -0.08492589936241404, -0.05909480253736345, 0.0071572007596433776, -0.0699755148571651, 0.028503688677090428, 0.033128689683921436, -0.03872266271718586, -0.011553278836668197, 0.05479240833488269, 0.04843660753469231, -0.018349259215392894, 0.02263527929259418, -0.03499011522830143, 0.06130003681868777, 0.03147590970577968, 0.013971269653981419, 0.03289608117232064, 0.012070922441248034, 0.045323647506808146, 0.0167293232262234, 0.10108177072220205, 0.05278730005597182, -0.07749404631186817, 0.009642507587261786, 0.004009020986989057, 0.028364625887702038, -0.04267615548136713, -0.05171372353058224, -0.0026871719847404107, -0.028355654119079473, -0.03624642605825834, 0.017881178920414874, 0.005574426830903382, 0.058147291099845885, -0.010750138681630585, 0.06188843392862332, 0.0023884358138213688, 0.08608344445918557, -0.010088213297353415, 0.009695176179105595, -0.06369666115217908, 0.034364334449755146, 0.009250141694617159, 0.018708932205122826, 0.013672222859046963, -0.03607923550657543, 0.05447608509355784, 0.06490829744616486, 0.08671270608301883, 0.018375653167644522, 0.024536448486104045, 0.0005804247853912985, -0.020272203857697273, 0.06276101645129607, -0.006883425464162149, -0.044768393703514195, 0.046032077146601666, -0.015290955096031036, -0.04009456066062696, -0.045116138289477796, 0.06915132201207813, 0.02574168100645376, -0.0012730691382109493, 0.05572124138754916, 0.10725495560637674, 0.048943974200854674, 0.07317773563527086, -0.023238428459813946, 0.03735919683544787, -0.005732295162894646, -0.014823528153996748, -0.040414171646345975, -0.015434757121577904, 0.06016545301925454, 0.009831011322082674, 0.04128680248711246, 0.016244678420974927, 0.05152622031698839, 0.0031631862524037348, 0.013137973108371106, 0.013355715105753006, -0.02184932193948427, 0.031156550676765284, 0.029423098940618064, -0.056250430340416935, 0.0018641350536347993, 0.016131668740061035, 0.047274602529173496, 0.0004570815812475731, 0.018771183815067653, 0.022473811404215418, 0.08326312700022803, 0.05971673495054735, 0.02640040247305294, 0.031168103638439013, -0.005299093715687184, 0.00978643775421401, -0.006002364097628401, -0.036795609765737154, -0.0043909505310218, 0.03905057947214287, -0.009742071651533185, 0.04228870712003222, 0.04501275491579495, 0.07967060994297448, 0.027881438826625558, 0.030029454338620466, 0.026352070875126983, -0.034009777219364414, -0.003777060547801343, 0.06247956531966987, 0.043423277878070196, 0.06482920795590455, 0.08354408752307256, 0.036783656297817935, 0.02101223543917332, 0.057762339147484014, -0.00867304825134902, 0.029678245819432673, -0.02033277533186607, 0.011563908285389151, 0.019857502277839723, 0.020078877795905763, 0.07058732202431652, -0.00652135740343075, -0.022897756188446784, -0.004748292028254485, 0.03297309178306847, -0.0675550611269577, 0.03736871137560911, -0.008898271305527311, 0.02897212799956024, 0.04353411596550879, 0.00615098500966275, -0.010278712055193512, -0.014135246351886947, -0.002979969704309414, 0.01722586281030382, 0.047559278772241996, 0.05554942903933103, 0.06459428517030998, 0.04605377281098044, 0.10065840402352362, 0.02456998928657505, 