{"ClassName": "RvNeuralDescriminator", "LayersNeurons": [50, 1], "NetEnableDropOut": false, "EnumDropOutValue": 2, "DropOutRatio": 0.5, "BestAccuracyRatio": 0.9904864888189424, "Train_Loop": 0, "Train_LearnRate": 0.1, "Train_Lmbda": 5.0, "Train_TimeSec": 31.640472650527954, "NeuralLayers": [{"ClassName": "RvNeuralLayer", "LayerIndex": 0, "InputNum": 784, "NeuronsNum": 50, "NeuronsWeights": [[0.0795156877423917, -0.15891494098610331, 0.06061472126050166, -0.09007907597706297, -0.14287996947956869, -0.08310837061626966, 0.07154922202312268, 0.07778150218016695, -0.05557335370416106, -0.010278656711793573, -0.09928882350771286, 0.07900833394264276, 0.02597475371757056, -0.13713146141103616, 0.19693749566144925, 0.2770320001776269, -0.03680755365219571, 0.07925149314462555, -0.007060687139617763, 0.024482587272210907, -0.036383909380757036, 0.05376980675878294, -0.07894246489776771, -0.0850717423035931, -0.07917834745829946, 0.2745145953356485, -0.08240288530645909, 0.07167537073453172, 0.08338972602167279, 0.0721436172457961, -0.02837972985931005, -0.025778828068152522, -0.09791973331013659, 0.05569663564717769, -0.05601821024892632, -0.08928382114464656, 0.044341772306337165, -0.15062085491880645, 0.08796450793148562, 0.037166014124122126, 0.022417708937819553, -0.03590468638775208, -0.06312074073810738, 0.014045246212401436, 0.07582105858210234, -0.06225698747677693, -0.0064645971786906516, 0.013332988992061402, 0.22067643911591817, -0.13620395599434842, -0.055223497626503894, -0.11363475846716942, -0.10021413565467174, 0.009946351906126548, -0.05274007431763508, 0.06391692170573943, -0.004401480050874937, 0.17283039277108359, -0.1336359122384512, -0.14339748467286717, -0.09117298554999441, 0.1154157734789366, 0.07949946221398796, -0.03226443517204691, 0.06409821702768549, -0.18268861600375957, 0.002939892977554117, 0.040914594479726285, 0.021464114049272547, 0.020914914953259162, -0.026181170701711415, -0.0010468329529912254, -0.1017643484686863, 0.13179411985124312, -0.007011539662684244, 0.07672495972554834, 0.10711582367761367, -0.07497458369461436, -0.07191560154538526, 0.014474229015777544, -0.012958277259697355, -0.016678990938134394, -0.06418152104809091, 0.14354820821533704, -0.15525047154088184, 0.13893212059457885, 0.02666198869448998, -0.11331375059238886, 0.08513179002747656, 0.03597333285022929, 0.009826114741052544, 0.1754934418062307, 0.023083310195356258, 0.05113889701308617, -0.03319996046000892, -0.06903728793135874, 0.057995044484225614, 0.1450140068103052, 0.064497374869391, 0.11858317966422541, 0.09873709875361159, 0.12847431530950798, 0.08177601313425244, 0.13188331712096704, -0.020306526850237552, 0.043397339040651704, -0.2425306165258708, 0.015130702869730573, -0.006347547128417572, -0.023794162043047205, -0.17405175661669234, -0.004073686445365921, -0.04581346941660871, -0.15352774779746908, 0.002808216800691724, 0.08312203667635341, 0.005640509925697231, -0.022538239852179936, -0.005921204165275595, 0.025928914961763836, -0.08534697410508163, 0.12952767704993046, 0.013810463074520626, 0.21804817000144877, -0.19672781268662362, -0.08331024280607464, -0.046457289424363696, -0.0844538322024725, 0.000855254822326123, 0.08995985095816046, -0.18594578598975012, -0.14135862988933826, 0.013547702718671598, 0.09317290493289151, 0.013675325619634946, 0.04874380467644118, -0.004122463029863248, -0.06787465834763493, -0.09028101708454773, -0.061790109436934124, 0.024964571739287365, 0.03361556243147029, 0.010260470776296014, -0.11658214240460979, -0.07656545222700427, 0.06661693491527389, -0.05596668907761134, -0.04583197636378235, 0.003660760630073979, -0.02876256957271515, 0.03791776117973076, -0.0874592880141404, -0.01578532480864131, 0.013397619610534142, 0.015564066769697611, -0.05821506682439606, -0.005370260231185265, 0.1170578986044163, -0.06752755748095059, 0.07461346698880042, 0.09265394039344818, 0.14846955903813328, -0.0016690868556896129, -0.1462038789797461, 0.12034877299489603, -0.06923563999099173, 0.023654419239839488, 0.1906883911335685, 0.1476070523914126, -0.08420403315646667, 0.09201421000889048, 0.025823697714405024, -0.1334607549356538, 0.06795887071136783, 0.003477244068062557, 0.04079273717760427, 0.04780085340771116, -0.025906415637917006, -0.013706308045531839, -0.03489668930297988, 0.03568364200935194, -0.03831430486361411, 0.0632610112835752, -0.056385635801588965, -0.17199041677199037, -0.018608612460704235, 0.05384965050323919, -0.13675548499149154, 0.06150975593000286, -0.13103812530984366, 0.016718279199463774, 0.07136535376634032, 0.05042484343288715, 0.09125914461612147, 0.032715275587845934, 0.19874530745276067, -0.11970657371828176, 0.016235958719694257, -0.1185930900182009, -0.1094319062646805, 0.026142582560524402, -0.05164996384416503, -0.015253341722654756, -0.18640908713277188, -0.004390106293196084, 0.03262991808135866, 0.09681964465322633, -0.026496055801222735, 0.07046511510009917, -0.10599354464264005, -0.2627841753834548, 0.09253976620654619, -0.06606084809767969, -0.009972421176031789, -0.03118659982251289, -0.03231818380769205, 0.13447033246222978, 0.06516126248608968, 0.007224163791785647, 0.07633567157009333, -0.13889180949866503, 0.13703305002968263, 0.13143400489429533, 0.11641564082950971, -0.09739006812496898, 0.05391016007539167, -0.06322157080429994, 0.02340308643527704, 0.0908551911754034, -0.04886310983670226, -0.10382472555254672, 0.061395822323433526, -0.024828757049897694, 0.02684788139022553, -0.07944791328434571, 0.012441666481845911, 0.05770130490743452, -0.03546929228823159, -0.04096150310263798, -0.09881244593108224, 0.04728909162032029, -0.037099579546133694, -0.05828237808404739, 0.01335062959105137, -0.1651727133112496, -0.10151539183401544, -0.009668287507506984, 0.030215710417639405, 0.17671941605688674, -0.13081306671077053, -0.11239422352909437, -0.01578001498382193, 0.09234147923012641, -0.12747706992516467, 0.03853520117022794, -0.025135347126122976, 0.08696814118096818, -0.03357849604852021, 0.22030585151121734, -0.12019134147215053, 0.04524027192656741, -0.08269432328028833, -0.023788179933004437, -0.043128085138588866, -0.04115477644287661, 0.012920977998020335, 0.0848447903325158, 0.157412476920563, -0.017057678612128754, 0.033646566848972874, -0.02279642494658077, 0.032667858582801, 0.043694768666458765, 0.08806516143804234, 0.040632767690061966, -0.05872247410781043, -0.10797779779172618, -0.1287159265368628, -0.07219874273764186, 0.10548513030136056, 0.04996432501722852, 0.1276293053444732, -0.0036062705156944667, 0.016904663861640298, 0.0334781214862609, -0.19700298737782168, -0.003477586796466216, -0.061649153854509114, -0.09616066603911798, -0.0648329442566835, -0.062088483399944085, -0.01356205528801757, -0.05253178280284987, -0.11831769875081745, 0.0014512370316817945, -0.11731538200490883, -0.09021060510614226, 0.04776820092138603, -0.0993745128971329, 0.05349383840384232, 0.14749257597842974, -0.1654334313894236, -0.0919007592216982, -0.018087050841194892, -0.08704541689065043, -0.14674730713189568, -0.053351133377554726, 0.03991641289553147, -0.03050384882234857, 0.08269797595852443, 0.17329692974041455, 0.029986591068075854, -0.05630966155481169, 0.14385382424932397, 0.08374883267727083, 0.015221449197817392, -0.0938033479952354, 0.09063473807237576, 0.05798509823864296, -0.03322565065008835, -0.011597655031336411, 0.04888470343698846, -0.006689572602071561, -0.022488204608680448, -0.07191781030706171, -0.06320337516046337, -0.019614350934319902, -0.07101017953350595, -0.0950004776269227, -0.029674698692578397, -0.12853134161036422, 0.0153124239362761, 0.14307381812869116, -0.050012077075737155, -0.06356187946294775, 0.010820938167223336, -0.021842834655119027, 0.01484911493291151, 0.05195820810724341, 0.009901812594031988, 0.09993120385814218, -0.3842649058901729, 0.004431509130785172, -0.039680764100793825, 0.06501665198207013, 0.00626499029137183, 0.15292211284976784, -0.06593280193347902, 0.08179736821893857, -0.17082320892403888, 0.09563037157648893, -0.005359650441004347, 0.09410608269143414, -0.04120148121611627, -0.17241502508406822, 0.0768371163783119, 0.034203119643341454, -0.13510987299444985, -0.09920365118007214, 0.09747464236557404, -0.06623122906485088, -0.05679110685826029, 0.09209834043845194, 0.04725486527847566, 0.0012450611274038106, -0.017059691599769118, 0.04941827808884744, -0.052205108537670464, 0.13394650025495464, 0.009653622808478795, -0.020301670718758418, 0.04109698256332518, -0.03668113385697067, -0.05668748115684617, -0.10474358216680685, 0.1317440952423846, -0.037997740726647924, 0.003401335348126264, -0.026891803286577386, -0.10502958620497793, 0.11067976999521831, 0.00685237394590526, -0.05232028259995593, 0.034104989368432176, -0.1731811395079597, -0.020483498107807065, -0.18488555270795615, -0.20583298546415962, -0.008424024469444591, -0.09616653028550017, 0.010713991072544051, 0.0844734843595062, 0.12606076152622184, -0.11726464615665211, -0.08478430456108302, 0.05839370460905747, -0.07236867557631717, -0.033338125112663465, -0.009030138787743534, -0.0020138912660022288, -0.08972473260414515, -0.03813019533201196, -0.05970542927469904, 1.763981123551853e-05, -0.031027459379264512, -0.14730107236775739, 0.11071491244448481, -0.055737804631025206, -0.07852348028743712, -0.026184728945678193, -0.16245288279035178, 0.009229643750599389, -0.03087711510496804, -0.03611081576761217, -0.04866115045317148, -0.049071837838869835, 0.017434411963336432, 0.023723749789216576, 0.08416673574623183, 0.012896578545736486, 0.07871593288988034, 0.15097427463650637, 0.14003126431076968, 0.2278042725292415, -0.1400742346771957, 0.0057852649579461166, 0.06049451478224809, 0.0028202833430974045, -0.10378557969714182, -0.07310453770787308, 0.1153552406653863, 0.08456384234271269, -0.03832726843023887, -0.12688132259615373, -0.0020076736504881765, 0.13133232226905317, 0.027301969109935924, -0.02580184919855236, 0.0700212954994801, -0.06854733048778831, 0.1743511923632676, -0.08039204602145153, -0.18060936740036362, -0.011059487433428827, 0.100770897531697, -0.020420246681742506, -0.08477625066151213, 0.086262270676464, 0.05261198754082703, 0.003949878675599227, -0.001862779751020666, -0.006548662875510983, 0.0011268420566058399, 0.015460836653923771, 0.20411886800822654, -0.06683733343328141, -0.05295363269938672, -0.068059201341979, -0.1280932453577394, 0.17512425484883365, -0.006975567054006876, 0.038509311036648355, -0.027356905295335514, -0.08857972038870393, -0.0309592742441295, 0.02127369836184019, -0.13758990944424934, 0.06269909509775379, -0.0452097590476796, 0.011883589909207704, -0.20306401436344887, -0.03229007895769299, -0.2459995364290852, 0.04327363067903176, -0.013015782141934783, -0.09423231832665901, -0.06796282275445445, 0.19369471834731275, -0.12691586133568966, -0.021786993753493293, 0.19782275385967973, -0.11518641272979846, 0.08397628276800134, 0.009217260569951567, -0.08440131332235086, -0.24217733534942237, -0.08345805004386674, 0.048868208170050255, -0.004822919681332347, -0.02868683408298503, -0.05850673292948567, -0.0186008363758844, 0.034194379628124244, -0.0969627495015205, -0.1532559633558485, -0.16498179373271887, -0.04406926446400331, 0.07785605828512197, -0.22599342055213578, 0.09853297569070259, -0.09024054225901715, -0.00022419345967513988, 0.029132682234211237, 0.02005353723840873, 0.03909806381590322, 0.057067997542681895, 0.12067170697828165, 0.07413357400747575, 0.06973027249654629, 0.10881425937705852, 0.04711855228063305, 0.1074618414139643, 0.028778556537305915, -0.0009600437560816821, 0.01054386548116245, -0.25633763706541124, 0.01811269203903321, -0.10132724892302894, -0.07544647025302917, -0.05256627924025485, -0.12875797860871455, -0.03131018321394889, 0.02462188474932368, 0.03258217362589453, 0.029390316855729386, 0.04886046582552681, -0.1709776228056484, 0.08530695066495439, -0.11662310548451811, -0.003451001019122511, 0.0004126635154648727, 0.06387501951800009, -0.2497238946124347, -0.027844387008741027, -0.023084441878985326, 0.08720233393096186, 0.09961104354520091, -0.11044344593062229, -0.10176884367652933, 0.015059779561053538, -0.0765749810931018, 0.08775342507377674, -0.013564496072405853, -0.08236973960274793, 0.04238847218708172, 0.039197871505873214, -0.044675020048928996, 0.11722593129481218, -0.03609136005153961, -0.05356023557165939, -0.053678494942272385, 0.06340304674475772, 0.002091327150092204, -0.10014531841702988, 0.06678609958788573, -0.06412412369683965, -0.16055449223382498, -0.008355973519814647, 0.09311306281932208, 0.13722879612078975, 0.04712163965368915, 0.12986182462697404, 0.09877453450804266, 0.10778610909259298, -0.005659054845467764, -0.08963135066292426, 0.06130123407555655, -0.08310823729400854, -0.07870182008582696, 0.13055376271227298, -0.08672765464349708, 0.04615155862598954, 0.021673003376942262, -0.10242487838710382, 0.05814176247515863, -0.059224726614921896, 0.1775536132977067, -0.010106685254126942, -0.09112278228258854, 0.0557156355272392, 0.010726695934072243, -0.014802384150826468, -0.09392280709648765, 0.16730055169657426, -0.057042522429906435, -0.016559724944007297, -0.021735561119324995, -0.06941737792387634, 0.025998402458121253, -0.008284162647827458, -0.0878171773572488, 0.13282101197276597, -0.03026987245651678, 0.0875234965685068, 0.058806486300465845, -0.058131899006525316, -0.043264841375859855, -0.02531311144097985, -0.07177276428611538, 0.12312867452236387, 0.03492659916470542, -0.05363932655786203, 0.021154902870464884, -0.17141258616879396, -0.07196086643932773, 0.022707911267527088, -0.034514837226487946, 0.022944026681777422, -0.08269066956745098, -0.20372951992063698, 0.10684340792301268, -0.041870208899595925, 0.09777103141702458, -0.028054200094623227, 0.020384352412662343, 0.07101050127239966, 0.10996567910446366, 0.12763677146733896, -0.040206137722788755, -0.04298092584463347, 0.08320488688507804, -0.10184501103350073, 0.12529240732148522, 0.14464910896718003, 0.019524172902770386, -0.01675628210599079, -0.09646465612492473, 0.06642260745164173, 0.03606216178824148, -0.03961326523733432, 0.09061811421675227, -0.012002124407769606, -0.2132876937576136, -0.15747986230213018, 0.03604848426218284, 0.11422873957717208, 0.006868089272081202, 0.05381369171485665, 0.008586532298752156, -0.06932856477906779, 0.09131010634461818, -0.07187852742019987, -0.19335403390308695, 0.18169221338813055, 0.15989228340863454, 0.07753949046009422, -0.019627596788550125, -0.01186122821811914, 0.2143372006849748, -0.13263877586487954, -0.07550735251219576, -0.015584368634236687, -0.19293826271709127, 0.060687994125273544, -0.030146426364971484, -0.08325379839688316, -0.015089937406642604, -0.047808036940196974, -0.15559061283887138, 0.002607281116424068, -0.059167762418877286, -0.006115558419122275, 0.08271441640222373, -0.06658060362854192, 0.0973732207575056, 0.0033861546173446517, -0.02381844824814381, 0.014762534379313848, 0.16914942110873327, -0.02539729398544709, -0.07428200259390393, -0.002577390056693691, -0.051544534335491436, 0.12107374441145104, -0.17485716253004055, 0.021065520084321932, 0.008595640124923006, 0.2855469277461245, 0.03978109634370865, 0.14306681095074342, 0.04008092286462216, 0.09070704486967375, 0.03704708189123395, -0.05934540635037078, 0.09818215787543315, 0.022760826967123497, 0.05391074642314475, 0.15781293121619494, 0.005912330666275859, -0.0037273837759588427, -0.10618053019930077, -0.15938692852602676, 0.1458932188861161, 0.015674437905527385, 0.03915156483275802, 0.017689588715524167, -0.06361460089762705, -0.06710096966076085, -0.0501379501717593, -0.20555641973131678, -0.11608336212480427, 0.09833187236343575, -0.03482814156488075, 0.04915682380327206, -0.05573509662018394, -0.007510244257883229, 0.11807852151088086, 0.11265988336530156, 0.03589952226204683, -0.2572484791689652, 0.02708959042502997, -0.050024211360500684, 0.04064716079425506, -0.11592628906059661, 0.0005266911822180075, 0.14106848699214894, -0.10525088766449017, 0.11263994404269335, 0.06745127010461706, 0.02841289840796565, 0.2375481201272759, 0.12642759403318288, -0.050276323221730965, -0.08347774830818937, 0.10465838675968686, 0.015960720207251176, -0.10284816344990852, 0.037247648660766346, 0.017552059412326234, 0.1662329708242108, -0.05053284619295444, 0.12157994166232158, 0.0018135713732204428, 0.08493291387016241, 0.021894712599892528, -0.042861348431939575, -0.1776839056709147, 0.040459971699610256, -0.014327118567408169, 0.20182304817502528, 0.05629071606232048, 0.11161672521223466, -0.07366213981986357, -0.07170964987520338, -0.13294152082808763, -0.08982188180798314, -0.17102278338177448, 0.04579284715225889, -0.2247483171436964, 0.0710901404473511, 0.1465302036932181, -0.09852951039748388, -0.04891977428625608, -0.030702154125827892, 0.05922844862885122, -0.19350474597144315, 0.014047352881006663, -0.0016978643290942008, 0.03958336990123964, -0.051036435288696884, -0.0022965406587141966, 0.03449648297173893, 0.10834554242870965, 0.0154098503066846, 0.08756627585792617, -0.0760969330120238, 0.016849630920024766, 0.18402812799583393, -0.008710066531247514, -0.0735926683606131, 0.054166131871274746, -0.07447936085636543, -0.0062681863975649335, -0.048339920229930576, -0.07690629271786646, 0.050435672216121843, 0.04200861821119833, -0.16083112557781054, -0.14078374876291416, -0.07294561035955696, -0.0018089555108599796, 0.14519878310661763, 0.06709598826001742, 0.028398455543794464], [0.14719991599086163, -0.22546136390367721, -0.11396515932117579, -0.1778778876706846, 0.25509173529859386, -0.3147489937989055, -0.024045141268820118, -0.0031077375152801373, -0.052539955313776775, -0.004707908828480266, 0.25491407783544634, -0.0775363080771598, -0.2555774263687532, 0.19681970821299624, -0.06863528269982436, 0.13371303028253675, -0.08213111376356812, 0.05983049509639626, 0.09860878288253522, 0.055804975052560137, 0.003529442111844186, 0.16221333717880207, 0.0024212128194105805, 0.07367216560623899, 0.11456392930730008, -0.09441319453126085, 0.012063818828794006, -0.18368233409296875, -0.2066782784836452, 0.07756644302696064, -0.27954448688070976, 0.1426445661297598, 0.6556638834919197, 0.15407393766260688, -0.13267327942033913, -0.05842273813600255, -0.036807419778126606, 0.02227949310015025, 0.22357451543689535, 0.07780650505483709, 0.2550038811995596, -0.0837443322111753, 0.18099509236333397, -0.3116301452939407, -0.27120621871557793, 0.3101045121907106, 0.18795287528915655, -0.07219599740212694, -0.23821744925740104, 0.031496025710398036, -0.14235669555998196, 0.035608968660505315, 0.07082631067785232, 0.2489221073426428, 0.00881609128734372, 0.1805502309583259, 0.10807137497329417, 0.004581662353211165, 0.22437839967062656, -0.39133163810186616, 0.1420319091463344, -0.44284576157004274, -0.2613349581368425, -0.21659643317536267, -0.1531301977436188, -0.0796051846988261, -0.4242006417564155, -0.09590491622862034, -0.02868498382213468, -0.20067093836161481, 0.0667287260022085, -0.10694845756962278, 0.2253739478234013, -0.0056225500666733826, 0.23205519233682154, -0.15083948111161083, -0.10948885433238889, -0.13756668197464442, -0.27537702953600446, -0.2422175709545558, -0.14461827022341486, 0.09906950737466036, -0.01583670434897245, 0.034439880978513526, -0.1421284388638378, -0.30568692517905177, 0.379827278277532, 0.26935961900174527, -0.0520824384248423, 0.16437287141542353, -0.32693636029561307, -0.07204463979653204, -0.6372111670599688, -0.11100129685198748, -0.08904477872606596, 0.25265174006733354, 0.21343911376283303, -0.031043947754215998, 0.017882491705178027, -0.02073762313000457, -0.14789451454679484, 0.03482192928876966, -0.380004349317247, 0.03385163231751847, 0.30731739002838504, 0.24649510153273818, 0.28093615791451004, -0.02800083292012529, -0.11730865982008899, 0.2563989340756324, 0.10574857419826711, -0.3133402433942636, -0.14593836243868258, -0.22635018775834662, 0.18915893820533536, 0.033769445665864505, 0.34391603980996227, -0.3465369694746673, -0.2083393810848926, -0.10204807609533173, 0.13514912157880793, -0.10418955743265355, -0.4243242112966286, 0.06570640906975644, -0.07728856712331755, -0.05845887869115563, -0.1938104675473598, -0.3573248243086908, -0.059044436358869634, -0.10021730232526943, -0.03976466553991447, -0.17861126402760347, -0.138773552339372, 0.28439647338881, -0.37081023404496694, 0.13880925049771545, -0.20350798147991664, -0.022661088650895767, 0.17458021487395387, -0.15804924671048268, 0.09856030609614817, 0.18126104469147036, 0.034859701574542545, 0.09703807818750063, 0.2163684542755197, -0.10200902099570495, -0.12064633616643904, -0.08033060548175965, -0.15642071738432287, 0.2060034111611488, -0.1885578955988449, -0.074568753345842, -0.14811386533775667, -0.21538761137598036, 0.03874790797245912, -0.17519722705808224, 0.08969600304761859, -0.1198866405428339, 0.2127532282813212, 0.3605741929595464, 0.14279064221449494, 0.011601542002568008, 0.12390260769967856, -0.30801001424222413, 0.09888309371974804, 0.1737530636412067, 0.01145938496514699, -0.14970838463577416, -0.0044810365780819485, 0.16101787985792565, 0.17668760988047746, 0.20887270979703038, -0.2772073030817112, 0.11182845789877899, -0.2103023679543013, -0.1086256317131093, 0.013836007933005816, 0.21906336429421447, -0.582288092355819, -0.14011581484717944, -0.14629543272146175, -0.028327404626886404, 0.12290312783552793, -0.5687928364840921, 0.18018379566362958, -0.14028142501999386, 0.09345881906157058, -0.5311842170738285, 0.2607125991634002, 0.027086659033152716, -0.3585044311663618, 0.1583648859297958, -0.28580315587482774, 0.19157204876410458, -0.2759231176204256, 0.08443415943343453, 0.07694418436018867, -0.19212926069603772, -0.005792489668281166, -0.26889134847987667, -0.06950006886385225, 0.022037694068385846, 0.17251860602401398, 0.0958098893201933, 0.18525518685003364, -0.1975540961431606, -0.34575957647383093, 0.11140627320253782, 0.09532864419993814, -0.3404913913818667, 0.0038137693233266084, 0.10361788624109437, 0.1378215369343658, 0.07681921048912478, 0.08658921062954272, -0.11647801280147452, 0.13293621342408726, 0.4817314870760458, -0.17660935617948245, 0.2965233343360063, 0.01829385886815511, -0.3877056697344291, 0.08564888790660513, 0.0016913777079208602, -0.06605987123456913, -0.20295026948125108, -0.02442958044804497, 0.09793996649936317, -0.25718416629379354, 0.4568721773674272, 0.02061895359241371, 0.0074966122244386315, -0.5169369787908517, -0.0650113891688334, 0.09859642668366463, -0.3545091280431199, 0.003612864017922002, 0.11481076652778849, -0.11962431756805315, -0.10961554625178299, -0.08183824674328413, -0.14352154225773867, -0.015056633929934123, -0.22946684634564532, -0.1353455530805541, -0.11765271896393018, -0.15569358371088216, 0.29791745196717767, 0.08133232670914634, -0.32949345537285885, -0.24729923141150917, -0.05723487577238877, 0.11289837357560994, 0.16188221509103806, -0.038646965925797534, -0.16818154142671835, -0.11097662538452233, 0.07618925243532125, -0.09541751436185336, -0.21618825958061896, 0.08648007870654732, -0.08431920029260513, -0.045307649019837595, -0.21772276452867892, 0.05584308309248076, -0.4569073328465863, -0.20086314407900704, -0.030250572361710564, -0.20905112554584365, -0.346889064610255, -0.16089842455268666, -0.09431336919781107, -0.15124672971190603, 0.34331204261922343, 0.04386437956990514, 0.08174725600394758, 0.08544103531121866, 0.1790017834868443, -0.1219808721005677, -0.011002059311810683, -0.13274706379058648, 0.19205557089504244, -0.06664296953363216, 0.158932360516711, -0.013513016845474141, -0.09593383379209598, 0.14271957629203813, -0.07694160960146325, 0.15494188294402067, 0.09411456089176101, -0.10032595407110245, 0.020418668525845948, 0.3107758729166279, -0.4071785610673021, -0.3527747265000482, -0.3676200205180806, 0.401085584096865, 0.12433060429335384, 0.11876881836617324, -0.32552929102063805, 0.1517403664377304, -0.2015208870366786, 0.14025772107089046, -0.27370520451082275, -0.056746633162541193, -0.030408646578333913, -0.31026984536852903, -0.26231705676746153, -0.030867504242162516, 0.08730770477351625, -0.13669106351812493, -0.021897888577350616, -0.037593150626204594, 0.37934733536516296, -0.027934724483757375, -0.09399508313670793, 0.2045480411452263, -0.18185119908344247, 0.05483137142103951, -0.1040336343314641, 0.08406108160559976, 0.053767879577258065, -0.3940631473867761, -0.08999796825190198, 0.021523221121396995, -0.28811548039731244, 0.10764848721584172, -0.33145428899006146, -0.23384125800022584, -0.16383320856716108, -0.0728457131210877, -0.4540026588318547, -0.20706486874863111, -0.06808719939523505, -0.035894818480717655, 0.10228197303842644, -0.08867271867528431, 0.25135103740427117, 0.3008151963278666, -0.043528974714656256, -0.16627096508736222, -0.19554275649059902, -0.37669311251896276, -0.16671046877308024, -0.2858556100430929, 0.016670697444022362, 0.15043562110709968, -0.08761521821310232, -0.04922838941160164, -0.17503708975987303, -0.33763264765847223, -0.07840397686342178, -0.18201267717334255, 0.07994424486928411, -0.15055093778167, 0.333313401359873, -0.11158883451523706, -0.2995183099670055, 0.03220947215373782, -0.5376993134360092, -0.1391658414122675, 0.04575489413829139, 0.06186207095284601, 0.11151496100591826, 0.3372783735497476, 0.12215980422627798, 0.08604464630416814, 0.05318988704165117, -0.07843018245691107, 0.03261939874471146, -0.29219181980001974, -0.11422566874359931, -0.01676269565079591, -0.1820246667880196, 0.05235390482751367, -0.07498917927148695, 0.13199854901269129, -0.17954478163189413, -0.2845281127148188, -0.03510613714584126, -0.13984987313767105, 0.44085128852028665, -0.11899976066761148, -0.21133293972154996, -0.21765359059043135, -0.5357710755543625, -0.11134418158614363, -0.039259427115244216, -0.06575341833351979, 0.29020632021045056, -0.0579155379616425, 0.18038955536625897, -0.4390208049186242, 0.38082275383585196, 0.03383019712220407, 0.02141370286726691, -0.11604217943198593, 0.1883251026059283, 0.027756500716516332, -0.300547399453984, 0.2700925035817542, -0.1972876916349158, 0.08642380902015921, -0.10277424431884943, -0.27589446121628663, -0.1601207395969356, -0.16720433079766256, -0.14490611590189983, -0.45352735815002443, -0.0380019185256099, -0.04431470136925994, 0.2780425843365347, -0.008913379765394167, -0.12412801169008925, -0.2392098214354197, 0.07307438707816952, -0.10051957677266787, 0.05497081513802806, 0.3071622068285798, 0.04243437175825507, -0.2805394914477072, 0.04543944748510795, -0.16531995440826597, 0.17489791235222027, -0.11845161450149248, 0.455516166630938, 0.082035109810094, -0.2451756759603488, -0.6380837428861988, -0.0051075330468283, -0.043230208758499145, -0.22703589252786002, 0.4336832308893605, -0.2364914485941751, 0.012734134004254355, -0.23072689868721646, -0.09969290124966565, 0.019771928951532156, 0.09217071252468433, -0.3872716890571582, -0.08873809564892168, -0.14025668705481703, -0.36660361817341786, -0.35651327740515887, 0.03699720447737317, 0.32229600890487764, 0.042087092703569126, 0.05805435542465574, 0.03324313803835848, -0.2311760614403035, 0.04843494543006707, 0.08421487413762084, 0.1828279961770631, 0.23587144599804305, -0.128221902939558, 0.2082380006046443, 0.16303098702446517, -0.008252493670217714, -0.05719178089662585, 0.19203537412629998, -0.3152863078975135, -0.06967265149347221, -0.05228739288933335, -0.23184605509903353, 0.28613114262223405, -0.24884263753253866, -0.513736446033799, -0.046437123570951346, -0.386895477011197, 0.5292809276160012, -0.12574013314148844, -0.29396428121167356, -0.13898304115843038, 0.01160119126151817, -0.2086621267106602, 0.01549939335417927, 0.36184264337092786, 0.1027595386072826, -0.14603673293161373, 0.05745761249577422, 0.041578282546083326, 0.12408493662071224, 0.056037747731163344, -0.0743098307154805, 0.3368139921009298, -0.11066762695839898, 0.06021751235455426, -0.46471703383745244, -0.22204635943447618, -0.45737355182451067, -0.542694183610413, -0.23028460594334532, -0.5432480404786981, -0.23485442922087557, 0.13120109523021836, -0.03389784269983533, 0.2306858062153462, 0.15330551465946698, -0.3701817183059743, 0.1968932728870142, -0.13293512917342773, -0.2636773679142152, 0.1208900212874083, -0.32053252488362566, 0.013755891811561699, 0.19792315304238547, -0.06600231967868968, 0.06902797464823018, 0.2584136474531086, 0.06682172882953938, -0.004720845074067325, -0.10701642328620325, -0.10607748176089334, 0.26127975907231277, -0.1562232014805937, -0.5694255254527607, 0.16378577267917432, 0.05228756893225473, -0.20680803332301034, -0.07921430851905942, 0.04813776483393954, -0.28639988473890954, -0.08711633433904852, -0.2071457656214998, -0.11883694314503081, 0.14352970823327643, 0.054675204921909026, 0.12801696459061243, 0.18114483422689553, -0.050433786753257624, 0.21713053602483004, -0.16315059398650714, -0.5334832390195698, 0.29813750879041573, -0.0621523328311679, 0.043962946330824725, 0.3099881635948203, 0.09934586280412562, -0.07441406060327627, -0.08488059462356191, -0.03765428582598873, -0.38502441953236183, -0.19357079015046186, 0.004731269291770817, 0.1180722771990928, 0.15671874853071305, 0.15268585032174609, -0.3205494081106297, -0.03502922343101943, -0.13697302022769822, 0.16595939968129653, -0.06726517261321799, 0.0617881356453426, 0.09286494770388162, -0.09541421701448445, 0.39567987567836527, -0.2248658194134569, 0.31324725976213763, 0.07506940620108604, 0.008767307173317066, -0.37473234523110244, 0.7926471876200082, 0.025670223374482964, 0.12402629986834356, 0.029380710100888333, 0.09578103718990916, -0.6096171882783239, -0.22426004638953945, 0.1757686415697611, 0.21830797452415895, -0.0925389990995151, -0.05770403240009454, -0.0005265766861678138, 0.12018362000956001, -0.329100623227315, 0.1401315647327545, -0.24225380963347626, -0.05273630534260617, -0.21323463184437189, 0.3351317183995547, -0.07150544774443753, 0.041981626940493705, 0.31536486940317937, -0.24705075335198787, -0.09747029847802538, -0.1523582300545285, -0.43332667040367784, 0.3675031256978875, 0.06502233868715807, 0.30911695803711536, 0.13134306286539393, -0.05176652736253227, 0.3271186760663736, 0.37548083521941045, 0.07439553897646378, -0.21476024197367283, -0.17415910183052272, 0.1430034844165457, 0.1041286490443051, -0.15599719015521527, -0.0599293806193542, 0.24636621526726998, 0.03909073270939234, 0.05750116444068858, 0.17753947313806664, 0.1459266026868103, 0.2027205612610718, 0.357639965234732, -0.1659604713626461, 0.33336249646753446, -0.09985827307618012, -0.04965848136824083, 0.20151118926736267, -0.06666304368897913, -0.41142033548837664, -0.0897053800035644, 0.06260719103839311, -0.23074997287827734, 0.2942744191469719, 0.04332418952434778, -0.2049732555348328, -0.12487500995412054, -0.06972031643410187, 0.024736898375542923, -0.07780306163736041, -0.3704438323194542, 0.4515893183337379, -0.008583792006164465, -0.1388579785210572, -0.38976179235988545, -0.003363236738981067, 0.1180806809803496, -0.43732961609483, -0.26533832695394677, -0.25947669748372165, -0.21666038330734047, -0.04546586793538317, 0.06203884838285621, 0.019953792992571693, -0.18481255626707446, 0.11457350919077815, -0.32465771465818, -0.4030210632429711, -0.1582905965365016, 0.22347778362064555, 0.04006389022970035, -0.20984917046113516, 0.06845042815190977, 0.29660709887987874, -0.10075225012348488, -0.2561288360572849, 0.015499134517674215, 0.08489037034599545, 0.03110568771732346, -0.41974395715175083, -0.20230612702173562, -0.16296749235469998, -0.10361485798548109, -0.16535159100320057, -0.12060725366021079, 0.1536257898451506, 0.3433253264231124, 0.08094560784684678, 0.031348128664905626, -0.18866292884829575, 0.16295715366685212, -0.05217790189985133, -0.14733934342078572, 0.04286215046563229, 0.06905452665381641, 0.10208318873114752, 0.19541765506133946, -0.0624740907278865, -0.010901108268066298, -0.10167675109656515, -0.15703246547148803, -0.06398959858149132, -0.005060919897256341, 0.11531819392618795, 0.20533141063658858, -0.13242289941572585, -0.2881326122712116, 0.14450366417195873, 0.09045023598964963, 0.1316353347424154, -0.0077477587928400935, -0.1208206400193184, 0.12292826814024596, -0.21704094347812625, 0.11434275007915992, 0.2641012240751275, 0.012026070556759935, 0.3848864505391419, 0.09136701398257979, 0.06291606680501163, 0.029498435007463117, 0.25344511442568995, -0.18455740630025336, -0.04969913035228317, 0.18254825496111038, -0.19992885015577586, 0.20185488427137593, 0.13710035457361675, -0.31296207071426146, -0.020781997834139414, -0.02947771916277923, -0.15365274588618663, 0.17700792251612577, 0.1589838861142549, 0.0934318188941553, 0.034312594071078964, 0.06321829753716464, -0.012168818927848405, 0.23535647458291706, 0.007623930539721924, -0.3525467337120791, 0.27675713044367994, -0.17710106433349368, -0.3700977362718039, 0.46407504764541113, 0.329244813564089, 0.09497747892871256, 0.2656272970800453, 0.07209983680703672, 0.08726930327588893, -0.17247045075817646, 0.02609865353387779, -0.14677995573436514, -0.06265084195744143, 0.059355717699762535, -0.2138090880799159, 0.04873889551526152, -0.20257758684625457, -0.022096463224599162, 0.08881757917027372, 0.213195828421505, 0.19339698750815923, -0.057082430250132585, -0.05875402664781177, -0.04347152345444698, 0.29259587962918565, -0.04937495972463903, 0.12377971013482221, 0.5993329695759241, -0.25956613378913146, 0.2751403819700826, -0.021965625831775422, 0.019888191369871036, -0.24612784774563104, 0.10794372017667563, -0.14221512143692347, -0.35039158937233217, 0.152941835612831, -0.2918167579588671, -0.03494550245667895, 0.05477175408404445, -0.13072890980978497, 0.20276413309141672, -0.23852698876563477, 0.1672140241210548, 0.11925827622632276, 0.37393705856145787, -0.17615991576921217, -0.2444639489572489, -0.48266720701219934, 0.3139505905568963, 0.18858049313477346, 0.1250454581024454, 0.06158617959237313, 0.09818362927567616, -0.08654156865669774, 0.15906902991143668, 0.10024669615075886, 0.02183074644587562, -0.41385690492968547, 0.15191272317491367, 0.3355010346114507, 0.0578444004416744, -0.3167208111771825, -0.13854906867922415, 0.11334240129228579, -0.0021846857007252027, -0.16766945873487113, -0.1810266897060584], [0.03516293759508086, 0.12427808657511115, 0.008508920026679103, 0.08512091408226881, -0.01977955577253904, -0.17224281437908742, -0.1147313205488516, -0.006686161170991392, -0.22647305575394938, -0.042968910865016974, -0.051643286404283804, 0.01802005908580341, -0.1621812351548407, -0.04304246725176245, 0.10725436750414154, -0.001226187738861999, 0.07482289518909013, -0.1619664472086612, -0.028394463475729544, -0.015262704119791668, 0.14370948500138261, -0.010718269047014548, -0.0903601058495383, -0.054219315194537744, 0.08524913401437187, 0.08585667231986235, -0.10051522593210098, 0.18196941615674483, 0.017057806997904098, -0.03172241395894984, -0.1621103681313376, -0.16237209259568441, 0.18085178332568813, -0.025070463835636318, 0.12444250569981324, -0.10111395511085348, -0.048457731959469556, -0.022231713665412052, -0.059329604806262905, 0.11636230389154094, -0.0025252218227705537, 0.007615081956828164, -0.14024542067875861, -0.08544834565165527, 0.048824101713614634, -0.09650592901861219, -0.08655195058161637, -0.1528400593516346, 0.06617151363828261, -0.19272488521657655, -0.1418959082020032, 0.0856376215845582, -0.09217900657532915, 0.10193467789483569, 0.10246839007907504, 0.06475738871265199, 0.007904714513703958, -0.13349488012553645, 0.046479046715053915, -0.29897129130500766, -0.08265539978663794, 0.08575651550525777, -0.0814074667503548, -0.18998373547307354, -0.22720814893297547, 0.042453234202027644, -0.1025498780584221, -0.10655660864411612, 0.01771390748713473, 0.21929920972790148, -0.04403755500482774, 0.07363722023454834, 0.23118708363538312, 0.21199821385122816, 0.27283217057755443, 0.09634542702124192, 0.05370234494808951, 0.03310904224436118, 0.03214278548619941, -0.04960507030602297, -0.04615326222167766, -0.021682899106986207, -0.10969053427332984, 0.16830244076735226, -0.2712984527903266, -0.0560386890153413, 0.21545098798073828, -0.0762638529734707, -0.16101497851242727, -0.17273483021608968, -0.04374481457406492, -0.08276604019992959, -0.11250828556969368, 0.06378772695710964, -0.23836141074953596, -0.07574155752963498, -0.020912975495158952, 0.13460641061728457, -0.052376099693009, -0.2502128493983333, -0.010689003498760912, 0.0992847307087665, 0.17936933217575585, 0.11423317912748264, -0.13645158765790233, -0.0688271880572396, -0.22934947595516, 0.01325790071420556, -0.06018628991758475, -0.1470567119103813, -0.06341963979316108, -0.0855882781706852, 0.05162382107046686, -0.04801643885285254, -0.023927413489620904, 0.025518570717115014, -0.22268264374807703, 0.018624378560967762, 0.1928756527828233, 0.11859288349132292, 0.017716939913649296, 0.27759893696923266, -0.09028236891614425, -0.11754857475840151, 0.20518227710195863, -0.12778088621176473, 0.07859158453252366, 0.048361680050170164, -0.3456730166249864, -0.0020398567189697154, 0.09470025124805069, -0.08894397510460737, -0.2221212442185062, 0.060657049478213224, 0.0498839347036117, 0.08967180793107848, -0.23427036565184156, 0.03179035600975273, 0.012802618732643207, 0.11654537478007775, -0.1771879021459264, 0.06527629730303341, 0.026849469891882076, -0.051730428480458286, -0.07896393881297237, -0.07327841406027627, -0.060910098026481466, -0.0911967468441278, 0.20443118324489054, -0.037294312322643706, -0.08713320064263111, 0.07105903522989851, -0.0561519977046808, -0.060810071405529964, 0.06537481042960129, -0.07560252737246895, -0.1043246494609213, 0.044051227902961176, 0.1749568635162325, 0.09589096396387224, 0.10750812292613139, -0.12746530211034487, -0.1048971024641204, -0.13746689895464717, 0.34207992883740845, -0.14788507197551248, -0.17719615196739782, -0.16293490495652752, -0.2074073788213542, 0.07188977243814895, -0.10303143724608316, 0.07045093242396075, -0.14947122165736967, 0.06658716705459598, -0.08425277311318982, -0.0019636611705276916, -0.07507517803969935, 0.042781631824215176, 0.029753274633416062, -0.08449787741179393, 0.0733995237454204, 0.01722116566822194, -0.0933381536690033, -0.12658097736280946, -0.008269599231022566, -0.12085748030340482, -0.0961394487716242, -0.10283250076147558, -0.03247305455019012, -0.05400724790124406, -0.09611602701067275, -0.11891952274891407, -0.05904879609714081, -0.027192718107763164, -0.16890650745224958, 0.014588944241669382, -0.17420859429716598, -0.1301558728006223, -0.06817556767393518, -0.032200087927313666, -0.2079546773788377, -0.16879406103045572, 0.02528480487113101, 0.07275096575500607, 0.12476868442253412, 0.011616579243975278, 0.08108263524602459, -0.15516616564393182, -0.22254442638180225, 0.07228061980888827, -0.2180534187351626, 0.15269028027883672, 0.06599461121987081, -0.19665976599361684, -0.09614217632610429, -0.012241874485406526, -0.07003302788488093, 0.08743596123202012, -0.14717626505930886, 0.07823559597859985, 0.09861238396255327, 0.004075409486127061, -0.038908820113604733, -0.07026426883497018, -0.13270776161704917, 0.06803497672463231, -0.1308236418228059, 0.1478324129345984, 0.17101800157911498, 0.23567763031581615, -0.103660613270978, 0.17681113758381803, 0.051768111806738154, -0.14470226800295832, 0.18788929235314447, -0.1701057225119154, -0.02110012507083481, 0.2409318986555694, 0.053866934512043156, -0.07820918188519417, -0.1268439891640198, -0.009841440900942855, -0.07871348815877365, -0.035680476561660436, -0.09328211949285775, 0.012515506651188706, 0.028532700752374813, 0.04336633326623307, -0.23192143100041804, 0.026020591668227854, -0.10012712553499954, -0.11467239524005275, -0.08347086558309959, 0.18377800456244875, 0.004871025151425635, 0.03158933925535457, -0.06735209696178733, 0.09888822018737674, -0.19137135690080434, 0.08691305343372367, 0.04614032439960965, -0.06706039369619048, -0.1855103532897748, -0.15565379419975559, -0.16494049069896294, -0.093878336270065, -0.08930399766471017, 0.031438493996023, 0.1681914455786243, 0.11873889953050662, 0.01688630302580411, -0.0792005980417397, -0.015805341203751606, -0.13290303762514113, 0.0531002463193394, 0.11510152689720768, -0.19611266997815296, -0.15447694337137685, 0.008978749212336972, 0.006291996681107697, 0.04491973073559524, 0.006613497217163578, 0.06407514982753504, 0.0020927146676313025, -0.08295699595125074, 0.06155653697258941, -0.06761430563658978, -0.015809934219162484, -0.2280146535713792, 0.17985940342522105, 0.08322296287193909, 0.027024306699067493, -0.07064592522840739, -0.07412490193590651, -0.21525214969132042, -0.05485410519084905, 0.0628370859088483, -0.20088412748015605, -0.11513769533505068, -0.010048007955653358, 0.009865738793958845, -0.016946614754314877, -0.11101863320810024, 0.1894234586572872, 0.13151419035713563, -0.13401840445411922, 0.1199805639325007, 0.1716878421513263, -0.16386581409894796, -0.10405675947266496, 0.15944556813258845, 0.10615106406236297, -0.01939984368959195, -0.257760530096083, 0.08064750708410895, -0.1068975684046486, 0.06299685396513593, 0.026219130078786897, 0.06396099262750468, -0.10500021161246297, 0.032676797065522685, 0.09917568186355485, 0.22128250059268545, -0.03789403295975627, -0.005409387844722811, 0.20508052350354974, 0.09370964463837637, -0.20825612416573291, -0.09192750695889401, -0.19629533672083133, -0.09111420916133096, -0.16396962644367555, -0.08493905307555559, -0.05692740171944472, -0.11676090990575623, 0.010747747095117919, -0.08933025071578758, 0.04048055282152067, -0.12594666117978348, 0.1617789967545676, -0.04610586195558484, -0.11688283407281112, 0.03263500370039242, -0.030466478935337153, 0.1821139197680136, -0.0010470244931479373, -0.030124657099121634, -0.12097245870856482, 0.17956312925816711, 0.10876772987070038, -0.21145721760477848, 0.023259867888603573, 0.03802912743260782, 0.039555329564674516, 0.05543966644882734, 0.0576466008267487, 0.11390793762742574, 0.17221211817461243, -0.017234490088419756, -0.013146422059405742, -0.02780748653561851, 0.06757698162142052, -0.18611674001790457, -0.1699864079896229, 0.12554049435371534, 0.020552467495937272, -0.06147513534814503, -0.13794351087436385, 0.044084464496412325, 0.003846236167527428, -0.11738741565626958, 0.09971341412858269, -0.24039007782382787, 0.22380697697765503, -0.07314098971880897, 0.008146786942150713, -0.08420653675107956, -0.12078252740600198, -0.04468027432990569, -0.033242997526537935, 0.2357761708802102, -0.01085608747781461, -0.01096006078187561, 0.039453777814328114, 0.01145458947365153, -0.16925012986659038, -0.08422502767950425, -0.014904647968532022, -0.17348471653977954, -0.05623997083645161, 0.08732663407964056, -0.08659649212971912, -0.07728721611521328, -0.10364250777801821, -0.1089029345846596, -0.05656574204578916, -0.16774781476393708, -0.03214476676109254, 0.1508624083646544, -0.03148558931941633, 0.10753796875224096, -0.04598708865867382, -0.08669167355774363, -0.17630428533185666, -0.05471188998493839, 0.01205987231034599, -0.015088663020087595, -0.0896856350569038, -0.22185288403705666, 0.1282169949081132, -0.06672322204638591, -0.1220961917781113, 0.13565214492764183, -0.22914824763688393, 0.13469366483882653, -0.07889836629174878, 0.09214412992301459, 0.0850302989142803, -0.06285339766993563, 0.04064182647037478, 0.10266997997113092, -0.1244309571568836, -0.08831196690128405, -0.15635190079086683, 0.19354026769766722, 0.06844545790661458, -0.18721379696884038, 0.06885459664948494, -0.026117525595918446, 0.08113320038079813, 0.26611357987562123, -0.22854493656876262, 0.06254403068873327, -0.05387511258531442, -0.1527344148796137, 0.02769785942493388, -0.05332276347569774, 0.025852956882836082, -0.08419287344044761, -0.0335665624631503, 0.06936978171626151, 0.0032078003645557795, 0.14570835737061588, -0.14480893989243082, 0.14483797745059346, 0.10703378700261947, 0.20863475206909504, -0.061848969302215714, -0.019167135189046815, -0.0013173871016464189, 0.031759051061216195, 0.055853652771379145, -0.1814686164402793, -0.024204391502307354, 0.14674563979552266, -0.1355959086655443, 0.20702754202283472, -0.06855226244471252, -0.1113362251851693, 0.25355465427973134, -0.08503998367250383, 0.19630147304460951, -0.19533205112439392, 0.0023350380066089185, -0.003895216234350878, -0.2315537459984056, -0.13493808710974106, 0.026050895678598876, -0.2353339942679802, 0.03841946216454696, -0.17058854779014707, 0.0680535359598656, -0.07716656134750872, -0.21662219124661275, 0.18272551940928047, 0.07070372561143012, -0.2492145191497354, -0.10554666016542039, 0.02894253066510374, -0.09450939574121751, 0.079529568078282, -0.04983212160505948, -0.011825162704118052, -0.11859624681695403, 0.06649318690684043, -0.09336207577715444, -0.05148932497561277, -0.03764648529152594, -0.1936211808621325, -0.12364773785455167, -0.0010276103556624756, -0.035542223204904036, -0.27141363205260166, 0.044565030631394685, -0.08144141009302729, -0.09186436455288365, -0.2044614568219313, 0.15362175310923176, -0.0810664003513951, 0.06589152600222038, -0.012719669321010374, 0.1852978939911696, 0.11502667205733269, 0.019764704773202784, 0.013219055514751058, 0.01423350164049784, 0.2679207423238769, -0.051685366629898685, 0.025457915701072198, -0.09253771450862362, 0.08690899156696776, -0.2582485704185197, 0.17657902417049418, -0.14009597436581217, 0.10194697770280076, -0.25033781962009405, 0.0006172854763173367, -0.10047322368845098, -0.2456665784531772, 0.02107808854311021, -0.19942735229712188, 0.03461643997563914, -0.20626725844800053, -0.07045461085282079, 0.15789019269741444, -0.03752270566953369, 0.002637395455148656, 0.0529750662527609, -0.10947286785844278, -0.1400181318409391, -0.2535441839560441, -0.0139023364343784, 0.09462618791328013, -0.09959694823965556, -0.03526371041580797, 0.08650015978990291, -0.04819364351555269, -0.22500108995949708, 0.16233388926316586, -0.08857668783917584, -0.04982844609135805, -0.07659423664080374, 0.029800727125389635, -0.022530391042586327, -0.030739544414927007, 0.29273694194791083, -0.10826735863590167, -0.033173187735258985, -0.03942291555949342, -0.10450410023431951, -0.11202439839897567, 0.10525167719768384, -0.14822877656704997, 0.04560151980356772, 0.04328945057948141, -0.17973248220825525, -0.062276648018081616, -0.1999577706671957, -0.06533220217930913, -0.07140277261035578, -0.05140231559442977, -0.2482574044723311, 0.0028485488461362494, 0.05780018123610805, 0.2080324489418717, 0.09494549455133507, -0.09488651556039357, 0.0613950052015694, -0.1685507806090812, 0.04783345252062051, -0.18658573381222582, 0.05297485032132616, -0.01002442427699728, 0.146954784241106, -0.06314259163315429, 0.14645063972495315, 0.0686810138544725, 0.07121740629405666, -0.03486053862898628, 0.1348103797532393, -0.281976263416147, 0.32134405425416734, 0.027375806381110087, 0.13110658412523826, 0.03559315027076472, 0.04769540807155274, -0.10504663501506276, -0.2372465659170333, -0.06563445407679337, -0.010539828737648324, -0.15724226846351774, 0.024606411414353546, 0.1209623689677315, -0.003366167157794602, 0.09064142834976338, -0.03519468860511143, -0.12419657151922972, 0.03622000155838971, -0.1090421691680257, -0.17633002668102096, -0.22270995629799434, 0.05024164745575107, 0.18360342113392114, 0.0650404660387083, -0.18279995313945563, -0.05096028640202681, -0.06945077035953161, -0.0542472804917693, -0.0959435800852069, -0.1541745968054233, -0.15735883122981917, -0.1634062517453547, -0.2194608459161395, -0.18589832875011114, -0.02724981399796713, 0.03308024781057777, 0.16122148106986015, 0.17956268038582168, 0.060320652542706, 0.04118335447085075, 0.2590226351772525, -0.03261908175615785, -0.02742199510879002, 0.09382200218791947, 0.1366404058631045, 0.03564438929117579, 0.1009820123504696, 0.008794558349368573, -0.08902987467961035, -0.049630368671443686, 0.03477627720968123, -0.14498044275147448, -0.014548050262124284, -0.1427239740318855, -0.40042740942993993, 0.046078349930400685, 0.10450945443429087, 0.18296185304497758, 0.2753091501957623, 0.09655683411139197, -0.09487964289900952, -0.06174038249748497, -0.039955116411530996, -0.09098644360548805, -0.008934862592770222, -0.03511872047858231, -0.1247401349769729, -0.04108962800650522, -0.028354232158300085, -0.0989090027329118, 0.01929546700492295, 0.09599657461059932, -0.026547722095393435, -0.11060326120616844, 0.04608885450832397, 0.1562327180339703, -0.10566529340045429, -0.006266065152621834, -0.09984174194050693, 0.2201474568110612, -0.23072772669997774, 0.011948768754433877, 0.15481833955721627, 0.17634895034726325, 0.0794470301502073, -0.12756157290250922, -0.06646013168898406, 0.0631913552494018, 0.11325645661209359, 0.10608991880086681, -0.0363009535396167, -0.06414988133142631, -0.06311017236628985, 0.005004006387947165, -0.04492735982671294, -0.11666423933123843, -0.05463695143654092, 0.02813701900724412, -0.15516738506829725, 0.019946968631772633, -0.2690367880332957, -0.055855420390154, -0.007628432740445909, -0.0032622365363059683, 0.06332933646250043, 0.06892919041330267, 0.09598159316625447, -0.13410990974019896, -0.12660947665234148, -0.279730299256578, 0.14111458866919996, 0.04353000249102312, -0.17437317226973648, -0.07152898291052334, -0.010319314104325013, 0.032757288272630296, -0.07267638388321176, -0.044525085487047034, 0.035748920838296706, -0.015472433313268594, 0.13957416857450902, 0.17919614446728985, -0.11923336025395609, -0.015376453769835548, -0.10061988185139996, 0.3088535713821991, -0.040668714307873645, 0.15473856507718153, 0.06348185939207633, 0.1499470893026984, 0.08950784853716602, 0.05010780836833449, 0.047095376712997745, -0.09651222269552732, -0.021437197611310962, 0.038456135864669866, 0.02506298590541628, 0.01363888081125562, 0.06522054676558352, -0.20524645794668703, 0.1194965564705611, 0.1962093911296888, 0.07491895159490332, 0.21612935352926982, 0.06445906083464033, -0.14121724833780458, 0.16015634718070787, 0.12063754735412208, -0.16352189695199798, 0.09574275888819515, 0.02004848198270345, 0.08522389371191753, 0.03477029572827488, 0.014824410421354017, 0.014209965303897615, -0.22782309532022355, -0.09977343246949871, -0.11916963959421645, 0.15427855380924305, 0.0004674283866020203, 0.11241586171323532, -0.08376421706499246, 0.10033598211510847, -0.06887501940791708, 0.027120212244679687, -0.0020643333776794175, -0.17417973434384135, 0.042449971081267225, 0.040757379736856295, 0.06314142145347727, 0.015488827718484283, 0.10086223141568207, -0.20623755600379753, -0.056201479276847564, -0.011864310949028206, -0.022188938470082423, 0.14281181934372786, 0.02567288831706501, -0.02465072783887075, 0.043468447395623756, 0.20772204497180444, 0.047495351493896054, 0.09869530376169623, -0.042558485748050205, 0.1064979999116005, 0.10402735643442507, 0.14275196633033096, -0.0402045641570453, 0.03696626531620102, 0.07702883461952552, -0.055038928136589164, 0.23480007755754412, -0.12927956927347936, -0.009436656656981313, -0.04222069833349141, -0.0851395181604591, -0.2487150208763365, -0.06596154273331792, -0.1717476716235879, -0.09095004978727653, -0.017054383280019354, 0.013564817963189991, 0.010801078017587595, 0.2177664659149591], [-0.1985370887885551, -0.036056344820266026, 0.22673585307895533, 0.06808474563438802, 0.12030837476560746, -0.014768137445511736, -0.07195524877930692, 0.12075060875529213, 0.13356215830101756, -0.0993047343121025, -0.10467221359273358, -0.20984715451728844, 0.07798509722432101, -0.07986181342646022, -0.32895417942851335, -0.040458289470056405, 0.056584640559906564, 0.008814587831249372, -0.034795842424193396, -0.015520710991242519, -0.1103311530258607, -0.04388810573691465, -0.08800834430136995, -0.056666339606576355, -0.05654576080981789, -0.1300967651482231, -0.06799884917712315, 0.06575779092104164, -0.040835221784367624, 0.010234018190962913, 0.1128846622431256, 0.004189572125389849, 0.02451341334696762, -0.11267455003368618, 0.006178172237219225, 0.10389043534037863, -0.14589521122367563, 0.04553041518330392, -0.05998976856765399, 0.06375118553270527, -0.28999394489623037, -0.029685552960180356, -0.09043337860973057, -0.09847054546764249, 0.04526585299962494, 0.07233124819711582, -0.006216600191648308, -0.28144724300807117, -0.22793160442024155, -0.12453058710231432, -0.07582558715023235, 0.022533289708491566, 0.14352356793556573, 0.011072468794743504, -0.1502798127623442, 0.11991692258347478, 0.00870026514303722, -0.0970052933055154, 0.08576987428466475, 0.06872863301741705, -0.24905419390211253, 0.04091512398245399, -0.22480023521988432, -0.08749277807110777, 0.04210961952663696, 0.22838916962353234, -0.06143165535255102, 0.05685334677272095, -0.19863340369550186, 0.06056149445398311, 0.19516591899604707, 0.08123938861716394, 0.3917198816831707, 0.28629296318967995, 0.27029012922102685, 0.3230975398165115, 0.11873542454210777, -0.015809325091108755, -0.039026751554698945, 0.01704295529555977, -0.0996815272144517, -0.23830261136701147, 0.009477392057596165, -0.051436053835311885, 0.09141311344576603, 0.06721884827166397, -0.08707683263285236, -0.027761776689524, -0.07648967409306766, 0.03726865667595981, 0.053144815985460066, -0.0961901343747528, -0.07148079291159284, -0.21335718078576937, 0.2257479018596625, 0.41061321572827225, 0.2153474076811665, 0.3343123141963497, 0.40719417947763537, 0.1488056520242032, 0.005923964263971053, 0.4511373805942013, 0.03583078116760104, 0.14467355221226746, -0.0917120930510624, -0.17213355627113291, 0.010844032056353743, -0.12168059973223819, -0.07372907560844133, -0.1073210324971982, -0.02068481263433166, -0.13347763601503077, 0.1896711653143677, 0.020040683136289816, -0.014399691580006159, 0.001116479673360848, -0.2028296991965102, -0.059490362326462126, -0.17293065171140629, 0.06110348042849141, 0.009822635829851387, 0.4205899724130938, 0.1345742476072955, -0.1638380602023585, -0.2381515430531614, -0.17838050483307089, 0.1599045519036639, 0.9083386619492674, 0.265497184327619, 0.2234788000241652, -0.3486533634144374, 0.4669367610055543, 0.12549913566125842, 0.2829590680104638, 0.15111770094065857, -0.08699452795999303, -0.1574742926141412, -0.019154948777417198, -0.12733890069334527, -0.10845559184909535, -0.0313312390408379, 0.05741732844413512, -0.13518153334821287, -0.15648094581539346, -0.11978313542487623, 0.007301834253832345, -0.3596886882278725, -0.3553904792904412, 0.3213748099649866, 0.3943415227246815, 0.22900231412440225, -0.0697555776102414, -0.2440799196953883, -0.07437699770881985, 0.054526477329611765, 0.019359233324343167, -0.47112303720606535, 0.28662513704980414, -0.4194932914390124, -0.011585265667622514, 0.20801131728378017, 0.09792811828202722, -0.04888272623768159, 0.16783991669881046, 0.11293162650683083, -0.08589445124193812, -0.10397805941338456, 0.13494798936552294, 0.029831689780626055, -0.027203480579649286, 0.01768201158377054, 0.032424557257375676, -0.09711091349005183, -0.2957400636803749, -0.6993257007750048, -0.896093727500276, -0.4479874774167577, -0.2316906218405374, -0.20987698951166067, -0.026261552586079102, -0.11047753222835945, 0.45966752828805013, 0.1698371699743032, 0.11055195911458413, 0.4906028855150636, -0.1247349322298062, 0.1700311317860558, -0.17748406310057763, 0.7216800612311379, 0.024525350191659426, -0.5996103964662778, -0.4839039895413269, 0.16866231921007266, 0.17487854648646942, 0.09907927822384797, 0.015198470908062254, -0.07556184500695634, 0.0664426133978918, -0.10162319595046213, 0.054525354973221, 0.0898330159943112, -0.04617753283823355, -0.3176261393927281, -0.21903132844169435, 0.25139671822763615, -0.03219892013210462, 0.9652950232977218, 0.33982043536541323, 0.71992813308701, -0.7732845411061394, -0.10824627190697363, 0.7899841621445984, 1.0286059638484248, 0.6681535309408628, -0.6705954893798081, -0.0542874203963919, 0.7518891779242921, 0.6134660228187165, -0.3996647451159398, 0.3499111034385142, 0.6727672708924183, 0.11037482405538014, -0.13545590309076053, -0.09573335688133906, -0.04558396080279303, 0.038285029054927075, -0.005848739124810877, -0.06893041178923544, 0.16537024772759235, 0.17618478329467566, -0.20290658936192502, 6.763624615420217e-05, -0.36618425669116866, -0.7897347465460006, -0.7492299713240614, -0.5160272918254315, -0.6791317783859872, -0.28149771671751944, -0.14933569102420147, -0.36882125990302195, 0.6700523882703223, 0.28903685944741736, -0.6768921876312786, -0.4656784054626372, 0.18165873004796046, 0.17483074474406352, 0.384263250770396, 0.8305830611951592, 1.118455402299098, 0.1268150523225489, -0.1534505865683479, -0.03801653011841835, -0.005476838581798303, -0.03409681010423071, -0.2796371223035285, -0.06930884935483698, -0.3312794886747753, 0.05670034684580576, -0.041451028379595495, 0.009850720760823538, -0.6489541904541535, -0.5418783509986034, -0.24895045403730592, -0.6011104924713095, -0.3437120637022899, -0.03797480499433418, -0.06126904618206096, 0.11500245401110391, 0.3455087250893062, 0.6991751156606916, 0.16779359381292705, 0.1852940569760937, 0.23975212724863743, -0.13131825159482338, 0.25740475702195753, -0.04597883156311975, 0.17968261214325706, 0.12340289159316324, -0.04085345708822085, -0.019020272495047123, -0.14077367370620325, -0.05813695998472327, 0.022798515455918534, -0.06471798406688113, -0.315062957855596, -0.1945557554423993, -0.05294945746244307, -0.17159618032220395, -0.5637284537207036, -0.8067909005373477, -0.3824128533319873, 0.4178745336546875, -0.36365607552234813, -0.6307108325335637, -1.1206834304330042, -0.9652548011427015, 0.5620767669138835, 0.37617767511886, 0.20700825557795222, -0.8802676906536742, -0.07833442553694799, -0.9139235930922046, -0.6547182305202077, -0.3067075103841442, -0.3175270394657878, -0.08893060974858413, -0.11276613536125961, 0.028482875446254555, 0.013791973369375484, 0.07708062945036687, -0.0007678467809792338, 0.06051384003318399, -0.039953183788029124, -0.4305070703709102, 0.01855211435070089, -0.3911234355843756, 0.38770778143829926, 0.11068374789979746, 0.7263764340587069, 0.09224662301273541, 0.5044415928814927, 1.2049449285308034, 0.4241661310763429, -0.5268057272414501, -0.3913676676919773, 0.09387646036783864, 0.49225274198259045, -1.104839510771718, -1.2564289368680925, -1.1667492878181929, -0.825020223038912, -0.7288693814566052, -0.5458927210193476, -0.23040269009061515, -0.15174166949026804, 0.08598285951850095, -0.17598456115188452, -0.09369138969738061, -0.08790742212666046, -0.14130156044230788, -0.19971206209384523, 0.32703526822726814, 0.030089747219611794, 0.09931111444810851, 0.4242059215082588, -0.11837870160570864, 0.5528555810761012, -0.01383624899040617, -0.627716401910415, 0.54817678371745, 0.9208477319255, -0.18530319900218536, -0.43801906903941934, 0.5335322209465966, 0.022976981490812745, -0.5442065051670679, -1.7218715119395387, -1.6757538096324807, -1.1236262549520533, -0.6501196483523096, -0.4060018942761416, 0.00017755380044096533, -0.13195382297986075, 0.016449950864419423, -0.05224989237875751, 0.0754693077974164, 0.005305145227424915, -0.2134242473413421, 0.035247113950141566, 0.06956529586195158, 0.2673176695750359, 0.21320104993426175, 0.21671970451726888, -0.061501252479501695, -0.5461486920968264, -0.07436447000352041, -0.7891056532927231, -0.11492781294572685, 0.556762679523984, -0.4007565103013277, 0.9108547710600318, 1.1041357027945733, 0.2183465716070899, -0.3114468692361831, -1.5470972659544115, -1.7659220994643872, -1.39423694335002, -1.1145871291720444, -0.41617667854230306, -0.30500343997316, -0.15226299618741299, -0.10695946307904113, -0.04250808109390376, 0.07171198364527827, -0.09283596774443349, 0.06489967638760019, -0.1301502951553264, -0.15262447940800458, -0.00601403589573808, -0.23179896718451615, 0.06487967594027418, -0.7060989871047115, 0.1921514254448385, -0.25931754264312146, -0.13042822069747237, -0.19484773854449375, 1.4931519686004917, -0.24377336452798357, 0.3048398361868042, 0.05157439746167191, -0.18554837295800175, 0.3429015418449236, -0.2596972827978958, -1.0683228500635236, -1.5021282515103036, -0.9937247851423906, -0.3318363010823387, -0.12518963696852362, -0.2185084916771824, -0.04700521399773035, -0.040566530031576176, -0.1255024393293938, -0.05654111577268902, -0.11468717043096781, -0.11993572584007965, -0.31446300454789866, -0.6305871164617496, -0.46953548886280566, -0.48140078938043923, -0.04580222685347413, 0.652880263084317, 0.05702335721118352, -0.016788298411822004, -0.6257249110029963, 1.1169235029023334, 0.05820627129722717, -0.4508332523519536, -0.48927027095860987, -0.07248488712451132, 1.0871804176072268, 1.1457224597815405, -0.41871229669330295, -1.3632577015811151, -1.2339572679060693, -0.5741298764174498, -0.013759967924196613, -0.1456660855324782, -0.08230107842282813, 0.088745907160392, 0.018719651719417044, 0.15887970833565557, 0.10293805489418825, -0.1441863105493894, -0.2968465528569214, -0.35607762468601495, -0.8043556861193275, -0.40392946606380337, -0.12426073168533781, 0.8954416074937536, 1.001059344896556, -0.6671633869275182, -0.06097610197824993, 0.1695887811169775, 0.6230168459107509, -0.008578896871216083, -0.8535880236601995, -0.5978185966812161, 0.6953112621775797, 0.2503374404164286, -0.7574478322008598, -1.5146812232365083, -1.2306260372787812, -0.8025532021733419, -0.35254981876561536, -0.13796354680910172, 0.03640127003460286, 0.11108109337648704, -0.16374336055576413, -0.08933410949757124, 0.22332622895945675, -0.2578272631143352, -0.02619411451762487, -0.28563404118748636, -0.93611753974845, -0.6502731466957317, -0.19802362203933305, 0.434688119529795, -0.4423355792193878, -0.4910470558633098, -0.8464461646971988, -0.8509054135913509, -0.5909798519779177, -0.12898252189770512, -0.8590637860709336, -0.4887849620758958, -0.8140138038726001, 0.09531045236107163, -0.48027783325542694, -0.9204501491655955, -0.9128238840785263, -0.6819456752738375, -0.0920696057527544, -0.14207402982226855, -0.2860241639616056, 0.06423566891776801, 0.016680548343742906, -0.11179700849368894, 0.17269469118290548, 0.058994432006354784, 0.0018314983223894495, -0.29796745051762297, -0.6425925566690032, -0.04966280852459274, 0.8255976723270585, 0.27074393625518334, -1.7108382008860568, 0.7884828558845259, 0.37379678979616854, 0.31475527200926606, 0.176257634475916, 0.7415192508125517, 0.21547983467436116, -0.9842565836872466, 0.05677508062854795, -0.2891187065673662, -0.4160436033709296, -0.4630257205599799, -0.4291852743191467, -0.1176735526485174, -0.0742080253718611, 0.019481671848963985, 0.057508812481809016, 0.021203557907887357, -0.08400016767379945, -0.07505076524262459, 0.08852066173200744, -0.385320106071426, -0.47248153385214264, -0.04409598174318484, -0.125994282958093, -0.5118899498029048, -0.018393523766723017, -0.20324282629978843, 0.14912312361114466, 0.8856029179883588, 1.0451413535069625, 0.2530999460707131, 0.18968112404017898, 0.8042650170570327, 0.2900694296327699, 0.03447497818053522, 0.9794754699891574, -0.27636671656191547, 0.009979570343007962, 0.09119510559254124, -0.3884929262720711, 0.08226746488043125, -0.16265575292763085, -0.20915583666731194, -0.10099196441597862, -0.035405518759734696, -0.09310708870298795, -0.006190524855271072, -0.18596901803161278, -0.43436688508973276, -0.2338605899517578, -0.2838798842730511, -0.7233286303662891, 0.20008009519758507, 0.33815109916349395, -0.27047320279984854, 0.5771569864396474, 0.614506541042765, -0.1978724930568868, -0.22594528033429712, 0.06110980610797089, -0.012343264567391734, -0.31316464573409253, 0.3444863913089199, 0.5616683481275414, 0.10606765702509904, 0.48879733575347506, 0.16088664595561186, 0.21645781574589523, 0.20920625534207957, -0.126534048065863, -0.004175600079982822, -0.03253369810767663, -0.0779943042590487, 0.018690047953058425, -0.02200789322714661, -0.14074570016617174, -0.22945955293502057, 0.21415077265100885, -0.05114771118868964, 0.02192824673737732, -1.3418892063949381, -0.7576495339704636, 0.9347529794381592, 0.3302103136258068, 0.3648733357540901, -0.014462326369342306, -0.7295575211663852, -0.049185618116844264, -0.6312449518704824, 0.1758461399905676, 0.6968723791591911, 0.6059649413012657, 0.04386169046415342, 0.5678336351039632, 0.21573552775865348, 0.22680036109800672, -0.14638721219881212, -0.18871043003959073, -0.15345038329912966, -0.2010816756221404, 0.07242266350993348, -0.003055708533382712, 0.1046510030273102, -0.09123513575585593, -0.1420875716013277, 0.08391322598263583, 0.04985106905533828, 0.6135820814184973, 0.7783742859887218, -0.22776657414898194, 0.47847627995552094, -0.08812966718937026, 0.21626088470758098, 0.02166069243435245, 0.4031258806319781, 0.9665572318860467, -0.6957969396256065, -0.7050583166356644, -0.5956195633503273, -0.8643899034175967, 0.05796202889881129, 0.3786210149397481, -0.11896880425300807, -0.0678399706770938, 0.08017078134071573, 0.10713175091341064, 0.035536968175701754, -0.14600951879360435, -0.0829752627624522, 0.0014197731098613104, 0.03550410847142344, 0.020401507777318105, 0.19509150250580376, 0.42616734745117707, 0.31253906794255215, -0.22150881170112474, 0.27263642232104446, -0.36261335182637233, 0.19287274750190517, -0.07094022171172834, 0.2914456252700542, 1.2100495086870684, -0.02681544644897823, 0.5971526255908443, 0.22638590922670318, -0.43697828676901546, -0.5042310981382575, 0.06814556791773638, 0.017803460653440708, -0.22113664455711562, 0.00015150583987841418, 0.1469148686155404, -0.18170730892456127, 0.00013060896318136476, -0.055650180849303545, 0.021530044330758145, -0.005173575024927857, 0.04021163590886674, 0.07865317365063376, 0.05840931874242972, 0.12382727247132966, 0.1934856713656164, 0.17844731278368536, 0.007760340961193243, 0.12088670251301661, 0.04934381029561798, 0.5328346202610501, 0.6264976625909393, 0.21533119860118638, 0.1396096547905883, 0.14771915242332562, 0.5093305785323538, -0.07944358732910244, 0.1370805620444775, -0.03511705126542678, -0.19272917338508727, 0.028293954278415863, 0.12160453834297756, -0.05533003391995419, -0.07384309770028709, 0.0037525900862470747, -0.028962862296177328, -0.020678868065172256, 0.00786474550749236, 0.14278239926769976, -0.1795106810296214, -0.015261407029662158, -0.02590793621943047, -0.1307275651827333, 0.20125602311919724, 0.0014743374455300482, -0.0739897742202583, 0.1778568109860978, 0.06338440170430802, 0.18246827237211055, 0.12143233788345686, 0.23139864046652975, 0.25436474251741303, 0.3134559789597434, 0.04772293247480633, 0.33866074787006534, -0.12656867006382014, 0.062469826705754614, -0.04842133688496789, -0.24386933958077853, -0.2483214610681349, -0.23947971039161559, 0.058134357355014814, -0.1949794717933402, 0.012101046230074049, 0.10617254562427737, 0.12123180131789159, -0.15255496458387022, -0.02317061789224223, 0.0007968012480646956, 0.07031746849963678, 0.040393486969917354, 0.09848557792696455, 0.004908638426512147, 0.22881353351383263, 0.22518775666993007, 0.2193145687977029, -0.06485417506645565, 0.1723878291944337, 0.14899837533579333, 0.07362090715192203, -0.061310126634511006, -0.16190578993761864, 0.1299244900397274, -0.014866557296775187, 0.03392424783579463, 0.09860875801149205, 0.011392620452959483, 0.07021390572260824, -0.16934256667371939, -0.07091949873624973, -0.060103436949466, 0.008747268636665377, 0.1794279921058442, 0.09856551788992543, 0.14855624415100274, -0.05672277076076297, -0.059454350372367466, 0.05400927023054339, -0.01937236001902823, 0.016881344960719902, -0.10264836154184384, -0.08550099609648626, 0.14394954459893766, -0.06769510630149918, 0.08438109065677335, -0.19881378948649014, 0.031363187959757524, 0.02761931064670347, 0.09041260739011892, -0.018786426086791628, -0.02341190567984573, 0.13541406589862923, 0.13558014022744364, 0.03671392450244434, 0.11663353508583926, 0.13689991793305314, -0.021043840259515195, 0.07277542752594264, 0.22787867184819277, -0.00994024417223752, -0.021287746137457608, -0.10840742160606011], [-0.012198678236126673, 0.007267559664441697, 0.010092821907505932, -0.03298950336335198, 0.019277396730736866, 0.07065928859692697, -0.027538566097281766, 0.004313368316422237, -0.0038766534151606006, 0.05282965440111517, 0.021904095598941426, -0.02268612761171884, 0.00560105061220437, 0.10032063096830304, 0.007700411657463266, -0.043287719090853556, -0.057351838870916536, 0.0036797119969766913, -0.007295614017702345, 0.09289887337300992, 0.07803251711414101, 0.0192443444535533, 0.0155653293201716, -0.04300548537772927, 0.0011673947957760915, 0.035560555381016525, -0.03408131437114272, 0.02409804275365743, 0.025382711743081127, 0.060692176829448684, -0.03815440528870246, 0.08429127727622288, 0.04605922337109364, 0.0018738008124567853, 0.019990161470029476, 0.06536956184649619, 0.10521781640468834, 0.07333819497042056, 0.07069086102403327, 0.0012005358263485863, 0.024114100188853054, 0.06154239795511691, -0.00454979314165467, 0.030501974358832153, 0.007232398125609248, 0.032796859769310356, -0.05596834731967681, 0.04828799253295372, 0.02804710213314205, 0.06113602909263878, -0.008424042719346488, 0.04818708344831923, -0.062058052538765125, 0.05479167495595191, -0.016918813035241155, -0.029323710125137244, 0.030595328300335935, -0.0261846069114481, -0.029579571249297148, 0.02866905380768649, 0.003919777567297362, 0.03204733321715185, -0.026873115605095713, -0.037435154740428585, -0.022911496016080654, -0.01568014824793156, 0.04916891914621349, 0.0426252179833375, -0.02477982599722635, -0.027371133567975027, -0.008602105727157567, -0.027294208099580053, 0.0035645572381792635, 0.01227277058486384, -0.06117267594484719, -0.06889685524254245, -0.0016449032948251188, -0.01414563837579268, -0.009877477692937908, 0.077943113095111, 0.038460583360334845, 0.06773771626695302, -0.02807719469929962, -0.07544105724641943, -0.02601631007032595, -0.06736609950715457, 0.060673893920742836, 0.005880347010379635, -0.08288701666470263, -0.01681462354447526, 0.013667575591851501, 0.017869412733132552, -0.06490058804575699, -0.06689001376321806, -0.08886639320721931, -0.13758741057736765, -0.09810424560496475, -0.04202387754635137, -0.14535025269579707, 0.02076843816355081, -0.04906856121474312, -0.12189700272009285, -0.040223937000938105, -0.05094178820748613, -0.03601967291919151, 0.08410933394864185, -0.048914443555902444, 0.028250459624833666, -0.012337356922064847, 0.009440655492107, -0.01755452082247358, 0.028417513917951637, -0.05987266013048453, 0.03403703214345453, -0.011397160069031785, 0.02241840558513659, 0.06563505956510546, 0.14980761362408065, 0.008967846765161375, 0.0040383246281644955, -0.04207113782565075, 0.17311798134604417, 0.07051990012821069, 0.0537452547157858, 0.15979418133273196, 0.00894398391672411, 0.02419873766449253, 0.04027788454025335, 0.12196279752183446, -0.18407154752015473, 0.014070270555600811, 0.09706612001061853, 0.052379586840131484, -0.1132310123565968, 0.07811783157714364, 0.056244225010919045, 0.08867311073517367, -0.062459747216964276, 0.011689596652521598, 0.08784626686151177, -0.08970749907162208, 0.009734769529766596, -0.0008749517097411472, 0.023489755972710046, 0.034817989413678425, 0.08322342683294531, 0.07007929788256394, -0.10349764346494612, -0.09993464347411746, -0.05726011462448764, -0.12998769204853472, -0.06685906828491323, -0.13196617810035965, -0.21764570046335277, 0.041255517892300024, 0.02799122462226923, -0.011905161146419695, -0.15618630409904502, 0.09186970499939483, -0.020356507626984478, -0.0185533909832287, -0.017248964488161277, -0.14495830775701507, -0.049790426393927605, 0.04615186728021372, 0.02572570119498028, 0.10059503819690147, 0.056913917152929, -0.06594866300002536, -0.031128928591018856, -0.07649535685638766, -0.05086080920208911, 0.11839488879679033, -0.03473885770528313, 0.06821436336185308, 0.12001435207880452, 0.030330636623313905, -0.15092462134080564, 0.23129882113661712, -0.013640956305788664, 0.08156951430185674, -0.015998686033139815, -0.017929694494490944, 0.17381017972140828, 0.15124766305182924, 0.16471114489502772, -0.27396586925688177, 0.15499172857303345, 0.02333639112750041, 0.01498425695499926, 0.035263101796415314, 0.13266624047330566, -0.06877381459510211, 0.032731684284138564, 0.04922840015516571, -0.05521908800855996, 0.010930913715361854, 0.011130700402765401, 0.05680271354384609, 0.03729792777430316, -0.008270973090214417, -0.06288798193764158, -0.0018624652044022592, -0.07125998913489862, -0.1186586044883833, 0.08517715511389673, -0.26934147504207934, -0.05072354803813737, -0.05524720231214749, 0.08662520563428623, 0.03160695813831136, -0.06347523021754713, 0.09363277105470724, -0.06955586373975294, -0.12574535126918787, 0.047843727412874355, -0.11222124685406035, -0.07973980207365848, 0.16520443338522262, -0.1241873328129263, -0.056607650866159695, -0.03582596121563536, 0.05077602056485954, 0.006687855330858948, -0.10244745803668732, 0.013227479113283418, -0.07034552339034103, -0.06013223869108207, -0.04432213398402849, 0.04369174226208444, 0.1516955763072692, -0.08241281153014318, 0.10702935810165126, 0.10515462982441356, 0.16428901728359652, 0.053728132026731566, -0.017917427460612007, -0.0793415461993591, -0.06403530302636891, -0.037674491245947156, -0.04752670787710197, 0.07862443514243361, 0.055809580113949174, 0.04858627460318318, 0.16047581060406066, 0.06632150477925756, 0.07856932373489021, -0.047217826719905626, -0.11856159951369762, 0.030394872746733304, 0.036903718085893204, 0.05835959027481129, 0.006022456879423281, 0.048877932933136074, 0.01964588001541671, -0.02358879125543607, -0.11433252143388827, -0.05649942066874644, -0.002378632998916714, -0.001065150452831231, -0.043698511042806414, -0.16504087701552667, -0.031776048902262426, 0.013383067891997924, -0.11828628060021558, -0.00840784089630719, 0.04439510275847894, -0.10952026483518623, 0.03015889960896582, 0.0545488015499443, 0.044220954113159204, -0.13876304178341822, -0.08904012039496749, -0.06830057154292696, -0.16167368775225854, 0.07531184369146804, 0.01005035491183433, -0.005668790686657602, 0.021989045379007845, 0.03154819217148667, 0.011227615743061645, -0.0483772307936109, 0.0154005130368627, 0.02653955208636402, -0.0041873808664574, -0.10127163516359099, -0.047739533318941395, -0.008593157088283633, 0.07034004159012605, 0.02099545701203135, 0.1649488332644185, -0.02795660894948198, -0.0665617243813694, 0.15019087861289168, 0.08432791698593047, 0.005460871795037582, -0.11493876672296369, 0.13183003912118665, 0.020446117104087495, 0.009336117743500398, -0.20198413571328394, 0.04337718345435586, 0.06800889046040066, 0.08183489666384629, -0.11349945700308714, -0.043157818529432394, 0.1002741657713457, -0.040954467466908895, -0.007073593572177638, 0.03430306545179716, -0.03124323068842234, -0.07863430929166262, -0.0757846922231955, 0.012777526234225952, -0.031213413556895806, -0.032743557756967544, -0.04319148987511178, 0.09096816782435944, -0.15724123990034705, 0.1782194671460694, -0.08674250785185329, -0.21229775460050104, -0.12929879367279443, 0.17183677581474419, -0.0338397161011524, 0.16274251682860671, -0.12359789537341172, 0.06705072426546593, 0.05905948437116644, 0.08128682714422648, -0.0765381871320437, -0.026939228204199996, -0.010323915190805312, 0.028767086458308305, 0.013730681989412826, -0.019004016532857625, 0.0375654479057744, 0.013841125846392747, -0.05224474415281623, -0.025173423491215575, -0.07172856758142501, -0.03924761389652706, 0.24499844483808603, -0.09776527232312339, 0.033190588270482546, 0.07141660612826796, -0.005941905787534734, -0.04789305466595379, -0.02234602052781445, 0.07922511953698669, 0.12609118287156665, 0.0039552930544401125, -0.13153901102371807, 0.34312020823111256, 0.06351999811663193, -0.4128113076713605, 0.1289519353029364, -0.008272470090050511, -0.1416052918177242, -0.12934081372731768, 0.03834174395856944, 0.005691398392753251, 0.022876023436920103, 0.03447147363440502, -0.07137316077017354, 0.017999783371112056, -0.020592436977661402, 0.04390411905279723, -0.019719846908289065, -0.09047877544196563, -0.0557599506587983, -0.04761614397034879, -0.025589458410587133, -0.07290025916816509, 0.07441901632904994, -0.015396852307034225, -0.06971596764174821, -0.12016692927581461, 0.16425655149970328, -0.01751145111603322, -0.0471621748428613, -0.09291331754992628, 0.3084481095944225, -0.0499944057105431, -0.10082024800644745, 0.06707562306676541, 0.18173494451503477, 0.16302160610617158, 0.03390780458535165, 0.10649659745577571, 0.16610819672500773, 0.09051637117247491, 0.0113171183117519, -0.04461910984760859, 0.006991998116658983, 0.04123106747055843, 0.09332847353817998, -0.1432461698198103, -0.023908919476093075, 0.048146602364444076, -0.19714142039467183, 0.008923693574558106, -0.023354524880308713, 0.07851822141873287, 0.06001465344057411, -0.011575892929359847, -0.19264096971427763, 0.014397164400718936, 0.0649037952795048, -0.029074855957476185, 0.12666324375276186, -0.0659757592757926, 0.006201720343770252, -0.04768786175729542, -0.006483135414504567, -0.12982881358300183, -0.021837452477850215, -0.049023237400920815, -0.03904633115734158, 0.10718050830213442, 0.017155528292217028, -0.05241589090559907, -0.0021129829244320554, -0.07279192455391192, -0.023520124472947174, 0.03241124011925545, 0.027918227926108242, -0.05937474420570739, 0.11973614111821435, -0.06722771659036594, 0.02895989939491846, 0.10431716813012021, -0.22909547089041488, 0.13441332445993903, -0.05798235340350592, 0.025879986511813235, 0.14294040921900072, 0.08445133492022722, -0.2302378495722631, 0.09830594232090203, 0.0016334014518873548, -0.11263476227899227, -0.08480209696664312, 0.14771948842306826, -0.07065004739160635, 0.05966484403248993, 0.0038356800439333853, -0.037097682907403104, -0.039333591162212245, 0.05105197289534733, 0.03537572474506314, 0.05752349362091696, -0.05522573093904111, 0.027814880138451976, -0.04361425327354966, -0.05162506614677225, -0.17253209487509155, 0.0006026571501525613, 0.1858136612742899, -0.028308430197063927, 0.16916592818086088, -0.15073193166567303, 0.029386494437376245, 0.12005632580145945, -0.1659192898688907, -0.019429719016260324, 0.08725290077846094, 0.057162422903225735, 0.01643382446400288, 0.07968422699781781, 0.08302375016162386, -0.043073742147946785, 0.11343504746779623, 0.10179013635254729, 0.065248603851486, -0.013099348118418359, -0.1003663513886906, 0.01109626824707472, 0.09337657235132973, -0.005416281671203186, -0.06122978656802227, 0.04330753626850381, -0.01501212323369473, 0.18682802440583066, -0.07183575904855781, 0.13000058989761953, -0.09259335710199187, -0.15870051596156795, -0.054576483065653145, 0.0027746793814340293, 0.1723724661431808, 0.1795993097032103, 0.03226801085800884, -0.03578838864240179, -0.3237624811159584, 0.15808684766534647, -0.01017988217680335, -0.03597738649637789, 0.024025285714185027, -0.11520779192434721, -0.05982475432555831, 0.006083895334465578, 0.0071666507432690965, 0.026970037451190018, -0.018914016745319617, 0.03254134288796963, 0.02325318932578375, -0.054945497457620826, -0.05003162207554836, -0.08756130433624187, 0.12337188982083674, -0.18731629094452484, -0.12215825575809211, 0.06053240610268272, -0.11767837304184427, 0.15840756408294854, -0.09718381736207264, 0.049388621086489455, -0.036759052644015196, -0.10197558063760502, -0.01614423512435567, 0.04954560247516528, -0.09829584326659839, -0.051872725846265726, 0.0307004920795439, -0.014777783852190347, 0.02027978287440728, -0.14501365401538602, -0.0018625236035110298, -0.008793404311901397, -0.011942676723758655, 0.012103074496275922, -0.0009063050613291188, 0.0420280960403418, -0.0027978044642835397, 0.027016135898107873, 0.006980596506616455, 0.08129843193908286, 0.06542191953964634, -0.1927254652118856, 0.16009146286539117, 0.11252930872576254, -0.10910881002521504, -0.1760330175337641, -0.015783915496578385, -0.1583124240580265, 0.14800300852444706, 0.1290969113561603, -0.02721998040814876, -0.16823446371817607, 0.09385536622870802, -0.11531183249707004, 0.0036306550793839994, -0.012818149291469223, -0.03428905124825166, 0.10211086728441932, -0.06486675565127341, 0.0193099716635713, -0.0027986300569868682, 0.11564051374812011, 0.059893638861786315, 0.04362132040404535, 0.022512512206240794, -0.10215501439975685, 0.035344020814538996, -0.05723644221057247, 0.08109127383093524, 0.0010066592562447897, -0.28089970348569576, -0.14981401918048726, 0.07452652153070344, -0.12884581107332546, -0.02532797335263592, 0.1923063022511986, 0.250391584089692, 0.014952789653743833, 0.022343459210974515, -0.009076320451301932, 0.20403634839958443, 0.11384565186919944, 0.04380117632303962, 0.04101984141420096, 0.01299992993326512, 0.0716692204653166, -0.07073995862519751, 0.05034525819663783, -0.007985317135125966, -0.04784297323414553, -0.12348850402751788, -0.0038165927224750856, 0.03432496994809224, -0.00884294827265924, 0.05701137786779555, -0.21391698882309215, -0.12543662133345987, 0.08164394418458742, 0.15937540788371865, -0.01748829941741372, -0.2215219093197833, 0.15243060811304252, -0.08311547549930597, 0.07672335855436276, -0.1289822465312783, 0.08075873265047688, 0.08844319120332597, -0.06480984527695315, -0.2071493950193436, -0.1890111119429626, 0.07639070770624772, 0.11399597689277322, -0.007679178071967146, 0.07921306881762864, -0.0093584373083882, 0.11923965482252619, 0.07317875448913236, 0.031108210179781666, 0.10049852047517106, 0.011657614369987943, 0.006832293133312222, -0.0005258141747418583, 0.013657430994735365, 0.0582435673752018, -0.008771517121329524, -0.046038998430715065, -0.2510866935912059, 0.002965475111236632, 0.021959419861859626, -0.08506183054512882, -0.004591435647317083, 0.09143196636169595, -0.0802095440394665, -0.0788462410891071, 0.09502185223420521, 0.10015517896116265, 0.07981655327223938, 0.16354104996268523, -0.06482801346713507, 0.01914517242671079, -0.14444600324837883, 0.10554623704317861, 0.06733934058879724, 0.028856122739154652, 0.01979992023602354, 0.03199202967303364, 0.018236022674722106, 0.055856837879079746, 0.01239781425401297, -0.041999836818602435, -0.08440719693207781, -0.009213962587286163, 0.00841048419620931, 0.2109026846112765, -0.08427764229156136, -0.03837693960839247, -0.006038559594395972, 0.060807653733082355, 0.117389515331965, -0.18746746356759036, 0.10888573219519994, -0.10974676285004087, -0.054840665566416466, -0.028333308315460524, -0.08523623083819246, 0.039616296499277226, 0.01612031411087041, 0.06902583256149439, 0.04916245905345759, -0.07974515130951323, -0.08330482422359703, 0.12129645681993208, 0.04135069324636003, -0.0037400830398459936, 0.013742840530085142, 0.010013204034144041, -0.09431302583043964, 0.07613328612209626, -0.02259933543605256, 0.038012522049693645, -0.026731865134975625, -0.10111279565771775, 0.019527702057218366, 0.011359551683203723, -0.11886982303735111, -0.07689879970776173, 0.016525671419760617, 0.007279484239546374, 0.06606032939969268, -0.06726752176833037, 0.14816515682119724, 0.01771078172732299, -0.042665678329017, 0.10591745803519574, -0.05343020209207833, -0.09524948041928642, -0.126242508916405, -0.02349310950454618, -0.05340805892546338, 0.021858772041855924, -0.023608522982434633, 0.03937868668988895, 0.026961009812774085, -0.07708949907366022, 0.057980858019892334, 0.06076603818576754, 0.003569800663154473, -0.08503819424684841, -0.0500060670377499, -0.004438153225336351, -0.13210453156739363, -0.05980054252607562, -0.04031115262681334, 0.10197763748099353, 0.042973721795229215, -0.12018272920574448, -0.03117129951982884, 0.0403129263553297, -0.12911203717859837, 0.0004886195200083607, -0.05562417540164175, -0.0718539653478017, -0.10243310574115964, -0.03099070157768995, -0.009838593911306396, -0.037705160202605, 0.054485506124769593, 0.0753479575226099, 0.040604711797436126, 0.04073757679540396, -0.00900754934778437, -0.005209779461106589, -0.00395496941888969, 0.01705090111326268, -0.05468207543893903, 0.002728941108563935, -0.05996877242684822, -0.0766342519553335, -0.06589304200970035, -0.11775248220786304, -0.12048520112377692, -0.163762490942702, -0.18949534081469274, 0.0007638204866942564, -0.11345182820371053, -0.08543437607243465, -0.06148951533775867, -0.04501393023118084, -0.029819832786256564, -0.05823110304014535, 0.01689689211437121, 0.02277582898438172, -0.006565182624039185, 0.03550894098974972, -0.07177308838134387, 0.04932785107103087, 0.05039799906532172, 0.028027586147891557, -0.0647367362234336, 0.06826095350232812, 0.012542444621565209, -0.009270120695841825, 0.08577176455420006, -0.0035173786689011695, 0.03036600151013053, 0.03172547282564639, -0.0036832370266175075, 0.019367746052923563, 0.022587230567666587, 0.06031799637993518, 0.0008764675317580549, 0.014386435815764516, 0.0015103588891897852, -0.050449668824583446, -0.0023010995854192613, 0.011278848965078539, 0.055616720226747345, 0.01785863935614175, 0.004722286705808097, -0.004821274747241471, -0.043290937120569466, 0.06410909011635796, -0.0820775332635062, -0.0455445885571345, -0.0337757005471911, 0.033513677130546815], [0.19774224342233268, -0.07549039805517478, -0.08438541937799961, 0.09951941769962586, -0.21495490530290834, 0.24331838400148242, 0.2001709338420141, -0.13895841124310135, -0.006132283700464992, -0.06513963411167648, 0.11924056308449223, -0.25521784401255815, -0.08518054079889695, 0.010811242533471396, -0.05219940109379003, 0.08860293630310669, -0.002510182109892327, 0.395877825117158, -0.0018307572055006184, 0.0366154141310694, 0.10626086273225167, -0.3850469655601189, 0.06868764983337663, 0.3123944726388543, -0.043043858754308384, 0.15133014836000072, -0.11157845132621375, 0.17220867690898115, 0.09487564774555901, -0.03507061162884494, -0.14670928306888473, 0.1382249529227521, -0.024255603969764637, 0.024002837065523117, 0.07440627764870748, -0.21893223820592025, -0.046303371239705154, 0.24853162917340565, 0.010822900420381077, 0.10659649631363087, 0.3533977081342667, 0.2027471940296369, 0.1532777061151633, 0.1954537952685858, 0.4521215655919801, 0.26556319701801306, -0.0780038202564197, 0.15590316638754814, 0.19818377364680964, 0.08163602043755314, 0.1873783531124636, -0.08448782933140137, -0.0681917561301286, -0.1855783426135792, -0.289204766405652, -0.4591366978800596, -0.15185984819982004, -0.12595034482028775, -0.2702859565323854, -0.06541202176543018, 0.2451237772732608, -0.10239993546615432, -0.11286451672205056, -0.14473807017080464, -0.10704326438696676, -0.2751015966867063, -0.2350197692177536, 0.06879189426852493, 0.2864561201349936, -0.08742361268141684, 0.04047078117808171, 0.18749854267858762, -0.2622056861104648, -0.20139305327110132, 0.1579136175346816, -0.10887837448217652, 0.04839167995734895, 0.1427587506027666, 0.09636046989557083, -0.23220468127656166, -0.24154510635861204, 0.1472353797126412, -0.027099441017117153, 0.016863731351660256, -0.03164416584732569, -0.31852686002877395, 0.21335786701572698, -0.6559164418595541, 0.05039256634894769, 0.014096766088944683, -0.18032852266176144, -0.14483903664528472, 0.2717789639932868, -0.010290781902125503, 0.1474583574555178, 0.1988020422685537, -0.08552083677132166, 0.3797903004950866, 0.13137752634908642, 0.18867270316970253, 0.13086424291834486, 0.09102877136534002, 0.1769262746797181, 0.15091115278782385, -0.21785418467014941, 0.24865139003287431, 0.2345624415419083, -0.06897869140099944, -0.016650075555241787, 0.19357099160760208, 0.29190271477525276, 0.24810343399816132, 0.05829980285416542, 0.09787520400845068, 0.0595411885125097, -0.06413738877869245, 0.08457846518973489, -0.10834904871935448, 0.28376040449704293, -0.40256008929931986, -0.10563105366892922, 0.08607502146305958, -0.09070648536362663, -0.36905236447419565, -0.2871714296528009, -0.040021713810361174, -0.26839022922444317, 0.054005637902970964, -0.18060867570141775, 0.09560200969304072, -0.1708107082995217, -0.27800190379136885, -0.2586856673113273, -0.05436571870906345, -0.15487357711845434, 0.2080962656688894, -0.40500221468522585, 0.18393123975035044, -0.03411547492783142, -0.12516405076327652, 0.07670507838777679, 0.026735641551012924, 0.37470470475475137, 0.22708819845015366, 0.05453123511024557, 0.16813219049852046, -0.32512035090109814, -0.003246123078729077, -0.1391490936318698, -0.10119849253549061, 0.12980469291143074, -0.11655780210987288, -0.08146205798658836, -0.03117109056369471, -0.1622097966845371, -0.09683714171453892, -0.285320256532949, 0.10561269246512982, -0.2267025069124103, -0.03797758419203123, -0.007810908202271118, -0.1905607489584778, -0.049549650157539336, -0.23378988425885439, 0.031285363336454194, 0.0887381707756047, 0.17710885224527947, 0.044689655723607495, -0.07207822132131492, -0.06103169718950542, 0.023505756979197278, 0.047479287510455576, 0.320068638804474, 0.1890322186395078, -0.12975945073756692, 0.23967140916912222, -0.27007027177333154, 0.03528262038424746, -0.05527257359672726, -0.014404797024874003, -0.13607472069029383, 0.2944490649406159, -0.14578181350871233, -0.42929987820165666, 0.19398547437925723, -0.1259927942076455, 0.2840379409461739, -0.3431243296312234, -0.021484231663373456, 0.14225266683869853, -0.3680821042678499, -0.06977766333878785, -0.23586379233569282, 0.3876747387412768, 0.2939414565986397, 0.16094546212956548, 0.13552698988321138, 0.02378065911556727, -0.0389414720538002, 0.001967539478463361, -0.023241570209361774, -0.02702331263591193, -0.019580923499098183, 0.15171854813743546, 0.06524789329243902, 0.02475786775139796, 0.24480534661076175, -0.19570439195009512, 0.1004161790601262, -0.34047009291255137, 0.014065993844843484, 0.14241853987462713, -0.29636552632101015, -0.10770629800991666, 0.09755763926494107, -0.2860695728880581, 0.14425783803995995, 0.47876375507363395, -0.21663749427325804, -0.13363397043879202, -0.0630836594273407, -0.2460210449492458, -0.19600406749262939, -0.2728086591386839, -0.09897873575869681, -0.05589071813111673, 0.3754443064347898, 0.08762154962794393, 0.050314289090199776, -0.17377951685258175, -0.24716034044421337, -0.22210589901530284, -0.03279577109211281, -0.617448737370139, -0.1641410624375222, -0.471348502224219, 0.013550312684492565, -0.07398625052022295, 0.062363663821561194, -0.03510876977940744, -0.16474534792652737, -0.10788677642538266, -0.009235083594163454, -0.4233626204844338, 0.17836554607104294, -0.2031909898279028, -0.20541419561861132, 0.43232915021718477, 0.00628212778139737, 0.18984377962847068, 0.38828147616556, 0.0011532491837056768, 0.06664578368899658, -0.045968094718357486, -0.356772104512811, -0.20434737264457767, 0.16101975579894545, 0.23255519727163967, -0.23599988812830464, -0.13623428194530074, -0.05107001391479349, -0.04774382435038966, -0.09443372172553353, -0.31352330589537913, 0.0454517599469743, -0.21747599687993116, 0.24381558444653317, -0.05245230851856017, -0.06844386260108341, -0.12172540759874714, 0.020211440810121144, -0.21695278583563415, -0.1960600698056926, 0.10839888738857659, 0.17882992564665995, -0.2134644659843618, -0.016145651455800786, 0.23353773176074408, 0.02872282650773653, -0.09514542940696459, 0.18253953150902708, 0.2041819771920419, -0.030644525171677917, -0.35780113436641653, 0.32329274548114484, 0.025431591922506526, 0.23422086722432545, -0.2314227011481244, -0.0670280352454767, 0.113455049630592, -0.24569501364515314, 0.05936142749093515, 0.17100804927011187, 0.07122124113687048, -0.3750027327598965, -0.2872262457810174, 0.20861516209487582, 0.19566166734098223, 0.11860674747735231, -0.08898643919939307, -0.08276109219506672, 0.16508753321650413, -0.15620124444222133, -0.3210622541902592, 0.0008622046167046332, -0.25166151152401783, 0.042019639561395455, 0.23749985276924834, 0.22465157696610413, -0.05484765868250088, -0.3290709524741504, -0.03102196555152547, 0.052967049149565175, 0.07551728358352817, -0.001926844805600763, -0.10389951917778063, -0.12043528347027928, 0.008659942799351767, 0.20049847154008918, -0.18346744807586945, -0.24289038567939178, -0.32307603135906704, -0.03485604558405043, -0.1591337591352947, -0.014057796570322018, -0.3240495652844052, 0.04578946547316712, -0.13020652658498, -0.1720200284792791, -0.14498914190605441, -0.1729133687933681, 0.34741507597944754, -0.1323773826067324, -0.18451277434795446, 0.07240026979621533, 0.09994758452509982, -0.043223664953462804, -0.3193089312395406, -0.07392568669226579, 0.003636396040284319, -0.19743478873982584, 0.0609526712377226, -0.08226131084444498, -0.010048977327967567, -0.0006779284530740178, -0.17111630623064167, -0.09840324860357706, 0.029353317194527256, 0.18254384277654964, -0.08004550398806018, -0.29611061928100957, -0.15506594906507087, 0.3229998504322488, -0.23453033633598458, -0.17035735599950344, -0.262840707742601, -0.09107560236992411, -0.12608639438570296, -0.12357527650224594, 0.16959681802303536, -0.13288840824474513, 0.005495527091579097, 0.015317465261197087, 0.04847904399153712, -0.09234945368812181, -0.07190514032037937, -0.19783210145592126, 0.44302107915428596, 0.14901967799073218, 0.28912802172808155, -0.12996813844491395, 0.08167919729235804, -0.056664420019653924, -0.29478185570089266, -0.34969143522535684, 0.046520907785869196, 0.21694002634475631, 0.15622372956456482, -0.210373013763669, -0.14177205999634185, -0.30161697080995087, -0.04961696022204783, -0.12249696994875028, -0.3633282457664493, -0.158169721319147, -0.08756053802683167, -0.11174865019418523, -0.145622198487475, 0.07286884170755765, 0.26804205446461865, 0.13012395612867325, -0.05817519436037662, -0.11092504142797599, -0.019397866176250562, -0.03325629873363157, 0.17992440255281356, -0.12369629240051577, 0.026200339584965728, 0.06388171272581417, -0.19368194590933302, 0.26965900403124604, -0.00630432337313368, 0.10285084944312844, -0.1012958932431186, -0.26018493679524246, -0.05988448087528249, 0.127079132234087, 0.04999691108698242, -0.15799051059796526, 0.3480120103036467, -0.04778175960622089, 0.10286462826912882, -0.5009904227055086, -0.0018803914298318716, -0.1409029388602722, -0.1890065911179402, -0.23041277229638946, 0.10042912886004098, -0.12625812863546837, 0.45813353129690554, -0.12854710627416133, -0.09607995954631149, 0.15449562668788816, 0.020006489489406108, -0.2129613744750067, -0.09929704469091388, 0.27330421607420485, 0.10705327649766347, -0.25726391826602557, 0.04984122272904567, -0.19282588904058026, 0.271440435497993, 0.34172359982130757, -0.3285873058735835, -0.22700624810953585, 0.24928489526267864, -0.1643303472868937, -0.10111520615649952, -0.03428647931555064, 0.028655332545445493, -0.4608641456049755, 0.35600732259794005, 0.07834093311221678, -0.11882035474984412, -0.05399982012597291, -0.21122939999369988, 0.0027207819997443626, 0.12205013550608411, -0.45010631541519003, -0.5483599826041143, -0.16480842631482864, -0.062471619664343295, -0.16298151385054335, -0.1484292134929138, -0.04071817754133904, -0.09548634509807119, -0.027796713446493558, 0.2145308096980729, 0.1905565092379422, -0.1936591367564047, -0.28590663412867645, -0.019095638751939214, -0.3760804380227489, -0.2500975211290385, 0.1671460134053389, 0.1910660704916893, -0.36724608944627296, -0.07489845879894562, -0.21007732526062525, -0.012858403881268122, -0.030476630501309193, -0.07125586878926359, 0.026410519361952642, 0.3982930550131038, 0.22783750469537586, 0.286101847429688, -0.01961186424477042, -0.1422822604750425, -0.04387049188087611, -0.37684574298052265, -0.0266323496527364, 0.17242751336787535, 0.2279269494403976, -0.078506630185067, -0.1205214844684604, -0.19023195371953056, 0.09997247974566895, 0.017031668391912915, -0.42721227539866136, 0.025385130441534884, -0.17738275961180738, -0.32161109884023037, -0.13198391208625926, -0.2440709389935713, 0.08578434734955791, -0.17862933949209264, -0.15131590602913042, 0.15060142351888756, -0.3489067517176631, 0.10569986553687816, -0.21384285795837207, 0.006093459313194721, 0.02244425426724597, 0.08930688824299904, -0.27670362426419465, 0.014769034368280599, 0.13774969754599806, 0.09398213753059793, 0.16596393572787843, 0.2955800907943853, -0.043652728659407544, 0.10868500495371487, 0.039538005704296816, -0.3341866023280546, 0.020309738012378526, -0.45323242991301044, 0.16768993120743544, -0.12363487728471845, 0.3746147195285544, 0.058754315570557346, -0.01239990237769439, 0.16918034620976546, 0.07531827065050643, 0.23220910979003329, -0.14963189498119628, 0.22692292961983962, -0.3034279273826028, 0.18099826420888904, -0.10402803816188533, 0.037962017652768874, 0.3835978667555783, 0.03400458976933919, -0.3480688996617731, -0.0608119992771644, 0.013561747030466977, 0.24509338378395967, -0.10760286522318568, -0.01373252924488342, -0.3897001005240177, 0.09111442640788357, -0.08586397069585744, 0.03317423513733808, -0.04638373025291592, -0.08129004638577253, 0.038205263878341056, 0.1294118563441579, -0.23764628770907512, -0.3713613796806055, -0.00874112142046373, -0.10180593245826403, -0.4511029015179916, -0.048068199858436064, -0.18820140682458655, 0.05179243883997715, -0.20864180530855592, -0.15817148560187433, 0.09811982339827074, 0.14028271644293824, 0.11277874936659715, 0.12514211868851646, 0.13306754471792484, 0.03054076040869217, -0.19632268721033058, 0.08612768882599432, 0.16174015800641056, 0.1292843185283741, -0.25440467435830183, 0.14354233848679723, 0.09475674560676217, -0.2690916242576863, -0.3778706570498212, 0.0065727473008593985, -0.04128147301701701, -0.03534456305386315, -0.2650466424200881, 0.22647792833315586, 0.04914349947859071, -0.23850182704686812, -0.16990405702745925, 0.05356566069704028, 0.018972643594896883, -0.08769050978510215, 0.0380356486180859, -0.08349216854316767, 0.009205931479831404, 0.25435510292911945, 0.0029602712319621244, -0.4401974063675397, -0.21017225175026483, -0.02046726769278441, 0.12087877134614264, 0.3222269152722013, 0.07289635993358021, 0.18941282671586107, 0.061141325665671736, 0.037687019083726965, -0.13285722215648968, -0.2226590848800279, 0.39908716173675834, -0.0701589742739926, -0.06806108817061142, -0.13710568695617706, 0.08856706106261242, -0.2939715576686278, -0.002855638018277808, 0.06402218843057082, 0.2319193427723567, 0.1846653013034029, 0.19224643086764734, -0.18251081328553748, 0.2179832004641992, -0.11305949089304997, -0.18777255935533504, -0.16822419402874447, 0.3010530525958158, 0.27060607185763147, -0.051263970764851, 0.015821327131183793, 0.15135327965857473, 0.05069918384106008, 0.004835772766947913, -0.07598831577648528, 0.08249678728220404, -0.11815515031236985, 0.2884619593064285, -0.13108885250295851, -0.00011946610603868144, 0.07194767726182422, -0.2035783982772382, -0.016971133293324437, -0.21232102424336452, -0.29935652898997916, -0.22086623483462536, -0.26938275876951473, -0.044670941204322294, -0.4225124992288269, 0.23648066560761377, -0.09839968632330505, -0.2752771667442276, 0.2536721829235146, 0.0642706503299585, -0.0442376724076061, -0.0568689526534267, -0.28898090057296005, -0.28903608537420294, -0.03766323865532426, 0.08846924333853612, -0.1894896034006842, 0.4412099684223301, 0.3386175833384818, 0.08651956227667894, -0.1627475247544326, -0.034508450384982965, -0.0722794868986305, 0.13928887419823271, -0.0848594481829521, 0.08359907087166218, 0.07182193205668594, -0.20921832949090313, -0.06921996611614138, 0.033582414138626, -0.06319050170474615, 0.16187550853771512, -0.2563849842728206, -0.07244994082202358, -0.17497523726073128, 0.11887075009978122, 0.015577742067214746, 0.1668600686587449, -0.0006101370960127626, -0.12715811774201144, -0.016550152410097073, -0.2580014718850172, 0.17792901556110793, -0.032317698381418236, -0.17678556515140337, -0.12972100811701004, 0.09502138645062919, -0.1409849001903325, 0.14081995315991877, -0.03074351973383136, 0.009129256159352476, 0.0411369140327542, -0.05274791440762192, -0.06266413567462978, 0.005275108966026318, -0.10695481848710621, 0.27436876125685145, 0.04440821461688852, -0.07170108855557333, 0.07306060137129096, -0.4322273810086838, 0.008032102263590944, 0.2984860020972545, 0.1470271326420935, -0.08613105109358488, -0.08370423913189738, 0.3549726190798751, -0.20721246844300348, -0.07113987157681186, 0.10324567046516478, 0.2698425246898739, -0.12325735625275433, -0.017511579273156493, -0.004442440268488728, 0.2158111580953941, 