{"ClassName": "RvNeuralNetwork", "LayersNeurons": [25, 50, 10], "EnumDropOutValue": 2, "DropOutRatio": 0.5, "BestAccuracyRatio": 0.8921, "Train_Loop": 0, "Train_LearnRate": 0.1, "Train_Lmbda": 5.0, "Train_TimeSec": 128.88560700416565, "NeuralLayers": [{"ClassName": "RvConvolutionLayer", "LayerIndex": 0, "InputNum": 25, "NeuronsNum": 25, "NeuronsWeights": [[0.19298511685030878, 0.34692057213846134, 0.13599382782639982, 0.12521418172287951, 0.22643194091612567, 0.09332104417075865, 0.04580040626320343, 0.10130987091390467, 0.2898502260301836, 0.2713521074418286, 0.13043376501784534, 0.1658986380281954, 0.33641026868115187, 0.24320460497323249, 0.16820445559717276, 0.4261338210036769, 0.2986631358884386, 0.11217962880482285, 0.22224108682843324, 0.41896164526319063, 0.22950358350212435, 0.2294926832517323, 0.3779351130561801, 0.26462539971973875, 0.39533188326130614]], "NeuronsBiases": [[-1.2011359661932646], [-0.3999745940505881], [0.5920311074559289], [0.35844053611700466], [0.42891761453773636], [0.9226188778705984], [0.38532259965214805], [0.20639530062316094], [-0.40096683427708546], [0.007878191652424989], [0.6227498514817096], [1.260195688572935], [-0.5899388578943219], [-0.13245994979754572], [0.8118877361113398], [-0.0024242878684922276], [0.9922004194243107], [0.4487487284864088], [-0.18998172502788427], [-0.07031498912219934], [0.5743718534864733], [0.0023874720780783466], [0.43491310576163844], [-0.0014757762685076808], [-1.3333057318680421]], "EnumActivationValue": 2, "InputShape": [28.0, 28.0, 1.0], "FilterShape": [5, 5, 1, 10], "FilterStride": 5}, {"ClassName": "RvNeuralLayer", "LayerIndex": 1, "InputNum": 25, "NeuronsNum": 50, "NeuronsWeights": [[-0.14361131681317454, 0.2687102438652957, 0.12821357065134914, 0.230242693108476, -0.19051363295340307, 0.23902029326543925, -0.1164375876313712, -0.20137528393846713, 0.04374889863150562, -0.20494077309313993, -0.06678878679076311, -0.08558637555362486, 0.013191232641212261, -0.12011282706886629, -0.00973671985136086, -0.3292470586233667, 0.3361929671987256, 0.08546185652921771, 0.2030315978419829, -0.3384269209488417, -0.3772845839163808, -0.003980776638089952, -0.19815598922452715, 0.33934620832875817, 0.07452748788049506], [0.08409819890240898, 0.11056934080182315, 0.3780543048345395, 0.1091581869160687, 0.22389155296698737, -0.28912939123004766, -0.2536700984478068, -0.12000757927430233, -0.26668734372065356, 0.0499248516462327, -0.49710952174099304, 0.35833136107783914, 0.12124086312748905, -0.1384952247153296, -0.057755349991627965, -0.08007148465744188, 0.11738824458059816, 0.05618510707420112, -0.15499769071586955, 0.029771328478762002, 0.1328356424661974, 0.35282357095551686, 0.18831262698901624, 0.37004855609747106, -0.17971875473590648], [0.2625157621527889, 0.23822272921120227, -0.2884566436728453, 0.1858014640744194, 0.2325977535281924, -0.3662986368065828, 0.2898374693583732, -0.13323128276555327, 0.01725977154249714, 0.042641410353571246, 0.14849615974059202, -0.05178860771437417, 0.19730688452944728, 0.21279340170661046, -0.4402212742093111, 0.20992256589469502, -0.21077374636039997, 0.3385651995538794, 0.03592055530249052, -0.24745102178312967, -0.17846886711443338, -0.256298040309051, -0.05040325397863065, -0.013332051424745044, -0.2214119290980674], [0.013638629199557203, 0.07863593609704518, 0.05701523256160805, -0.05046278554182271, -0.06189003416388281, 0.09685983626580005, 0.07851908285257624, 0.01939366685263295, -0.05932814884075954, -0.2087150802162865, 0.14095284191874025, -0.09634872690647743, 0.2544402177110865, 0.021193778305399674, 0.05948370401928782, -0.08371249157197864, -0.5531598998793008, -0.6675601534364859, 0.058981062624336056, 0.22773353552781958, -0.05774578336741832, 0.2463627695110715, 0.3405403963566947, 0.06523552518869788, -0.20686085332017193], [-0.17862337071500672, 0.07918998949143126, -0.3529072013163195, -0.41771629805348764, -0.1633252092578331, 0.10710454185539216, -0.12256800806393708, -0.0028876278697352285, 0.013094721267570632, -0.08157669967763034, -0.060933902007893365, 0.16916527241087345, 0.02220343488521202, 0.13874401979951032, 0.042167202006352114, -0.0024927568771685392, 0.08551200023046157, -0.19416166225634807, 0.49800730486484585, 0.03377515270115381, 0.11482120666716752, -0.08744970511419664, -0.1509220377518144, -0.5461882829502579, -0.25419539600411], [0.05692965088242528, 0.03563102540926526, -0.29170127994096107, -0.34652094251681226, -0.028299321879796238, -0.2713154785941869, 0.024955996660072356, -0.2277984833153924, 0.027549666607212968, -0.3608296089780655, 0.09194554204122835, -0.036006893537398, -0.2181352118043643, 0.13892784338697248, 0.08538976487161526, 0.03791027754913341, -0.1372024032580253, 0.20069368806026375, 0.08159197742175564, 0.18310184141522107, 0.03244376447022021, -0.00879539844590251, 0.07968278322486039, 0.12441591901136592, 0.07289275830148949], [0.198979730080385, 0.176747885697025, 0.4278652542269705, -0.06472005498048645, -0.377770523006481, 0.04994968304254002, 0.01695525785463233, 0.2702637348015994, 0.04522407645410201, -0.1981872148054888, -0.17308847238183173, -0.09893777875123319, 0.21582044456234298, 0.0261295534986103, -0.02388371502798331, 0.30888893536853135, 0.06751598291020063, -0.01070972602365664, -0.1696951661558633, 0.2796633512676933, 0.31733329854744025, 0.115407639404961, 0.16997040435024188, -0.01753380558592988, 0.04202772974120474], [0.2837854844552018, 0.16192294532378326, -0.05202251243614389, -0.18142976296027546, -0.10468290933805698, 0.15146865371907567, 0.15618181674327894, 0.0994303437759729, 0.2125020320432739, -0.054672771274603155, 0.07565859209012482, -0.1361706112006377, 0.08592740992482109, -0.05313064941378789, 0.2727601685374148, 0.12565915572021003, 0.18802455667222784, -0.33527237364002976, 0.03970768154082064, 0.05738230795862754, 0.020163400946665213, 0.23505741207736242, 0.13387810390565844, -0.08372583150261516, -0.362274183147597], [0.01583246049143238, 0.16238482214451855, -0.37376590073946336, 0.031028425216866124, -0.15422637178480375, -0.030012119046789004, -0.22770540257539532, -0.5864538852038256, 0.0610252162910529, 0.0015736709524194071, -0.05755256167379597, -0.08416454557534646, -0.17117357862711016, -0.29398925592993497, 0.27424773334150343, -0.23529338114418155, 0.04973861717777199, 0.30278085097548013, -0.5172311399885756, -0.05151073600693973, -0.047491425100945166, 0.13766534572815267, 0.26119312141907036, -0.4523099730920251, 0.3438136117632122], [0.05784322522613896, 0.05134814842810371, -0.17653159441617222, 0.16124745112603342, -0.30968687155060726, 0.02920755894519239, 0.13193510683265136, 0.010112137433435484, 0.0865131044988763, 0.2405620941216081, 0.03331229287946434, -0.11606705834853577, -0.43272152270313075, 0.4085124521525378, 0.1099675404651307, 0.09788502042943036, -0.3510367838241325, 0.13969380627094125, -0.016470733568222568, -0.1907282732122958, -0.0864665074309051, 0.25990619015127125, -0.2847289349811372, 0.1978814053860905, -0.005735752514868452], [-0.1913720254312163, 0.16909450814393084, 0.002231737544302706, -0.6368983687523341, -0.37965626347396914, -0.05754899547928, 0.18145856369869018, 0.083704269290877, 0.0502895238250879, -0.6286206942105885, -0.03374055608712925, -0.197005326648405, 0.06232360198459601, 0.17926418555338963, -0.4668685177503479, -0.36884245052153064, -0.04862709433941072, -0.04639348058421125, -0.30680229373995394, -0.42692307820742564, -0.0744142594988556, 0.19764918630709777, -0.0007631121293848398, 0.169971258911955, 0.0054317863234745216], [-0.058511467202795577, 0.006142936849117458, 0.18247553108237874, 0.2905518115530307, 0.21976889461238844, -0.2329509826240553, 0.04719890205928225, 0.028746333930507895, -0.15982902433157942, 0.5587061175713348, 0.042383499444229644, -0.1684859259996968, -0.2040002498260251, 0.5056117950298207, -0.056527715454556524, 0.15503960941811207, 0.1058278547507551, -0.05485402703130898, -0.10004123522348622, -0.31372776566344723, 0.1141523534116955, -0.044187562247885226, 0.1052057054047707, -0.11841104345550897, -0.040017873091965264], [0.08511378375626347, -0.11506964807650848, -0.030590559137987132, -0.15232016632012624, -0.07722493013334458, -0.2590632493185628, -0.30314234823069264, -0.19472959072829815, 0.03692405994846539, -0.010553977929960047, -0.0780532883379512, -0.48371644708303, 0.09921461472354605, -0.041584104215769475, 0.019165836068990263, 0.29291479674644433, -0.2395734428426542, 0.20001033840743615, 0.09584426909894221, 0.1202729244166182, 0.046478830009570815, -0.35698584702287184, -0.003167661255115749, -0.0184819890669951, -0.21157545765057278], [0.15869296340190497, 0.07225411483931571, 0.2919661908242719, 0.045758493551038185, -0.33200684619539667, -0.2655986855856481, 0.0466142162959971, -0.0179891714969594, 0.18250011082131254, 0.6144729201053997, -0.30629970413807905, -0.20412724837881538, -0.08155293733129268, -0.5371884159623378, -0.8785296291719804, 0.39711794538639666, 0.017685772308085334, -0.0056336674056916055, 0.2144457159693449, 0.21895694000320576, 0.027345387903193127, -0.07169721554528295, -0.05705683196279929, -0.013564967162200701, 0.061021746635375025], [0.34915620927960933, -0.08638534975506629, -0.15054335197911134, 0.037079768179667204, 0.15345822330806794, -0.35609159737032037, -0.10133133565293723, -0.2550142948444138, 0.04830069808242293, 0.2994101823576891, -0.08186932678157707, -0.34712027194220935, -0.13213477956984201, 0.028635976613155763, 0.24497185574185662, -0.11061573511846658, -0.07973084612481539, -0.032971985933224195, 0.2513988410588269, -0.2022118079858106, -0.23003497276170842, 0.058630497219626834, -0.11429384730222482, 0.27257302848821113, 0.430218737632886], [-0.10650905049019735, 0.19675377810432007, 0.11811436338520265, 0.24368241631758739, -0.19842759871013152, 0.006943073470027248, -0.12342067958080828, 0.2811570412050135, -0.054852434719763636, -0.027648133843068818, 0.045761918916754206, -0.5740678511810478, -0.1883417623472257, -0.2714505773516439, 0.1009696889402111, 0.016809070831861363, 0.32279838899441576, 0.5437321881491799, -0.5452679254993779, -0.20801042539403047, 0.15356195674637166, 0.1977860197575401, -0.06105600827516788, 0.14470770281153686, 0.19811673877212344], [0.18704429160075736, -0.11257628674853892, 0.04843881417377118, 0.1754381181071547, -0.3426249522435709, 0.005034002346528852, 0.049932014018885536, 0.08193946497131484, 0.0882862265401956, -0.06946029099177993, -0.1397065476647758, -0.37450474228515723, 0.24822965238351846, -0.03725242983004304, -0.08407334458054798, 0.4798053029107442, -0.1890995442628873, -0.297472100459799, -0.08360256356522408, 0.06818575063445495, -0.033642628229964826, -0.2813649429550302, -0.03168597553434982, 0.013672216389038367, -0.2850672059544079], [0.0012797137223481071, -0.3498929698671849, -0.4550084806937957, 0.0344579392375156, 0.29679240332994766, 0.2943459245114801, -0.8794177073115733, 0.08483339838264045, -0.05073255596130093, 0.002615758678721068, 0.0028147486089398744, -0.18082736273446384, 0.39247849975215393, -0.23993245363992988, 0.05464637812962942, -0.18443744740344886, 0.09523473369535977, -0.03453982404725656, -0.023168841122526724, -0.09134127672850792, -0.19032160603459822, -0.14556797904000887, 0.187111642927621, 0.009311464474829959, 0.3700482161748105], [0.40795527928545117, -0.1052038380917005, -0.12027928036500199, -0.34305301757111917, 0.14576480528164107, 0.30684343222455446, -0.24330296213968577, -0.3261258105671899, 0.14146339996715246, 0.23188259561299096, -0.0933466125311339, 0.17421835601342148, 0.2835722367055077, 0.31341234166354426, 0.17021111574721257, 0.34103712515822143, -0.11690223797783884, 0.019920946020878152, 0.45496460161394897, -0.13719457729722692, -0.3009865003692736, -0.14119936532375482, -0.5701702321627267, -0.674282466315346, -0.33661269958335155], [-0.3541144259208505, -0.10447911347600868, 0.025232907971057945, -0.1708065327458182, 0.3125864396525004, 0.12202069233262204, -0.3692339439019647, -0.131453982803824, -0.14751443614949358, 0.0353033280523546, 0.10161512326240332, 0.22142072140311758, 0.32777570655041804, 0.22738077206459922, -0.3102731409190158, 0.0706395498400951, -0.06880637103368957, 0.3284616575928957, 0.10126151136741059, -0.003950276755245647, 0.13229684391622953, -0.5484187958904019, -0.5509457657585662, -0.4906893551198894, -0.06316009286897317], [0.1395508279100567, 0.0649892252680641, -0.0249639992693702, 0.025996976004815577, -0.09454477634100313, 0.1035363251925511, -0.6980570982208814, 0.1550122173538812, -0.2244023683718818, -0.1879419490090562, -0.1551862768772556, 0.0023808184038289332, -0.2259543369016966, -0.1961401087884483, -0.23057528518244513, 0.08147710356234654, -0.15932514602723677, -0.111143561112412, 0.3124548608050449, -0.10452025531500941, -0.050705009083977105, -0.2319616217018102, -0.2215999425643056, 0.19943229916689614, -0.2647918272871829], [0.23100888519493118, -0.34771680183755277, -0.6912121452444208, -0.33947691405542657, -0.21080376380136637, -0.13763452371767063, -0.004489300319356607, -0.00977305567822554, -0.039507189214740474, 0.3590903333644453, -0.0991639441350924, 0.3366868566800781, 0.22195164929625064, 0.06726955547431757, -0.006542337228926627, -0.2549431464206863, -0.1557847524719754, -0.09574977107262522, 0.05507010946714852, -0.25682519950431204, -0.27140273968782047, -0.30811839178030875, -0.1795415556689807, 0.11084031719951438, -0.15435780087850898], [-0.22245910698382473, 0.40572455660279544, 0.10458398805780651, 0.05640912460050901, 0.2561618370133033, 0.3283486260409353, -0.09407272689731497, -0.06544116656220415, 0.120173678192489, 0.2517165027915005, -0.002053481124288951, -0.3866206488716386, 0.034255076951538996, -0.25450468462540876, -0.24259559396427374, 0.14359810573674223, -0.27255791314487504, 0.1268292835781381, 0.032024013956179806, 0.20762212884795178, -0.1909760983982508, -0.34405463959426413, -0.15568819179536622, -0.3343327543220666, -0.20515030924844918], [0.177690943136997, -0.13732869923587476, -0.4463759685541406, -0.28940521255358637, -0.4546056684715038, -0.18015801500331674, 0.10428541978427619, 0.4917208693148558, 0.7305942393781525, 0.143802895928204, 0.5328063233616478, 0.014203004539825445, -0.31123005814349586, 0.14482419766117688, 0.18065461234414057, -0.278633366426365, -0.09183831285377253, -0.49265489164417625, -0.20435191778956374, -0.15801329558054056, -0.09923392876957805, -0.14729863508126062, -0.1589921841691433, -0.3405979987534817, 0.08314411178410079], [0.0445429332946292, 0.007888843037767835, 0.1305656167033502, 0.2415957593200925, 0.42050073313965997, 0.44860490705782247, -0.4698490782078121, -0.3122018869845269, -0.19338871498941326, -0.39013599960209877, -0.16587904900646266, 0.17788256884739706, -0.05424336503740021, -0.2560822773878366, 0.21142470777984382, 0.17169583694648866, 0.4669955757861543, -0.04737669603474588, 0.3593403517603985, 0.5367389334914686, 0.0238666195461806, -0.4086363707307008, 0.13402235524734873, 0.2543353488699976, -0.30385251303465444], [0.0336332554851183, -0.3169683927474777, -0.07128870046185144, 0.1765302877055566, -0.03750302270077434, 0.05088124155874465, 0.07377305475558865, -0.5593442332441109, 0.6650868153560421, 0.022289904514631035, 0.3373667725706179, -0.14417986130731583, -0.32462236332885575, 0.3340266528381543, 0.03794411739640866, 0.04710114318393786, -0.4932144701208687, -0.29391016139121395, 0.16485043990859033, 0.010443601405828713, 0.021014206564113003, 0.2631892981472949, -0.31533470495279414, 0.055423548216280934, 0.17292042257515147], [-0.3334635455944104, 0.10250586207021097, 0.37019747715102186, 0.07708141243536683, 0.0663046914128106, 0.24831579401033246, -0.4643927513060877, -0.23474773531974016, -0.03192921604441339, 0.014059451558357578, 0.35661977435120623, 0.2938437004915346, 0.06744446494501169, -0.13803466413109303, 0.1277056520581652, 0.05722132812233995, -0.4642618383834554, -0.2871183270709723, -0.28163266105459306, -0.20966218611954565, 0.16970747453551233, 0.2831871903681641, 0.22896740510360925, 0.05260946618522514, -0.03195165611855285], [-0.020912796338891995, -0.0641184757959532, 0.0663283744008858, -0.05186500639820658, 0.17952730086818397, 0.2531252422003728, -0.0065196425259038794, 0.14415083129259454, -0.1850276452233044, -0.3557015813761074, -0.10113407105016171, -0.29570438484183337, 0.06291021045150486, 0.19135568483642493, -0.26995257237502707, 0.10463731179604216, -0.5298389652110832, 0.14762370595103205, 0.11132433006313298, -0.04001320814456269, -0.26488817154403516, -0.7003720672368541, -0.3090181741190785, -0.25839015513564906, -0.43605768439776454], [-0.04881025310557749, -0.07340161931606722, 0.04876368221511154, -0.259870468065369, 0.3819711033066373, 0.04408366672706232, 0.14310108907930288, 0.0898230646028759, -0.07806382811053257, -0.3368268193201298, -0.01464618191379561, -0.08318436985045491, 0.260394877808738, -0.1670827176296604, -0.39964502604475416, 0.07160034939881875, -0.15178536020401406, -0.06222126484754434, 0.3288094717875383, -0.3117919104829578, -0.5259530977939174, -0.1479416055635474, 0.04555146031245188, -0.22085277792947272, 0.1168241343090086], [0.21200809639727347, 0.11055932673841755, 0.351725774091454, 0.5312157182022712, 0.5152453703842976, 0.18130696315395994, 0.16407313933319387, -0.23633339474514614, -0.45800966148870753, -0.5040965026033306, 0.0026577385155675515, -0.15453739788612367, 0.10410791894428004, 0.07288338292847935, 0.12010234508103709, -0.32359064375274094, 0.03471799689705189, -0.0038877963152294443, 0.20651224446994093, 0.24601917465179457, -0.2375361899925675, 0.22521257987264384, 0.004503289151636294, -0.2516032962161243, -0.19809623533057746], [-0.2001886995455365, -0.2175872284010544, -0.15545967351303097, -0.046340191615077075, 0.3249767614944244, -0.19970414576801426, -0.18472161386321934, -0.28717730109557266, -0.01046103626959701, -0.0585068983404573, -0.19483710913841334, -0.3632715756189229, -0.32702988355949375, -0.18774395476370917, 0.3109524209881663, 0.07932325072702137, -0.26969869902375665, -0.3950151977164279, 0.026408321710555467, 0.04456084974613896, 0.11300362778531443, -0.06579544521399412, 0.03954913635639055, -0.10814962088205134, -0.06348957751944799], [-0.06667598500593269, -0.03272284703280697, -0.07918906535610608, 0.16639399281627076, -0.057803777559115074, -0.22959092624576227, 0.01943729891112706, -0.0880208328787006, -0.07108555603364507, -0.059276575174787564, 0.1024485711114878, 0.26405251476473857, -0.24957369000202687, -0.03769539024365878, 0.5823937720858547, -0.16313115928721955, 0.2569380788808236, 0.2797205293668899, -0.02577944536831488, -0.1910471229008982, -0.28852036991364954, -0.16782884072289297, -0.016013008256402478, -0.07446639598236907, 0.1995924967499637], [-0.02580540387359804, 0.0029838495560587414, 0.31947164580810783, 0.18721432721434791, 0.3350961322943771, 0.14777677809449052, 0.5156344212678192, 0.6027785919064087, 0.22935116597124386, 0.22642747312493422, -0.0396020309602607, -0.47461545247793246, -0.23321678395225806, -0.024571851170435612, -0.06775899603336664, 0.33653240848473703, -0.041297959041578756, -0.25580809259256987, -0.19552799688222955, -0.12012418207368798, 0.494446043580874, 0.27153321447104534, 0.20475788053124178, 0.10405323588421417, -0.0503619716197003], [0.454520352334329, -0.04330013253750696, 0.6358770161896364, 0.11019099625858922, -0.3020675895799802, -0.21444645778703383, -0.1627460285248994, -0.3995231369462194, 0.23659752834543568, 0.10738331085661035, -0.003934621532245654, -0.2374108354621473, 0.0026873788206351556, -0.4512444558272805, 0.28794972647644684, -0.11245361070763771, 0.19180859771107656, -0.1968925221100567, 0.10257796604209171, -0.15798236181566888, -0.06268225717133427, 0.3545458135171186, 0.289638771892064, 0.0835750394498363, -0.045023359662237264], [-0.1605235807728262, -0.12456566040998751, -0.15099811550556033, 0.35062826842932343, 0.018510926690037784, -0.5031873356791327, 0.49593465877047477, -0.24240678058725776, 0.45209984682077947, -0.241475224042917, 0.11475933396001217, 0.38763160318617246, -0.07447126794773777, 0.16287817328951923, -0.09044816991939773, 0.2957408234251145, 0.08607556765591703, -0.08634817229459867, -0.25094002169107443, -0.004765982249336135, -0.2956188144756037, -0.23720326579695794, -0.09850447988083053, -0.3387500746254904, 0.12817319238227964], [-0.22896516597895503, -0.01637459763600934, -0.3197709534601114, 0.05611982233914468, -0.01629233829018532, -0.27940954271300156, 0.17055092634671393, -0.299158778357587, 0.012776755015081544, -0.2160820837714379, -0.1575320752491747, -0.3706044654799313, -0.10969332189819837, 0.24657923186981437, -0.005620510278748351, 0.45562810736469633, -0.15414258166701475, -0.03392072872048369, 0.10944284494416644, 0.12185966982394021, -0.39149506842625764, -0.33172095589818995, 0.029057787971315, -0.12551253294977885, 0.06308637465505607], [0.20400107342503054, -0.09883394845056495, 0.1371997049803674, 0.25891476212416725, 0.21909507016792842, 0.13033915550819145, -0.008478895939964759, 0.3222067424059409, 0.20575476509653143, 0.5162808695166635, 0.33574394655074286, 0.3180019158638425, -0.3427751068611357, -0.20745669622809965, -0.32801485546480574, 0.04255906681004084, -0.28203614693900864, -0.8155931945120041, -0.08556512924806772, 0.008238977095391313, -0.23840783837416468, -0.20091079288267952, 0.10792247301448611, -0.07007566215194239, 0.12309024889461116], [-0.19054675586439448, 0.14322434827827227, 0.11950141484184192, 0.02948155923758499, -0.1678398521148291, 0.38133752475421906, -0.20932259216746757, -0.35863948503162696, -0.21475195390652652, -0.3185902144051296, -0.2304598601879729, -0.03471227042453396, 0.1691457504001168, -0.25941739873707537, -0.038057664027547414, -0.18010633408645843, -0.1992639612137457, 0.2067677015963917, -0.18958091376715921, 0.15362705299057577, 0.008018467881391014, -0.09405877131413397, 0.042065166704514524, -0.3810791231424469, 0.06758208817317643], [0.20932044442693248, -0.17454774674566167, -0.2357058681273577, -0.11559562736028553, -0.1918285462421964, 0.04400685413451031, -0.19262835540497505, -0.13668619024905834, -0.40913822039778375, -0.13437457398539482, -0.18900675854276483, -0.4342354002624047, -0.10631712497728639, 0.2421149422827793, 0.27548480571644535, -0.00045563061891090067, -0.056904761743774554, 0.2987669750926399, 0.07469975770413173, -0.13890447076851106, -0.24520108400661453, -0.09320850586674576, -0.08006620383975738, -0.04384991250270476, 0.12279548615001286], [0.10108243784149876, -0.3788205982841826, -0.13686161514914902, -0.03022962148265373, 0.1883732213264093, 0.28406159493637523, -0.0014470790000678596, -0.09083353641174156, -0.1811327863541292, -0.1429908949588465, -0.25584722674171195, 0.11678563219449137, -0.19271332631624716, -0.16768714057835676, 0.2986532424033332, 0.38562698111236215, -0.21612264509538606, -0.23208649202668472, -0.16823232149401737, 0.26329937977255213, -0.06212019369312533, 0.04804550124932438, -0.19616384334093803, -0.23607644705615552, 0.09078351008555254], [-0.2795041669296908, -0.03921529248163027, 0.17219155602319436, -0.360378578253938, -0.30442453396569585, -0.18161717473971153, 0.46227327318398587, 0.1188364802462368, 0.302614593843963, -0.30741732887678286, -0.3033960958138158, -0.42133614379793083, -0.3394987366061224, -0.031758501084139905, -0.37833257529017345, -0.08816536468610492, 0.09562313114653873, 0.18732289588430934, -0.05644714984605292, 0.19809803191150266, 0.1062763944824881, -0.2089908639734926, 0.060672083943212225, -0.47154606397607296, -0.3792669400729958], [0.09127606493502577, -0.3366446571019159, 0.0062562298557278274, -0.31416455662092896, 0.11931111026753381, 0.11796240245484221, -0.05763549103974607, -0.28792844989751615, 0.028864666555811738, 0.15231021071983333, -0.1012115297541352, 0.33440799232477875, 0.2302850830182602, -0.04707572618608483, -0.12804400015606907, 0.18517226744795018, -0.28945518349229504, 0.08905898268260984, -0.20181705580806691, -0.12091887856604776, -0.061856655279673656, -0.287866236892069, 0.18833960728452248, 0.1812786411613955, 0.2400665764068123], [-0.12527439040868524, -0.3891247305908276, 0.17737852268302703, 0.23491787723321114, 0.41320171276299433, -0.17684222312133827, 0.1999516329697609, 0.6627876697957265, -0.21390221225686443, -0.3465131045660164, -0.5237715913401082, 0.15952589765110706, -0.3821635388619033, -0.027216490828697582, -0.34227891631914925, 0.20007608573867447, -0.06825984139385685, -0.30934080312042145, -0.16275012115810544, -0.09327581155736817, -0.0683605865656461, 0.23571493053255066, 0.17728396997983675, 0.2554492584168088, 0.2165935888092777], [0.2703778181963498, 0.04326403032209172, 0.3276802486035076, 0.37959880872762725, -0.10961571675907089, -0.15890056931715538, 0.01491209340415519, -0.1955822288120139, -0.6850991619304037, -0.01801375975197209, 0.05551946773685533, 0.0759259303553701, 0.12621912375904704, 0.3569397633275097, 0.3814155289865311, -0.2958287377598948, -0.1916413918163053, 0.12708450599029394, -0.07441148123373469, -0.1823141057367616, -0.15863062307046605, -0.36069230905404925, 0.03549408654333269, -0.08755760112161749, -0.20976513858390577], [0.03886366562419362, -0.21281198031331433, -0.029216235324472487, 0.06926869077879735, -0.04277997708498382, 0.011775267744898097, -0.13279230523751068, -0.010264214404408443, 0.0244848441840384, -0.16786799390753418, 0.4160327621173476, 0.30624716132022367, -0.39945782283668596, -0.033690978532447825, 0.3903871103266197, -0.2345654471231448, 0.32791411887027916, 0.2605619148186236, 0.14200181773896106, -0.13802160332737656, -0.22444548574199108, -0.1611576526546948, -0.07414963854834532, -0.026918219454188035, 0.378295662334283], [0.47712639627613873, 0.05306686206135216, 0.15446542552494993, -0.1205285648900129, 0.010041125122072609, -0.3242479384230033, 0.1519381334198128, -0.11299449224361516, -0.07803460355436533, 0.2670993904285635, -0.4386627026566251, 0.059425250092907424, 0.10496917835727772, 0.06351088857457335, -0.05616102327743088, 0.06249473331312259, -0.18062806177667234, 0.02880047486640116, -0.26504614930297704, -0.06239893989054532, -0.06766156662018086, -0.15877057100754174, 0.030599605886306988, -0.031118295356570874, 0.0804114092380891], [-0.028239343624404507, 0.20755264386423994, -0.3138036915672822, -0.3898275385549009, -0.11673155409595262, -0.1962048805471489, -0.06582644698888913, 0.16174852295383893, -0.050303779136028695, 0.15090707065806902, -0.10726727525663289, -0.43541687866825857, 0.17582938941344897, 0.2074390633291409, 0.15892350231819638, 0.014596943154603036, -0.09109610307783088, 0.10674464790457294, -0.23702487549455287, -0.37034183477812244, -0.17722271180698507, 0.22244359274264233, 0.11164984732317391, -0.5826161334637581, 0.16227524925246525], [0.11211536387033369, 0.09278035517053257, 0.022825121245796075, -0.023341627402950652, -0.12404022552683441, -0.1581162131071178, 0.051509881718995496, 0.0009046401772751108, -0.32470425106292156, 0.36280826365883384, -0.03140811992880355, -0.09837090856066977, 0.26633570765924347, 0.0911262731656532, 0.09940973854499198, -0.34572321163411285, -0.10623338181745817, 0.16272135835108467, -0.35549684696011363, -0.1086334739911549, 0.07362042799938125, 0.013622888922639435, -0.3148709102127981, 0.11361795893427905, -0.20601530209170682], [-0.060720817771724125, 0.05872446148997962, -0.03502792472852503, 0.20564182618988047, 0.23073636485763566, -0.16162399323946042, 0.18205366042346424, -0.009505469225416696, -0.06292449220328933, -0.27512678417212705, 0.2392515967517606, -0.1213432103512594, -0.05924462949339362, -0.20561499087935833, 0.013467932637589719, -0.013093851054361564, 0.20942707024222218, -0.05412253204086679, -0.10052274299458329, 0.0675900530228851, 0.17193683415961888, 0.39762622299823364, -0.18045408804883356, 0.17554014971184234, 0.1615424696602787], [-0.05473790629691794, -0.24217739526073312, -0.7371674468681768, -0.27108056424306964, 0.23861461881525267, 0.5689710283845268, 0.11279052190831217, 0.18623182264005317, 0.06826983593584887, 0.15222592519931122, -0.03222233729426181, 0.23474788168977784, -0.08628462636399928, 0.4596446837738908, 0.2556926635020475, -0.23251335645582089, -0.3944667047229973, -0.17862282061163684, -0.03604238719416241, -0.4634913053716034, -0.2388939546942619, -0.4084654462037001, -0.21194672625860464, -0.4968405220817764, -0.16462569490892562]], "NeuronsBiases": [[-1.6772567980483977], [0.3712338077615278], [0.25407832184671864], [0.4500316603976588], [0.5458973397041785], [-0.24421849940272097], [-0.5552373263742841], [-2.203976650751534], [0.5064041604766945], [0.689889588184995], [1.6989398747408881], [-1.0338522363091178], [0.189744616834594], [1.8230282871222792], [-0.42235570745819223], [0.020738269369112983], [-0.09038361433265713], [0.6171321328601516], [-0.7036095393858968], [0.9481876085620148], [-0.8354297701632424], [1.4054935335537257], [-1.9582805016968936], [1.3973113795094338], [-1.2612777972349605], [1.380601408626476], [0.5445157584229567], [1.9524441107112684], [-0.08943790350150702], [-0.5391687322138099], [0.7103599135330897], [0.2444484140655404], [-0.9216139364901527], [0.6873364976814882], [-0.3988711662594041], [0.6184575750117797], [0.3321634703035548], [-1.524343107482241], [-0.9607441255923878], [0.24628685697487748], [1.2099260423676887], [-2.0156285905418017], [0.03041997258606078], [-0.38087752892683446], [-1.8094077914082272], [-0.3045633554953753], [1.2002648529848785], [-1.225628135005767], [-1.8574326795225833], [0.24347339063079768]], "EnumActivationValue": 2}, {"ClassName": "RvNeuralLayer", "LayerIndex": 2, "InputNum": 50, "NeuronsNum": 10, "NeuronsWeights": [[0.18428598627524145, 0.07408728280947974, 0.008506282085879334, -0.22011685266312472, 0.14373049379299072, 0.19707617442567338, 0.046994901433033205, -0.2262556833928765, -0.08499844765352339, -0.2542883600414641, 0.007000896176480739, -0.10937400302377238, 0.18691786079659042, -0.259432409264524, 0.16158701267438333, -0.23301174067062544, 0.07587671374571026, 0.10247615865567432, 0.09617910719157872, -0.13383431183057776, 0.1365131306203869, -0.2131403696562358, -0.054940378293859234, 0.16673171715070406, 0.03000442696168434, 0.06220521115842704, 0.02064203491611279, 0.2889753724322656, 0.036925845447373845, -0.32396686298316, -0.0057339214981631794, 0.3608662915043343, 0.013520916428633695, 0.1300511276070329, -0.059985264443007065, -0.22542343565499237, -0.03836665956450336, -0.05524981566661687, -0.14095573259918392, 0.025859712867185566, -0.16841703984439138, -0.08366326225587277, 0.12437345834099457, -0.1856294034023724, -0.31526344345447976, 0.05230218676009975, -0.05097954034094486, -0.15337749710394685, -0.08739344674905597, -0.5088802198649354], [0.03349020554726971, -0.14580149612005014, -0.17401659013486795, -0.23763373124106435, -0.5509365344984847, -0.00551784468927739, -0.11295269499722285, -0.072328584253572, 0.1444909681054506, -0.244575494955975, 0.08404790713782027, 0.37751374480987326, -0.14784155177298494, -0.17033096308397427, -0.17691759526427037, 0.1161640699601033, -0.02307273442846731, 0.1497443135877708, 0.013561179954612573, 0.033965923434097, -0.1164684874086627, -0.48363692959676724, 0.0037961197883034517, -0.19487634871257514, -0.5355805079018879, 0.33706360279028114, 0.041503502687861786, 0.22537271821077362, 0.0325337917978352, -0.3093853026913319, 0.12071482835034021, -0.38401410837015554, -0.4929773093771103, -0.26918650907952785, 0.11304813852346902, 0.0034801372878425453, -0.1967189455578731, -0.02473644973465947, 0.046033893647648635, -0.13408087860780424, 0.12152243521642261, -0.08022406027019875, 0.44100158585005256, -0.49272623592280346, -0.08637178885697738, -0.0023340891235278105, -0.005873415290618638, 0.17755506596234064, -0.23372963430346147, -0.49087150990577005], [0.17921216032133183, -0.1405115683697761, -0.1656419753339802, -0.21664976905773956, 0.12018905991793437, 0.08761756674331665, 0.06163551902153808, -0.11023241049682037, -0.31815353961181364, 0.2018684112586673, 0.042015233159435256, -0.023895603656493906, -0.2903811728962341, 0.055534187295348994, 0.17051274005403233, 0.2329440341333518, 0.18347603140370788, -0.44496297423824277, 0.07857966116157475, 0.1266281557715626, -0.0786382632122769, -0.23615200431523636, -0.10587567043297305, -0.10296154169473071, -0.07893043713316489, -0.12841252310154752, -0.06107791696274066, -0.12824250356458083, 0.11693190643804911, 0.0652742712135645, 0.033959313960149666, 0.07003653725872559, -0.0021966751878577818, 0.182442741325339, -0.037936489955535044, 0.09860698329547118, -0.058965361405372986, 0.04362774355825222, -0.22919620308214692, 0.12846656766041784, 0.14238705172406188, 0.03408482318185351, 0.04709264898861924, -0.2662308588043022, -0.18422946983030958, 0.36058787511552953, -0.32749005333473913, -0.014412286358149267, -0.1458143572160816, -0.2496920333779203], [0.021544116377240845, -0.33154078253033464, -0.15082176267046926, 0.13698532603427743, -0.12130290020400568, 0.054417956022667184, 0.08588502180345489, -0.022261379240784532, -0.16880713435493297, 0.04132700379317954, 0.08485651504148448, 0.29594958459463094, -0.10446236251465567, -0.09620968137493596, 0.12240552441484404, -0.13070178692724996, -0.03697416242653251, -0.40270919571829056, 0.14822885040520334, -0.05476604349544085, -0.292413605321587, -0.13010494867709022, -0.2029881266813441, 0.012096552789468057, 0.09724786979851159, -0.022614197222231465, 0.1309985957001582, -0.03264086090929906, 0.3010962726171766, -0.10014948609550409, -0.03292472545715441, -0.3282769531797975, -0.06527984584834892, 0.1106584450963427, -0.018784184917238544, -0.10089004365608556, -0.2748148295816003, -0.11009953471767124, -0.07496361488713833, 0.18072772771854967, -0.18341229081627622, 0.0408058851584392, -0.06040984868934248, -0.07522937327309591, -0.03670478634802498, -0.19672823111137278, -0.1098827923496644, -0.18391331322610854, 0.20091884751697717, -0.2693909554864867], [-0.038733839046291456, -0.07340574212794888, -0.10340107404908948, -0.10432527221653021, 0.208690428414884, -0.20813805105783031, -0.20494700295729604, 0.1342635051073472, -0.2309887483475902, -0.04042553291441279, 0.017083572541263626, -0.011437189302277774, 0.18947361369265533, -0.3920506961188678, 0.20160183298676426, -0.26853039787684374, 0.21466881886078754, -0.13080192440612137, -0.31125199494535466, 0.18042103951966748, -0.20195601040006655, 0.06945346402909322, -0.007098590092279023, -0.4773974812484733, 0.06509366581923902, 0.09563957203242539, -0.25873643258158363, -0.026022454106388426, 0.0345162448074538, -0.5706911760224509, -0.27642389846221604, 0.007175532650814848, -0.30945981240280407, -0.3799059373395803, 0.2350579648839146, 0.18017419385414982, -0.09226359110268119, -0.13561233029115827, -0.06440598138319391, 0.09871751402876149, -0.11214668058182409, -0.03190323741654747, -0.4026432420623497, 0.04678910805936019, -0.02852967488790382, 0.07907524925627932, 0.17637344685753667, 0.03365103118473813, -0.16503028288279953, 0.041926836097773174], [-0.08895366127673791, 0.015515073789971573, -0.3114901344177344, 0.07358249827948375, 0.016281589334521007, -0.2802553394463346, -0.2320817096538063, -0.04423537647148676, 0.28741820517567607, -0.18087726752151687, -0.43946164639386154, -0.211422022981395, -0.08333450614543965, 0.2750290001727956, 0.20630180491028738, -0.015963083320725147, 0.12202384381237569, 0.1497838120898246, 0.1512171565313182, 0.003230912021347107, 0.10676501375714657, 0.14396483851881509, 0.009551090725778328, 0.019114468666246272, -0.17464905838021588, -0.15727525417208232, 0.10729414171420422, -0.35004505697377625, -0.08450922704238713, 0.09844379205824777, -0.012353191183766791, -0.12468899930467163, -0.004632198262018418, -0.1804369661340688, 0.14905233091838535, 0.06033521639452909, -0.04558935595896605, 0.07402302573528172, -0.22374831721336286, -0.12226038109099965, -0.12139423329257615, -0.11004304553554374, 0.20593373827168407, 0.1307741739486837, -0.16542461165270775, 0.1583525949516652, 0.09683600643826415, -0.06146296651045775, 0.32344358748105534, -0.5323084003859982], [0.009593071956267825, 0.11531849058540876, 0.09726106117293758, -0.303195452598508, -0.028271644115551692, 0.1041763805852064, -0.10052356047837074, 0.0023781787094473337, -0.008042867425163263, -0.09049372305885407, -0.5247212333053722, -0.2527788937593429, -0.12463556867914058, 0.10696991842175763, 0.2950727449380012, -0.11444608426932566, 0.07858392283398716, 0.2804907994583826, 0.06560983303861054, -0.09465661083415401, -0.0363298878333341, -0.5233413357213119, 0.16595822735291407, -0.15434691467276446, 0.005398358439315772, -0.11397328249041229, -0.3131498843731734, 0.10605289286054324, -0.08956495168575547, 0.07840213855289432, 0.08770392689809396, 0.006890902012442081, -0.42982512205983925, -0.15779577651879456, -0.16573780898568646, -0.09590506883509466, 0.10809181831442544, -0.1196296182335528, 0.051553060124244224, 0.11871947008148191, -0.28598275394342115, 0.083786778143681, 0.08743089959206485, 0.2105833524250918, 0.001583365946628698, 0.028019915197633267, -0.18582803908258863, 0.04194729165813446, 0.09178026021745486, -0.15554627202039503], [0.19578346118207626, -0.3485772903057512, 0.008635694379613326, -0.039811556113325326, -0.004904798813894725, -0.20290419128915896, -0.3330968419790179, -0.0044074227124437215, -0.3893052515487574, -0.03496616971587741, -0.07254858144511474, 0.015707599070239678, -0.20270510385263396, -0.36418121761889677, 0.10480406582693373, 0.06440526794820396, -0.17466111922942634, -0.1674058720344558, 0.019367369563416583, -0.28453140828660667, -0.29685300866465814, 0.07801676627307162, 0.3773690380333102, 0.12507611840592583, 0.25686512411625956, 0.016887516227415147, 0.3074177254987055, 0.15036379594027635, -0.06225630005562947, 0.023354104134698572, -0.20161991687784414, 0.09267739163741755, -0.02794966781886515, -0.1881525699591388, -0.07508038935249188, -0.05117567516647509, 0.10679387912304958, 0.031111991018583415, 0.0816409634649847, 0.09204141884157038, 0.17604135429473863, 0.07806834706767866, 0.03953786488774603, 0.10233033797454001, -0.40259674224858333, 0.1576144717342351, 0.20422150304826156, -0.03556524826591522, 0.031983191725582075, 0.09254770422511752], [-0.22714581438234235, 0.13289395759444173, 0.11609749386787506, -0.38199566767103993, -0.34941470047408063, 0.05530078537063386, 0.033662774524013936, -0.02428878068397828, 0.05898381984661247, -0.05270829615195474, -0.029154275807087866, -0.06522305617916856, -0.23248850543058597, -0.3046688273009539, -0.08794513398838631, -0.14373851037754112, -0.015367756737744468, -0.0662714581689633, -0.052995333400475, -0.4651559432478441, 0.003404052216183647, 0.05358981062687269, -0.14392037431509697, 0.027234514166145116, -0.42622120279364767, -0.25500529340466405, -0.40187391867395145, -0.19100201902734393, 0.011514027100150488, -0.018887592038642823, 0.10491574676159424, -0.03423047126735507, -0.023067428058857736, -0.07653559827839285, 0.07824610667531898, 0.31069152070691297, -0.3227644324305062, 0.05775510760784355, -0.06924154973821667, -0.03828837442425427, -0.34531712455460256, 0.03312168940601792, -0.2342705872593823, 0.07557752363628431, 0.0035260208375047673, 0.2803916253080213, 0.19591762014381417, 0.12149265892404182, -0.16093211302212762, -0.3137148343950412], [0.05545593493970829, -0.11047698951497097, -0.05799607209906909, 0.17226355493590467, -0.011406974817500528, -0.07779906464456318, -0.0048278214119152705, 0.019629011410281956, -0.16988922806886073, 0.03984687458800205, 0.24466630608305437, -0.18362703650663373, 0.0805404397696111, -0.2587535582501177, 0.0733619169650669, -0.23660261220357653, -0.23398057966398372, -0.06998363047909094, -0.07051295728759518, 0.04175344051439807, 0.0371555877378433, 0.15195693562613885, -0.020627338413845345, 0.29070946611595955, -0.2533394107372254, -0.23627435527967716, -0.1019489407008454, 0.009712583193222563, -0.09268458754226562, -0.10350163492678388, -0.10282331249972922, 0.018300345601859655, -0.539641628051733, -0.14211320755334098, -0.11984901864237395, 0.06136381442115899, -0.5347948744850847, 0.14689250142390622, -0.1491944261276754, 0.0946518948421236, -0.24086397894447859, -0.19493133202757648, 0.15351227527889222, -0.3096918490897059, 0.17133661387855886, -0.14354770444860243, 0.26180448038572607, -0.18628469769275396, -0.11321078388222995, 0.031531345128420034]], "NeuronsBiases": [[-0.5065429835548727], [1.3193139862023553], [0.20541695608326233], [1.0713461378449394], [0.5959805568782843], [0.5364666373266871], [0.5372942869887039], [0.21423412394519675], [0.8740048134720896], [0.10780874365100276]], "EnumActivationValue": 2}], "Comapny": "RasVector Technology Inc.", "Web": "www.RasVector.url.tw", "Email": "dan59314@rasvector.url.tw"}