{"ClassName": "RvNeuralNetwork", "LayersNeurons": [784, 50, 10], "BestAccuracyRatio": 0.9514, "Train_Loop": 10, "Train_LearnRate": 0.1, "Train_Lmbda": 5.0, "Train_TimeSec": 183.96459674835205, "NeuralLayers": [{"ClassName": "RvNeuralLayer", "LayerIndex": 0, "InputNum": 784, "NeuronsNum": 50, "NeuronsWeights": [[0.05448915908832442, 0.03375051607017135, -0.0012677153340857421, -0.02484073663639274, -0.05263975859372111, -0.0010368279065404208, 0.0028083255486847747, -0.0394918772783581, -0.02976187891077243, -0.025013364408914895, -0.039042581064915614, 0.02340052055325747, -0.00971814941486689, -0.020463725013258955, 0.06555288770202332, 0.017713779625678043, -0.06070198312053531, -0.07361147396062505, 0.026380823564313854, 0.011153744898765496, -0.06375192393612418, -0.026357970447857572, 0.06584838136042012, -0.0004457725455855626, -0.014897937174641222, 3.853531831733381e-05, -0.023595417878841635, -4.996936064957088e-05, 0.030741933227482292, 0.0370978071598004, 0.04244328372489255, -0.02694926681082497, -0.031407383361642324, -0.016006344932090195, -0.022718335330227542, -0.011687089177652835, 0.05622126676595917, 0.0397511050528498, -0.07378524583742652, -0.016672448925441185, -4.349932423985413e-05, 0.01665806103311829, 0.02947793798036141, 0.02473285030060097, -0.034096115508107754, -0.07821141292563924, 0.03932048962502852, 0.0286803741507574, 0.022872218672112612, -0.07082630583718548, -0.019566783824435878, -0.019348088180346286, 0.024346103414472593, 0.0029491603695993573, -0.0023899330921014175, -0.0301499119343669, 0.020547154911811926, 0.047281716138903467, -0.007789192863211058, 0.09897074641089235, 0.01424522481507923, 0.019024192757993275, -0.06903747567671263, 0.01728584554340234, 0.07850231071837904, -0.004072182198274784, -0.0014177268007722265, 0.03171580267438779, 0.0912960504856371, -0.08854862480053476, 0.02206686901374955, 0.028259424314473768, 0.004078917706424854, 0.021143278628580228, 0.00020509404313864116, -0.039906085906159565, 0.0027770634327478863, 0.024112389889991603, -0.012173220473589824, -0.020287329294482147, 0.023936180537218, -0.07498197634993094, -0.004913616071857964, 0.0159602871879743, -0.10656286624521247, -0.02546443678243896, 0.048404736915671744, 0.02574753320444776, 0.02490980467507171, 0.029158590519714464, -0.023892660080778276, -0.024752554334717555, 0.029912257781449365, 0.013348223261532666, 0.01510270380806804, -0.010176977173080155, 0.016325028698236856, 0.021373747359570545, -0.057407592285730134, -0.05128812629577653, -0.01966153642457665, 0.03638458459297698, 0.007122257173608019, 0.010505337462919982, 0.023334649646634165, 0.0025537300984657114, 0.0452008344032083, 0.02859135469892557, -0.023240967242876474, -0.01664690824025219, 0.03648200965125586, 0.0196078323563092, -0.035156210301779775, -0.05833082715558073, -0.04003595080767936, -0.04680880483235895, 0.017138748939791972, 0.032415524870978034, 0.04706622483981278, -0.016510691812245577, 0.019769111851631545, -0.01007669025366773, -0.017132727940565376, -0.036416651184705634, 0.08184488900206327, -0.009204378535035553, -0.03448461481254334, -0.007820426845843019, 0.016084104417303884, -0.0329901371010002, -0.0017144367586094974, -0.052181783999250726, -0.006460006944023612, 0.021794151452330143, -0.012779637184075246, 0.040726244868871046, -0.049766204849547864, -0.03620153601933824, 0.022868153444080865, 0.014365923538676106, 0.02850485239957487, 0.040789784726222196, 0.007097172935939596, 0.06802081245197773, 0.04159078085158288, -0.015862275147592413, -0.03697902407543386, -0.057209218383477894, -0.02517150228758663, -0.03273879134695729, 0.020370810497462675, 0.02875136004181706, -0.008608364051768465, -0.02710717898377367, -0.0418446762760973, -0.03827593477759686, 0.028418875206560265, 0.013898023469708478, -0.01879903677179237, -0.022662390661553865, 0.030588168062049677, 0.009067937902439266, -0.0020714727681080606, 0.00900127233807555, 0.014635913768517004, -0.038709933570214676, 0.03964982210223458, 0.03370523815664578, -0.015312377261628601, -0.021490752391270355, -0.0019461639546503999, -0.017717661075420953, -0.019024899517270707, 0.0073570877969363355, 0.0025974737609738225, 0.023837217013084562, 0.01727469108339403, -0.008759518743315904, -0.0031062177889726395, 0.00831407268288776, -0.02215020816009438, -0.023376070104274654, 0.010404007164426007, -0.07350132260327559, -0.041490901521437036, -0.03848343437476032, 0.001098957353607289, -0.09163735138137229, 0.01717792947432998, -0.007735064261673357, -0.0431137231805814, 0.029562845639882672, 0.008312991184436215, -0.0005374972245874847, -0.025896229474036414, -0.0161707378930768, -0.017723561954755294, -0.030817140888836803, -0.016561758824348183, 0.011502494630739608, -0.07635977374994748, 0.050657899827253584, -0.005178417198864107, -0.008310391704514409, -0.001308726398347442, -0.06179271750442682, -0.07528407640896113, -0.004635489848331258, -0.0016897791205668427, -0.0587340361809156, -0.009930729902436502, -0.016778221072221034, -0.07950866108935406, -0.014285170958861393, -0.02939545929255132, -0.028353483194913067, 0.01329062093467219, -0.024248132854904243, -0.027557566455306683, 0.0343853072598145, 0.01002925245467978, -0.0010072427154205457, -0.004145403096067393, -0.012214954196725811, -0.038145113227563816, 0.047191249815215226, -0.003914554136163647, 0.015267731448881345, -0.04251711882213453, -0.014074826740711954, -0.03687203416801298, -0.00969631152666354, -0.004416478522162139, -0.06309079742291974, -0.005515658540390459, 0.018795535995514943, -0.024544175298628682, 0.0043242193477335215, -0.032899601101382854, -0.037460733472449666, -0.022773377473940336, -0.07066258265459886, -0.005519838143139591, -0.040718729364056155, 0.006661713368219251, -0.03782883024468945, 0.03003438460495615, -0.028706138148089023, 0.002737563175964597, 0.004951078579302177, -0.045226004078952234, -0.025783259973706136, 0.002975365706868405, 0.009243251391676352, -0.03185571079142849, -0.026047426287306386, -0.019924377031772002, -0.018916628472737996, -0.013576272667516143, 0.02188879082946648, 0.031646872584898775, -0.012438341721093295, -0.005922165915148465, -0.042647447449492504, -0.032423934421616576, -0.036461216387163195, -0.008506651766757311, -0.022520996475946176, -0.00543401223021631, -0.054156194965854394, -0.05171628132388355, 0.024628081034897213, -0.029280555667578343, -0.010859566492222576, -0.013668941578527084, -0.010166958038329633, 0.002931258980231654, 0.002046142067904629, 0.02392848007057709, -0.0026484803169503197, 0.045776107886227276, -0.028072569020375, 0.056571447290459285, 0.03929246654792216, 0.007524819478653765, 0.0032973747601557474, 0.038748076303278596, -0.011492534470331007, -0.0023612743711911403, -0.02509630042574996, -0.020620755419650673, -0.07894495165712502, -0.020997232004017236, -0.058358113296255794, 0.009133610408188206, -0.0504161301231734, 0.009363589260578275, 0.01631282819977062, -0.019410169910370798, -0.006275930385533366, -0.06271529805728293, -0.046591916527360194, -0.00979410488205813, -0.059236705314894375, 0.004425745977924715, -0.04166388697372559, 0.00417275203988404, -0.04425875185747057, 0.024419105475252695, -0.0028650440783194557, -0.015726062924280103, -0.029993008797286263, -0.015493177423808206, -0.045975816716378445, 0.05268775472305279, 0.02081447710538792, -0.008168070960038234, -0.02367143469892016, -0.022904177554819948, -0.04462814870330455, -0.05628427251320636, -0.09393786112546797, -0.0018078347381487493, -0.07836971456502324, -0.010860416062000812, -0.0017628459677663361, -0.008547304099040968, -0.04065249388491258, -0.02580909605353602, -0.009595266939165728, -0.008069602091593355, -0.015556131189554573, -0.004719423158302408, 0.03645106504581182, -0.02694687220318192, 0.009633911718449314, -0.048892739212418955, 0.011464795823972179, 0.01673607952137131, 0.025309550051628462, 0.057967658897438094, 0.0209031168804149, -0.02031711147521453, 0.0005922920583259892, -0.03655208817773025, -0.020160862504155577, -0.007405635174698609, -0.042787208435485585, -0.04476719136328198, 0.002398538157140047, -0.011391742734038616, -0.0220293918797259, -0.011392799879232453, 0.008760953086165712, 0.016289734898380016, -0.03140346812124571, -0.08277365092608847, -0.015200378379669784, -0.009955286759481886, 0.1107961064000539, 0.03878807830818842, -0.02795418597348811, -0.021007496222264024, 0.019070737463567963, 0.03599681487227529, 0.047732067229222616, -0.02461976442752769, 0.027626525001473532, 0.010190163673078255, -0.021794017684988023, 0.03341670565323333, -0.015408304377242879, -0.05490727692533939, -0.029248576318883557, -0.010949835320109305, -0.07184600855930759, -0.06995007146967341, -0.05936385125744948, -0.030372761636821823, -0.054086686433277256, -0.017467473276442734, -0.04616306821322803, -0.009224728303825482, 0.013857985449402473, -0.06630917983566761, -0.006401567653799303, 0.02997359316359579, -0.026434780008410843, -0.023372740747074922, -0.0038796188702115916, -0.062270666881194245, -0.02899806934906918, -0.026342757126284432, -0.0033074264539790393, 0.05417860791314051, -0.018605925295834023, 0.01071954561656151, 0.015192000968904024, 0.01561346031538915, -0.12319468788820553, -0.020221338417162178, -0.02212009633391587, -0.014613980412164353, -0.04776840910968435, -0.029651139260263113, 0.011537579685534363, -0.05937132915831068, 0.010511042260209186, 0.011634186098295486, 0.009033786766096728, -0.02585804113107992, 0.014499125163895586, 0.03281635371027915, 0.016377073508628635, -0.043539633112162274, -0.0032728382731811636, -0.017390945582306784, 0.028337431181508773, -0.06140318229707825, 0.0014530243436004422, 0.08014206086732811, -0.0761030978347186, -0.008368035526331903, 0.017853449074150516, 0.012966673109974751, 0.029754688851499816, 0.020538777849058804, 0.0044142997568049035, 0.00578710941278263, 0.021654904265712135, -0.05942185802419679, -0.06640975290972956, -0.03445649100679205, -0.07664985870483755, 0.0040007818886765145, 0.006056072843903109, -0.040824725522668276, -0.030266436974231876, -0.03578899994708349, -0.003155109685050923, -0.035775216442260484, 0.01203712628174682, 0.0028026262457228474, 0.06013868443261424, -0.04574753934388012, 0.019395721208852044, -0.028815528904278156, 0.014279344717742509, -0.04854754412107227, 0.02277501973810698, -0.07698102254774504, -0.004014420035950869, -0.023052269485305057, 0.0432047899413906, 0.02442216617085666, -0.03419800651094094, -0.03338951360373466, -0.008260507101910236, 0.002325271543989537, -0.028009419828715822, 0.0004555693042650497, -0.00225347102144106, 0.01883975533842284, -0.062410427179245394, -0.0653715650110601, 0.005752473454636251, -0.008016614842867661, 0.0008248790925492717, 0.011779271228412408, -0.05164405049310163, 0.028900233201102205, -0.0037200925650389648, 0.006762865209666779, -0.0054162434403993405, -0.02153519090163445, -0.027419108088584165, 0.03647878586886032, 0.0060482879389419635, 0.041535928230099224, 0.013787204010671286, 0.02078065275669799, -0.0140937158491622, -0.041793362282435985, 0.017392238311537564, -0.0060923681219112215, -0.01344905276108217, 0.00552513574671676, -0.021437496910558386, 0.0038961766396970487, -0.009990442842526336, -0.07110477647318, 0.004583101223291676, -0.0340906801533272, -0.0031292992564957876, 0.04922775344257515, 0.009057795884357081, -0.019748932332438893, -0.005886780851725469, -0.043750156631774825, -0.003045863417292246, 0.002393693135572751, -0.03758555589304863, -0.002945468340137124, 0.0458771940690175, 0.008599207171907942, -0.03749169107376184, 0.020783283572682092, 0.06496707114660351, 0.02088125150193553, 0.0016926550095265546, -0.00328787412514672, -0.059115272026804576, -0.002155467060716141, -0.02690386444462288, 0.019020547965929276, -0.037746928746065236, -0.048028166598782306, -0.017128164114429047, -0.05373057243571159, -0.03535505171162638, 0.025041095781105544, -0.01287818518990122, -0.007141365598769924, -0.0297877921002552, -0.0010577633993205076, -0.0609389540267492, -0.035115611883280384, -0.004150411482649502, -0.056491435270446685, -0.00558431799876718, 0.07374952852625657, 0.019190068138257247, -0.0016619807038068689, -0.012300265230046254, 0.003008346271327084, -0.029042255737009803, 0.010549796768173438, -0.008586904876319398, 0.018212551010591195, -0.0306576351114973, 0.03322412277049178, -0.03221812496870942, -0.01757713199607058, -0.04607849445086423, -0.03689563288616575, -0.031030157715508707, -0.020314962195338567, 0.023790940057072614, 0.005447477794417795, -0.05768724313098582, 0.021579593102924018, 0.0050373273077292564, -0.034308608714986547, 0.022291337541554344, -0.04330695314543631, 0.004505621899487718, -0.018662231215242995, 0.025374865176975583, -0.062148573625022185, -0.0007729753584840333, -0.04066130451394963, 0.029329697252360766, 0.0013142212075241133, 0.026183480276506806, -0.01174573858779787, -0.01477299095814098, -0.03053520074262424, -0.041144579622117795, -0.08500933554989708, 0.013117897014948223, -0.048350785331941266, -0.057901279835480116, 0.01923521725470191, -0.039248630657718234, -0.03617436466031373, -0.03618973412503639, 0.005308255519393543, -0.023128892489860265, -0.02113989759384571, -0.047790924908952086, 0.01465642499929134, -0.0969820400152647, 0.05688770866813896, 0.00802244899134605, 0.022391552971050065, -0.009003036870057629, -0.043070450050067904, 0.05463318639079806, -0.007540376320298625, 0.036384852150146925, -0.04692478788080466, 0.03658857826666246, -0.005346042995013051, -0.04685531774131557, -0.024855106783626596, -0.0380102509800587, 0.02274025520789468, -0.03248568486216195, -0.04105447606819321, -0.04991163828852, -0.02690566805107536, -0.029445306871583317, -0.01952343158049959, -0.012318034048197942, -0.04266068146929636, -0.01817284472990863, -0.010392421033041435, -0.01759812526443176, -0.018662335499682377, -0.022418042328822812, 0.02705465520107239, 0.036037463868169486, 0.01972727375020521, -0.03132522762688265, -0.019351263728639927, -0.009925282431704612, 0.009108121453934881, 0.05308825275818541, 0.07874741119512084, -0.014108917226567942, -0.020371851952199784, -0.040223353942896556, 0.022316630307492875, -0.023390586815844994, -0.04502617958426361, 0.005262082402706657, -0.010542968800059805, -0.057176704617858676, -0.018227976586439626, -0.07865313567482858, -0.0016618718967149793, -0.028080554495480067, 0.012241864580861742, -0.02281353261780624, -0.014880812661976736, -0.020948460557500357, -0.025559308389612567, 0.017841325635895286, 0.003635919641883121, -0.01616017938486863, -0.051113562653069954, 0.0031540012681393298, 0.0445570311255312, -0.005701701032428361, 0.009110714436892365, -0.03428913956080987, 0.025962592960650326, -0.04898732014132363, 0.009283633635926906, 0.0328794043712497, 0.003183087379067798, -0.03258098320310491, -0.07737216379275827, -0.03678639553877668, -0.06253426884491398, -0.01833564134789858, -0.05945057578183117, -0.019376089805174114, 0.02609300166029622, 0.001240806628415706, -0.01679869804202543, -0.008830273963444612, -0.035176128726310055, 0.06551455067129656, -0.018339963852584625, -0.05721662270118668, -0.028813667505683503, -0.006969398497173088, 0.00826955517169871, 0.013326135942589867, -0.0151939744509977, -0.06335672016180423, -0.04377215363789177, -0.06060730713704636, -0.024858281409136842, 0.02665538277378634, -0.042320661983800814, -0.008359783284103785, -0.04293675530576229, -0.06269487998115252, 0.05526389664265387, -0.030269799179730852, 0.017683011140754493, -0.029955523271384926, -0.021672715630578016, 0.023508256804311907, -0.04487704376776498, -0.01908688388784513, 0.011020798374739113, 0.03422540900431298, -0.012397367953513533, 0.025326508239276183, 0.037712440928176216, 0.06486516336248016, -0.03397325108082795, 0.06015654736543615, 8.36046991036371e-05, 0.010208464454069411, 0.020165329544444433, -0.05600604875025579, -0.01650076643265867, 0.014331020395963926, -0.022444775226992574, 0.036820994328799976, 0.03790848516465539, -0.00654747282729364, -0.0572908218762686, 0.008877861694152113, -0.03497096694541081, -0.048245186424427704, -0.016241362736432296, -0.03269508558063149, 0.04712126218638182, -0.04158589483432926, -0.023156586681750774, -0.029931340221654255, 0.04944818934484797, -0.03531280628414591, 0.012962322485027633, 0.011662383967301413, -0.019194609696685908, 0.0452327008635312, 0.0646204111165252, -0.05957026568124593, -0.030295214990664343, 0.028138626618815835, -0.001667422332608616, 0.04610436863580335, 0.08992210946046962, -0.05370915133471675, 0.06033936102991823, 0.019872736063729152, 0.027560572868049, -0.05399505163504394, 0.02680549022208661, 0.013076400873656534, 0.013114675920146729, 0.009724556773925627, -0.005811108375237501, -0.025126795519085234, 0.041729671787284484, 0.007364075105809043, 0.050587819539496294, 0.029087158138853656, -0.0015700129645623742, 0.021039279957240524, 0.0051155648437525136, -0.021927818364448827, -0.03518040451960463, 0.01850007598866241, 0.04902576973248532, -0.021965815702717297, 0.010404123675829989, 0.02095896654429134, -0.0013644054437651858, -0.036220557792251536, -0.03607752310031326, -0.02859564349202149, 0.02975687067254624, -0.04578620292029016, -0.003997858388370489, 0.025493956491696952, -0.036965275239825165, -0.023043371381336067, 0.11078382565571322, -0.007180995662248123, -0.040979110834319724, -0.001866735303836255, 0.01750546277031867, -0.0368657966279267, 0.024608623909475665, -0.0020671620235736543, 0.047050744138425714, 0.05323711030265839, 0.026929722195631594, 0.0304814204948548, 0.015442866072199947, -0.0026830225191662406, 0.018668279555636137, -0.003374866340761913, -0.019256344789435866, -0.05911262404858687, -0.052056492465439676, 0.02853672181042138], [0.014180469946417404, -0.015607132380007566, 0.015275133884521924, 0.01851509994908839, -0.026310119994290303, -0.033136187155265055, -0.004955316706817636, 0.03396959272515814, -0.023601398764742203, -0.002546779636660414, 0.03236759897167512, -0.05187252219166658, -0.010283531944299495, 0.02834674245804116, 0.028516545938435434, -0.05237592776482335, -0.08343913762351099, 0.05604313473561181, -0.010257721007510674, 0.05459897631946322, 0.0037504814891369614, -0.002499485514834958, -0.04357785709291241, -0.007610818054347897, -0.05186211759736409, 0.0036391184241958137, 0.010205292132627131, -0.06369522800848533, -0.053040663359489086, 0.0008558380810870412, -0.0026524720251642282, -0.01274060503046128, -0.022695271344968907, -0.02071707202545723, -0.02837974449511968, 0.005927271734038816, -0.08510164179759001, 0.04049761032008099, 0.054311190164527824, -0.015345981356085519, 0.03111637033474981, 0.02549146504334943, 0.024566108641185795, 0.00426870622994109, 0.01813229061218888, 0.011932929106976744, -0.007474015956782129, 0.025486162525298024, -0.067907553992693, -0.036751997239547536, -0.019938765135018723, 0.051137206174722546, -0.055029845206533035, -0.06231393487456423, -0.004875138241214011, -0.012475614564487704, 0.0019515497681086567, -0.04447573039727327, 0.004240754102986786, 0.041225622670730586, 0.05047642421026848, 0.02040721557250015, -0.018734560261233015, 0.029574483275069726, 0.0032252750491796344, -0.03341000216215408, 0.00644066712960326, 0.032084766901327604, 0.02054016832559059, 0.08714561518384292, 0.007182578643741574, 0.026827431606761952, 0.08950376647652554, 0.006160812322157736, 0.017785341078469352, 0.031919853569025734, -0.03215147590358671, 0.029135663034721062, -0.025811712626203406, 0.0036559568792287186, 0.0008147583264229912, -0.051876403833229535, -0.009464444336108088, 0.06906847136946012, -0.011318557624399319, -0.03263868418339684, -0.028444963461716242, 0.005344541615102445, -0.005573037922497687, 0.04771118627423984, -0.031426450038106436, 0.03620926520956799, -0.021259599984860385, -0.04414171473047633, -0.08108114416884277, -0.04558046619194826, -0.014233275887286578, 0.02322978830705579, 0.06731823827029279, 0.05807465194218588, 0.09312469850501563, 0.035449440169686694, -0.006372205960552538, 0.02794080736117563, 0.021268619613014468, -0.0030987588879151174, 0.024986891806501165, 0.013775001931693424, -5.220601424339808e-06, -0.0008306164954492885, -0.020221353144168484, -0.08222502161407849, -0.1311037399520012, -0.005907019376296218, -0.003717283957999125, 0.03495487656513993, -0.013756712119277729, -0.04344222685173911, -0.013801683674641968, -0.013375777597317158, -0.06733056521939906, -0.10468174599241022, -0.02999790643998175, -0.005636221517297118, 0.045071981104587544, 0.02093900836122191, 0.02231868554495785, -0.02705718314818948, 0.04725900001678177, 0.026206875939446355, 0.05984195148759832, -0.009583600913152177, 0.08801027757997884, 0.060137835411542995, 0.0992869924421402, 0.09852155658300382, -0.025673292930635493, 0.004114958205262227, 0.007130158689470507, 0.0238993385572006, 0.015904241001348858, -0.029032162384456096, -0.0355677938851124, -0.08929229739299513, -0.06467692435742589, -0.04793869944338061, -0.10032292964514712, -0.11548343620744558, -0.11587570764578276, -0.09322429131541017, 0.01808567237621697, 0.017947213449913416, 0.023518701570078196, -0.00821781946796354, -0.03575102464653587, -0.017458778729119117, 0.01776855697778136, 0.03537652932829231, 0.051983690679212116, 0.05562757915070849, 0.09318214123527009, 0.07514641843623193, 0.14795995348717242, 0.19977338296276032, 0.2081032465711862, 0.06924605567146432, 0.029772985477960968, -0.039035971679003544, 0.028825213346211402, 0.01276461138138287, 0.030650970115587716, -0.06125277552208809, -0.0127340513272156, -0.04773544921769136, -0.09589095194547632, -0.10052123732100335, -0.037202869424502516, -0.020896406911116792, -0.02945740893901851, 0.016570075016321986, 0.020347312600459022, 0.01881896457898293, 0.010404604872383328, 0.01855216734034191, 0.016392044638108963, 0.024295257728219617, 0.009115560626657105, 0.10266070895821278, 0.07090967449463796, 0.12158913762671238, 0.1608600759645304, 0.14495106044694966, 0.1595772135971122, 0.10586320798658339, 0.043465682368065285, -0.0009871755781706859, 0.051445472058284515, -0.00618459167660032, 0.00542675131405385, -0.012213712944956578, -0.06933873699300694, -0.09654582590720465, -0.07256190478220781, -0.062013085323480155, -0.0226070926864931, 0.014936838407377615, 0.031154214269052134, 0.03813864758133421, 0.013343526928467948, 0.04494347178320221, 0.040032486729946304, -0.012646512509480463, 0.021890297912947065, 0.006878639506574762, 0.025172622903213364, 0.023952512003190318, -0.029406850004143715, 0.043272498958839355, 0.04128200384814759, 0.08709724956229774, 0.08809505845148535, 0.13143923531276758, -0.041388589336007045, 0.0020517945993046415, -0.016733529060574435, 0.007320548968183405, 0.05564356319365745, -0.03283897925777831, -0.10946557201843819, -0.0741304136653557, -0.07155586028321032, -0.027847023431914995, 0.03499878726155468, -0.00709206379345487, 0.032785961939494644, 0.03735633415778988, 0.0018653316770430694, 0.05141714376661613, 0.018687259893418687, 0.002591682078038203, -0.03467267089760418, -0.09622199061246789, -0.04103608568493004, -0.11737016916338673, -0.03826222817154655, -0.10029465889808004, 0.0025255276959935493, -0.053937033240488465, 0.022017567627544938, 0.006651589790994005, 0.03414079558719956, 0.02412281462206961, -0.024344276356050246, -0.008631092138832546, 0.004778762561407024, -0.0325186163785148, -0.0015320074156993115, -0.028123947419140285, -0.028793649570490618, 0.00922240324142807, 0.014607403537956393, 0.03315005812915662, 0.014220927827735286, 0.07131115497580562, -0.010478430326118842, -0.019728586156593238, -0.03553966313718218, -0.10515647364378611, -0.17867162953786345, -0.24141451129159658, -0.3105422073619491, -0.2310689736106421, -0.2789750908910645, -0.20364314239703485, -0.1540378030549143, -0.07971924737731899, -0.05315894001200264, -0.027185460805310258, -0.02164844736049264, -0.06960438507319604, -0.054376609364270655, 0.03191878485828587, -0.04966224457791292, 0.02678035358791901, 0.00647764403997691, -0.04437876570125156, -0.0029451611990435785, 0.006563237818461118, 0.04202589507006644, 0.022470531603002126, 0.04539254734698287, 0.033319535842196636, 0.013256190969862875, -0.0021892376521251517, -0.0956931961202979, -0.1818035762606634, -0.235521743800455, -0.4078825317394227, -0.37304333252194805, -0.3836047308853457, -0.3632035705204873, -0.31518744547827293, -0.19590388460049787, -0.09762883920729476, -0.14126572942368024, -0.028500692794009224, -0.03635753686775041, -0.02150574428444975, 0.006341218106220444, -0.015836997219394064, 0.014269088936838136, -0.07102322538654143, -0.009303867999569707, 0.02452407027115843, 0.02194990472480528, 0.04140654758965092, 0.032236671219666245, 0.044189687029645125, 0.022525775869926802, 0.010601359680815728, 0.007213227007672055, -0.02473942669610484, -0.07816459505601897, -0.11409245129166881, -0.12153070141007657, -0.1897461009616163, -0.26313545878055616, -0.32276951504319895, -0.25710993897171075, -0.30783712991323325, -0.12739908232496264, -0.14582826329512588, -0.1200020970794288, -0.08957064147762397, -0.02854164307857072, 0.04076413526824595, 0.004157115546465784, 0.01107444902701137, 0.002525516615740697, -0.0017265285505873704, -0.020447811785770226, -0.012419437955195272, -0.0626837403784695, 0.015122504565931076, 0.04469096898703929, 0.022654275376563362, 0.014248667521367482, 0.022617587822060827, 0.046905767176736425, 0.0044802195097265055, 0.0017048491896532072, -0.027368523632667327, -0.045179171413969536, -0.10474583402624667, -0.04983920563461802, -0.1300997231761362, -0.19146771213017905, -0.30565942914882843, -0.18010737638607388, -0.09219970684395506, -0.08486463008140481, 0.0135704268184508, -0.044508565631998225, -0.06992627389756992, 0.02885704266712342, 0.057141613757303984, -0.007062245255661046, -0.0220828723083041, -0.02318227210716381, 0.02060571873234705, 0.045826037448645454, 0.04085193792470729, 0.012823313230292378, 0.04040007367476407, 0.04259822557742162, 0.0525040398551113, 0.03595446628617725, -0.012506437204310364, 0.021988434550027355, -0.03399355049745533, -0.03717630203028343, 0.020921716348800305, -0.005768335414596345, -0.02296262496092761, -0.055177181340850916, -0.04444541746443622, -0.06357627684198026, -0.14705683034607378, -0.027776992390760983, -0.09154036396734382, 0.037565246238531365, 0.013841410790034803, 0.020987052987001473, -0.0016101320515465869, 0.07633303234143261, -0.037394568192021055, -0.04366650423288631, 0.020275159535193436, -0.011470613665087618, -0.03919190983264498, 0.01815276086111361, -0.009048618543705308, 0.0038611087776097494, 0.0178772642459086, 0.015427045529702667, -0.002633863054352415, -0.016596386111392008, -0.009440654767859866, 0.009279845841555938, -0.010535422886109341, -0.001377696928391257, -0.02973905233568495, -0.03936752813077526, 0.01098895844193647, -0.09369260088211699, -0.08243064924589777, -0.03447657385154193, -0.03827198166920297, -0.0802798772853647, -0.06538803314584121, -0.0069267410358645224, -0.023858167766538603, -0.03605620828570738, -0.012051474394591921, 0.008721881128164298, -0.09172516057404004, -0.0981273972634689, -0.03977772837582894, -0.033143553991855534, -0.019636594305968622, -0.04098507991555578, -0.025039581685846645, -0.05262706916059404, -0.020402383267272735, -0.0023332797922138923, -0.013565719143506412, 0.0038848793002231275, 0.009510368489327613, 0.006479492061309913, 0.02482589899974417, 0.06205675746593753, 0.027756591247169605, 0.00029251708605711863, -0.05804440372484625, -0.019438223725758975, 0.024965770366485885, -0.05360276675318155, 0.012689550038260805, -0.022131228017251117, 0.030353943826053123, 0.03812401142638326, 0.042401742099339064, -0.032337590681701986, -0.10473056532043641, -0.06684657832579034, -0.10891551987412036, -0.05075268027688014, -0.05037506688462778, -0.023980153795741737, -0.06565317989243356, -0.0641844869113736, -0.03917306669927066, -0.027343014798889783, -0.04234923504736253, -0.04997462081688188, -0.0002867214728883464, -0.01579755264207779, 0.030026958635530527, -0.014359137427063285, 0.05035870407712865, -0.004913563154315359, -0.09628833031131827, -0.07120978308016976, -0.0365128918813292, -0.017399276041927182, 0.015562095606955564, -0.016860378157415635, 0.005820978631174237, 0.024574954180817926, 0.022288676908051672, -0.04381372564650877, -0.04646519679040521, -0.09563878582106919, -0.07735471940133899, -0.10140416334803062, -0.09920787456079194, -0.12012212085076192, -0.13072214262005447, -0.0695076332505124, -0.08132440765182297, -0.0505137147812276, -0.029923650394920318, -0.022844414360988975, 0.006219579266011038, 0.062391375732508435, 0.04893586562430028, 0.03379648457500134, 0.03288024410395781, 0.001772079120224834, -0.012251152913503293, 0.023338057262626142, 0.030270570162013778, -0.07192013848990415, 0.03954142006242267, 0.047442448602439305, 0.014580233805791756, -0.03998334500844901, -6.980271072669244e-05, -0.03248307971029065, -0.07183259622976347, -0.08401976800555955, -0.027588091994914653, -0.07531937238486779, -0.10978876338122519, -0.11191256929128636, -0.11946908875441385, -0.16442108109793868, -0.07092338719975572, -0.06675573496074849, -0.0511678028399479, -0.027456488367453517, 0.004346755664431609, -0.014104742822858396, 0.043772767347805566, 0.0465182527679577, 0.0006529759984021219, 0.03575361358358836, 0.02324118692641869, -0.024574272364571846, -0.027853718660354663, -0.0062134926977898295, 0.01268024459062116, -0.000653759742250699, 0.018060230231625278, -0.029087628466593834, -0.07561825990195806, 0.05043281908666234, -0.04798931728317912, -0.02229552015134346, 0.02047517764045251, -0.0549828002543136, -0.06087466944868469, -0.03835229694417542, -0.06213838312831776, -0.06437947176720323, -0.07792286489032314, -0.03691342706693699, -0.04335781196126022, 0.019519716907429034, -0.01424411956035335, 0.0010561276163693141, 0.0021682656074174266, 0.08328256550004139, 0.03018708658992719, 0.03319290373779205, 0.014567995847561683, 0.05039757334640557, -0.062447089191217185, 0.03223440080726312, 0.0016989346365452822, 0.009367154389484555, 0.01039546232009425, 0.08571549814240303, -0.029273609910286477, -0.032245458036655454, 0.04190012738950749, -0.03750051673208659, -0.01260959987895422, -0.03818228431128806, -0.005279437595286962, -0.012224436266116691, -0.026945020535121628, -0.05266908117785055, -0.05161347294345906, -0.024565383071184246, -0.03281183294014602, -0.008752847315593847, 0.03460917391879564, 0.004921902190728981, 0.04456310579291397, 0.013065218696136197, 0.024569068351283915, 0.022673529846490584, -0.01144125709209601, -0.023429473738590473, 0.021603805625211244, -0.01750280399710924, -0.03837360126640178, 0.02473871467140842, 0.005366130732233086, 0.07296495807249517, -0.049917016594226864, 0.04397469771557319, 0.06427712363648012, 0.0061679563576364175, 0.019241963737779453, 0.06057989203172204, 0.035804033269408536, -0.009189244442424718, -0.011279055562676776, -0.017563332943211895, -0.04257014068403119, 0.017015060157484364, -0.010246188402929178, 0.01627968334591992, 0.023271874078475044, 0.02858587976560551, 0.04039821762317674, 0.01411471348329469, 0.054877880953966715, -0.0374066782809651, 0.0021427002123973185, 0.009605777200088978, 0.03386360701189724, -0.0016037698630225524, -0.05236564009515201, 0.059343382165329396, 0.04035403283498542, 0.006387255090275814, -0.03333961726132165, 0.02786245896340873, -0.01780777488529697, -0.03635870299326964, 0.01053525227125486, -0.0017108252871860649, -0.007274568277449171, 0.006862786844329696, 0.030869493033882013, 0.024289238431564143, 0.04029759012414592, 0.006288015676365652, 0.012119998872198258, 0.04661184407970052, 0.05960372587422386, 0.059810347158014456, 0.053930289849937446, 0.06104662238599698, -0.02114338514611065, 0.00886471412767473, -0.019281238992390468, -0.03411352617856197, 0.01047376557855935, -0.02917784951355249, -0.003062002901207074, 0.042827443476224115, -0.027565613684993783, -0.013217750815695211, 0.01966715603070028, -0.04424090319620533, -0.040353303040878, -0.009228554045997933, 0.024966135679620853, 0.03716805724127202, 0.018895428893456134, 0.0731325162327767, 0.029360069871499587, 0.0029706719512124584, 0.00976926556834814, 0.010531854917277383, 0.02714094624864013, 0.044309528759471355, -0.00036697690806439503, 0.019115436024667438, -0.0028618700718261395, 0.04532681086607176, 0.034481945152252544, -0.03544491150792362, -0.05713565015864788, -0.05771453140294503, 0.037835545896444465, 0.019235954066751958, 0.046098510414018634, 0.01953635680774363, 0.03730289044204504, 0.07440092516730529, 0.0472863555376243, -0.04105921142544258, 0.02318727441538072, 0.016286272931645376, -0.012989740868098634, 0.030191164879240603, 0.005743917356544863, -0.021575717248207008, 0.016822271734383054, 0.01681268770834317, -0.017810516209350428, 0.004396524956334245, 0.011781291383692253, -0.0004146628917621703, 0.0005674895922540922, -0.029875633386160325, -0.07375713276650085, -0.018721119924462095, -0.007280620119506255, 0.03815209109752143, -0.009723931160919403, -0.00011636400700041018, -0.027176793995204146, 0.008214343519185442, 0.008451561702452317, -0.02297870929329288, 0.06828571502655498, 0.00385222399349594, -0.006339191977690646, 0.03000389858975474, 0.009943258472638612, 0.012542775830926108, -0.013318611484886835, 0.053077877139680485, 0.009484256356753594, 0.0451297739449751, -0.016779792002831827, 0.013944833381278571, -0.03908660174661339, -0.033445911419715244, -0.06926234232503319, -0.03462334937216507, -0.06479209601992093, -0.05903547665616181, 0.002963554264492722, 0.03751136825612755, -0.05310828189961082, 0.033213624432153754, -0.0026346455315991073, -0.023186372094963045, 0.06801612138401548, -0.012407620977865378, 0.03586097043380403, -0.027343861092555606, 0.04883600667368877, 0.06904320622908577, 0.02830413818308867, -0.04343660071416454, 0.03748214621766209, 0.03590661088573945, 0.028499281698536997, -0.05901708708202541, 0.0275277765262975, 0.015078102476841488, -0.03932925459647639, -0.06803617909868685, -0.02299915025973446, -0.011361464742028335, -0.027402681821962614, -0.010351262010127357, -0.04853497940225734, -0.0011657000548796115, 0.006445396287044929, 0.03154627830167822, -0.003449438555127492, 0.043958069385283405, 0.059629332124461934, 0.027056387550437898, -0.006594397026833524, 0.025043260741008284, -0.01718768796370827, 0.036397810423282974, 0.020881760311023425, -0.018070290073550554, -0.001213895363420628, -0.03498573016766477, 0.0660131305723463, -0.008522931001519442, 0.0005845011226822326, 0.0002689989456176237, 0.0032889899829175047, 0.023032975361766, -0.031571132270470155, -0.013096191602472669, -0.04797919289604373, -0.010588468669188203, 0.03868866765422456, -0.0030262121086750866, -0.04458027190504002, 0.02793272082085095, -0.06250063696585653, 0.07900521343298585, 0.01591037037625447, -0.032549861830584365, 0.002205906782275719, -0.04148176876856378, 0.005475552524254281, 0.031007751411125006, 0.016204764384084268], [-0.010918985872453586, 0.045105992254110376, -0.02997897613246996, -0.005991851178766097, -0.032551221658982506, -0.012238003893045123, 0.004693476484046584, 0.057746391519319214, -0.007877053268543986, -0.06707887667923418, -0.010828452266690939, 0.05539850246202937, -0.050050340090794156, 0.03569338889775802, 0.00385134779714848, -0.03343933771730497, 0.038194728684235915, 0.06015024118760548, 0.013574702546822706, 0.01894176286934998, -0.023269738591301815, 0.00965027947094953, -0.007031944846932518, -0.07958429473803853, 0.006927329761690032, 0.03175145709644662, 0.015330766926194214, 0.012498752408196164, 0.052142604384766325, 0.045483490063283116, -0.012688529302521307, 0.007240339600191018, 0.010474564084678445, 0.05655013450630802, 0.003175624368862936, 0.039361742223596764, -0.03712779925902552, 0.015493340572913796, -0.0032985111342204716, 0.009904793819025424, -0.0009960094874949302, 0.027562522329986173, 0.027935131783582732, -0.09672308609982568, -0.029798028262665508, -0.011795046663521727, -0.022883328522891242, 0.02682788218276674, -0.015510686380705642, 0.10245701558270845, 0.06095518782340448, -0.012464217705180313, -0.04160566492082211, 0.04450178354318853, -0.06291033904108616, 0.025925829773985852, 0.04073883175484623, 0.027503743424299034, -0.04055194015982188, 0.027094033200943796, 0.02768305380626465, -0.002092825660979168, 0.04965173060788799, 0.01995963884803993, -0.013752150315540097, -0.03253863337445973, 0.036441211411360044, 0.04224465008881932, 0.03637839251591356, 0.038302778769149254, 0.0034259334346964767, -0.03687951498846954, 0.022219232760429457, -0.029435441679012637, -0.017159493534897555, -0.016902573128464056, 0.044433009229980294, -0.027589085578937373, 0.03594870181947803, 0.035108824723103164, -0.0021436937295999585, 0.017279408995445344, 0.03836715502775845, -0.008917198787081887, -0.015489289729520354, 0.01410673360054104, 0.027767475073054593, -0.010441297155841443, -0.007295509614993989, 0.002147850052184507, -0.022891904987904044, 0.031191924700532343, 0.04107221966527739, 0.0001946761777576858, -0.030602866473396828, 0.0038106113498262272, -0.03693951988096146, 0.03098633215863358, -0.021136135273612765, -0.04901475167181067, -0.0418446494188689, -0.019865016911078715, -0.00046392092778151453, -0.005324010752459229, -0.046423687710008335, 0.01908086085091258, 0.027288571108856744, -0.017090090686393854, 0.023429186798705075, 0.005231907437487631, -0.04967982927190519, 0.03656179677975358, -0.03678757551105473, -0.0012330075087130306, 0.032042817808563655, -0.019939911619518306, 0.07818538996934266, -0.05631062364774404, -0.04995313544196465, -0.003908967271350809, 0.023621654215327532, -0.00340745920433555, -0.012036065278828603, -0.023540900706511943, -0.040184019958240426, -0.05791854534418875, -0.025490196420354376, -0.08273632256660518, -0.030453048147862035, -0.049763135160809574, -0.028391403244091718, -0.04170045867140293, -0.06748024754520439, -0.03425552293253267, -0.0036793489113703896, -0.0016240817647342632, -0.008848554189020029, -0.01699699570806714, -0.0021093223775990938, 0.05321276862634244, -0.015772471810637376, 0.011807793673531072, 0.06820278853805573, 0.03028432734793702, 0.0025164765887418527, -0.007584869507951808, -0.028166038190362116, -0.062296133408708966, -0.03493088578015085, 0.011198237118873773, -0.06871989910277394, -0.044659332645521216, -0.08264862139866044, -0.06966890467121713, -0.07173136846115462, -0.07613614533973073, -0.0679359649077614, -0.0581912884423354, -0.05059804900031977, -0.07381875841454189, -0.07701132528706986, -0.008369143726502071, 0.014863331355555977, -0.0014997930082364863, -0.03586473962854823, -0.01666244199202993, 0.009785602447405468, -0.011748358838531326, -0.04558463123676489, -0.06600688871409846, 0.041030705271011235, 0.010861317219691642, 0.02940617415497701, -0.041593899633542486, -0.02296874130135162, -0.010078310809498376, -0.03703214534956904, -0.08571803306413882, -0.06394739726844041, -0.07066090574281297, -0.06548156938213737, -0.1047109406541189, -0.10283532532902585, -0.044222182640434746, -0.0774553152319574, -0.05757742803917664, -0.05721026091828497, -0.03448392376934427, -0.05025122788077664, -0.11442459788931543, -0.0330828026609135, -0.03711318400493303, 0.006737736664345939, -0.007420450814293949, -0.06331014381353176, 0.05024032781787361, 0.013326231187373815, 0.003063613517470365, -0.0055943471909358, 0.06487266434789021, 0.022638992370045227, 0.08853822624544892, 0.013629132914318477, 0.024239150815277825, -0.08301256879592733, -0.02045663084681978, -0.065033520914595, -0.1001512355950208, -0.03639838285405038, -0.04350537747061179, -0.07609735651259118, -0.0938230264265955, -0.03869158895493924, -0.04293883758408235, -0.0600283779562428, -0.03590559416818342, -0.039797629201106646, -0.0934383612912484, -0.020045643157504255, 0.018849653642943904, -0.0018011531022661376, 0.025283065490525836, 0.057442181283632106, -0.007161158936842377, 0.018734667891412, -0.02090647316989465, 0.016153446834428858, 0.05421633708739373, -0.0010791310554834183, -0.013061419934605608, 0.03567796510154177, -0.025824836260416966, -0.010785427109445616, -0.044883409487612366, 0.01829100430588155, -0.02283673438276933, -0.05443314737219526, -0.05381945370651971, 0.0032383509922427603, -0.02824526849154736, -0.022362970677786247, -0.019075395069389673, -0.007794779613231405, -0.06378341791748289, -0.041373047518185976, -0.026391369358293212, -0.006453664184651127, -0.03264124880987396, -0.06542684874560184, 0.010070863292671022, -0.009667639897801207, 0.03232847309657783, -0.03218181832210237, 0.07301601039944791, -0.025941224085795644, 0.03958939332384615, 0.0630985397968282, 0.08524579350111834, 0.06220544942159448, 0.05808626486388027, -0.021159503585486707, -0.054233449821429865, -0.006688973135021774, -0.005101266780776017, -0.01930667346182006, -0.02556178336590585, 0.008620504500830106, 0.008321388051568486, 0.019884009109236926, -0.006971451364883308, 0.0032565915183345676, -0.009584658590320823, 0.01761762006358528, -0.029931114153584334, 0.038541673543041624, -0.03712600443379594, 0.01231752287973763, 0.02207134945986498, -0.047611825522263194, 0.03346390864344888, 0.024239875532956222, 0.03034725001530521, -0.01494621740589588, 0.012257869423371717, 0.055269896637338584, 0.02252211760665242, 0.010863522337409094, 0.03195039641331609, -0.02780562414575974, 0.029659640003500985, -0.008417499561451526, -0.015099653122525907, -0.029873000735894988, 0.03920192002401015, 0.03219461201304153, 0.051685395270282576, 0.00664009057216244, 0.0560598904512559, 0.011439435716923263, -0.005767349394075626, 0.010001121775485771, 0.04946431511358948, -0.006550893839383167, 0.0004851058438407433, -0.04514567422828189, -0.014201844441623427, -0.06583200539342103, -0.03586317825874348, 0.005262696793301073, 0.03324629900983197, -0.004383035648054762, 0.011609436076164758, 0.026383769341740138, 0.024914907647730692, 0.029448136667610602, 0.01101277743961894, 0.0295943723460017, 0.030527627359195498, 0.0015151620771310871, 0.020820509726685484, 0.03522970198418121, -0.002933052944809159, -0.008602191841406974, 0.05219678745847967, 0.023011448022792553, 0.027748827749580006, -0.008103181405049783, 0.047818094591041756, -0.006484460518824782, -0.0012681804094980393, 0.0026961308398714256, 0.04575640647478184, -0.10096198811957365, 0.013186323145859406, -0.027024452509706465, -0.0008225990483749055, 0.003949146532021472, 0.009932638928370248, -0.019567199305146943, 0.004637673938142482, 0.05727152698011444, 0.029002911838429127, 0.017395088905875638, 0.013627864506351794, 0.010450238107133041, -0.02955793931177845, -0.03763507093425236, -0.012053239347202628, 0.02662153517306922, 0.04217398593539387, 0.009164173076663049, 0.013951420230034425, 0.018261149535155917, 0.007366743086696114, -0.014722437147650206, -0.024136672207470178, 0.007023926279552271, 0.06376716366814954, 0.04145157214392287, 0.04456230460167221, 0.007363246786775682, 0.023087424803001008, 0.03981543334158339, -0.00556108832758482, -0.0005035419803686947, 0.041055770928949645, 0.03819611165167732, 0.04377498873053008, 0.06980008611223747, 0.027523507321329008, 0.050627248461602575, 0.016479134740579656, -0.01968019192837499, -0.007190836390593595, -0.03476242698953919, -0.047910481331547745, -0.026026440877226636, -0.03846910181419266, -0.08019516105939974, -0.06841294669911674, -0.03943525061186249, -0.06217202038791934, -0.014800739625895235, 0.00670342476061239, 0.0014520048182548604, 0.030611436434537207, -0.012234813988726724, -0.04493380927354164, 0.0033356881833246496, 0.026721612085827552, 0.043015917521287125, 0.0011298020618831677, -0.005390276179332314, 0.0027505676150443204, -0.010295861754787685, -0.01180393839032383, 0.03717677168319126, 0.007358926423003119, 0.01321183433129013, 0.0007265978265039493, -0.04617858143982989, -0.014336866898859348, -0.08091209144430625, -0.08018496230442516, -0.05426828501073318, -0.10663081499123662, -0.0892090270132932, -0.10328070303034952, -0.037401180085799055, 0.01869932439232108, -0.027479639954606123, 0.013352947757415584, -0.02357395681994829, 0.018780408367005265, -0.01660035878669205, -0.0732245790863033, -0.0016635675457314079, -0.02838719030101622, -0.015250761584065334, 0.00839218442528286, -0.002390145573972384, 0.04327194980089564, 0.05502695367415443, -0.02439629861277035, 0.007571847090861402, 0.031639212523507446, 0.026079701887449406, -0.013560940257887703, -0.021133705362365817, -0.031888843714578834, -0.06138681466313846, -0.1330340871236024, -0.07037305428145371, -0.03127614435057411, -0.07523419459366193, -0.0777049542179323, -0.07473890531316257, -0.02666831320305221, -0.00464408582429207, 0.00757827697677964, 0.06459389970569121, -0.010686930056219483, -0.05180390721659757, 0.0056023271448198565, -0.033368356752885915, 0.0426512685682897, 0.03185282312184306, 0.029257799317320744, -0.033271406833763915, -0.04160727039881123, 0.011041718817374946, -0.02596984253963172, 0.019734126458408517, -0.0007037000791770493, -0.015373041146263762, 0.07099507422467985, -0.04371613429398869, -0.06458440673085944, -0.026993075738280525, -0.09521633013177679, -0.09506574540228428, -0.07078021538515458, -0.05896782953648699, -0.06993054846747623, -0.011611772124220734, -0.05412278248583703, 0.016063588223032887, 0.03103052730441534, 0.000980631339925735, 0.03741080210261869, -0.019093219088293346, -0.01811333040788451, 0.06816507563619602, 0.016439012272674577, 0.023264814804477278, -0.06662175116338301, -0.006196347683145612, -0.07432200059412564, -0.015014737517358384, -0.007680998776751892, -0.034186861054344056, 0.010952088742668521, -0.04510242796947637, -0.005930891582694794, -0.0927573819647179, -0.05591690864913027, -0.03930938707729417, -0.03845802364297769, -0.05408382816450601, -0.0913591753594241, -0.057993420397130555, -0.04617376418715966, -0.019602254466806485, 0.02079109197340246, 0.026407924033817254, 0.03414756109354522, -0.012595226012310686, 0.003547562727510016, 0.010153749751956301, -0.06120353249754455, -0.059465415082535875, 0.033994845820440864, 0.04655548991393155, 0.0024459801296872865, 0.017592550541955985, 0.018740230657858004, -0.011971115731690877, 0.005506121667337427, -0.025151454308765957, -0.048862002816097795, 0.010655463391461019, 0.0010631968992065668, -0.04904037751628673, -0.068487254579497, -0.05801076132056774, -0.03816349527459059, -0.06907206730829644, -0.05902357886956494, -0.03989926631852677, -0.03973630891111823, -0.01735900114181568, -0.003269930423142593, 0.05690367468289305, 0.018516215940707726, -0.027359330956167226, -0.033309239587514736, -0.06551751518011278, 0.001322478497706061, 0.006068290166095571, 0.03772628732596206, -0.010389206727351587, 0.027839721839730457, 0.007052143349598444, 0.0005887951997634894, 0.0036605696183352053, -0.0280287918043617, -0.008406387069472337, -0.032616745282753504, -0.06046621046659762, -0.01667997242628305, -0.07658060214560625, -0.08773171310211318, -0.04431517725089964, -0.06117272414504219, -0.05277037536952268, -0.04504494765469581, -0.033861513123997766, 0.019190664591280687, 0.02556735425395703, 0.04498305745382022, 0.0347281930782079, 0.024642112297281273, -0.004800399881920028, -0.03613018689279777, -0.05488422680125516, -0.017638244539929602, 0.0440239491451463, -0.010116917306505274, 0.013570852048050022, -0.03721033841324435, -0.01003614503370324, -0.035648095998573555, 0.022058912242932313, 0.036730603464082974, -0.04144226381280231, -0.06087949173529385, 0.024971448942449192, -0.014986443777486867, -0.08961218581683159, -0.06675641123134018, -0.09530344892549042, -0.050634030978061795, -0.09225288238958201, -0.0670766738569987, -0.001476443479683862, -0.028834197634859733, 0.03652134952720204, 0.02879590180387564, 0.03436519167152039, 0.013428775886960774, -0.05008819269010915, -0.003371379240340797, -0.02072785939447383, -0.04631355326447414, -0.07455334909038905, -0.06358776304134788, 0.099576318562377, 0.001035441338115776, -6.0846160839625235e-06, 0.017114329355827754, 0.055362165211099386, 0.019026324684972645, 0.026378623869093967, -0.0191028606965025, -0.028298371783152247, -0.00856806296628276, -0.045270005429114024, -0.04703069019713866, -0.07581965670189489, -0.06980006855812133, -0.09981400435473219, -0.04510283766832985, 0.021554533681224796, 0.01665229777009426, 0.03714467262662263, 0.04835448785651966, 0.03100178592847645, 0.007396941086898608, -0.008781523763449938, -0.03274671509273406, -0.08132700240419286, -0.05186151129429365, -0.02103778583372227, -0.012426985633624123, 0.002693871573201431, 0.0912226219217062, -0.005554883092306545, 0.027386075711280294, -0.0675505835006398, -0.008510212385986952, 0.032341548381913394, 0.024314639585931764, -0.051728782014263786, -0.08556688595479636, -0.04141175067189599, -0.05484570913033401, -0.09678614605825785, -0.08128916689699325, -0.13573905820608004, -0.04233758389360543, -0.04948588593458048, 0.03777808653875632, 0.02861571818926549, 0.015667834984719596, 0.011768622434741319, 0.03680689744975748, 0.001039119190300186, 0.013704480688862555, -0.04606915185688369, 0.0199212329756118, 0.02200389026037122, 0.010001929965069876, -0.05115769991686951, 0.004285174527364741, -0.03281334694801103, 0.046799757913761, -0.02148967659970334, 0.0012001325454480208, -0.023067946099016842, -0.034163080219191434, 0.03048539973801417, -0.010109992767270842, -0.06538020874698004, -0.08954984364197752, -0.059479434607134646, -0.13419923544047369, -0.09471038667297413, -0.04178675467161854, 0.03498206569798229, 0.049855014345283846, 0.040094206547462374, 0.03276575427103029, 0.01203681616569515, 0.02307951448443784, 0.004834590497563875, -0.02206428337688335, -0.05240932214436706, -0.022009885653401656, -0.003432111675903215, 0.03453818134539958, -0.021225823432278464, -0.010391933153858609, -0.03936108112394486, -0.07052401582056697, 0.04882660084335746, -0.015599395137317063, -0.03758525349934767, -0.02142372691128523, 0.0010014970943732044, -0.0646139489748723, -0.027666117002763283, -0.020274359949749923, -0.04977717511036217, -0.05232591008594571, -0.028242029895649647, -0.042608320379794826, 0.040628694206551505, 0.03275817504221098, 0.10705222997472195, 0.06444186362260504, 0.030123983994233976, 0.037384589068921587, 0.009640781332104722, 0.05499625899281112, 0.026058220786457406, -0.005259053043224826, -0.03463417824569632, 0.006448385028536752, 0.06971525700990786, -0.022084151607935993, -0.02529478725116096, -0.06011525315214856, -0.02744347204805495, 0.019868171536571173, -0.03876485904654395, -0.013207118334530036, 0.008531734455771668, 0.02681338239353109, -0.022880961604682736, 0.027563465301583195, -0.048141717763631416, 0.027344688384807005, 0.05629765463175371, -0.0011429036910995012, -0.00787656244034419, 0.028080482973774436, 0.0770279294844079, 0.00036474990562217376, 0.02651425823284531, 0.04489049070951299, 0.020848786654837862, 0.04877424567930742, -0.02063887778953601, -0.015547448075345121, -0.002130343533093257, -0.012237243505026434, -0.037461563211974365, -0.021081531010183584, -0.01626784577653952, 0.018903624458975882, 0.0189255430083517, -0.022397790812209512, -0.10136642293187456, -0.03459799021311189, 0.09062085159602104, 0.0768045410564776, -0.007673215882710132, 0.026046763933943177, 0.05044857181945709, 0.04787337630414216, -0.023702592317188718, 0.047750851720526746, -0.02950871646669775, 0.05909724938081372, 0.05677804720387464, 0.08308183622156112, 0.02670709452462467, -0.025020480573984528, 0.04048039736215393, 0.019338426445643216, -0.019765578869147003, -0.03059850938160963, -0.03206415372565285, -0.037179728251202006, -0.0030051305913476813, -0.048549522737505776, 0.0006488477491354096, -0.06549428821183564, -0.014460893923675767, 0.022568068528201868, 0.0257323024294293, 0.0723222609076633, 0.043933780460496175, -0.008442372655968552, 0.03112987924847508, -0.009054434086052962, 0.008988810130078935, -0.023679985359815768, -0.001780251339918982, 0.029696870862928312, -0.023872171178467624, 0.02505391093045646, 0.006445142581049366, 0.017641389444265878, 0.025612438404654027, 0.014546168143865775, -0.014836166536214359, -0.055031208535461645, -0.024118633292838768, 0.028934637465816804, 0.020335069791866056, 0.029703335011738784, -0.035121316894734154, -0.056335781582782275], [-0.03282959624711477, 0.01809705475813023, -0.022702672857691838, 0.0035806313510010897, 0.017275059509058062, -0.016137781131004898, -0.015546498460949559, -0.031155972240897552, -0.006636644478880352, 0.015252165050595392, -0.025921440599701, -0.0273865292326648, -0.0027948738658860263, -0.012705886820907777, -0.0554865941633298, 0.030649832426084964, 0.008639093173965573, 0.020186128284560376, 0.04841105030042025, 0.010862486013806863, -0.024057544431159452, -0.02492699083652457, 0.048044077421717395, 0.023020422069212853, 0.00780937370409241, 0.033641267635869464, 0.004328940056102552, 0.12798561914219017, 0.007595922598905088, -0.00483141541900234, -0.026024242376821265, -0.0038779488653295953, 0.04150245035369539, -0.010574777824984843, -0.029756120794296657, -0.0033470380109274773, 0.029032875944167796, -0.010793798291264275, -0.007903283046939847, 0.004174132893620577, 0.05910149168835093, -0.1022759349090288, -0.03355371459311055, 0.020325646235900833, 0.04328938595442547, -0.047351430570897204, 0.0643637115464706, -0.015252284303037813, 0.026173744437957176, -0.011090277189906936, 0.009244955904080395, -0.004014651183472193, 0.005961279779990762, -0.058351770501792646, -0.0612840585664202, 0.03708491760967736, -0.02116325726955478, 0.030053908084642672, 0.05230558089125067, 0.014382720082009389, -0.011483503070341955, 0.09445772416453597, 0.0516377802048053, 0.014816194035681513, 0.014229061217210577, 0.02994825163187962, 0.0036906657470823817, -0.012660594056573736, 0.051713763008072886, 0.025432154519267922, 0.012377242807720469, -0.032366475531342705, 0.006448332231278447, 0.028489107954985455, -0.025263851589011753, 0.0023273367403379786, 0.016430924875927323, 0.004187548210749701, -0.039663486748083406, 0.03657662888286144, 0.04017682014571789, -0.020843771562285607, 0.059610252008801386, -0.06359964859509312, 0.022159845882031386, -0.005094603123941337, 0.03971890194210177, -0.025761488120421706, -0.034345407079233746, -0.027450524238119955, 0.008213442276179336, -0.014321769536443553, 0.037990606518594885, 0.003797926015022874, -0.04565195450681842, 0.020498772013148824, 0.02753318632426097, 0.04696753586795372, -0.04352253709497635, -0.014572814064134958, -0.03574469939434946, -0.03578107007091161, 0.0015509526620815376, -0.018913641071249057, -0.00722257559710003, -0.031235732694253907, 0.03491779973539294, -0.036757948166121726, -0.0020727313254695324, -0.029393081425817535, 0.03639956089448141, -0.045813521744804145, -0.024016989282658125, -0.02280391139532351, 0.03997594769876224, -0.04718360118311694, -0.011513225802624778, 0.010179764265219745, 0.01761435838949744, 0.04664700228935638, -0.052267046050495716, -0.02168453911570978, -0.03953783790233827, 0.026002571870203026, -0.029493173714557747, 0.03860313979026681, 0.015403524725981364, 0.00465348679495304, -0.019514412274368287, 0.01586614573892279, -0.01715293651934481, -0.005110162620532782, -0.02394794720924713, -0.008244054261328492, 0.032610720952295724, 0.013262056191848955, 0.02049995375523702, -0.043286005354850464, -0.016021848191495165, 0.013217003090680019, -0.016398221733300532, -0.03246566314376688, -0.048165952567586365, -0.057853111599273074, 0.022605619134236487, 0.015515411393115894, -0.01530112059402547, -0.025527087690283754, -0.022841469691081005, -0.04515296303621595, -0.030160237810576168, 0.004388896020364486, -0.05268615439408702, -0.03077111868060229, -0.019860291190547184, -0.030651513366268982, -0.05164097525779586, -0.006872293275594068, -0.013092563308004776, 0.003588603457629587, 0.01787956872189031, -0.04245458255685579, -0.08159281001787315, 0.04081560985835691, -0.039114444178977414, -0.04997692899124558, -0.012333226367647441, 0.07649172823710564, -0.02391021415720654, 0.0013547298476030679, 0.01320786205240437, -0.02034172087447186, -0.01920359892824635, -0.077591388758713, 0.013699826017896287, -0.04169418143820807, -0.010088937520624687, -0.02685493156322268, -0.0005421776527832213, -0.03994719007789339, 0.0037265527240365323, -0.010209701847811174, -0.0170222187491959, -0.017875442741938585, -0.06627287515528532, -0.03113066342376275, 0.021294055181800275, -0.017200530282486453, -0.054351996339268474, 0.028972533899841342, 0.011834565784205026, -0.035369030674957704, -0.02292422602285483, -0.03072354053636475, -0.023178835440995728, 0.004564852439572526, -0.011436144124655141, 0.003302443810612969, 0.01283303653637152, 0.04276866008320867, -0.03208208904923018, -0.11514620113418282, 0.016360747025491576, 0.010813263265631012, -0.02018248776227067, -0.029402710311292556, -0.03297203610479077, 0.009261037014542535, -0.006770475411569114, -0.0550343562444907, -0.00994505878813694, -0.06983685097348534, -0.04556751644271878, -0.021784988038498394, -0.06600004331522753, -0.011522270888670808, 0.009837129154332533, -0.013817572011694767, -0.00857330726723684, -0.018902919885601045, -0.00955757065511223, 0.033826622287412435, -0.005766451482892412, -0.03673344839872348, -0.053864232908405134, -0.008633070734772362, 0.025295794012409584, -0.041838370823971495, 0.013063569216006599, 0.026600793386656354, 0.031059503832409345, -0.024366871190537334, -0.04424418670668177, -0.030721655819285862, -0.05169494187775463, -0.027354626940656296, -0.04213020033782358, -0.007261405744995231, -0.03802537855100247, -0.014095839588381766, 0.018192058852450385, 0.002816637428531908, -0.029722182182424343, 0.02412604779901257, -0.03306598881904497, 0.0022860791699648676, -0.02156024939230498, -0.009159332705589196, -0.07779071176023677, 0.060564440675053094, 0.012084051850002385, 0.0036602321852397257, 0.052034733111775915, 0.023856929992499273, -0.020517727834851486, 0.00760443863967529, 0.0015924638978939611, 0.08692496012466985, 0.010298728846198316, -0.016437382181135465, -0.0022166211608263377, 0.016551715963965086, -0.069124312495889, -0.014817949620554171, -0.01722757333508302, -0.001811561182859048, -0.01042372355342984, 0.0023807348085988895, -0.004185095169485353, 0.02242039482282294, -0.01912583704132083, -0.0743180232211391, -0.03196368943766233, -0.03598853564548187, -0.022335694954507115, -0.008533957711023738, -0.017505266065826513, 0.029489319343358415, -0.02439027578271075, 0.07632184258871526, 0.013968908944996711, 0.045502759176212486, -0.01151251956210734, 0.0005086386666518824, -0.04455213187711198, -0.06407076253987831, -0.003000302834019591, -0.07853090038868074, -0.03096344217802052, 0.02329047922600275, 0.03439097820263449, -0.0536411900889608, 0.010534278256977767, -0.06925005197826788, 0.018116971964726433, -0.018509535177126266, 0.001445389592957957, -0.051493486616591054, -0.04995171041608048, -0.00901061552708008, 0.0036518745808306607, -0.030656022401033763, -0.06884935100714248, -0.009181129081409715, -0.06384642678424361, -0.04697730763639062, 0.004829717290727699, 0.004755764398496573, 0.05397531384551448, -0.02745467598114339, 0.0027095946377301275, -0.004043351562074063, 0.047228902560556646, 0.02510012659911138, -0.01928262760806486, -0.0217967547083866, -0.01777358418203501, -0.019749863147850627, -0.003593548580160434, -0.06069820221275937, -0.003906947036449461, -0.024026821513304954, 0.004454862875910918, 0.006601312249731926, 0.0019576632309448883, -0.009573796667932842, -0.02902185262727401, -0.011333708084978996, -0.043722306510191454, -0.04445521727021162, 0.04418563542714482, -0.04055094729284321, -0.026507561999581684, -0.0058132930631978955, 0.010321489388521279, -0.04941032479568331, 0.023561625828141114, 0.017374308251610845, -0.007083711447264694, -0.030374229100376723, -0.027284896773478947, -0.016089948313832127, -0.020733722529931845, -0.053785802020875385, -0.01123641307176202, -0.011502289968271509, -0.028414189735653784, -0.027424523180338015, -0.006350556942802691, -0.023418970471287926, -0.0142852993724998, 0.011845190328201066, -0.025165179398515328, -0.014253555604015762, -0.04058306372542978, -0.02466106326505798, 0.010717241688661146, 0.017169076087401168, 0.028098451872369968, 0.021295872307785593, 0.02749706580736507, 0.011185418756112779, -0.050386787613820365, 0.059522658750759315, 0.03918136985298548, 0.01652214297885284, 0.03367971100057666, -0.03594027696471911, -0.05403639209353029, 0.01989081897456969, 0.007982322235815057, -0.017301490550661984, -0.051391551341787044, -0.015436909226879644, -0.057164617447700315, 0.032261457724101425, 0.029395956537028766, -0.03198578142233586, -0.031279979860381585, -0.013369738764548512, 0.027565455333504, -0.056513944050393436, -0.03136129183360253, -0.048834558860464304, -0.04006893999083379, -0.027825676775496702, 0.021251198914170984, -0.009054630588276425, 0.03275332477253243, 0.04016922921536365, -0.029917072982166358, 0.03215423292640841, -0.01935808924325607, -0.0013424190515273528, -0.004302275522484917, 0.024394642504335626, -0.03571889004711898, -0.009273997314387343, 0.005795959274166029, 0.024213044869617284, 0.0057703988615237945, -0.008940990884563866, -0.04114022835842516, 0.016994113291268906, -0.07319690973554507, -0.015911907387946414, -0.02762932884095231, -0.005448559571446085, -0.013763811887135224, -0.012907095238362767, -0.014576701741782806, -0.005334499844662088, -0.02139442531978918, -0.037368204347454484, 0.006530871439870959, 0.055977393095455706, 0.04931587297901766, -0.0405643190306237, -0.07331039756992752, -0.03476527872782357, -0.04440757463095189, -0.047110299456556204, -0.009281736660134505, -0.02639330998765253, 0.03275912206437038, -0.03424678717426164, 0.004853891804480374, -0.025520398549174244, -0.028042852868061123, -0.024089473343544283, -0.03039919142025343, -0.009916440799888451, -0.027103122326921216, -0.0010413180296935508, -0.021408050232634774, -0.003503684458252629, -0.028506092746470844, -0.006410459645432987, -0.03696398796037898, -0.06835201394822459, 0.02364821576212128, -0.07319701154300925, 0.04130183207105226, 0.009776672237473421, -0.049814141271566977, 0.01784994961113013, -0.040258215639436164, 0.04798669543202311, 0.007389721093565642, 0.0022291225603918636, 0.03807122300478569, -0.038064486859136236, 0.04528179272377977, -0.03907394788782808, 0.0029552516169498297, 0.023469916388589578, -0.0384554429811353, -0.030053113144622293, -0.04109040797933455, -0.013807982665242519, -0.014478568623173925, -0.02343114118019416, -0.008358227598255847, 0.01165134267898062, -0.00564653960771235, -0.025232595611138657, -0.02351336253412315, -0.05754015696507446, -0.05620511389550574, 0.00974901942270535, 0.002031559077304766, -0.028588720209347926, 0.0027249205212398282, 0.0059803385065393695, -0.013651786888276134, -0.04025077483746251, -0.006308478896893077, -0.03417151165967267, 0.01503121008190197, 0.028770758281325894, -0.04846573957009034, -0.022278642755670968, -0.05073697144568102, 0.022578080088818415, -0.055553666153534104, -0.03290597798752677, -0.032173067922009906, -0.007474244823041045, -0.022147512775428087, -0.06138405330565865, -0.012891118738882138, -0.0185650323430082, -0.024296335633950273, -0.02344718455016852, -0.01966525875612547, -0.017991395106513812, -0.018682663384603258, -0.0030398043344785526, 0.025753522646288923, 0.03374709430921006, -0.00967248758228254, 0.008255147269654631, 0.013245092811134418, -0.03289468171219087, -0.004405286421915337, -0.029980348966725433, 0.03947828086055409, 0.003832851956354363, 0.04026342438788708, -0.03614377268755019, 0.00581927966831741, 0.018797925238078692, -0.04409143909277192, -0.00979866208261864, 0.008522636084593988, 0.008804089032244252, -0.0856257709159572, -0.004243663943237993, 0.002586453845349272, -0.03392093260951054, -0.02601876527057394, -0.051943910269066876, 0.009630418854323928, -0.029472324827057396, -0.058689389479078626, -0.005913845619630628, -0.005024527318729653, -0.01225509143332786, -0.04301341005334175, -0.003051087669197742, -0.026718791314233024, 0.05629496711063246, -0.047965775233260635, 0.004347319867230462, -0.04091534238099954, 0.028101270609550057, 0.022288145458898664, 0.002249011464789151, -0.0003360469433562974, 0.005740693987806116, 0.014126100158250283, -0.02257373262949231, -0.030000814099712322, 0.011506189639821396, 0.0004065404252191155, -0.03607215133360568, -0.02922191867249145, 0.011411134486501273, -0.01032594068005442, -0.046260687589125646, -0.012512446492128269, -0.01888347588338535, -0.016719677322830428, -0.005690534045650962, -0.03027362832794752, -0.013328419820164226, -0.009482563284233124, -0.0017734832512940912, 0.0024156131800432503, 0.0035402693264682678, -0.03571989927067554, -0.010495531152397262, 0.022119824326546817, 0.08158049071287207, -0.04264973861802922, 0.009086052153597233, -0.11795622858697219, -0.057906492677874156, -0.008795707162728851, -0.07538030179420861, -0.04876087094297136, -0.04765182687564612, -0.027629535113852844, -0.0279551385262705, -0.04761951732195382, -0.006778471188339115, -0.01999215968469396, -0.01851828253393682, -0.0424722854169684, 0.016550356834234305, -0.019636976875596873, -0.02564059030217937, -0.01634719774498577, -0.021103266502753508, -0.03479340644248148, 0.039526105123818496, -0.011552219632351955, 0.0004382023058091986, -0.0077368379821012925, -0.0038175995987448355, -0.027067859173332577, 0.022514497662995826, -0.024825696900819684, -0.008880816132387462, -0.005760379396505026, 0.03140127070612066, -0.09262532510357707, -0.03380186829033252, -0.07109849007051877, -0.058029957618531615, -0.03657972281393069, -0.003485238556181912, -0.06100560816247673, -0.03365155132674679, -0.02981762506592062, -0.020322377759884647, -0.019315265434814505, -0.029671573293900258, -0.006340485874667991, 0.011277389103651711, -0.002294658724972823, -0.06722065264274708, 0.016304357490773896, 0.023496513297557652, 0.05226587411094229, 0.037675284782810105, -0.02073750922061243, 0.015428548897498428, 0.03540286162169633, -0.039625949933675735, -0.07664631566075969, -0.0026083666474232044, -0.028334489782636307, 0.012235228367873345, -0.08151644597123767, -0.06174290427095064, -0.06093598600483813, -0.02072022365891686, -0.03984108064489168, -0.024409207979561733, -0.02859671493761646, -0.04278346637113666, -0.014571042913714537, 0.029666553069767267, -0.03377714786313024, -0.006991833513762794, 0.019418136734706368, 0.031277281543883574, -0.017561678647751253, -0.019203760932162982, 0.018121653370184215, 0.12423331946556393, 0.04091674241894101, 0.026663091445874015, -0.019534054242082148, -0.008724337068986355, 0.03539624821504699, -0.032870449989855256, -0.011496967378032501, -0.015697053889764803, 0.08085985207932381, -0.0015500137795579371, -0.038779502536573904, -0.035488368349548195, -0.03520076778133197, -0.0060734760453887565, -0.0065058435084433, -0.03303210821973444, 0.009302760924745367, -0.04847042726514701, -0.010391870827646015, 0.01576421814705691, -0.022390552934548766, -0.012217884795762501, -0.005879113148699839, -0.037487701523691894, 0.04992446234901584, 0.05605876291930706, -0.060149718515529214, 0.04158571318140069, 0.015541854089496822, 0.006771868793086803, 0.010178421918480543, -0.019342410950265822, -0.03532443838677324, 0.002288435137037434, -0.016207710269431682, 0.030450030320363856, -0.005938024050752535, -0.007293766656678898, 0.07266594502022738, 0.0354895804483979, 0.01059213434794763, -0.04597173415528778, 0.0030254317338183822, -0.007851733781228682, 0.010608160022393712, -0.02292538646338805, -0.02671079488941177, 0.0011107024519251194, -0.08277899339655988, 0.0390360965613949, 0.035799404755340436, -0.028215426548722226, -0.01066375854408415, 0.0363960725929514, 0.02205397328551231, 0.04354866764879697, 0.0534222851550022, 0.038634824664672184, -0.055562781186767794, 0.06970877283908584, 0.016265702095692502, 0.019170409403515967, -0.03857307620820165, -0.029445529996208385, 0.02281324265539602, -0.009943663714878197, 0.009254759532999689, -0.03456548261978668, -0.022540454881002786, 0.039093051288522425, 0.013382040878775588, -0.01665794843367179, -0.05521951860069583, 0.025575602426165047, 0.02509502918574695, -0.027873657968817373, 0.02971076344158305, -0.005117394056652823, -0.020909095360858485, 0.03050143448448394, -0.047136789362708285, -0.014041814982598821, 0.10096656439616714, 0.06540645482936434, 0.07024060126240246, -0.0010827440689370456, 0.04420521371466062, -0.018665902442618815, -0.0030021441824211828, -0.009851742101937686, 0.046252179810495876, 0.04213888125274271, -0.05180029184161434, -0.018634641208181046, -0.036638447356700014, -0.041575790694871835, 0.07964053471535261, 0.01564081367017823, 0.03416515553552194, -0.05190741402368253, 0.03940992372112868, 0.0009046067386092509, 0.05169340829947872, 0.005778661222867927, 0.020845479905306684, -0.094239315986792, 0.06411989420921146, -0.008229591752080734, -0.05399571717712191, -0.0021162302044768176, 0.002167792627009686, 0.006667178508636952, -0.030546947365054512, -0.027022639509248266, -0.047271094541523735, -0.005602357533736605, -0.029239000120091476, 0.014580524593795796, 0.028675184512943066, -0.03456840859464429, 0.022610050156093995, 0.03568804936467303, -0.0041562012170490575, 0.045630047103912746, -0.021912299726048, 0.02832390782486352, -0.031085699571683334, -0.011619606860212572, -0.05350530629560255, -0.011820514671553404, 0.060831284284931515, -0.006794738447972499, 0.017742924823372756, 0.06717499398132937, 0.05828107451784141, 0.024298451964250595, 0.023686453043528004, 0.012831203383777851, -0.06394899069779986, 0.033828148015133286, 0.010491116192838726, -0.023701738638637514], [0.010231449543055656, -0.005918348799529368, -0.0020637093007966527, 0.05564177261480421, 0.03805742862695426, 0.005587327919960727, 0.004325703702874441, -0.042754942509295735, -0.0377399572992907, 0.04606000165940206, -0.053703737422837294, -0.05615079693263818, -0.004445421250377105, 0.03167921622846536, -0.0020204747023816892, -0.0015582529468106778, 0.01085868972320284, -0.002487874726441697, 0.04367804600895038, -0.0003453813285910755, 0.011674586963964976, 0.08213948860365376, 0.051934399015370045, 0.021569140317427786, 0.014583386784355128, -0.03431768954472707, -0.03477528552282748, -0.011198649885810253, -0.02300343625396428, -0.03598690154696319, 0.0012550020325401555, -0.054302714359603654, 0.07502883367479685, 0.003091329315554068, 0.03541155748900066, 0.024305295294648855, -0.007289974293343184, 0.02417104698587575, -0.027305983796466607, 0.02618560342023641, 0.03900138166229283, -0.005408076114750836, -0.08077819352053339, 0.004908353792857726, 0.026704629592349073, 0.04843762702793627, 0.026517848576466798, 0.0012878996711246597, -0.009675908391031557, 0.026869504585703936, -0.01236404586098488, 0.037727129433879396, 0.028670663543420627, 0.06273432340758293, -0.04429964391500454, -0.03886526440409249, -0.04449692958599523, 0.021436472023394836, -0.03960588706761792, -0.01097804537069036, -0.018846195334623422, -0.0024366068836813135, -0.028082123938595292, -0.0451874860503744, -0.01793907701546736, 0.01209916940365511, 0.01137220098066447, -0.030247365633417764, -0.032634739347421865, 0.03139481206387409, -0.022389285719397422, 0.012290759630044357, 0.0292743751402273, 0.026859890258927255, 0.014703836221366687, 0.005996270979522429, 0.0244040111607431, -0.019166571959879954, 0.05904358958214576, -0.016855261687114195, 0.033862160811676055, -0.037033309338904044, 0.022318713250991686, 0.029185133551762197, 0.04456628394351148, -0.0545208949886542, 0.015220745455093632, -0.003957097293843643, -0.00546105519744753, -0.03750222133834687, 0.020078853182778463, 0.02672761200734963, -0.0023271382353053866, -0.012404589151535077, 0.02257575401176472, -0.009095208184394927, 0.007878031629323667, 0.0050990948512282695, -0.00865078324501449, -0.012145461719213206, -0.054269339842418565, 0.010917298076943674, 0.08699714565126436, -0.007949099324244584, -0.00566632233142421, -0.0121333398240987, -0.0876305219884372, -0.04014240950929506, 0.011083964599775818, -0.03323447276900512, 0.04617641409782335, 0.05083892671125051, -0.005774599408367312, -0.03982900828617703, 0.011380779205931462, 0.017142376618276788, -0.05282874253019694, 0.04567798538711837, 0.003537028931135325, 0.005348858169720624, 0.004791239894415402, 0.007240231463285394, 0.016365070489386756, 0.03501433530300121, -0.03813687295217373, 0.010393410712144328, -0.039043133206100186, 0.01051287972724772, -0.00578473960073861, 0.03380403402353809, -0.030227657639620327, 0.024759446287973986, -0.008193615715221375, -0.016617632125358293, -0.028229902134532664, 0.035594049539649814, 0.005252365996757136, -0.02229267533082776, -0.05446789705595702, -0.02516218963182245, -0.005665645318250908, -0.048482970032241564, 0.04979743066807087, -0.027414816296705207, -0.0082504992477494, -0.015933366431447996, 0.05063287018134797, -0.060746452163648615, 0.00965949544366523, 0.03621285541872765, 0.02807209816796153, -0.0306242554365568, -0.03671995341432002, 0.021301767521884594, 0.01086141747278464, 0.03832290213243647, -0.0719931233381946, 0.043495856906576834, -0.024324732236590228, 0.008483028409549107, 0.03139067849980474, -0.03694510900849875, -0.03997920010641731, 0.013316385257832008, -0.032048779154648405, -0.02790044513157309, -0.04819507610042979, 0.004325853764244554, 0.02279346060380468, -0.007147976309634659, -0.031270826379730506, -0.013069695757773035, -0.01768623472120086, 0.0035695337096725826, 0.060586897971133695, -0.03436444389384499, 0.00256323712828911, 0.022875994072521527, 0.0063902210308651244, -0.016983480381007623, -0.052926870552192924, 0.008431182725864735, -0.021015924241163317, -0.014026622717511823, -0.03492210138871699, -0.03205757860955131, -0.021744813738055223, -0.006812079329138467, -0.007541490297017213, -0.020725995348726857, -0.03880598186295216, -0.006474136931388023, 0.027165053530687863, -0.038376428407513055, 0.004857806407137812, 0.03507283848413661, -0.002665282728646333, 0.0008409539998193731, 0.04699369684689348, 0.01954479046596899, 0.006691959968895381, 0.02397185643460583, -0.004985120841399925, 0.021950747541490626, -0.05615954391269442, -0.032592794598238765, -0.01055234830765615, -0.035495907246079504, -0.02976117077448285, -0.06952853845676234, -0.01825097938768047, -0.004128448183551331, 0.007996406329593034, -0.017053760080433814, -0.030715134075230976, -0.06167722743112417, 0.008785070075650067, 0.013836789840491344, -0.01611482079861883, -0.0013111140639604567, 0.050024519417253006, -0.017843916598566628, -0.0037835497896375856, -0.027003267425132902, 0.01737458063231503, -0.02046535612887107, 0.029957589754177973, -0.00817487506608495, 0.01827163569465451, 0.015752801468582437, 0.00507003881196167, -0.00416423136140097, -0.014314417646425374, 0.003284313850729816, -0.01313659365043614, -0.005490376692048718, -0.031245904211585945, -0.039146296468723724, -0.046170918257200225, -0.035885237069899295, -0.020166607433090847, 0.031827809428025045, -0.05121256142340718, -0.03891182900599415, 0.003392738263100612, 0.029471126969119927, 0.015194697391699371, -0.0817434154636514, -0.03367188786876854, 0.04372657957310182, -0.06258424030908277, -0.03880581768393105, 0.05494122486986149, -0.021870833516538287, 0.009093194511043975, 0.016041873076306633, 0.012490019054088048, -0.039038340932773766, -0.02916918733173177, 0.015618127277631021, 0.009737637171921814, -0.003223211981531393, -0.030199833531132605, 0.010096244637420143, 0.01621265256153978, -0.0437189050083561, 0.022576201728212456, 0.014925296492824288, 0.015136117360821684, -0.05488478396722464, -0.0211747051978985, -0.014550676433095962, -0.022919758708249357, -0.007533213897918142, -0.021735701207679762, -0.036963690755489366, -0.026486550027698435, 0.02819603524591632, -0.025304835040570524, -0.03632481366116828, -0.09052405836155976, 0.005988047232538319, -0.012462061347683446, -0.03785734447176994, -0.015938414233104558, -0.005792518774864409, -0.012412298350644975, -0.01247333635105847, -0.022964596683745987, -0.0470748573201151, -0.02979346619621497, -0.036973295037483624, -0.0291005676650507, -0.038736646032962195, -0.045700669582069024, 0.031022162894813334, -0.01714621272450631, 0.009364162522843248, -0.027332659999073312, 0.013437473619152974, -0.06325243868778614, -0.028443001843535896, -0.05360785580462305, -0.013675754700101534, 0.02196138446028351, -0.0017231962330549653, -0.0035485711811053095, -0.005272335940996295, -0.011971027249556851, -0.008746146068923336, -0.011699162481821719, -0.013377975613302406, -0.017566591140220297, 0.054386364363724744, 0.0019105930018178, 0.08622365602081222, -0.02285174662006961, 0.0024938581007224263, -0.01455223603658314, -0.06599875959108997, -0.00921653385510467, 0.026989350376401603, -0.022365714123476613, -0.027909248936589588, 0.028790856421314986, -0.02263121343085722, -0.017570487367016066, -0.012096820792067585, 0.017923433709636963, 0.0007783956814160816, -0.0023999351083496792, -0.028461107782806923, 0.01589971730276167, 0.02913809623791497, -0.014399502896848345, 0.002109834445780904, 0.05368449452046297, 0.0032316309096683095, 0.013209413688098963, -0.0336706562900857, 0.049150515866630995, 0.07172752622274843, -0.04444753181871613, -0.039782199296718584, 0.013566383565980191, -0.02723942356615581, 0.015633319698511953, -0.0847106334877929, -0.016031161051699848, 0.019042185408943774, -0.07016703458563679, -0.00682156344562262, -0.005314331878984088, 0.025191013652260584, -0.037101981794242574, 0.00386944314489538, 0.02327066511232615, -0.03004444893082605, -0.0012973220528910004, -0.03577141567496162, -0.0846751185793804, 0.03241678979138624, -0.01144276594405977, -0.01845391796038871, -0.012388951164805633, -0.040569413196150816, -0.030570890775182706, 0.026717493872852147, -0.038679902939399144, 0.028720588220438794, 0.006056037069422721, -0.020324441904053782, 0.00408539960482352, -0.01618030403047604, -0.024593703982219366, 0.028481174462028358, 0.008268988295352617, 0.004429087129846245, 0.015371240313271785, 0.020649687002378753, -0.021651870960739374, -0.05265026774438383, -0.016198314403062044, 0.02366343898703549, 0.025035596249282716, 0.010644471126678264, -0.006023790587491363, -0.004028474597800339, 0.028684435783926175, -0.013649052577514791, -0.060251365465896066, 0.04817926647407818, 0.02475838794657171, 0.014144375279674225, 0.04677889207510788, 0.02629407511877578, -0.021709982166136545, 0.026893225161127278, 0.03216844318098198, -0.05141973947508553, 0.03025041900674926, -0.00510555990028483, -0.0406965816601564, 0.01054188060596286, -0.0021185228302920247, -0.0005975419895544221, -0.006525182990367907, -0.014792872528961588, -0.002446983062022913, 0.042224664977057, -0.08609853500675389, -0.005693624542255719, -0.0011410491079694328, -0.04065011656810081, -0.07079121387771332, -0.031015705040021692, 0.06566720989886576, 0.03569909233173897, 0.040737551623731535, -0.039209534510225755, -0.004704923546247073, 0.051753962588563754, 0.014580955534126349, -0.033746328821856575, 0.001893719708003551, 0.003613164757728983, 0.02794884599777244, -0.029725629829242123, 0.012609651117452731, -0.04292263085301948, 0.015750604921604516, -0.047397028959308626, -0.04174436714482802, -0.035567247363183105, -0.005816400903383964, -0.019071461686655976, -0.04084537041346297, -0.04030445694572293, -0.008569881015191516, -0.010308256366724902, 0.011145496780702266, -0.02884737879060035, -0.028246138986744884, 0.011219885267157314, 0.036572420868421544, 0.03270849743008838, -0.04699618252341349, 0.03577447009132608, 0.015128799296138778, -0.046270508080526, 0.009640247202587191, 0.08714196965542656, -0.011236844652906138, 0.018856084739871954, 0.0023134391782731983, -0.057253662173056045, 0.0022994183229488787, -0.0172704550091324, -0.031773661708890136, -0.055078169618966895, -0.007371024957646079, 0.02316918631956712, -0.01685965267278883, -0.02246113627096863, -0.004152251495197311, -0.021487697694758206, 0.050608489882673406, 0.003147395236321219, 0.024428761497548628, -0.01689484665302447, -0.011911515728072447, 0.05334134602711066, -0.009919022424090755, 0.026470554526216262, -0.01288360272393977, 0.03540200177844279, 0.0131917604203524, -0.016744504306489102, 0.006398331139502368, 0.02614641840831431, 0.038758717631849925, 0.050728530050296775, -0.05057454909762401, -0.0620842988030522, -0.04732301165483848, 0.004746136003697371, -0.010884871446963245, 0.031891051472457396, 0.01265357274069244, 0.011704729931054184, -0.01675197839690762, -0.0015881480980089841, -0.06113909421997545, 0.040388074955372756, 0.0064349567781347775, -0.011965222921236614, 0.007156196916389815, 0.04606246256253247, 0.030782271234402758, 0.04601891765669999, 0.03578278530045697, 0.027626342338587365, 0.013777949147799836, -0.008623945354790838, 0.02673305781414519, 0.03477972219551293, 0.01635174219233942, -0.0161305911560896, -0.055062580269302816, 0.015406642002105588, -0.013004219215292859, -0.05015911093299751, -0.026896882409545433, 0.0013835284443437007, -0.017469786106019704, -0.017235317311205117, -0.03307546211411457, -0.056306117872618286, -0.005372921421012811, 0.0011170095257348371, -0.005851529985871624, 0.06068429270671805, 0.0015995679521761696, 0.016971664660106616, -0.0007601432981345974, -0.013313254157167411, 0.01948491686550016, 0.0036359863564879163, 0.02616857287221064, 0.032907701244182366, -0.030449582455648234, -0.054692653780061495, 0.03247550389317072, 0.03759120605199152, 0.016455524086186408, 0.05361355309092756, -0.0038485439379187026, -0.057489730627760985, 0.017790262674446555, -0.10624166561048408, 0.015685891890307696, 0.007041773430195007, 0.0004946290227741258, 0.004536776794458533, -0.0394205616659617, -0.08242804207059001, -0.053565963239111704, 0.015090666140572185, -0.08008755406913294, 0.061040410040353266, 0.03870903820542856, -0.04560968221632507, 0.00224488570078147, 0.05978637626637021, -0.0014784542902436882, 0.10723237902353615, 0.025420769771086878, 0.06581650250187882, -0.024182088649140697, -0.04845698752206869, -0.005674118982236949, 0.02723240854538236, 0.006985285046621838, 0.01245349832448379, 0.000954139669265117, 0.014423644177635881, 0.00741151309780743, -0.027752730297621566, 0.007726854742392438, -0.015938298393117136, -0.025668806830285863, -0.04384510144809197, -0.03348106959261887, 0.008798291148148592, -0.03740151272978231, 0.0006198101917624169, -0.013528439575035644, -0.007888616088265325, -0.002461447095494466, -0.031898132468291006, 0.02146077083619668, -0.04511948779675963, -0.013929242278021718, 0.030324653849452363, 0.01754259269643727, -0.01725087170053082, -0.004465561905047819, 0.04451716273560298, 0.024732723617207835, -0.0392908581663544, -0.03706061165133541, 0.03380021843450728, -0.06254244320387267, -0.010291158823626932, 0.048229675423551895, -0.07570126835112552, 0.016046713373922317, -0.023750468015327528, -0.04700107054857718, -0.013816181649331972, -0.01501752261897511, 0.018516470957217323, 0.001546132686276988, -0.023785411113419645, 0.003471651737194893, 0.04743752489721595, -0.015507251932838504, -0.03526927481598975, -0.011848497850059352, -0.018782448083481427, -0.03910458182471258, -0.09449031450549061, 0.008925519043626163, 0.028363745830010167, -0.03592420019896112, 0.03401557484311057, 0.05475275990006913, -0.004480402354360714, 0.015858713888637778, -0.029590503272011032, 0.006202150370753655, -0.07449877262289503, 0.001109232469931416, 0.00915229542275346, -0.010411395391755762, -0.03833483610380375, -0.022000675176782645, -0.021169887965722257, -0.03736527926235584, -0.005661339497083583, -0.028956696365389743, 0.01195551051987508, -0.005542904532258298, 0.023858936209286516, 0.0034707543019883054, -0.03769483539256177, 0.005332410742791592, 0.001337258382376979, 0.03743286604256049, 0.03793004344955793, -0.060751473966265304, -0.013109167779056156, 0.008032509096243898, -0.03201770875174748, 0.004241594780817092, -0.00983672763980307, -0.017534732357022863, -0.01626816511717544, 0.07656553475985314, -0.08442791596820058, -0.007019060340149152, 0.0430086196836219, 0.003272138520043875, -0.02608472071612689, 0.007304885686332661, -0.055242467734742395, -0.02599058904877768, -0.006503168318664222, -0.00864629606278817, 0.0287788820508512, -0.006812166045046715, -0.034508595845565204, 0.021681490195092187, -0.00932089234417558, -0.02347408090269194, -0.009210227121402854, -0.006595094157249687, 0.054629393166075735, -0.059131725351139974, 0.05596516581050887, -0.019475873530013687, 0.016222681822718157, -0.03728583931996062, -0.019942975464454553, 0.025525230292046928, 0.001847682890693884, 0.04971812677289003, 0.05030031771738621, 0.012994338199763932, 0.024607082152977418, 0.027839189304610237, -0.033320895018187455, 0.018793634166186606, -0.07475449457997779, -0.0584696952245869, -0.021269520909009538, -0.021157086743901828, -0.007645874019709992, 0.020294417939313553, -0.04223089568621149, 0.010652789660340537, -0.014764376592690271, -0.04725631410675965, -0.059528621016494844, -0.007070328635279349, -0.0026610522705235984, 0.021236187955967312, -0.026043690432634613, -0.002921959097272715, 0.032569660548535856, -0.04125099019917779, 0.028400701199764546, 0.020218587229511562, 0.007837290405020616, 0.012914963047925552, -0.03843505802547453, -0.06664345971470566, -0.0744513271336149, 0.05974780282511021, 0.027450040388863842, 0.008877102361886723, 0.007172031590793125, -0.01992172165933785, -0.026198431022089106, -0.01755682981398221, 0.008849379419156167, 0.07135563931232487, 0.06795857946031467, 0.009139734311731866, -0.0005683508684961297, -0.05816375886285397, 0.005653526784128461, 0.051800827597139366, -0.028520704426342594, 0.07395487234618296, -0.10666990896337106, 0.005281851949713901, 0.0484504272903332, -0.025532213450431916, 0.010233980647030736, 0.009738063175249256, 0.028597849062516247, -0.04568604188535937, 0.019676508527009622, -0.007181040119488897, -0.010394252605654046, -0.05525923576261755, -0.014508589741593726, 0.012144734144151768, -0.008106862149630174, -0.02657479415942314, -0.03638688024417756, 0.04060370492323525, -0.0017722558491825792, -0.025213193807843554, 0.05314706116344346, 0.045816809114646216, 0.021214089737605312, -0.016802204632841735, 0.041696321123508434, -0.044749564926051685, -0.027509128695931643, -0.009181508938204073, -0.03772823662545893, -0.044332037405066464, 0.005589484640180396, -0.020631913540352875, 0.02349007622255141, 0.016579892132042112, -0.03911602068468407, 0.012787069950148531, 0.01871770362326214, -0.041270312050068314, 0.006863537492444472, 0.011036998136446152, 0.0064598941939820395, 0.00930828768830871, 0.01636595676918575, -0.037703936423711934, 0.014725982612129708, -0.02751129197180843, -0.059614577443178475, -0.03790531905818819, -0.012851536411023526, -0.01740878055528677, 0.022374480526790856, 0.035571253388013965, -0.05358781661266314, -0.02170254019382543, 0.012773950439045865, -0.03142742477784407, 0.026647176447348174, -0.0030734438023314473, 0.03922945690709883], [-0.012315759273593437, 0.05752026055311106, 5.112430100853488e-05, 0.05434322949358073, -0.0174926024917801, 0.036115520821948986, -0.0669520518554191, 0.0033473678172766357, 0.03177016563201399, -0.019620295228436533, 0.04306736016317764, -0.0026710447747232005, -0.059235072280148064, -0.04064892062935925, 0.031569442077538055, 0.008261939932850605, -0.02050311040038399, 0.0006530546108821283, -0.024445419961023607, 0.008070195986261106, 0.013186672538143774, -0.0011660046161892329, -0.017354831972711756, 0.0001596975061328353, 0.029453865337059838, -0.04588440296076052, 0.018760731863787537, 0.054307237095487494, 0.012236794271894499, 0.020253332821115265, 0.0013597594865558695, 0.01795302940931338, -0.06124336700829148, -0.04053391297728304, 0.0028763405407649487, 0.046973572863114633, -0.04202823347757818, 0.04953817139201351, 0.06524609406394004, 0.1061989260598085, -0.029153871641955237, -0.003807610851237413, 0.021908773081274095, -0.05919733303882473, 0.04642912702040812, 0.021472935293920397, 0.043610394573683625, -0.05082668326346456, 0.01532984376097208, 0.024144082515578313, 0.00968342686767705, 0.006719870922963308, -0.08310831549601609, -0.028284496219149708, 0.03152837039898659, 0.001620180835180345, -0.027879393279050646, 0.05038413753908795, 0.05233171852579514, 0.0478545557793896, -0.03196182951365953, -0.0062891501341557614, 0.008235628400360219, 0.01819190241697732, -0.055336392773764086, -0.02238269505897894, 0.015467693321686352, 0.025558516182228513, 0.05110589996655056, 0.03904486774826091, 0.026819763695472662, 0.04078730227160794, 0.12846220968570407, 0.09164350789224439, 0.15579696660614156, 0.12119906323721288, 0.16268632006762723, 0.10151379825688282, 0.022143524867177446, -0.012351482153664353, -0.008743811389080721, -0.019546554364437946, 0.01411826463235882, -0.015582007386254012, 0.04401943767904921, -0.06204335027853133, 0.003227089051924114, -0.009642262175588575, -0.046796484643721784, 0.012913345335434409, -0.09722639444235677, 0.025139582999122237, -0.007166481589231991, -0.08251611541091061, -0.11935902763493438, -0.05663079471907002, -0.030564896596621184, -0.06681068510969941, -0.015605016277985757, 0.04308797917996517, 0.07762001022339507, 0.13506361687966315, 0.11456198059799515, 0.1355498936977183, 0.08462824804959511, 0.11149419064115228, 0.12992982727514324, 0.10512923493334968, -0.05165518697196514, 0.02508679750550837, -0.020316986495953277, -0.029010160077860586, -0.005522841946881651, 0.04601214187819609, 0.008824667298008626, 0.03485379659714602, -0.0462599255177914, -0.016756605043440655, -0.021084435468872554, -0.0542645301148409, -0.10523415788169015, -0.08869327600528942, -0.11231830644040053, -0.13876757851610294, -0.12296026178860935, -0.05922343951624238, -0.011327223230769677, 0.0633689770424381, 0.05579200743574288, 0.08661951558123171, 0.08982614685215173, 0.07868711233541674, 0.0931222558465969, 0.09756669369356806, 0.0363078255359734, 0.06505867952940787, 0.0026080073310062683, -0.03447999003746455, -0.00465697350786224, -0.029562558181394517, 0.007175900742876157, 0.0030069194858115536, -0.02376289397417829, 0.04628222999881951, 0.016943024618341525, 0.006912837350791749, -0.028720996140483873, -0.03063772805636205, -0.11951584499082904, -0.09069991888364871, -0.14472602692217443, -0.15838292478095334, -0.055341767645871294, -0.013332161848181917, 0.004544806791593323, 0.057864849797105725, 0.08850814449933173, 0.046025932535388454, 0.030265380371661453, 0.006862246589842911, 0.03887064498778582, -0.013796396976881155, 0.017545876926565018, 0.03571631046326847, 0.055508297109158, 0.006277155696956324, -0.04827709977240386, -0.034281298919413415, 0.035591342413438636, -0.07070664466967425, 0.0364057683086527, -0.017871484343040672, 0.010456695470452462, -0.028819997915860297, -0.07721943718681268, -0.07660378236779376, -0.13325499802820906, -0.14849181303842754, -0.15934398128475574, -0.11821499231315567, -0.05804171817121736, -0.021584769451766097, 0.03477665301844214, 0.004148124981575436, 0.00339365493618895, 0.003401771479679029, -0.009296443339375567, -0.03464660344136838, -0.0480063572166438, -0.005159276345376365, -0.04468238698309294, 0.017143298401046534, 0.01679678716619682, 0.009413353929850503, 0.05375022910985596, -0.023394347634761826, 0.025671639303855565, 0.0765405038664729, -0.005465491479085445, -0.04812680610776522, -0.04094314511397547, 0.014456648877937463, -0.03023613294728404, -0.11102316752291867, -0.15078241404598525, -0.19504708459753498, -0.18909873868196386, -0.09155534319520237, -0.02701302849385415, 0.009472150176330935, 0.0077600579140317625, 0.026245350376921443, -0.026680357474298963, -0.02531739967410921, -0.07502283861343356, -0.07612849059270071, -0.1514920061124891, -0.11216735595051618, -0.04403609160463162, -0.0526867667698188, 0.0013628806340712394, 0.029845176055760213, 0.030796653373960932, 0.029845647243530633, -0.06044187127877674, -0.0041864082725808, -0.023033017677872292, -0.09535257611428957, -0.04312106990248394, -0.10478135908939132, -0.10744383952754168, -0.0966133931245728, -0.16724723500584945, -0.13077819494389833, -0.11260781098243451, -0.04590130947876411, 0.013343263934078317, 0.037850063389864796, 0.0285410716346494, 0.02322410911198498, 0.018138179400831102, -0.08289134245570252, -0.1425910970311165, -0.20130995489725925, -0.18415279662654133, -0.12576892052880434, -0.010916322669892255, -0.0033545605678464495, -0.01017817814639658, 0.03360983030769251, 0.054383614351323835, 0.013649971059037612, 0.024226921936010976, 0.07565666908569267, 0.09691721890998427, -0.02665707310127976, -0.04717040043788675, -0.048278243159653955, -0.17453324604593468, -0.10197934754821651, -0.12225877162538537, -0.11904017842259296, -0.04942598937718605, -0.022870652527496666, -0.006799129353515725, 0.025539235103844253, 0.009950574258958789, 0.005631304773136052, -0.05693864278223199, -0.153784648624062, -0.17632605023138345, -0.17210502603138864, -0.1659986058785373, -0.12630699439779983, -0.08057780738458817, -0.034262580665107616, -0.004732883017061869, -0.03417263364058358, -0.017285945655708977, 0.006225698563793027, -0.05033045234064158, -0.003911895956114312, -0.029823721690504804, -0.09564754355274437, -0.05802825813282456, -0.0675833983134233, -0.08956110469101013, -0.09340345532207435, -0.06877629353674346, -0.07280803604089257, -0.05929213486838274, 0.031572301903254246, 0.028908349175588578, 0.056884754805134455, -0.005297523816654723, -0.04669546152602261, -0.1635457963663719, -0.1980251875875322, -0.14075684812071648, -0.15494166181398392, -0.20907331707468615, -0.14549032782181248, -0.09295139573478162, -0.05717377266079387, -0.023390459312741904, -0.033551980347133296, -0.02862788142245624, -0.02267237620912422, 0.018801487918410482, -0.03106353510624241, 0.013154988189046375, -0.033436716161056326, -0.07041991753357559, -0.11760657418640484, -0.09654429351140167, -0.10307128689560727, -0.07999665403500525, -0.04179723650948162, 0.0024380573343395174, 0.037866931606611316, 0.08101478549601933, 0.07432560081918149, 0.011270208853583773, -0.09012623603983315, -0.1371882109950883, -0.10123992679593292, -0.12159802721400534, -0.16136614988131454, -0.060064655599671855, -0.1863738282455263, -0.10470449522706457, -0.07288707036917762, -0.07182668394204107, -0.027362966454498483, -0.039614350961939555, -0.006710052710516692, 0.013530668617718986, 0.012297929600676685, -0.02072838313650653, -0.07628859728101271, -0.05342292288549391, -0.07900754696730586, -0.042283810702169244, -0.0012467159579102787, -0.09759651985006229, -0.024386537541144917, 0.028726460847120747, 0.02266577631181012, 0.07079711244252744, 0.028579476644352644, -0.05554478681361335, -0.0627008827007642, -0.07590621343907984, -0.06420382547787043, -0.09089033458026859, -0.06066043613482118, -0.06331197127093696, -0.060267465784323175, -0.10165380449049842, -0.07611299610176196, -0.09983089330639307, -0.047024144253740005, 0.012397444885705692, 0.023066024542302655, -0.018468754359600523, -0.0019546470690044917, -0.027288323182863058, 0.04019979860708353, -0.024899164589949604, -0.06761890551371302, -0.041174801757138876, -0.011626833977209254, -0.03409384536088498, -0.002494564854438615, 0.03310728120778559, 0.01441654299429569, 0.018365021695291164, 0.019410018354565645, -0.045304354864794394, -0.02802093766573439, -0.02899750708399403, 0.004288485721152367, -0.023355476995783303, 0.02854138668948604, 0.013187582539214817, -0.018827294971546334, 0.04561909117831996, -0.03742018170397267, 0.02724324879614874, -0.06348871975497411, -0.09998307770319677, -0.007184115850218662, -0.07595001389466442, -0.022777039457099676, 0.012000286817077505, -0.012950993124709424, 0.02358686822900553, -0.08204194320176192, 0.015120901498424861, -0.02475013638428922, -0.010258256700489982, 0.0033805663257483924, 0.035876474917698874, 0.024976769643967354, 0.004461933656338469, 0.00013654505131297174, -0.025877126267048158, -0.05350051692995618, -0.0315009959068219, -0.025831640137245388, 0.018686074410935536, 0.04060135403522399, 0.014616661152349752, 0.036962044148974964, 0.012645295796823056, -0.03502291246245443, -0.025398920750615114, -0.04344408518914401, 0.00610935023061555, 0.07992973100793499, -0.049021713340083165, -0.0008264039357107642, -0.003900107321743233, 0.005753775619755405, -0.06082331512152016, -0.08709056871414654, -0.05440790988740724, -0.02983513620101596, -0.0036842586055726104, 0.015846812857499556, 0.06242941020628776, 0.024433346635063916, 0.023693048615601554, 0.03013085903044878, 0.015343646180853066, -0.0025551991982324302, 0.003845933190537167, -0.037275806747189846, 0.0005335315117866561, -0.00827130609294213, 0.028016516933340934, 0.0185075095733446, -0.011840326043695467, -0.03519369937669763, -0.05801136225288563, 0.018363960549486313, -0.00519397218727796, 0.08814783599821845, -0.02120927196765638, 0.057089113917563966, 0.02639026955095668, -0.000529316081652136, -0.04353465555630595, -0.051883747606476224, -0.10433015474921173, -0.01559007859134162, -0.010983507961381483, 0.007226809211047384, 0.018663988635922602, 0.008761996863881742, -0.036236711780625104, 0.00806514802988432, -0.009687812637855548, 0.01388375357435636, -0.03856436965369623, -0.0014941763597656737, 0.05101050762800159, 0.0336861454738826, 0.08614159862841403, 0.04220892157101133, -0.04816327430382028, 0.010481153934014588, 0.020479643613101544, -0.017826466120997732, -0.06453165491687465, -0.01843436366846283, -0.06692628647077607, 0.04232382329752288, -0.012826371986074916, -0.010252391296742278, -0.05367339681099219, -0.06161609574662591, -0.04598365806264238, -0.008452885248484037, 0.03986682747744477, 0.02252289978006094, 0.025521801607722296, 0.017513603293292965, 0.019861564343354197, -0.02186755271861979, -0.01982816672062658, -0.04212731962568227, -0.04266007976222909, -0.013616618404445537, 0.034164383737380524, 0.008106000869933216, 0.05442920905119011, 0.018813979600164985, 0.01965998658633249, -0.10848668289201041, -0.04692365166441066, -0.0223433355885285, 0.019207378920037384, 0.040045476889839955, 0.008160957847460312, 0.006634257106775695, -0.07008426065547493, -0.03369580484689716, -0.05795819450043889, -0.09214424316574955, 0.012811495373646337, -0.03857080007266614, 0.034907947747233735, 0.0753681770772345, 0.055531293739194625, 0.02650424331688911, 0.005049941037378721, -0.006919421834445983, -0.020522400410965286, -0.03653401126040624, -0.01889107914426047, -0.000939295668986691, 0.05983749619647583, 0.05080254167977734, 0.057386899708469004, 0.0034519733410881106, -0.013122860392884208, -0.056026607128008075, -0.07354315593542039, -0.05896932674694462, -0.021570032030989204, -0.0015291734590122778, 0.017476592031902976, 0.022026305073408872, 0.003921539871601393, -0.060749539716284974, -0.05316835623384901, -0.05669481429678146, -0.042046545816074934, 0.002595713648340523, 0.032070936943979514, 0.021379864032105938, 0.04713591017273988, 0.02620188834706737, 0.0065737500891859, -0.011958815305827169, -0.0033520533623507876, 0.014744718852699132, -0.015259013739759556, 0.007622924655412791, 0.029393674194313713, 0.024913665675594217, -0.01328771800035357, -0.03564986665362444, -0.10446569223034845, -0.018084617478035404, -0.06478657597471768, -0.06422778275109825, -0.007281533349116807, 0.03438925283246508, -0.05047594285436559, 0.03782905233797668, -0.057849131302474474, -0.05598218541876689, -0.05287753939958997, -0.08487930994041556, -0.06294472784031745, -0.010009817669990912, -0.009236461090600195, 0.04119093703936363, 0.05000061605931286, -0.0002212280107951499, 0.029353712382802093, 0.025692905242943688, 0.009788020692032126, 0.010872712268076514, -0.012027932195229718, 0.008464434476498313, 0.03524550838930147, -0.00890807005977952, -0.012213070076403916, -0.0419298689623837, -0.10309867655027231, -0.07613770219784811, -0.07370139465700797, 