{"ClassName": "RvNeuralNetwork", "LayersNeurons": [50, 10], "EnumDropOutValue": 2, "DropOutRatio": 0.5, "BestAccuracyRatio": 0.976, "Train_Loop": 0, "Train_LearnRate": 0.1, "Train_Lmbda": 5.0, "Train_TimeSec": 20.46359157562256, "NeuralLayers": [{"ClassName": "RvNeuralLayer", "LayerIndex": 0, "InputNum": 784, "NeuronsNum": 50, "NeuronsWeights": [[0.01552566767559437, -0.06651624879603861, 0.01247720827604488, -0.00927696434562605, -0.053210246281171894, -0.0327539355920845, 0.07527442489322365, -0.016038518668851882, -0.036271944922066375, 0.022652727470330394, -0.029618941511908182, 0.03610923855229143, 0.03558884551127285, -0.011827024960346998, 0.04527534570789783, 0.018317837107831036, 0.017037169282619242, -0.028871967659782557, -0.02904506940225867, 0.012196487798041116, 0.03402579749140982, -0.013217541689270145, 0.011431783554739908, 0.026216136688231872, -0.0014213922916791173, 0.015898754124049834, -0.021821067607352355, 0.04805623441680385, 0.060210288892135845, 0.014204407453000395, -0.013536795771442078, 0.036110812581683284, 0.03190054958320627, -0.04603909074625922, -0.027124287422000837, -0.004155355886455424, -0.019178610160042287, 0.04934809995072355, 0.03313570162381906, 0.007000728372965012, 0.01779084254128873, -0.03480747047545082, -0.011622871586822221, -0.0044017731694111035, 0.09393471271092661, -0.048486652802359045, -0.050949090400847136, -0.06577437635626092, -0.06465085789415277, -0.00933749379358407, -0.005020969317210217, -0.05129760836270671, -0.00796608999929821, -0.03376558992131178, -0.09065485233139813, 0.025914486243231793, 0.00030341836608744233, 0.042541448773701425, -0.0033590331442503126, 0.08325401031281375, -0.0007975491776906386, 0.01658894226449337, -0.004709519999358235, 0.06218618494517832, 0.05573202707539075, 0.08131420984883136, 0.05481475410505344, 0.08863309864137912, 0.1207794908349541, 0.19874421347688956, 0.23296646806251828, -0.0026453240184138526, 0.013091576293519295, 0.16724827429769035, -0.14640261918279188, -0.43202718703437853, -0.17228412220205994, 0.019232579775419728, -0.042210852922471835, 0.002158780131924668, 0.013461645515496782, -0.019104526365389122, 0.010717063155285655, -0.02193241079242747, 0.055528967666187055, 0.023369406368935704, 0.027176881722270032, 0.038227476314688494, -0.0023609912535539805, 0.011552877635361622, 0.022749626745817916, -0.012567723711967465, 0.06562644851984191, 0.029507207323724402, -0.0506927853955106, 0.09753124050523652, 0.1153380466501423, 0.5221272649637754, 0.2982099966751616, 0.0232607995066977, 0.35358923263630687, 0.10246932589584061, -0.4145172454916581, -0.6621925985440997, -0.30042797437727065, -0.0812022459708078, -0.02564216551697296, 0.022337277717666717, 0.07863576742785636, 0.043101581457421635, 0.017207826101174366, 0.006407449552955002, -0.04946603835907901, -0.0026102273466090163, -0.016276985828520767, -0.01505767677946054, -0.008261545813722565, -0.07697016335696126, 0.02724376037482753, 0.0758969480275547, 0.11079375904203101, 0.17131447672940245, -0.16438466220645723, 0.07873063171926102, 0.029097719075044305, 0.4483767408504154, 0.21777213230825376, 0.16024099535369746, -0.189852905002658, 0.18614949979912243, 0.2101472764506217, -0.22909105153956383, 0.030783523131947606, -0.21804410778026662, -0.10515418186890951, 0.016257374882298132, -0.04296637408309939, 0.005260056686272174, 0.015977844516115756, -0.01293108972524494, -0.04972808292310869, -0.0014439310779008321, 0.030784666843894287, -0.0463079322715928, 0.04659208799830613, 0.0994688347471283, -0.02121238521787484, 0.06330348520415399, 0.16133389545523422, -0.08516798488880237, -0.22694554110583096, -0.2040801092008384, 0.09857044019162478, 0.7460788174743263, 0.6378657638071255, -0.27955007465833376, -0.5800990061506355, -0.22761231614443242, 0.45663044197143327, 0.12087318762402698, 0.300514530108731, -0.173936859258072, -0.06582261221495109, -0.08522931635482223, -0.0038173931654788404, 0.04259637742408988, -0.019513727671506685, 0.009043350844712472, -0.01402427091301312, 0.005203059954587039, 0.04066283323229612, -0.017522520201661264, -0.015780921176807877, -0.11847285657747207, -0.15310241175687117, -0.17132433989961088, -0.15505313694824435, -0.19917474626408677, -0.8227436828567513, -0.5689675610208792, 0.08149739423693303, -0.24660508644990659, 0.3775852834809129, 1.513148592003359, 1.41327321985934, 0.9757218383487222, 0.884972506994614, 0.22182634769955792, 0.025999820014610386, -0.020005537089393625, -0.15529742808066155, 0.13179950808956384, -0.10042878675634222, 0.04336476894760329, 0.02216378392597026, 0.027720177959866043, 0.019690799636480672, -0.032285377175445974, 0.09330397584811424, -0.06504398761510592, -0.05903044734011541, -0.23865011412402834, -0.17728450756129907, -0.4824155237009781, -0.1356505424215952, 0.19497520952980135, -0.005787037215478205, 0.3876846690519157, 0.3716187039623831, 0.25150062020909897, 0.3597913580165553, 1.9167378329840588, 1.543246233933973, 0.22075586291765617, 0.7602101939580685, -0.22202785513965642, -0.2591567346879803, -0.06494474652142787, 0.00939681965811784, -0.492064370299338, -0.3992442081968659, -0.06629578557877384, -0.044873619142482724, -0.039515495474446743, -0.02777633026207676, -0.04028981057519077, 0.10730750448604287, -0.09176029884352024, -0.17212530703251236, -0.3274945874294061, -0.3442376096750512, -0.7262365486924344, 0.2314982188591277, -0.23858236842545644, 0.5784454388757442, 0.9266816251764454, 0.24782191505030274, -0.43539548920472676, 0.009561557658853229, 0.05387129242660167, 0.03360861569880625, -0.6125600719305273, 0.052418519609637934, 0.1480226462466055, -0.4928008707056817, -0.2071381460049284, -0.26928539230737075, -0.41411975836796194, -0.33914033238967334, 0.146653794108964, -0.006574191691336058, 0.02017578136980934, -0.026063760762336286, -0.00044994903975067925, 0.011203228376152155, -0.08003180083295343, -0.051199434207771594, -0.17252382070310104, -0.31886165428212493, -0.5087479488669976, 0.07098434069578766, -0.5444718576542362, 0.15039170554754827, 0.300694590579913, 0.4379757728469723, -0.012421530096850514, -1.031647748537963, -0.8010553508195601, -0.8627574551783643, 0.24462753618922747, 0.356021851688777, 0.05269559973960262, -0.446018135106967, -0.4066358171057187, -0.09903178256383585, -0.1878241163651463, -0.04637931817073938, 0.06734532140504605, 0.002339229572117324, 0.03544864441748373, 0.03489087483578173, 0.08369324283487224, 0.0866096898274942, -0.14312405519711296, -0.03255950504186794, -0.16413301881972198, -0.28773087533373354, -0.001735733233092393, 0.04119980657542583, -0.14182925310973304, -0.5661883994288915, 0.21013499233709898, 0.05233552748162312, -0.36927263245897607, -0.5915319851950369, -0.9167914368717761, -0.7125699263105435, -0.1908695518239364, 0.9993099243134217, 0.5207289475182678, -0.3806423811457853, -0.050903022713387175, -0.1765308245230573, 0.021527521385848614, -0.06422010674195934, 0.02379884473940663, 0.03253561016119643, 0.031229538881938045, -0.014091223484766323, -0.05962889596891347, 0.0009220567841084707, -0.05051425870419617, -0.05634268319117606, -0.10309595647390178, -0.11400626107053968, 0.24560403032801068, -0.33262414836040344, -0.6408855996094134, -0.5562633261939521, -0.05307996752689345, -0.29507410263852135, -0.25250051836805804, -0.5655709816194404, -0.31110188593361054, -0.1919535106105788, 0.20816979678480252, 0.526330887309935, 0.37290189670723417, 0.07416767806333058, 0.2037079278601912, -0.2679911673934639, -0.083586156088419, -0.07264932646204005, -0.004039439540122003, -0.041038757580885356, 0.013969330371214804, -0.019588971406095734, 0.009008281039696402, 0.028553561577207755, -0.09849114199561619, -0.1673444978138441, -0.32581194809314673, -0.08171386589972561, -0.30174447447822395, 0.02237981326790891, 0.14916262180073203, -0.22027897891050457, -0.48372226667564705, -0.6547015064049604, -0.06042299437846617, 0.3763935756201119, 0.28455719915594935, 0.37749927873429723, 0.02251775940699016, -0.17734091835456037, 0.8074974726621568, 0.09663173471369754, -0.08093934089575389, -0.4639542752611067, -0.42881724431859913, -0.1991969204711674, -0.018368597966486478, 0.004089127840648657, 0.07686711904624703, 0.024696942032917512, -0.024126142522651117, -0.002601785139894665, -0.15509127270425307, -0.3361863956662756, -0.3477854764923712, -0.3914934112684956, -0.36945720089110523, 0.28215648809897625, 0.28952173012281723, 0.002085473611600574, 0.3407831037033055, -0.06945412620269845, 0.21207453851795288, 0.32556452452933304, -0.3695819216528347, 0.37694332493597227, -0.0740950242442524, -0.11283165319398723, 0.6172550032493784, 0.2365047962827103, -0.2429404044700608, -0.5493249440041277, -0.5156903284014264, -0.3136950740019392, -0.053655392695159114, -0.020989463893680022, -0.01152249378042199, -0.0180029487432368, 0.03245663275473899, -0.03711887113764309, -0.16070129800720243, 0.07634736192861549, -0.2135747043541076, 0.04150858380932419, 0.011523042272054442, -0.17165263810105205, -0.4166234164929032, -0.1439325767218585, -0.4425163020021493, -0.7453176752795325, 0.45422606353717676, 0.16180706338246054, 0.5277015180605658, 0.3234827988834615, -0.18917941828538776, 0.022490729234314118, 0.4490293923610864, -0.12005521016131133, -0.5503034678111652, -0.2862337964876789, -0.344305467858637, -0.14647783985087043, -0.1257374752520235, -0.03342820881944194, -0.022587122782343278, 0.029237729953391117, -0.021761326290754102, 0.004247458999197406, -0.0199525865448502, 0.09674000408090452, 0.06932766338104152, 0.3768103642281437, 0.245363921054844, 0.46123268397578593, 0.18230634296428264, -0.22213079291489726, -0.6342020731268396, -0.7012572458710332, 0.35909547561441413, -0.12804987177610333, 0.5202545701427093, 0.018966688836185196, 0.1243410081425688, 0.14431973975095597, -0.06556951000196898, -0.5867947605598328, -0.31212283332098717, -0.07938965346088897, -0.144707065030387, -0.08628109420702137, -0.06454235794877643, -0.0028968890308339905, 0.07077640147944973, -0.02107939528257843, 0.0549489169199183, -0.0018637121101127655, 0.07525849442763276, 0.030801497791607797, -0.053308450846578946, 0.23838926672468666, -0.0003804704469865073, 0.03741705464647928, -0.06965827692663872, 0.08805840160304498, -0.21295685948119605, 0.1813956424256685, 0.08647807992785513, -0.23578026036752822, -0.2845789279887986, 0.5600731845862102, -0.08511949676791705, 0.027761569123784267, -0.808437742560187, -0.5251541128791236, 0.0687718151038677, 0.24036816494268437, -0.07709338654346713, -0.18444550993550418, -0.06274838993585308, 0.010343406362514086, -0.02430883263762578, 0.0913734067513591, -0.07365453433753205, -0.0817575122171289, 0.006686959545692889, 0.09154348243294361, 0.062135564017494406, -0.13705156819957637, -0.3668631447237714, -0.09770593333672763, -0.3391083049751411, 0.13589557066343055, -0.20079024936998133, 0.10882775164971938, 0.07831435372061461, -0.2764113720458608, 0.59902870458938, -0.010561780660144453, -0.07192855508112536, -0.8660153006873349, -0.8955002649295885, -0.720093860330192, -0.30328064587865183, -0.28210228335519966, -0.04583976451576866, -0.3947515878799603, 0.14466006450788557, -0.017613922576837596, -0.026594345561500744, -0.050241965224941385, 0.006522781082253564, -0.06961002961669852, -0.02174109983334546, 0.09556627179486019, -0.19044291295156113, 0.04005166651286966, 0.15436093467956102, 0.3361096083052801, -0.3865508016980027, 0.17560282451272274, 0.4224265514332829, -0.12489373860127326, 0.10852073858239017, -0.2889544560569003, -0.18454023694487623, -0.030778871452589916, -0.21982074679943742, -0.48029940954282907, -0.8824474277541767, -0.32711529582415866, 0.08604874106359943, -0.03523460308374278, 0.1256819363646658, -0.02741718903308719, 0.08238543223423532, 0.08088415141978794, -0.005639400513482348, 0.007388952393527462, -0.020579287574550995, -0.04918050898526785, -0.15050845344623356, -0.22967335565023905, -0.5118377710804487, -0.31250075236932157, -0.04053409053835096, 0.5009082254094054, 0.007537096183441097, 0.09785879271192217, -0.05867581588594872, -0.24307956473448422, 0.15105586279222957, -0.1526481820484583, -0.3742076366183964, -0.21137497469873615, -0.1045930790910314, -0.03365666137500912, -0.18107608254438795, -0.025880125644234055, 0.001380834693066685, -0.03339820603104595, 0.10681107626752046, 0.10541641407975788, -0.10301940894692971, 0.03312224439514652, -0.020020119932419336, 0.011365882277619862, 0.01632103455867712, 0.016890411374224926, -0.14238618623438312, -0.1717155253610499, -0.3616901649705863, -0.5520114236007533, -0.3302977794997314, 0.2434604965206793, 0.10559918116517324, 0.1684374030054793, -0.08735326185304963, -0.31781254950871796, -0.12310131257558679, -0.6253532177719038, -0.18830644864272664, 0.2649247361324513, 0.10448940219643811, -0.19713603659597115, -0.24430774585744108, -0.0654281152886525, -0.2975785646716551, -0.10085873355684838, 0.26043744606847313, 0.10141361086801833, -0.07348309974843188, 0.019681711017495412, 0.04163330330531909, 0.05569522506977127, -0.014403089261198036, 0.02043882468007477, -0.20220297466118103, -0.02225820962452263, -0.10263654864404492, -0.5755998472911592, -0.3129657362775413, -0.08087978388881507, -0.2678738933400456, -0.6118597388379223, -0.4815371164812016, -0.20190027602457625, -0.15376807833198397, -0.4419826450609801, 0.05156098645235126, 0.21706290170867917, 0.12944698788618333, 0.04263402088686835, -0.0199745804602612, -0.26388201629830904, 0.10372808230091403, 0.078200041236178, 0.2961810470798781, 0.17872193875569284, 0.0010896831860340793, -0.0900589162829499, -0.03396595279278246, 0.020750060620110596, -0.007842271742401454, 0.042038128813899005, 0.1133553019805948, 0.12430889405115769, -0.029057432221297842, -0.37063699378047926, 0.08154419922051256, -0.09884275162461932, -0.01817285610785173, 0.009847241646606135, -0.5415374385070543, -0.23182547940434167, 0.3639719534144698, 0.21417442633876288, -0.452864149420138, -0.5637896032912557, -0.36836289913775, -0.22311043914300072, -0.13004430696091127, -0.230759877232471, -0.18070838294291547, 0.013565202553586267, 0.21456627269052786, 0.14382896547533286, 0.011869504288570715, -0.004829106190766669, -0.030315742851803558, -0.007954371285515448, -0.006838094178695297, -0.06353316122725217, -0.07188903121908471, -0.11462678203177878, 0.1409965493772207, -0.2130602897887094, -0.11726865690011745, 0.39714766159915993, 0.026964510525741208, -0.06973524449719577, 0.12430327011363368, -0.28172286444131145, -0.4925892235148177, -0.31411253537580114, -0.1699357911235567, -0.3446472911399209, -0.22063785663615423, -0.4428905976859289, 0.35262702922079425, 0.009976655286821528, -0.23161370214603047, 0.1466186991136028, 0.1858585414262892, 0.11768719735048816, 0.011697273637879263, -0.062042411077123674, -0.025960951468251375, -0.0305262540850904, 0.004326958765578461, 0.002843971783707588, -0.15898581798492836, -0.050847744732398704, 0.0938377345243317, -0.04764877227632093, -0.09908412929871312, -0.037419013443615194, -0.07531521795193676, -0.0768644438661755, -0.11879034019944024, 0.027128107122798208, 0.4383808934275324, -0.11145632991908032, -0.2844485685793381, -0.11867919993510212, -0.24067409528551442, 0.08057426035876457, 0.3391883331663804, 0.1945279959253512, 0.0573181592021914, -0.03146948873447285, 0.08923630853000519, 0.08575136512367798, 0.033615678106483506, -0.02764293174220996, -0.0305061758795035, 0.06087283700338161, 0.036360386817434906, -0.0002667672043062659, -0.006943064087781464, 0.06493510997026043, 0.07176613649990003, 0.08057167875225706, 0.08214475254878552, 0.0855154339538336, -0.3208525213910676, 0.27368034778845707, 0.1939134990895063, 0.5111014814199395, 0.2540414966385962, 0.28254165447956275, 0.3994347939041137, 0.24505901353641324, -0.19200417439252843, 0.16217988653985274, 0.33717778875314414, 0.418088150027962, 0.1362946066093157, -0.028163541664996197, 0.06344685579407434, 0.022664762407792954, -0.022787214816302904, 0.030284191598764755, 0.015315137070390469, -0.03874757772156758, -0.06921942565158232, 0.00858439574709628, 0.013702270101053711, -0.04323836445486375, 0.06717553533807516, 0.02012859378295158, 0.021255331747471778, 0.001985775822628183, 0.010343673589777252, 0.04830482761911231, 0.09264161254452986, 0.07310923853060047, 0.21886318030617893, 0.24977905007826356, 0.1279931466571759, 0.10931634147250503, 0.0053226148138266855, 0.0682943048564205, 0.02004298067624045, 0.05737097921789317, 0.057340801432960845, 0.01940830308105967, -0.03469755723880744, 0.029729675428793477, -0.03866863548447268, -0.026027856533634677, 0.02371955417911914, -0.000516056378243305, 0.027394718112857826, -0.06524564706006686, 0.03224498065918883, 0.037298337123688005, 0.031650011257691756, -0.027466393649048904, 0.03878246500246761, -0.018322432210497085, 0.0460689922594663, -0.006697811897332204, 0.0037908474973049194, 0.004234177537549409, 0.023095974301389655, 0.0010077487974917204, 0.0008010456717177623, -0.016339960570072785, -0.0411159467819419, -0.03990627050712069, 0.05440828804268353, 0.00039518841923983326, -0.06748879569555953, -0.02679535394566046, -0.036488808849959746, 0.08144523615738349, 0.03652998674599835, 0.030171334500885348, 0.008277757473329376], [-0.014023980300635435, -0.005462807566131089, -0.0452532159782243, -0.0013956819477279757, -0.04219210365883902, 0.04269820482659053, -0.015555163813142965, -0.025006468032299143, -0.020927659623266683, -0.05542054234760555, 0.02235274985545548, 0.008037287844466768, 0.066667684479646, -0.05356559041424878, 0.02583606578813427, -0.00742453517058024, 0.057918344590688356, 0.011625427165602043, -0.039960877353769984, 0.009700117590574738, -0.06430712417465993, 0.00019736346297556754, -0.018840335842421622, 0.01855888203779366, -0.04390822557685554, 0.021474336262466774, 0.06312059250303004, -0.015478260797310975, -0.07333727282582024, -0.0034018708997619806, 0.026351397963637214, 0.030357203597131458, -0.004438143422038481, 0.030540899079203494, 0.05215818616139911, 0.026973722669985323, 0.01844786232757635, 0.04136994926816762, -0.0503324226517655, -0.0461664599489322, 0.002291455102186838, -0.025853896013835635, 0.11620847365227137, 0.1959150551804174, 0.09963773877120767, 0.04264497252747866, -0.012293674252911469, 0.03147738339582109, 0.0017555997141955595, 0.061872460217404515, 0.04890087206759753, 0.014048889648892135, -0.04517022546077911, 0.0230432753255985, 0.009990089403076776, -0.02184365224060971, -0.01969376146796098, 0.01941350888472176, -0.04140066984473857, 0.05313097223213543, -0.014355141835771393, -0.05231436919515809, 0.010244374531706691, -0.01539994207385184, 0.03597340592478564, -0.055901376584352826, 0.09560285972476905, -0.0331418524729992, -0.10078647123996015, 0.30910164320139416, 0.10998407310331566, 0.2705081632396491, 0.06022666162090466, -0.17565462991888667, -0.1677733677976268, -0.03049932082209475, 0.043047733289422636, -0.030077202101361725, -0.030338593598810908, 0.03050632223683712, -0.054862432804140215, -0.02425211702078194, 0.015575467272612773, -0.10052985677134164, -0.024896667866400234, -0.07310012530349921, 0.02661846669285559, 0.01357791750803986, -0.016705580300927773, 0.069270450153264, 0.1419956552902337, 0.07347590401102684, 0.07287441253355827, -0.08020311347462171, 0.13425671553594012, 0.1810083446694439, 0.47449550408609875, 0.5875489354144313, -0.14325483497590613, -0.39612293344079463, -0.02130143195274615, -0.5291412515241057, -0.42477459143026247, -0.38925745595744604, -0.1457118143971612, -0.19735096874834673, -0.06576696481837499, -0.030005957388653852, -0.00317485210003223, -0.012495627044822148, 0.00978628466127525, 9.055245008845182e-05, 0.03957703171064084, 0.08659061514309856, 0.040756728444449566, -0.016787993098338477, 0.048796957252405716, 0.20068871162435442, 0.23798871242084388, 0.03145223101341873, 0.6004088226747213, 0.3421356849395104, 0.2661664063755057, 0.3509449650036202, 0.48599891414353436, 0.3914887224649391, 0.1474440983610577, 0.23088038450034817, -0.28521753796844435, -0.514696760687113, -0.8648259864098, -1.0986522817457232, -0.973267908001505, -0.47882875420932974, -0.49191866299427306, -0.24268948174064106, -0.021136077037973062, 0.010461860245867212, 0.04870820296857874, 0.01689740056967105, -0.012062968923015548, -0.06251022738584633, 0.023948335694022858, 0.054305587271670806, 0.412712093503225, 0.6707756004789678, 0.8207969211236388, 0.7849855133874497, 0.5338574476282109, 0.203877221984618, 0.6059118821440278, 0.02876018303104123, -0.09499720597631782, 0.5032978531921688, 0.4500933357485769, 0.8422443561060623, 0.16174623071632613, -0.40745255010316156, -0.31529493816828313, -0.8647122184488841, -1.5683509155006472, -0.9206265598103158, -0.6089894843836567, -0.3702475100285986, -0.04065058240274928, -0.012391051574805512, -0.0003487641814107219, 0.011444646881539716, 0.027314226308017598, -0.09247190819857223, 0.008264561261077562, 0.11469063887175786, 0.32436430942682726, 0.5009204017179836, 0.6332824565880912, -0.08585759753922122, -0.09060296245509206, -0.19611026924234692, -0.19457098581653953, 0.17866380857685563, -0.2102312560774026, -0.10601577120567397, 0.26088691340696923, -0.026164814031975014, 0.596704482900121, 0.09668899080476875, 0.3710695696204, -0.5129288945208151, -1.141183097322645, -1.0108447186596405, -0.5733300504975061, -0.19914800929031226, -0.07885550258196818, -0.022591230599090236, 0.009404510634664947, -0.03029690800291541, -0.05428635409634619, 0.029269348939902677, -0.03508315162943459, 0.14278040260550412, 0.3233435203497572, -0.13963878407894856, 0.2118053225744829, -0.09977131857818089, -0.39163238197703776, -0.4368652563631626, 0.03432079345361999, 0.11379519290307348, -0.033857775044711824, 0.11598661088841349, 0.41798873546445103, 0.10029735815207524, 0.20587415221571162, 0.1048709348607434, 0.06150631694335191, -0.8250586393654531, -1.428181459572418, -1.195994866943414, -0.7602968940913664, -0.23868382073122735, -0.11442552509683522, 0.015764119514728732, 0.03127159448195264, -0.015215178584049457, 0.022301366101846493, 0.016886836596220405, 0.002623529178597518, 0.10534513138294659, 0.38994925926561746, -0.008421339460446618, -0.2161630169289578, -0.15818936676753545, -0.41204951203943513, -0.06936426485278399, 0.6386037805782143, -0.6631862696857647, -0.22885789403820656, -0.15231253828445246, 0.29880319158046453, 0.7035393477423906, 0.3361820200947542, 0.3892257270577998, 0.036253533502566104, -0.33442334361649795, -1.0543504315401595, -0.952064470097749, -0.41807794308198554, -0.33285630647088654, -0.13284526326242077, -0.0943971998865778, 0.006758754891902369, -0.005709934416972094, -0.03866686376883506, 0.005017997714665157, -0.04402253237077589, 0.10931017573920065, 0.22775520773495272, 0.09778409655500674, -0.10335754011454402, -0.32119834409536063, -0.6837643975844416, -0.41705829887822143, -0.5111185530694206, 0.05875680095390304, 0.10187567344727444, 0.20132821471636422, 0.8320178582510387, 1.3612637893250918, 0.47826856222394415, 0.35767586623831127, -0.4567673234409546, -0.8173384561101157, -1.1779054141812495, -0.9045782944549878, -0.5087401816597658, -0.25207810558026655, -0.17919939163057075, -0.036114338544054984, -0.007242726639940055, -0.033414161038711906, -0.047191967897802965, 0.006331450384812052, -0.03852307267374062, 0.09978350180315221, -0.032063055044518826, -0.16465244670095378, -0.23800992975426494, -0.24964215144278218, -0.29847236571657704, 0.11944566130126519, 0.04931464772693158, -0.054001614841407156, -0.042967089196911584, 0.4394592038603522, 0.861215600733945, 0.8652404474825534, 0.8482066600996029, -0.029229744782396434, -1.1253257433290247, -1.0899224905613827, -1.0616436291046494, -0.6608543622393098, -0.2456274472728493, -0.16668551600359127, -0.12341487492465668, -0.01946621420915478, -0.02811970377955906, -0.010732397011093818, -0.03758681634589959, -0.0499448779701381, 0.03712762531612226, 0.1363973356186729, 0.04718031065890061, -0.33745685962966415, -0.3284232538716643, -0.1579280360948948, 0.28274625096439243, 0.06390552351026521, -0.053521874146730736, -0.05776187766080626, 0.36412318556364315, -0.23274175922656334, 0.42363454413342827, 0.522424424567732, -0.058736964835501705, 0.015653946402653548, -0.5377868459431161, -0.7610791567624772, -0.3884268719002004, -0.2675600713055498, -0.1310021839170169, -0.20981264608224925, -0.19578991567726217, -0.16932477497352325, -0.05929213505364377, 0.029707397334258107, 0.0018028876791594268, 0.07746125953879678, 0.04122615862814301, 0.000877749437341326, -0.08584060213480765, -0.17091257532250062, -0.24298998734416147, 0.14957809875268147, 0.09744920176456935, 0.11291629761516331, 0.11876682762086764, 0.12331483874309974, 0.06394408405016112, -0.038193718535190935, 0.9746873057214012, 0.03833640014866945, 0.03040192996748735, -0.4756264080034869, -0.49507425480728773, -0.70945808482779, -0.514241184171285, -0.3202770780879814, -0.13686912472791843, -0.03807585077342793, -0.004563024595444728, -0.04217047868044182, -0.05232225277952406, 0.06505894141552064, 0.007801657515523387, 0.015318803968955014, 0.002768802821715277, 0.006735244282552043, 0.053237922170374374, -0.2245054650944542, 0.11441654346644121, 0.0787639986720293, 0.3285376587113663, 0.2531216797617297, -0.006187234833541548, -0.00888011130108367, 0.15159042354130223, -0.15191346332014888, 0.5832790579460756, 0.1632660966446188, 0.4095392056086738, 0.13870355144864382, 0.03849039734300699, -0.5364739937012277, -0.0866040119817061, 0.22635005034673247, -0.03646340948817321, -0.09509502763817143, -0.021945344476371878, 0.156999441548985, 0.0906896227598063, -0.03520604968460634, -0.04334586998379943, 0.02654374751482244, 0.060922164593413625, 0.03819019661364228, 0.05507604287363563, -0.1385009334452639, 0.04728697835626942, -0.1419260647242053, -0.005410201645667763, -0.05921760110152327, -0.09937418531893322, -0.2694436652747627, -0.48608139220467206, -0.1898600032335214, 0.21952373669527198, 0.4618175813346917, -0.25787270774419246, -0.771858245899342, -0.3632481314814302, 0.3065814067293955, 0.009004847089200086, 0.491172986447688, 0.1438987931215333, 0.2515597586505181, -0.05810389612421421, 0.1134556199235268, 0.034449005685037615, 0.05806144129004421, -0.0563578855126909, 0.06019531217555709, -0.00020473424256967667, 0.054538564384191114, -0.013271209486746082, -0.03134469739360764, 0.17758775896961165, -0.16088978215095154, -0.4908123246261132, -0.1441063055863797, -0.23975341637440017, -0.2656375274876354, 0.16848933514668155, 0.48882768868071486, 0.32833453353738734, 0.05049264265620057, 0.06336585264951901, 0.22684694914994594, 0.1273975439364897, -0.01623923929885318, -0.26163765470297123, 0.01845531193358751, -0.025205752244929696, -0.23813285528196798, -0.004211327643236876, 0.09664538721552814, 0.06479381863847103, 0.06802121576589659, -0.017526651409740857, 0.02573163600245829, 0.007705991063946977, -0.012333267274234809, -0.012353207103396175, -0.20198424170276766, -0.056605044546493545, -0.1674476914387518, -0.0955452353757465, -0.14006835955823266, -0.1707789799308152, 0.009583483244354405, -0.10062597642929359, -0.33118034822778925, -0.22550488028845175, -0.37098835754087284, 0.01180851319343042, -0.8924401109858914, 0.006835778614171737, -0.04121655118399395, -0.46310320647534486, 0.14723895544932156, -0.06993522274132549, -0.11577383372335964, 0.3264250950667984, -0.07328219394245486, -0.038338894227527134, -0.03813862555378324, 0.019473268559561458, 0.002636323735129156, 0.024356749853074722, 0.1080050755166007, 0.18349850525467748, -0.12929752608783338, -0.1439876373088513, -0.25554488180707696, 0.03834213081941402, -0.269676126494403, -0.25665005426979937, -0.45797391597305825, -0.38253349462932995, 0.3120141580662904, 0.3977768738706035, -0.6270627722772223, -0.007414993234126144, -0.4167395560991018, -0.28498131483986944, 0.08477082969634585, -0.7447674176538043, 0.40042471738879115, -0.31852391817271714, 0.042387728348558584, 0.10731465807701861, 0.18165197351808354, -0.0028414263185238993, -0.06344808589418625, 0.07331217190719225, 0.02732753691707605, 0.034188942961177395, 0.16296810871242695, 0.3792016533869324, 0.1907742999321932, -0.14135977066822397, -0.4729026619867421, -0.11366905600102634, -0.18759431686950015, 0.1390512254193903, -0.3112215118689115, -0.41482048326774673, 0.21177907580495728, -0.38504118168389134, -0.23740468497783132, -0.06469216654350317, -0.04093260090643967, 0.07997204930685188, 0.2486646727784894, 0.01349484013688162, 0.17863027459018183, -0.19841907390542732, -0.01302696620497581, 0.24952527213241094, 0.17842217318764603, 0.004233871397126487, -0.015617851646616622, -0.00425469126386197, -0.03604939273800675, -0.15419983379516172, -0.014944836042291309, 0.10478553453057664, 0.21452535450961177, -0.0386131964196643, 0.4289068593617915, -0.10860655102775721, -0.018733560781609204, -0.27602259388916245, -0.6296857722983226, -0.30734668729660425, 0.25688011215831946, 0.28020841334422386, -0.08464921780314075, -0.2600382581358603, -0.21256222360294905, 0.35580175713910434, 0.027927869295696225, 0.07656165494451683, -0.47583317152548915, 0.20755570901922127, 0.07777620671786663, 0.3080008114086052, 0.1963072287354236, 0.08024244016946107, -0.003193615779675334, 0.0693161976724596, 0.00033610420635913474, -0.12078390514499877, -0.04883432977289641, -0.28650422344226456, -0.3458394366806405, 0.23919993754856145, 0.6788612724579576, -0.2472744835783197, 0.814713037613671, -0.22623935622838123, -0.08793783177490325, 0.09122571881918026, 0.17624812970348483, 0.3909669093379259, -0.1832420799003482, 0.17840803557087823, 0.18936276674464825, 0.10654865570064857, -0.03395339571222957, 0.3546746004369059, 0.03258122793424429, 0.20876875951259896, -0.035035539891526406, 0.24280768923395565, 0.07335586559032638, 0.04766766331890937, -0.006924357507819258, -0.0071013580131693, -0.04386033661194889, 0.009289893450928493, 0.02380691308082928, -0.1322453782775326, -0.49789517291132607, -0.224944020027592, 0.11746742990157265, 0.2470730032298692, -0.09284636295446459, 0.14917565522729828, -0.2620025570304598, -0.37867304644219413, -0.1527131180005648, -0.12757150621313673, -0.12387287878226083, 0.3325376873242849, -0.46272195775272645, 0.0625651411628854, 0.3464460195969754, -0.24757314790420096, -0.20017460111132004, -0.17179773017894331, -0.10977457972392851, 0.04269300755298582, 0.09440408283851826, -0.003292040545859132, 0.005268975856674464, 0.03252233356788967, 0.035398362748899445, -0.022338184685371496, 0.07239716262087943, 0.12965744634635076, -0.12436931977021998, 0.1372267809972837, 0.4005998715452607, 0.21318818257976832, -0.26880053232485446, 0.19364136929096543, -0.04743842081652421, -0.5249493079166815, -0.25420826466370094, -0.3742454310778495, -0.15661705375505722, -0.5369001331282957, -0.32468251915184676, 0.4624170985690806, 0.24725742505356277, 0.38626680393333984, -0.11771225849288629, -0.21804664869664675, -0.11187468945264627, 0.034732994352504265, 0.005168289793963492, -0.04311842921112065, -0.0690386481748462, 0.015344361721055997, -0.004320016038045131, 0.024133035124191096, 0.06565380424833321, 0.15876726828248336, 0.013634113746809003, -0.03830718660009231, 0.20193721113275434, -0.05286335964074487, 0.4405642219634945, 0.041610161558978724, 0.15045745191608847, 0.26026704755825125, -0.09660186861889783, -0.06475561553098746, 0.030314263923228245, -0.40517219079304034, 0.4153180012627333, 0.22895933485415204, -0.38518059821822526, 0.2786503795890201, -0.1825915356345362, -0.24072742896191365, -0.18163064892487008, -0.021444993838394478, 0.059135312133865345, 0.032657990671488675, 0.009299260909639395, -0.02254785795906971, -0.006174077073312058, 0.021016488241832634, 0.06360264356230036, 0.04606362218132525, 0.21401286676275813, 0.18962359529942704, 0.1955511849553568, 0.20290430602505083, 0.4074221117603422, 0.37301120675014054, 0.2807293535295538, -0.07509284389423052, -0.2902823897770873, 0.05844195647256345, -0.4357428719149646, -0.10458349534884925, 0.2728570599021757, -0.23011521946763416, -0.23677164338025322, 0.024424643690744124, 0.17275697510146254, 0.003541930010872262, -0.14866273043487555, 0.043498537790524684, -0.017795016971509026, 0.01305517021045663, -0.015667074486434174, -0.03055551859508166, 0.030540672269306974, -0.0020306661049566055, -0.02580325362977462, 0.029863311665140307, 0.2067635267909243, 0.17379843165239559, 0.2561599804226125, 0.23779269003230205, 0.015822986824996353, -0.0919884432495743, 0.026462068151504328, 0.10423988128360748, 0.14163543864484301, -0.10101884638817447, -0.2222738722145542, -0.011450965967342162, -0.08808902748074428, -0.044273284790805174, -0.019239426262891036, 0.0053752763908862765, 0.13610864946416096, 0.06044685603577064, 0.032411118122796574, 0.026622866126725923, 0.016504613207646276, -0.03964514941644004, 0.03924140783212256, 0.01032757287249388, -0.023306073871696337, 0.046010689756813786, 0.022984724916989142, -0.006618236509975223, -0.03217243854429426, -0.04346776108053518, 0.031125340919002174, -0.011975808231685838, 0.0003511875394930353, -0.008773110063248988, -0.05773554571722413, -0.07443129408872808, -0.11020972132549904, 0.003674673018613458, 0.14981429233567148, 0.10669901324773089, 0.07207461667549755, 0.09042167452277071, 0.06831209920307904, -0.02357825734299215, 0.002301676584562172, 0.016037239952939774, 0.06270153114802543, 0.001530227383820992, -0.0026787983520513473, -0.03513695835036011, 0.018266919918328534, 0.0522412260747952, 0.03477850643986219, -0.036165727101414934, 0.06016681195975048, 0.0033959824416889316, 0.05243669736468387, 0.05155144323000581, -0.05524758630937234, 0.037584217072331526, 0.060337965015053695, 0.0030130617462035426, 0.020606362478349422, -0.026676608213159567, 0.06394195345659462, 0.019225606217684044, 0.0051991465815247355, -0.0036637244766364228, -0.010560359938328502, -0.018059459329004213, -0.008923207968159718, 0.012621345653779016, 0.010936158190991736, 0.04831124078484912, -0.039421149727973004, -0.010037798898782316, -0.09051753707453322, 0.017948599461951188, -0.04767873121572825], [0.024581622725126318, -0.012257271026335044, 0.02069821567329133, -0.013683428533655975, -0.026450103401967736, -0.025623602610219984, 0.033623465587780975, -0.0608236789487373, -0.0387190121602124, -0.005045867030550218, -0.016553100623358304, 0.01820275476061984, 0.021542585971721664, 0.018328719640135247, -0.004722531452057846, 0.009435094646579854, 0.01689652755614403, 0.0135377003714583, -0.014649976255396772, -0.018010361359953715, 0.002999364540806112, -0.0007484476548361112, 0.03897126990239822, -0.020158794565460356, 0.05890203994513591, -0.044147066674062804, -0.006010782922973252, 0.006758791700880576, 0.03888246389554989, 0.014635864007758025, 0.0294492305398655, 0.009530741933996226, 0.026755155656656975, -0.0007738786988485565, 0.008733458484909203, 0.037175081012405714, -0.03956296092985589, -0.029139824577381308, -0.0269007962576012, -0.06490431774628491, -0.015796270355243, 0.013469407192985875, -0.022518431848439973, 0.030480885650296975, -0.10294460214981477, -0.033256841487929234, 0.05772341423844471, -0.030900717917369307, -0.029696307571722612, 0.03890246329867652, 0.026900000386960624, -0.011372609407120995, 0.0069568012984203, 0.039142446738632784, 0.026316558236946844, -0.02894204975724488, -0.051775703726623615, -0.04694382124035384, -0.02012067466191634, 0.021918538780483096, -0.01667669406304335, 0.0639753899910342, -0.057314878726706195, -0.07019254743787867, -0.024334631283051, 0.0020168760715337567, -0.018782217796807835, -0.05754526888782189, -0.049183943663361596, 0.08564791386050295, 0.10323888731860456, 0.1722977117152627, 0.12849289535011058, 0.009506800864731395, 0.0005633756086373843, 0.07252751517056104, 0.01626886949581161, -0.0393699519271307, 0.05294313620347745, -0.022917899713313043, 0.010285307918403454, -0.013834418673159167, -0.0006489958435356261, 0.011031795837245633, 0.014876464592409874, -0.02086181527615493, -0.010390364704823348, -0.013224447417934939, 0.03994770168365576, 0.020647581407955536, -0.021366414730338297, -0.0221305004726394, -0.07734725628122921, -0.10035302451754022, 0.06695574083822982, -0.030467684957788413, -0.36759766344145345, 0.06570157652606723, 0.3907985222741171, 0.49892168210653565, 0.25630425550642516, 0.4316062126796647, 0.48785570330177885, 0.17510959239444615, 0.1567027585774196, -0.1724449925724839, 0.014796624595953687, 0.0732278954866229, -0.05529992260027318, 0.060559791199500515, 0.0899142496588005, -0.012597836408047425, 0.08128304173789744, -0.02537282298482481, 0.04543861794199633, 0.06487093130853547, -0.019340338247442555, 0.04386374862325023, -0.000327679245220817, -0.03717327679528581, -0.026577172664406255, 0.05574291792428805, 0.15010287348347662, 0.24487080595197372, 0.453701206159978, 0.6066996921303549, -0.16791203084298414, 0.3895214319384582, 0.854334279709123, 0.27397261112962296, -0.0348184677916429, 0.28718917394421245, 0.07869394389855004, -0.3343819277313555, -0.45491035016561016, -0.5211145851935933, 0.029646586230572727, 0.1006099746075877, 0.03847395034895759, 0.03913172778799635, -0.017832287862666038, -0.03008268266829872, -0.019689960096554236, 0.012591132987366147, -0.08034872329349241, 0.01851398013028228, -0.00801229900193374, 0.05045699690666832, 0.10017679254973444, -0.030327566834328138, 0.20310496742030662, 0.02408612102750275, 0.29014282382308804, -0.11819461795708175, -0.5457692063768713, -0.20609914134391835, -0.23284852244979765, -0.12077122065123667, 0.2871964197294711, 0.7778825376671441, -0.17734471625084883, 0.013612513830363033, -0.12731219576819613, -0.4150358266127719, -0.17842873327244108, 0.20798547484810143, -0.09704753929242639, -0.02016604336838916, -0.08401164803788211, 0.02448564471234113, -0.03988966503479187, 0.044152009149910645, -0.01896606332606274, -0.07102390115802337, 0.31811353999700953, 0.1585555883608566, 0.36949555079031854, -0.17614979283462978, 0.30779573027322943, -0.585813318177916, -0.375425947350715, -0.10418088399788115, -0.00843809944056789, -0.04613268363873801, 0.36980296423930537, 0.789495954791433, 0.682043650854731, -0.5929117980910779, -0.06700102744831303, 0.44594412866310473, -0.49360737280071704, -0.1727518027598361, -0.568769727354719, 0.16055164914541392, -0.026262648222795244, -0.08096264727503932, -0.03392097160004747, -0.07548584938080136, -0.030569236630442233, -0.01629247630406369, 0.22093823495697718, 0.13155416072371298, 0.22116542934550512, -0.14672373248378442, 0.4190746733877112, 0.02369905538373895, -0.11201001977826507, -0.8378553181140289, 0.21263467462141897, 0.005512072964415102, -0.15168890770283858, 0.03523344263156245, 0.1399302431537643, 0.18035568703008645, 0.33905028086286315, 0.7073712221294409, -0.06759167808224734, -0.13566058864607677, 0.09369557986659893, 0.3241744317189512, 0.0984622188749597, 0.12322306017427673, 0.05871570494131392, -0.0514421377847054, 0.02040209449391928, -0.010415780592286594, -0.01587361882393318, 0.10343128822264844, 0.46039588308080304, 0.384865084143068, 0.31629559594548046, -0.4218664982113879, -0.3945944945056696, -0.4403487211926918, -0.013164648112892445, 0.14864667777492077, -0.07408157291187416, -0.1603010993435017, -0.5253245827652926, -0.47279429117048954, 0.25088488523373287, -0.042267904651115976, 0.7598382522522619, 0.6486758547166118, -0.26487877760880835, -0.1927642907170834, -0.023478937277143362, -0.3596288217835381, -0.12576819679708137, 0.2217721714507294, 0.05557793726424369, -0.006083829371154279, -0.0013777054303957795, -0.061916029785051695, 0.016083024674707975, 0.19157658759297921, 0.22583905258167902, 0.04415004234729986, 0.09667921702317737, -0.30300859715688205, -0.07738004028553593, -0.08986872719970738, 0.5886148493971343, 0.2754870262195497, -0.12412134808647451, -0.08822304241875972, -0.25784506687681413, -0.35718759355406804, 0.08528039459172006, 0.6925675337878545, 0.0194286474430196, 0.39050823901086656, 0.6854329602910019, -0.12799473086310345, 0.10925954716387784, -0.18681557934203444, -0.3722357207348294, 0.3738580538659066, 0.13858133303312684, 0.017098085835215455, 0.0644826742737621, -0.0053036978055169765, -0.042603325960152066, 0.11874674399450437, 0.04393500710160064, -0.32705949835348874, -0.1647382690573707, 0.15107047917085284, 0.14191272958444684, 0.23328631397401497, -0.553130420522794, -0.36731347575918216, -0.39083970751715474, -0.7982991824089527, 0.011840780241698346, -0.7037889659573304, 0.23913239996771762, 0.7787559364842697, 1.0157429606167088, 0.27260725982896916, 0.218682185795224, -0.17569724184825175, 0.282843133273107, -0.3343415302126536, -0.9463335057180965, -0.4960960494967893, -0.15205550093540735, -0.006027001625044791, -0.012218321267758398, 0.005334071037115878, -0.060606578692495076, -0.09864120411024326, -0.14482041405958807, -0.036528029826413407, 0.02860383679619652, 0.11207467799579979, 0.29319744736989906, -0.03913552150520507, 0.3124501945473675, -0.1977355768814892, -0.1915161470077509, -0.19529904378591828, 0.06982150847213094, 0.055687031016481064, 0.09800531800975164, 1.2564996196205507, 1.0459221750379228, 0.4291333635061496, 0.439949312797181, 0.5158365914637089, 0.19482937205030765, -0.7003205469988022, -0.8665260802038086, -0.3259291713759464, 0.07659639154232763, -0.029499039810694898, 0.06461981960439529, -0.01045733190980923, -0.059273135515398125, -0.01320691673101641, 0.009034904410458388, 0.3708173555986997, 0.1900943806941985, -0.41657518846127595, -0.760118902700279, -0.17262348595265656, 0.4559571029920154, 0.09404690418044313, 0.05109058099511173, 0.09479609189295393, 0.13035747188301508, 0.44901769229047184, 0.29553578055847646, 0.9079753123697623, 0.7997297686913492, 0.46703295392465033, 0.09304480207185228, 0.03027712749014818, -0.6512795177997704, -0.43808320341860124, -0.3630314368408414, -0.31210187273981355, -0.09707527341365665, 0.0008939774792052174, 0.036225567112529375, 0.002781209125146981, -0.04945107299127979, 0.02433959883474074, -0.016823334702791005, -0.21007347673548993, -0.09730464011073599, 0.10099512299753832, 0.03173247528038297, -0.18896461674436194, -0.20842219016762745, 0.26652286275042775, 0.12456066877770705, 0.18740832779332814, 0.7040248360171524, 0.3390269202360606, 0.11262016655570437, 0.6607295242623518, 0.45939811593200935, 0.013538886889240155, -0.2192944094924145, -0.7440721260662005, -0.8548674266337796, -0.8387743108750269, -0.4272758652690911, -0.13083425640930713, -0.024508917207830345, -0.08075962612645786, 0.04078132111493369, 0.026446114701823245, -0.07955826887645763, -0.02403909111087186, 0.18431887786318477, -0.11427676894710906, -0.02122180197744572, 0.19023300545749985, -0.09060919971205479, -0.2424044536605996, -0.45092328338827536, 0.039018286653109066, 0.21841983571478923, 0.1846516520212885, 0.7291541705044636, 0.10355276442250431, 0.2638937271919513, 0.9736867877189984, 0.1693131345144556, -0.8561265726822358, -0.8273444797388777, -0.3325947526350859, -0.8037601840142543, -0.8289324715281995, -0.4806698442295055, -0.0212238977598099, 0.00870744013059509, -0.0024463999784355506, -0.05875282987428383, 0.01194979854181044, -0.009958308442352888, 0.12732510990311902, 0.5495636636367268, -0.3708640097603858, -0.6833147271548802, -0.34773552417494263, 0.16293569555109777, -0.08868491300661403, -0.4675894963393346, -0.04264251678475112, -0.09713310027117332, 0.7131314827378358, 0.35376342804954913, 0.10462028458034883, 0.6518632731529219, -0.36773373533266607, -0.8463890210464828, -0.361069974856814, -0.6571756041351953, -0.2574042473177922, 0.2540175600253879, -0.2355484975797762, -0.2436765590696357, 0.05564996760542869, 0.008673525957886752, 0.03815555147103664, 0.08057042492966657, 0.016798759201355425, 0.0374787914354626, 0.19104044290730857, 0.2399150583147404, -0.5494782121056264, -0.6230397335069977, -0.22970105232480412, -0.2935386149620167, -0.150931633695918, -0.14104303265791493, 0.009089314351403073, 0.13504381692415, 0.2176401701116703, -0.06819100529747096, 0.15562866499568537, -0.08897578221643701, -0.7205271150190953, -0.6420785281602265, -0.15092130172521814, -0.07749339956205728, -0.13688939769849898, -0.06210794538091904, -0.007797907211419506, 0.0466772202653348, 0.07741820657460374, 0.008916021772385872, 0.004887023294826337, -0.028179442700537342, 0.0029888398169556425, 0.14838787920477672, 0.1438750289918943, 0.17832619045120207, -0.09831535212491495, -0.278764469525142, 0.31546746835724443, 0.18841901791840024, -0.12645780532047413, -0.35414880867415427, -0.604611980203379, 0.0022972298262122835, 0.26566388069766994, -0.5165302842689222, -0.8655457867810035, -0.38402966276028216, -0.3900377771763672, -0.21605022236280164, 0.09949942329721834, -0.17240709096267204, -0.15460487969209244, -0.17277103942290928, -0.07191825466115885, 0.25113009248192814, 0.03438164053568477, -0.026779417145385447, 0.0357011230125148, 0.03938754730224575, 0.015741757182874915, 0.06575494171374521, 0.08376086869913153, -0.22656016858559644, 0.3466623624186262, 0.14067086345965835, -0.22747601983464502, -0.10333813968597434, 0.34964973430971946, 0.05499599765039443, 0.12465640958515929, -0.20955977039963286, -0.3228954193351481, 0.13179786767047152, 0.19992835199535627, 0.15071949840008278, 0.07675398386569977, -0.19740040062988987, -0.25686689763532433, -0.26948919761096535, -0.24819853409769338, 0.07430670707054472, -0.19549263481390433, 0.16438683359669798, -0.07276314926349055, 0.03115740063218808, 0.005852435444465768, 0.1029111577640029, 0.011223524305095373, -0.12669714099875828, 0.5721029717036952, 0.0626835609319176, 0.527823378524903, 0.28633588980897134, -0.0024005241282553727, 0.01689449549123318, 0.1988437995259986, -0.46840698860069385, -0.633118349049971, -0.44358217698568164, 0.41510739066879576, 0.22169619321165884, -0.13632305595623193, 0.7010615337232492, 0.15064294386635968, -0.09630057136625193, 0.0646072733463351, -0.2026545758292312, -0.040762216851267276, 0.011114696435865552, -0.13071652462983818, -0.1230323905465507, 0.08232428092163017, -0.004846438546924997, -0.046020940477605764, 0.04391045018787231, -0.0034006357498401916, -0.058284005899539845, 0.3204449089405449, 0.3913655166683148, 0.227759889388421, 0.09049557110187596, 0.08421850946624827, 0.15080509038687387, -0.9776585488274676, -0.22170833915390584, -0.5180838767286284, -0.16302547714592128, 0.04923500532422331, 0.16160760872607782, 0.3772209696941523, 0.17262978281735722, -0.0011027614416430976, 0.3998608984808374, 0.3263097878363879, 0.5283500343822075, 0.4217042829790131, -0.1682630434467685, -0.44860596892493865, -0.10141199613899224, -0.011989971492705087, 0.02365504166679981, -0.03664152495228223, -0.018661213820409982, -0.028046686970135036, -0.03152702526727589, 0.2314895737231733, -0.08113014065114425, -0.17081673248786886, 0.19150217888405013, 0.2766293653676073, -0.16047523139662578, -0.07311957410687858, 0.4910411391200693, -0.2902063769716817, -0.7566573657747435, 0.13077132752285736, 0.023136013393758773, 0.24158732417145323, 0.002702918772573337, 0.007855801790730548, -0.06576914489559361, 0.15689254148375026, -0.008666753108270524, 0.019655463003035258, 0.27489012834367654, -0.45622082589284213, -0.3344234552760463, 0.017922829184559844, -0.060313959914860375, -0.03605095523994141, -0.017116951873917048, 0.003076894048833476, -0.01990502468908767, 0.2693707775277588, 0.051333888434807864, 0.2396310227160297, 0.16188919732879575, -0.20936756315660593, -0.24825628829335206, -0.24317479240613352, 0.02384109191446125, 0.01920034642087118, -0.674141010549036, -0.07611746731083384, -0.28589771526979996, -0.08420771023082438, 0.0163219857847493, -0.5012336777183904, -0.007579055784787292, -0.020735555790291352, 0.25138571945006905, 0.09215863188585548, 0.07198608713302115, -0.4515188628934374, -0.29200097288295646, 0.024079160389718746, -0.025169185911106944, -0.002274556157175667, 0.04589437332835723, 7.814553906148682e-05, 0.08532852324634174, 0.3017539263434592, 0.07041535988312173, 0.02813205678120659, 0.0334197832177112, 0.23610903828159957, 0.18181680245565768, -0.10688309773160991, 0.2154035145130316, 0.014610505383193141, -0.44486870436037346, 0.4834931843201464, -0.24143983958853577, 0.14357842197601076, -0.08395293551813175, -0.3466018587960739, 0.6104082098414927, 0.10206194088554058, 0.1592123454605941, 0.3301356210757983, 0.09031156104615379, -0.255618023751744, -0.1548096373476263, -0.0732433980777977, -0.026586129362267036, 0.03429126909979461, 0.017488534434319206, 0.06672167363172496, 0.02097179166460548, 0.13168889067213785, 0.2555632625603331, -0.06629930635165394, 0.35830898243675224, -0.08297711045139448, -0.06438055115925861, -0.4168354271191314, 0.058162230449289774, -0.19206410755471345, -0.358013477248857, 0.1046882635172546, -0.4072199766455918, 0.05811333551369061, 0.5156608631109809, -0.23889280670552548, 0.08703630456471809, -0.018944579053146702, 0.07125645142014268, 0.1836229015238621, 0.195922063045633, -0.13930787347563378, -0.21382569716233643, -0.09362409011387224, 0.0012906167725046905, 0.04706081046082477, -0.008698643612794222, 0.035603891840156734, 0.005553893229537848, -0.02436883044792652, -0.0379762077748968, -0.08572350235286177, 0.19436650972915176, 0.25291892903799806, 0.38239859356473893, 0.25897636732495, 0.09846173738844766, -0.286057674164054, 0.11319636974620159, -0.02585437535015326, -0.16012166783022835, -0.46896108063611713, 0.20249899916191388, 0.2101354768294394, -0.012559045144826966, 0.08727773621004577, 0.1283369258858091, -0.11965244823379216, -0.10797438564241754, -0.3054083723197269, -0.1802755957085151, -0.015707608829563808, -0.058884455542227626, -0.012266614797213226, 0.020661874157383964, -0.017419478979198537, -0.01632762417149885, -0.06624278497630193, 0.062070177800242245, -0.02055343512991075, -0.0667400621278595, -0.07539889059206105, 0.052215915695495156, 0.08796484262447186, 0.2120571580746349, 0.1626895344297141, -0.016859171327444942, -0.07033608824547063, 0.1469664198891945, -0.19633867525567633, -0.12169263003078325, 0.06427318243857869, 0.13539371712444545, -0.039446631054883434, -0.011231148437870918, 0.09626226811216648, 0.05738172092063021, 0.038416997963861506, 0.04564452852695793, 0.09721971171748561, 0.034522344699011345, 0.021382476203005842, 0.03586756832032591, -0.029620945055288516, -0.03271451115506395, -0.012444932728586882, 0.03224642660151825, 0.01050044595739435, 0.0019531777477662824, 0.007702057046182755, -0.08698154483854707, -0.014495369672041002, 0.0038852556600460853, 0.02910434143064873, 0.0455150041751772, 0.017192277036730187, 0.08388181062704596, 0.09069215789266039, 0.004567330723926368, 0.02558709587027697, 0.08911049605744638, 0.020596408114492298, -0.030423138214157402, -0.017917227171424844, -0.007435787158243299, -0.0879144247284647, -0.036823665776619295, 0.0006598509360257832, -0.018454870442246994, 0.007865030333863406], [-0.009217837520398878, 0.031064762061636282, 0.07679032923859001, -0.01267397489692573, 0.06018311684514003, -0.03525174469615493, 0.02886143885075122, 0.002039245231769412, 0.001198397802305979, -0.031951817563504493, -0.015457671434210679, 0.01793531684895582, 0.043944390584670055, 0.04709737703100477, 0.01754423590714403, -0.032495603802958274, -0.029437505729399245, 0.07091749033386929, -0.008985092578128509, 0.030727925369830482, 0.0285470791203303, 0.029899822923484996, 0.06937364126296815, 0.011959843734477683, -0.03138414378838352, -0.00289453268719472, -0.002537099483236125, -0.02862010740873542, 0.006275001890466712, 0.034106893088594784, 0.125267560417016, -0.03086782862703241, 0.10714983668873224, -0.03480621590490231, 0.04430797252702674, 0.03215376241966034, 0.01645711927310565, -0.046990148051219476, -0.017408673858398765, 0.005474008085604014, -0.00038988721308585853, -0.03803704662599718, -0.03665355295761381, -0.0006860973591812662, -0.00951284465681365, -0.024061151177403487, 0.02808083274169137, -0.004837615722388845, -0.031518641852910624, 0.017665616451787877, -0.001080675259336539, 0.1024255059177829, 0.05757520581739041, -0.02283939922375855, 0.019745835047446807, 0.0269550755798238, 0.04889809283152015, -0.021832098252307582, 0.03874878972646479, -0.001742293906996524, 0.04812329387125986, -0.0025251297081662002, -0.028047609593982663, -0.09327263602308951, -0.021639868350929403, -0.06283514187063909, -0.028795133067392484, -0.021880295760068277, -0.019069865774792718, -0.017708362176779534, 0.0096093648162697, 0.007877584318481927, -0.025870922907910095, 0.0177018436745356, -0.015356702250836603, 0.005785766620594236, 0.1205871118740008, 0.002090066513232547, -0.017850826336395943, -0.010658706138573748, 0.03416948419835452, -0.020921001260616405, -0.03827187359142899, 0.023874661306731576, -0.0037510187515389275, -0.005267714137959574, -0.019950497483481433, 0.03702019275647344, -0.0025201369226231546, -0.008114858759001047, -0.009240900328892784, 0.020594655743434383, 0.032450713167107854, 0.01985899057548451, -0.021848907973925302, 0.01233572243855335, 0.011846999909476118, 0.020113787256333542, -0.03975533603191318, 0.04138312160139896, -0.04318696741129073, -0.02187896853098078, -0.058704302527663066, 0.048057689533731025, 0.0070341120455413315, 0.008235138341489553, -0.030510247988291928, -0.002396579935047586, 0.036196696175828234, -0.03072570709360911, -0.015933600798459572, 0.02023555610493605, -0.0011562680315680095, 0.03657792656077823, 0.02454408178295772, -0.0050314835113276805, 0.060779810344772374, -0.0647982260371174, -0.019259755197498868, 0.05244589490061275, -0.11828024186393735, -0.04699406870535231, -0.04559913856995972, -0.01933807999451346, 0.03579664225699363, -0.06332154333176543, 0.03459907041610351, -0.03458567588090475, -0.021526515182761972, -0.04784671551416685, -0.016964216206529513, -0.0012178320496445017, -0.01521356803175194, -0.0008917609693779678, 0.05648606077836118, -0.01238871678053245, 0.03130905295687104, 0.00948366692332516, 0.009976371248355705, 0.02419312624005398, 0.02580602100289042, -0.04527035498754604, -0.014457960118837638, -0.027721512149565218, -0.00870590638367861, 0.027595500840853354, -0.0032055488421987776, -0.008419032619312187, -0.0015063073530125549, -0.0024312711291369455, 0.005007610776206603, -0.03642280512880569, 0.07308988006165895, 0.05295946632260734, -0.01384750772118665, 0.0406545634076527, -0.031969446377957934, 0.02588951410806788, 0.015372077711024166, 0.023995816898188967, -0.015090607458766937, 0.02535976582569988, -0.0006843129678477877, -0.021876979260165293, -0.0047683918015513985, 0.018247457695265222, -0.005558652157148724, -0.023841833558953526, -0.03980116782680432, 0.06920034227309303, 0.03762315284176999, 0.039873065305908076, 0.02111494135888797, 0.03345597637684893, 0.03748493293686794, -0.01274460377493411, 0.001193033326880836, -0.02285836888873577, -0.04306538637040065, 0.04005151852572427, -0.10056614451146237, 0.03481711073251601, -0.02674038525889535, 0.045477520558561586, -0.025301872640136565, -0.062526653093108, -0.05889992544194167, 0.06564329357286504, -0.047387251015451846, -0.04527780424694739, -0.016915843107911138, 0.07233613283408002, 0.03606603083740686, 0.06447437039146543, 0.017300124058564223, 0.0359777774678367, 0.05653907557165803, 0.039550922853684535, -0.06271155293613398, -0.00043203951463813143, -0.012275553833920832, -0.03801673115523539, -0.0011838880653799006, 0.009777849566550091, -0.05335057869620715, 0.03593049445279991, -0.014454306383291387, -0.043070833736907024, -0.01321816135341961, 0.07664060117235173, -0.05331923122796435, -0.011421487300238533, -0.02462665718444839, 0.05612155625944003, -0.028807729268233873, 0.02783201724884905, -0.009806977435313507, -0.026672934361340776, 0.1082584709102545, -0.006905408941892329, 0.048135858958692886, -0.056048470368440566, -0.0185872332099573, 0.002274224866245067, 0.039767292373526865, -0.03240481037524471, 0.040181734458988254, 0.011497589940145613, 0.041497674757015976, 0.0034983742862182586, 0.03480299723050175, 0.012665525596854108, 0.01203741273947109, -0.03818568114602462, -0.008132496342904225, -0.03190143270579495, 0.02091715423730761, 0.03388850095892475, 0.050235999295712194, -0.05842213314882065, 0.037598847394197554, -0.009439004534788664, 0.02409675217568334, -1.8503603053606975e-05, -0.04861403996735202, -0.0031045468419881104, -0.05015849651771307, -0.002136154055228421, -0.04570564151665759, -0.05543713987942188, 0.05448141749093949, -0.028600360581382777, 0.02083042466158464, 0.012596177604783513, -0.029492897917459827, -0.025003037091449985, 0.023598846841422907, -0.03361990772966082, 0.05913302493143448, -0.026481168777398697, 0.024620827668703105, -0.002785858424002983, -0.009680818710178344, 0.024552669164816306, 0.02818985069832708, 0.009492852635429922, 0.013818993878015957, -0.018310127064064454, 0.01017744859266896, 0.041314946691588306, 0.09288932956209837, -0.0324880170877682, 0.005386313403630321, -0.030531373936740647, 0.049083751737689904, 0.034829903425587096, -0.01369116420087514, -0.01400625549348367, 0.027190366051129566, -0.002651568672788727, 0.015661462182568687, -0.029338591512692618, 0.08037138602497086, -0.005761480478457803, 0.022278695594527363, 0.012231798165717797, -0.014306599113075705, -0.05609047032289723, 0.016554522079064878, -0.05050816273022335, 0.0145561089656964, -0.02310024852712469, 0.038706017587147847, 0.024391732244224636, 0.002742217882277189, 0.036470322383077326, 0.0519398796183532, -0.0446557921262909, 0.0065955973350992165, -0.014234760942117938, 0.02147663794389575, 0.018655300196185862, -0.06057876217102442, 0.03634652670163237, -0.05608661294587013, 0.0317551911609037, 0.014113612288810955, 0.061123087560641144, 0.0018958855941050335, 0.04166386040781505, 0.005685929184713859, -0.021352640545762143, 0.04308826117157128, 0.0021693384658483766, -0.052202831824617386, 0.010684008312790375, 0.02394742213993148, -0.09926738943658932, -0.03072637820811638, -0.08447220239683284, 0.04516181880606681, 0.0281194229711678, -0.022944441427654134, 0.024608770294055154, 0.022039429857381092, -0.018776545996710668, -0.008310008671116989, 0.06629797415667175, -0.009008011844105882, -0.031208449435074108, -0.06346110673030082, 0.024600333308297053, 0.01838299025598999, 0.004830336229221554, 0.05485872722557698, 0.008677355198715023, -0.005792489485378399, -0.04073266355465412, -0.04515431184784018, 0.016787362725433543, 0.01242876176152065, -0.0013217611321600328, 0.01776144803304447, 0.004817607659961269, -0.022523340400449485, 0.05542762175827665, 0.05402372249070442, 0.03243724621840697, -0.01047532392034492, -0.03237463134916914, 0.04734162674080894, 7.41721040753857e-05, 0.04061529144577455, -0.008869245951255338, -0.005026616123855925, 0.0218778291776332, -0.06866993672245965, -0.00839138577023053, 0.04454934660917968, -0.036858671373346856, 0.006680531618301289, -0.016565424090121236, 0.03222731730491261, 0.028400960382958078, -0.03617574381487736, 0.05682844016967765, 0.09840980257280312, -0.009608766892312593, 0.030082672317193408, 0.0011883712130239987, -0.00032572064056770635, 0.0015624389008972773, 0.029003215298415454, 0.009818951012775426, 0.008253748973781736, 0.012999187982211013, 0.04248982387770546, 0.006218616854776771, -0.0036783323182203453, 0.051672936774211656, -0.032551357445023396, -0.03628962441691781, -0.024785516986768306, -0.005415434423437236, -0.013791007574316587, -0.00920974186674381, -1.2501194938086057e-05, 0.009008097033526728, -0.010285230224524594, 0.037045214415945334, -0.0322661522248895, 0.031029085128553423, 0.04365743965508817, 0.013701866724515952, -0.008536134964032355, -0.008983609430042158, -0.07264537835680725, 0.03894005608616021, 0.035213175952179855, -0.026922057808915028, -0.01202386512563323, 0.020057852690679074, -0.0055371621094770455, -0.0723847881568253, -0.004967715891825049, -0.05971552202153269, -0.027031981724559558, -0.03582355891416301, 0.005562316964313407, -0.04550719970877247, 0.022301565951944883, 0.020130855994545147, 0.010242271763129845, -0.017762401752143712, 0.11034719537283831, 0.03021059270750751, -0.02488976450654462, 0.01854149142212915, -0.0006253525856054633, -0.02698819942283389, -0.034810976997789136, -0.000733757376092146, -0.010499238595440776, 0.007868581310623813, 0.038891278326657126, -0.020652514563649606, -0.01008693838432863, -0.021395009671203783, 0.05533768970531981, 0.07833643143814013, 0.007868356393268872, 0.046759576987491815, -0.00033690090395956687, 0.05321417517492568, 0.05994051760685709, 0.004758106370423708, -0.0027913502292476475, -0.009242089282070123, -0.01756743458566682, 0.0003315308459430905, 0.03790949808032356, 0.034553476829053124, 0.004194811707948809, 0.04588244099290192, -0.021780319749060358, 0.0255193761424968, 0.032816702389516644, -0.005144737302878412, -0.0033131841674922074, -0.01499197906896824, -0.08759821333485444, -0.06930455164323616, -0.0292373224237697, -0.02903741373490243, 0.011261573744212867, -0.001538643562803026, -0.032690349226651684, -0.017108129644832396, 0.021817592808154047, -0.021025654614699064, 0.009312315289104409, 0.05663548042184253, 0.005667168709422983, 0.03697412146703387, 0.01744948072638681, 0.03761642155519097, -0.009138401833947029, -0.03461676076504002, -0.036071083368185916, 0.025331416542054373, -0.024007076071846562, -0.02540929078271095, -0.008914443188718394, 0.0133675230812495, 0.061915948238577365, 0.014771406816914216, -0.0015523442017597775, 0.03305925561320115, 0.0006804725116706963, 0.006088014289030344, 0.004459822906482358, -0.020951844758060067, -0.0781455700599443, 0.04371886706775928, 0.04946664090743982, -0.0017349910230802148, 0.01003368888316299, -0.04979880982853983, -0.018086898332585373, 0.014231835535657433, 0.028916179737019536, -0.012910198658229174, 0.014819971605022622, -0.041096574797366996, -0.03586933525854115, -0.00729096127025071, -0.0033892545015340608, -0.004813010585201097, -0.010075965218129484, -0.024793802317246438, -0.04778431233102349, 0.029862434001930834, -0.00963077425106212, -0.03988012951713236, 0.004787781065540286, -0.019214841263863938, -0.002629294368333817, 0.03283897631211844, 0.026108611369879915, -0.002582747947062238, -0.026738743122878106, -0.007906714634610318, 0.012403170075369155, 0.04275327397593422, 0.026567526413909828, 0.0017146680306207626, -0.010264577745350048, -0.0523215178854358, 0.0076843017597821115, -0.01038763365589593, -0.07433069519290758, 0.06503222693275083, -0.023839878632352877, -0.017711719496989287, 0.008151959931582511, 0.0950766321178199, 0.027367676302785526, 0.06571710966587298, -0.03905397659684009, 0.004475135710733649, -0.007970335050415405, 0.025165789733367184, 0.034333698567136035, 0.06992569266921768, 0.03800125479899103, -0.02160252859011994, 0.045271429144780106, 0.00243812275546287, -0.022538334120522946, -0.010837502784794718, -0.030983602391600026, 0.031558942239193935, -0.019283880698435663, -0.03279057451510561, 0.02172745581606251, -0.0565741824586287, -0.04469517289428905, 0.006106081457227916, 0.011627672512017226, -0.031060425861823553, 0.012856982513678181, -0.011773992059761332, 0.03477654468244749, -0.002617207842059992, -0.04792400121989988, -0.005103096226034956, -0.035207379249538893, -0.008561319193159975, 0.02622746537823269, -0.08100529588428133, -0.05346382585463218, 0.02331598172860722, 0.013128777068095265, 0.0602023571470202, -0.00689875733133421, 0.028577366334431618, 0.006993180957700406, 0.010548307894281002, -0.059728256387648324, 0.024491940353417407, 0.029449212208606447, -0.009943731874856383, 0.046031419997951344, 0.024634611122825473, -0.008541995878801133, 0.01753575720149936, 0.004135929835817271, -0.02138548516119929, 0.01336743859447349, -0.010262181492608992, 0.018305210806079136, 0.046049310766139544, -0.04936595650392504, -0.014525237528511916, -0.006617862197839519, -0.030339318189558918, -0.024643129196609177, -0.07444273270470994, -0.007932509538892902, 0.006952740679213981, -0.009720495019855975, 0.012610154579996551, -0.0007070928876029015, -0.026400499677764252, 0.022041960335251635, -0.019555209949317743, -0.02638040211641923, 0.051083374006078354, 0.0074001028032783705, 0.012332361811834471, 0.04978364315984522, -0.0311009514472246, -0.06438324244039353, -0.0014762777915306045, -0.028398926083470593, 0.001186160579278758, 0.024253113255786503, 0.021528132256046273, 0.04831552371166285, 0.029085331472567883, 0.005393765478048869, -0.029016503622613727, 0.0030647594804146827, 0.05531421911566557, 0.012549467302102749, 0.019170661410308373, 0.005212766454988221, -0.04150334449395459, -0.006982150251592724, -0.05454488924584298, -0.07277809920328616, -0.023578283849998737, 0.004431240627913507, -0.021152108311827424, -0.012904054839997525, 0.005360123107614989, -0.03767395111893599, 0.0433214939504255, 0.06894374433307489, -0.033604314245135075, -0.09907279814929115, 0.06504534016348269, -0.029616808158080564, 0.03729488018380168, -0.0402558358886177, 0.07521308950638474, -0.010013026322634318, -0.0406340874585434, 0.026639857117117836, 0.10342442948255566, -0.011505512049317575, 0.01801854351143051, 0.024240682185272762, -0.02920946222125702, 0.03219431828814222, -0.06325628769121559, 0.018009761088602777, -0.020751865844094386, 4.0789253137218894e-05, -0.003622996145649121, 0.02695361944883862, 0.0005453192934563425, -0.002344604741267776, -0.008272950029748484, 0.026415454381013725, 0.04648638656665937, 0.0015643255688894432, 0.013394693129295154, -0.03847975441247138, 0.07966686022776791, 0.044912607792229796, 0.014358309873466658, -0.00021866327416305244, 0.05916889631473905, -0.03751986981655243, 0.002803460734631652, -0.023120507107415974, 0.008552789388359008, -0.030024680008900118, -0.06778264116253244, 0.024269708098923558, -0.006392013929995667, 0.05383357364182252, 0.010060288310949723, -0.014824879147382791, 0.007489939228564045, -0.032735313363014135, -0.0021865404888545205, 0.003069907431481556, -0.04481571644007598, 0.04448695849731753, -0.02582218242375085, 0.0076824102241719525, 0.017153183348315896, -0.022305076411818038, 0.004271764005539075, -0.0037372049895765883, -0.007940266782622036, -0.026576239852472577, 0.0057392510696596885, -0.007845183207593111, 0.02378549580347055, -0.012314499205292416, -0.015137762213071355, 0.04204398082705282, -0.011590900757231418, 0.016834369255128847, -0.012646247447475419, -0.04108677216805875, 0.07096281097154843, -0.011243789418119694, -0.02190073039909435, -0.00893924877940938, 0.01824160898064773, 0.04720039663437731, -0.05460587637529462, -0.024563513040551602, -0.024180141885452294, -0.010674079069252279, 0.01082185300404418, -0.03184728797010501, -0.01487105420206052, -0.05106894365517194, 0.050401483961717355, -0.07468081059995825, -0.025798210449526623, 0.0016595298505575628, -0.004409652561099242, -0.003470907580904643, 0.047712827070538574, 0.05678543001835427, 0.006263805449827258, -0.012736569807989262, -0.017555392679354225, 0.004183678255381119, -0.05917886555031301, -0.03037690707303158, 0.0157044037958543, -0.07253535006024203, 0.016602539792843343, 0.02474868057799551, 0.005932617874786851, -0.044240299828672024, 0.026976135154217745, -0.0019921276734703075, -0.032696693170642235, -0.05168421398139466, -0.01200870006581038, -0.01413371901000532, 0.0448642065309162, -0.012332173024425828, -0.01626254116682199, -0.012821746717117126, -0.05481714095058908, 0.021955408679085384, -0.004249900230548792, -0.008398534149360625, 0.024499009247597656, -0.004374368608050316, 0.028131041896121867, -0.011758093029166833, 0.0023284247549936743, 0.013395225535361563, 0.016455334883532385, -0.04007424980348049, 0.02836268894024679, -0.002712472508782837, -0.004218577387812206, -0.007302342820111123, -0.015533716173679425, 0.06262954060812218, -0.0030190653357908236, 0.028927519822595903, -0.003283107030384883, 0.008469346919131147, -0.05147887909037408, -0.01873391046809919, 0.024516443491915865, -0.025254847140048498, 0.008559145821757088, 0.021771713236660578, -0.0023092608688523213, 0.011937597974754573, -0.0324801575537254, -0.002791370767911101, -0.027154272181804707, 0.006364309571154519, -0.006540642339145629, -0.011900913913413571, -0.02011292627087576, 0.016301780312694737, 0.01857338671065917, -0.08374127682540397, -0.020867569245883833], [-0.06867950727270111, 0.035147343269586066, -9.047770359768167e-05, 0.052039782276566526, 0.005146156059824811, -0.09080794694427834, -0.01346331971871623, -0.005810495061379954, 0.028387004131086187, -0.028119551989050893, 0.0019611108261268183, -0.004824316996225207, 0.0022931344059533543, 0.0027447082257603082, 0.06479212925426912, 0.007756204471640913, 0.010613871386322133, -0.02148893502673303, -0.018176689309679868, 0.024095111817811297, 0.06273183367397153, -0.055589150087023344, -0.010753185235312117, -0.06541608860214453, -0.03317043523005978, 0.07815594131847906, 0.004215955670198089, -0.08173944717992658, 0.0250781129593183, 0.00875593284966323, 0.0005958572710631956, -0.0014544581797422927, -0.021904238381356054, -0.06557100899381253, -0.039669923531383496, -0.02343504917351034, -0.057443187322533215, -0.02758470657994398, 0.02014329545781295, -0.032902291174921154, 0.04439479478651744, -0.0041495780976098995, -0.024587140998650198, -0.03591603871949855, 0.009317622377977385, -0.00797033227453662, -0.0049559192821940976, 0.023758370639352024, -0.03770578260479264, 0.01553079102910843, 0.061098022778275314, -0.054786498949444304, -0.013833334297011824, -0.04052689207484258, -0.06623120676910536, -0.01653333958067399, -0.013831417565194353, 0.010901528677618481, -0.042287970544080865, -0.04413957295227655, -0.006767122893826896, -0.017879904733813283, -0.05362888663903666, 0.030856602643235587, -0.06440854633049574, 0.0017754291844734246, 0.06386585875650377, -0.03113769954935612, -0.0936641072953812, -0.24316652323623986, -0.15311085153346496, -0.058189229960987625, -0.054495712427422134, -0.055187245743829806, 0.015451842758613736, -0.08432286795633372, 0.010225863936316842, 0.04258967721000828, -0.015274992391237415, -0.030115597008116807, 0.04568789706961435, 0.01792405023281552, -0.03902474643670437, 0.033131203525244866, -0.08409765249933075, 0.0021978961076657357, -0.05208858921265912, -0.024664736366913725, -0.00920591495006472, 0.0378094206601082, 0.008670945447336185, 0.02074564723408789, 0.10037578973157278, -0.036941786929866105, 0.0029179926043459334, -0.16225305513545868, -0.2989763328961352, -0.4579742506064045, -0.46716947485770927, -0.14043663208351417, 0.015008555849517238, 0.02080515575069422, 0.2645196713742771, 0.16394529238979874, 0.008322082012898165, 0.023112131103126855, -0.02112507540793359, -0.0326662229947388, -0.023660266390269226, 0.03140962843698609, 0.03763051933338015, 0.03214814833651227, 0.07968495244082922, -0.060617975309643975, -0.015183808716667413, 0.0164464810734276, 0.04499061074038513, 0.06769538885682656, 0.05161178775744041, -0.044282546613393106, -0.1758988689677928, -0.30905860768813037, -0.21447736613731389, -0.23713812202770673, -0.2881463197259905, -0.3150656012790736, -0.40468272565855246, -0.21746055090042657, -0.014161753902974186, 0.07396007599129366, 0.3442563141368844, -0.1336384658447884, -0.25206192144714135, 0.09148103074718107, 0.17341663139191013, 0.056712407950482394, 0.022743857867865033, -0.0031480047150310602, 0.021855301222586703, -0.04478447947329893, 0.026736869523206187, -0.020132168823870072, 0.01892284652809724, 0.02332139136816913, 0.0840512468629675, -0.11114254311173061, 0.09122514201974966, -0.16601538561207443, -0.9021593101163938, -0.740756578737384, -0.7657407905353593, -0.06856287135013883, 0.3664468719848912, -0.3436083003461399, -0.31632714383718674, -0.37327318926718767, -0.15264913762454854, -0.17609869571412629, 0.08767418341614146, 0.3442524097350473, 0.31702108994344885, 0.4308924017380782, 0.36561096597250736, 0.1461155454630411, 0.028781435079373755, -0.0037842203115293427, 0.003525249274433189, 0.025074741587650294, 0.010702003771809418, 0.04043460985141859, 0.04779755790778413, 0.08169364781884877, -0.03213922426100173, -0.025076650100377372, 0.1669847869834038, 0.1463687027573137, -0.02048768914269036, -0.01700393160195974, 0.49424343649813746, 0.006994978011057907, 0.17547851681367752, 0.07879052084895716, -0.190548828007403, 0.05657627217437599, -0.3638138945826131, 0.2642561851525394, 0.2655391981443309, -0.3550624928172447, 0.017203735092230606, 0.47569599731961426, 0.28117199907958534, 0.20758803905665052, 0.21240931787192419, 0.025482755045710268, 0.06564117472845032, 0.005590353662569269, -0.008550410498364459, -0.03294242577351053, -0.03822499843000739, -0.14671990357801373, -0.31652931537512174, 0.24165971085363394, 0.21876803189004265, -0.20872007245849272, 0.3625732353209142, -0.4423523447284049, 0.4270864313187419, 0.13710250654355108, 0.3740306931306494, -0.22706370956831495, -0.0016880475200562925, -0.22800825935580862, -0.6791538257164672, -0.3076040694008973, 0.2674313439257185, -0.2598408606126366, 0.3065272617668597, 0.017840953084891406, -0.20949248820528574, -0.24299065271319448, 0.16399048813455336, 0.016574097526498317, 0.08610664155642186, -0.028457546276082817, -0.008946890606390978, -0.0010093409298322074, -0.051789527421014385, -0.0078573414013322, 0.016514415044290017, 0.32887667145644434, -0.050880902813433895, -0.5306935527501115, -0.33715869889342415, -0.13771801785707735, -0.5402095330528921, 0.4095435465439702, 0.25233261194338036, 0.2429218492486231, 0.03488558887473646, -0.19736481819436164, 0.24805446164562178, -0.02586803087031954, 0.208776411034517, 0.040891036041847746, -0.15739750992740728, -0.5553866765682287, -0.024303822197788722, 0.09744456146776555, 0.11627176556112016, 0.008711077888946862, 0.04595314602588203, -0.017227990506049434, 0.02971029661112953, -0.015205859692870896, -0.010002471425666742, -0.005045995117161896, -0.34635563134943276, 0.17425948937287689, -0.09724472830656497, 0.1757656370648833, -0.00625279265495155, 0.3797130803804858, -0.2590900051019548, 0.4522340498801353, -0.22791743173660012, 0.11080780179975086, -0.04543750403919548, 0.033840121735818685, 0.1645411745799054, 0.08258589377657355, 0.0782922023102114, -0.26077068381120766, 0.0471954196097573, -0.6962471204978524, -0.22901192119836034, -0.3362279835030446, 0.009793848265105891, 0.02441406746021528, -0.026845871532436977, -0.04259038157032787, 0.03748088829034598, -0.05444697357807204, -0.11851808754220612, 0.24051045994586806, -0.23186862513677017, 0.01578154257389333, 0.2261596834485129, -0.3831631296929832, 0.15571605389273832, -0.27582292542533365, 0.26278324298428124, 0.12882536986149892, -0.13280261144198122, 0.3745344895557017, -0.23753230373215875, -0.24336862555614233, -0.7795005903150339, 0.061391828597426985, 0.05585102736021344, -0.37033532851569373, 0.09762744245961683, -0.22274946393258313, -0.6229107906361422, -0.3259501259591208, 0.014590346861927237, 0.024458858864822425, 0.009355362179743948, -0.07587218232316613, 0.0053185951641282845, -0.020737193621073246, -0.052248876673971906, -0.030426690137728554, 0.20357358578036372, -0.07182157561404988, 0.22360341933833414, -0.15077978210402634, -0.16147623359906263, -0.5265371610079373, -0.7856738350454756, 0.19029579889223808, -0.6360297073887408, -0.15026843633866332, -0.24001184172897072, 0.11649326691985742, 0.3753700925977773, -0.022199374511351382, -0.10140722258652668, -0.2134197187036132, -0.06704181174289559, -0.1549082080342506, -0.3897826395986046, -0.09695075280210377, 0.21890398238141898, 0.1524880348721565, 0.04468305591850798, -0.05773204619833063, 0.005161113025412757, -0.03518933263171237, -0.02710148227825388, -0.05835232167804886, 0.037721133035864156, 0.03469801418555144, 0.3174484599129292, 0.06883758576455216, -0.40348937244220995, -0.49657743711321756, 0.505355592668011, 0.1402325006834181, -0.429410451906981, -0.3515818008963245, -0.05897030107860458, 0.18948641264243757, -0.17472984778210326, -0.051077561960439666, 0.3623629629715262, 0.28486140986098496, 0.4559342555201315, -0.26282255354562073, -0.1180925414598928, -0.030198236073342894, -0.04489357066353721, 0.09276400866836151, 0.0054150176047666415, 0.000769849185205327, -0.056686044655533084, 0.09205568744100422, -0.07177783521458769, -0.07136200718782773, -0.013127780112700242, -0.3249339736758027, -0.30902210525181883, 0.38824608909218444, 0.25939263815965774, 0.30089326313758663, -0.12359080899783634, -0.012727694831793137, -0.12770609321232004, 0.16926475027050344, 0.07299964246060182, -0.6299836895517223, 0.06783685319806644, -0.033064920588049176, -0.2996987331386277, 0.24775074488803298, 0.48923283803019385, -0.6540129570061693, -0.5087069584435792, 0.24132591318267657, 0.2513006299704115, -0.0032044818614373667, 0.08326730208746796, 0.02493825403519149, -0.02952977620481382, 0.023102152714543883, -0.01731017306995635, 0.07305885051407168, 0.1788552237175877, -0.1783202853141963, -0.3368266967528468, 0.22326207653332086, 0.02944786695029771, -0.07387554755331804, -0.03646140827575205, -0.36410953548854263, -0.22486312389095442, 0.3085002965391095, -0.0656179223801456, 0.6848239078405901, 0.11115880461118624, -0.05215096306512415, 0.20327266837201544, -0.574166387529832, 0.21765945836837441, -0.43748307604349584, -0.3470209183808619, -0.004979889040037106, 0.06145083376984829, -0.06461687103014264, 0.03909670060613068, 0.007046430805591721, -0.04088968381495566, 0.01797073879690704, 0.038540405455822456, 0.04762784974847206, 0.15654621306868063, 0.2166286480715303, 0.15218555150934038, 0.17121026133026446, 0.4883218323714565, 0.2409843253119251, -0.04157512828051707, -0.016407884499195245, 0.6079873440099174, -0.167901994957974, 0.22659337140255623, 0.2616397884393434, 0.13271921129228462, -0.4792670837201834, -0.39122185069133103, -0.509913431592231, -0.3341790083632422, -0.4238378676493542, -0.7619647820984232, 0.07649382108494922, 0.08126632429138082, -0.12143443739867311, 0.054358101121120245, 0.016855160322206592, -0.0080298306822405, 0.03007598819134089, 0.0296971062456864, -0.05365718173658626, -0.20428429551490593, 0.23407308820814066, -0.0314041901898698, -0.06711328884771135, -0.10995778218293518, 0.24908562561635697, 0.347521479372834, 0.09598172578743953, 0.7274767267614994, 0.3845211182414222, -0.05815261082523234, 0.18616181809414759, -0.6764187461480727, -0.5553567351885137, 0.4313707757470888, -0.5754165046022981, -0.8877910980257465, -0.23184316482992803, -0.6772807734875024, -0.4138599942992588, 0.09403668898421677, 0.022314849804228726, 0.0807091496344998, 0.018825922883558742, 0.04711521936866494, -0.018336985757974603, 0.03551913939422417, -0.06969397823147165, -0.13757265555438736, 0.3308833120964073, 0.20639701677427813, 0.4506446425327123, 0.13163464990715823, 0.5043675752068606, 0.8091054954612006, 0.3270648060483018, 0.5432688441259208, 0.9839714242029594, 0.7759048607279129, -0.16544215660010392, -0.37811631850667154, -0.3636393169805333, -0.015594761679752158, -0.5463982132874412, -0.49265547182936686, -0.08039660119747095, -0.23924963241246924, -0.41668795693470156, -0.2245498966066516, -0.04237657715931972, -0.0008323615079496421, 0.07815062684875171, 0.029591713844913548, -0.031373215191359854, -0.015766301130107935, 0.0005835884569918737, -0.06470197724270658, 0.03106523773977745, -0.30449692102398895, 0.13797154402151485, -0.11858650274309611, 0.16093440141782844, 0.18578479294994438, 0.5129051303029415, 1.2488225118837413, 0.42781567436105117, -0.6648600600927652, -1.2458669213439837, -0.48275084635123444, -0.0022787542722597365, -0.03400414099141804, -0.13713847790146208, 0.33233468577924263, -0.12005478077171289, 0.11625681240872038, 0.2155411770703671, -0.3593472262537518, -0.018413901231804693, 0.08338543589407006, 0.04461919995934959, 0.025066106704662895, 0.031290085357256345, -0.0009499851800996003, -0.028340036148768757, -0.10841725329287148, -0.3289598466417668, -0.8074131338589766, -0.2597102427787958, -0.672635026795099, -0.35999335383299264, -0.5031188098702507, -0.12054751173543073, -0.13526527351704312, -0.6751007880571154, -1.5426819193882229, -0.5615859817272759, -0.04130623827637434, 0.07724796972198142, -0.27345628526032284, -0.30834543678758336, 0.15320580606175793, 0.29041272215462627, 0.5574844243136525, -0.0022242350501290886, -0.2977520466370332, -0.04067923833546476, -0.024037141073117448, -0.014917877270033951, -0.02681401444643757, -0.008482037163956298, 0.020455434807885198, -0.02906398690988307, -0.033249289812324674, -0.29290082202280926, -0.3103132734683438, -0.44736811979807767, -0.9186637849221796, -0.8132984270269282, -2.148377052241698, -2.7273021659728274, -3.014226786035198, -1.9142968774296418, -0.614759423869959, -0.1344854868971481, 0.424143317649331, -0.07704456249786228, 0.17275786896365686, 0.5778219150565087, 0.3061464465778104, 0.19329976582375247, 0.4950640549658085, 0.07775341685519646, -0.1833544495869728, -0.0852515016659361, -0.0055150048956983805, 0.03579381248799707, 0.024391935629140125, 0.02628704081922966, -0.010743947583924428, 0.1133966761709537, 0.24054606457302558, -0.2585080216196233, -0.4493365305881342, -0.6815375910612858, -0.9275135042000195, -1.3857833271402282, -1.1844170277271082, -1.418863749878809, -1.9971304627994355, -0.477396762983915, 0.41214339880262135, 0.6680528219757447, 0.10716090922082426, 0.13119737702750525, 1.1407471394537327, 0.5289532628446671, 0.46420034262639476, 0.035124041862122014, 0.6119382666658864, 0.15038016680602, 0.15102972708473197, -0.09252056844561173, -0.05756980551293941, 0.043167524522681196, -0.03897285696714579, -0.0016826135376124148, -0.01529901611735228, 0.09130916184749843, 0.18169698381689342, -0.016572291913227993, -0.03604607493502681, -0.21192338225131147, -0.2166820939329791, -0.5952286392603523, -0.3050266848659978, 0.2014049525885414, 0.07767936980556066, 0.794572382371939, 0.13221990679589082, -0.22854668450313742, 0.18542543426394364, -0.11741629226335427, 0.3079591910096744, -0.20394238698655182, 0.14275135157339958, 0.2348026745504094, 0.37131344443656034, 0.2710443184714772, 0.17010897436798664, 0.07728025943746515, 0.03743846570015272, 0.07798629481106532, 0.04380980916548778, -0.008417597195672985, 0.02735690826455833, 0.07731610559912214, -0.07116069329457532, -0.12470142147678957, 0.3344029791079901, -0.03826186460396466, -0.20995112886698694, -0.6248568183718765, -0.16008862906096843, 0.4485317360500906, 0.03005850305769949, 0.8240644252377887, 0.2944145995950838, 0.774370122981772, -0.5872917555187467, 0.12622287092356477, -0.2235948571151461, 0.07464263771791618, 0.4798366673809897, -0.025054387353244077, 0.507041129857366, 0.17715419921788653, 0.2568535272073005, 0.024410103121090657, 0.036774790094941376, 0.05264503949703798, 0.015045384095617594, -0.06882839110237775, 0.01670754261628251, 0.1046828833202804, 0.09000130800449754, 2.1705984362599403e-07, 0.2115375144174431, 0.32876521064619824, 0.45272686676631263, 0.3591776779340302, 1.3941626788246977, 1.0353290804701052, 0.20970149990113512, -0.021516785056584813, 0.7157130284303791, 0.3214815451398953, 0.218151512994067, 0.4036430124034314, 0.1232346763000281, 0.4570950347807304, 0.4747991365997482, 0.4659071534544638, 0.3541618203360083, 0.23229355583319378, 0.08172879445192698, 0.02446106130912985, 0.006708128586451838, 0.027233220389090745, 0.008516488681604083, 0.0010903515009345875, -0.011596969236454155, -0.007083532693628658, 0.01799719422738734, 0.09040904406498063, 0.25676165918289007, 0.48714016014127004, 0.3503232284289752, 0.021312292344412034, 1.1760026167763882, 0.5676836211688091, 0.4526657842373737, 0.948371944426902, -0.11763412296996115, 0.5393014392147879, 0.20439390399190938, 0.20143580188397145, 0.07857599196031542, 0.5263655571292751, 0.050238798887397275, 0.01663146911122268, 0.14876652337669752, 0.17246007759823795, 0.09919028400225832, 0.02620851565825385, 0.05416024849782091, -0.033371950616984905, -0.021483864189701475, 0.03935671923750373, 0.012473860251538613, -0.003988108434304751, 0.0032469896526894377, 0.032521439241682645, 0.09269687015588778, 0.13776678516225316, -0.10538024858888899, -0.17990362432951865, 0.2931911530651462, 0.5696115951499608, 0.15424136677649916, 0.4853319101973222, 0.31649003979330254, 0.06937072989011785, 0.21512109822821565, 0.32276714596734024, 0.010622081302964426, -0.12298407149276028, -0.16195066613173068, -0.19248518148618265, -0.12552491706191585, 0.08031126307495731, 0.04085671862147599, 0.022428534020349163, 0.0050643069963993105, 0.01811296676499859, 0.024463470802579223, -0.022140003547687772, -0.022665357656122175, 0.05748182107246081, -0.07298588296117785, 0.011488934594113372, 0.05591283275530655, -0.03259697274204529, 0.06730873085277447, -0.013007833944651699, 0.00298498462988732, 0.05180959363185383, 0.09204463892670432, 0.03814420830131236, 0.008029119483950622, -0.03761618229858311, -0.09132073915997646, -0.057927323875790894, 0.027209600160390316, -0.037575055852303925, -0.0479894540210296, -0.11020109209680617, -0.03902034072477723, 0.022452805648985774, -0.017711113722718528, -0.03734168659341323, 0.04878460524415638, 0.002874935474883916], [0.0902443442362707, -0.10529261337330251, -0.021450532464244405, -0.010779313173962508, 0.006045051742446039, 0.037132573787684364, -0.0007784659641558356, 0.01614296415440341, 0.004430235252947423, -0.04484928384608481, 0.020160000683601877, 0.0142510055639674, 0.05580386708867524, 0.01890831456692809, 0.020577816141349757, 0.029100616471202847, -0.028352756220094647, 0.013820316277275995, -0.03286628876539046, 0.03593742192567292, 0.0039884843914927024, -0.001074460283869059, 0.016042695932406918, 0.010036599497828645, -0.0015047945857128789, 0.033544856253454006, 0.03576360588037804, -0.013881794047136417, 0.02657963242577901, -0.011102575664714284, 0.04184457859900318, 0.042973358495690776, 0.04811348889579001, 0.055383791800805854, -0.05200961302400944, 0.05640541295174715, 0.03623750081829308, -0.015588016626947395, -0.052451737606231036, -0.06272795834545958, -0.011700681984327796, -0.01699316621521499, -0.05212145645215991, -0.12421247157658066, 0.04246820876615562, 0.03614987767925528, 0.042246611903455834, 0.02531149185445509, -0.005685390086094326, -0.047245517422346686, -0.007241368595582491, -0.0046469130557891215, 0.01841798517352799, 0.03075461604232243, 0.007297527341086099, -0.001947866851283509, -0.022001185643225504, 0.028741725663868428, -0.03096357275836608, 0.010692184739632895, -0.0035755205116400853, 0.00046992533556526687, -0.008238471027497064, 0.06299223416427388, 0.026762782276108895, 0.0647743444361219, 0.0020214210850150877, 0.04413813096437565, 0.10452218897220066, -0.3338787925070297, -0.2867760082644522, -0.5528907049838162, -0.4287100474001646, -0.1090238323802069, -0.2098639077929967, -0.4103803875206941, -0.09532440097931846, -0.08771397083832243, -0.0062368281929900725, -0.0524015375205787, 0.015259425614412101, 0.008756809044952626, 0.025230576211440592, 0.032036570695375945, -0.026700415451178076, 0.05707124549872629, 0.0007178143605259949, 0.01145141027566071, 0.010795504851813192, -0.02977403768304461, 0.06696694746519166, 0.04302954710391293, 0.06989448925629427, 0.25683279141224136, 0.13285255423314118, 0.33530093446404613, 0.3714357926270573, -0.09188310922429756, -0.6135282610445925, -0.8356264892400638, -0.7629054610534969, -0.7119657150084115, -0.14047706865491327, 0.2612409129194063, 0.03976646171547869, -0.07151711080632349, -0.10342125127726105, -0.02440335262135314, 0.05270686241935704, 0.0366755899889347, -0.014754826999170616, -0.06470091601938066, 0.061871103300670804, 0.02192698408425392, 0.020095023844241985, -0.017791170055290323, -0.1201691189171608, -0.009214026212905103, 0.05365556265247464, 0.060789269939439956, -0.28031016460852426, -0.049376405307220136, -0.15063739641193655, -0.04945307133312704, 0.14731272935981854, -0.10926478426820714, 0.3660994021721007, 0.09239448663823772, -0.19633604932552082, -0.09816912780436578, 0.06509257518092605, -0.1663022160171136, 0.07818864156441176, -0.3615565041705313, -0.15079856755103618, 0.03989852086417648, 0.04283976008633473, 0.06130442926110356, -0.09471806319503634, -0.04378929722575148, 0.01694568925603512, -0.03322035542538004, -0.02151699170093653, 0.046045656970324186, -0.08946539964449736, -0.11691933877360355, -0.2163838212871244, 0.16222397098155286, 0.0630792404496539, 0.07134156763863538, -0.230839879802113, -0.1422437414850456, 0.041882489059629956, 0.20307314472868795, 0.3483002636006049, -0.07756898757562841, 0.2513300975316293, -0.27554119893850837, -0.13449693938305105, -0.3224594794489106, -0.13146969627903624, 0.10426228913525076, -0.056917853541727285, 0.1475288508762984, 0.02789715818248944, -0.11903758066032094, -0.16287224152678964, -0.11790786135102711, -0.047606121251196024, 0.0479701088493299, -0.04162716645496527, -0.026697999744159234, -0.09566041711603013, 0.10897887869302442, -0.019308051469042496, 0.21143315326096102, 0.06444166240814608, 0.20186677262280453, 0.16577429527298557, -0.11062196969892107, -0.1265486085310752, -0.2405218790169535, -0.05201994706978368, 0.05001201536073015, 0.009467204579576633, -0.39584727822669197, -0.29823414893907063, 0.32585380354298943, -0.17760087060619942, 0.1352681690077614, -0.048464077911533274, 0.07998309035432957, 0.06371441133080281, -0.03436581376820109, 0.04144739899528358, -0.11959068439073327, -0.016343498134651645, -0.0210389261885459, 0.022494673751085482, 0.09947572526636217, 0.08844863835347799, 0.13557710253938834, -0.0751136877055554, 0.17400178334796224, -0.053825010619120775, 0.2757001230019085, 0.1423836972483705, -0.3057161005764594, -0.11227814067280224, 0.1453173035705505, -0.28668278918905776, -0.5902948731956534, 0.1449266170556682, 0.040968249655999704, 0.14597237139395772, 0.17888304415722237, 0.19825754661766357, 0.14524511961700334, 0.5584762228937373, 0.010190487315437766, -0.05113516693559991, 0.10159828338509169, 0.049502150562485824, -0.038287959594320894, -0.04166382264197673, 0.052997357848216756, 0.03059839154870787, 0.016093390657167347, 0.2129023921535713, -0.038733089083495736, -0.09763102435605685, 0.3619622784671057, 0.03785151024554917, -0.37678802779615256, 0.3100064893877501, -0.019283092762094788, 0.11806183743605514, -0.07571512429105004, 0.14363494352193742, 0.09243631565917067, -0.20042453116456058, -0.10337227322419326, -0.21761355416791872, 0.3303209408863597, 0.1257248588507834, -0.04300979166241223, 0.4226792722936492, 0.5656998750282421, 0.15467701268325446, 0.15546426800060212, 0.19518748416237572, -0.03446163326332224, -0.0034421875688448005, 0.057264265416669534, -0.006074878929084113, -0.012557519068207491, 0.2144092649481177, 0.2000762625862656, 0.12021724963141049, 0.4261089325412759, 0.08327849303211003, -0.25579542484253015, -0.21261471164881887, -0.4937345568056679, 0.1600278407008374, 0.2795802626125914, 0.3435480739623137, -0.041909775334872244, 0.35355759222909605, 0.4449497088034042, -0.3107864917813653, 0.04340386727642156, -0.039885567630616056, -0.18656632574816612, -0.036105461521422764, 0.8041281553705302, 0.14177582194688423, 0.01853216826720317, 0.14217443821042353, 0.02068268818596977, 0.004455708129918708, -0.021578305694579285, 0.06059470940903099, -0.19079744675954657, 0.032736936276522334, 0.6464433224114613, 0.4541122498029888, 0.1955362409410714, 0.3708053247232247, 0.06234521437959846, 0.8699258155765786, -0.10132023666363935, -0.2726943210754217, 1.1852848865682384, 0.02954724057189298, 0.31481362944063557, 0.11160321771956765, 0.16918566899638335, 0.41522559200451786, -0.06300195068372687, 0.05474742021392239, -0.16409250992415522, -0.0460532078260876, 0.2782261479884942, 0.19397719879239944, 0.1360205952032405, 0.053646679816512645, 0.02544099093192869, -0.008209876823873802, -0.019605645794288404, 0.01493441712970448, -0.052972009053669236, 0.058345238617144884, 0.39193250717505607, 0.42196777121280477, 0.630590291326095, 0.6533773118941121, 0.07723080061143255, 0.187323584631344, 0.2687778305686762, -0.17412943615206813, -0.24948621365730972, -0.45317686376375127, 0.1973762740557509, -0.11130572050878312, -0.06146196799098227, -0.05950875676440572, 0.003422512101649536, 0.13828546953874737, -0.5573052671992917, -0.2650919096320123, -0.10930681672416157, -0.1761086353756319, 0.06238112597027449, 0.00846211243629142, 0.03349995360885274, -0.04299253758892875, 0.024066501359432873, 0.04093050630600037, -0.01088569728507286, -0.3831222069524511, -0.3201761638905402, 0.005716175530924861, 0.6878858853294579, 0.6966445232922039, -0.11321474847871814, -0.2753908630310612, -0.9419589064438543, -0.7717520334252055, -1.5604440626665677, -0.7340527052697512, -0.7164741452138729, -0.46540374776509535, -0.384722138237092, -0.3521514886431767, 0.011029524678007316, -0.13881154614449373, -0.16471913875872823, -0.06633049333904462, -0.41040065737568154, -0.1925879107981502, 0.19183864587572658, 0.14124555687767326, 0.014453388443360212, 0.03934311699474103, -0.03341355876390335, 0.0029755877226458056, -0.16609680018807146, -0.8090488166757707, -0.5016044620780912, -1.0789723822244486, -0.6614290958900886, -0.2518368518100753, -0.3069249350229818, -0.5197332364806402, -1.3515057042357719, -0.936189248775215, -0.45493369640408726, 0.112533856878048, -0.46589247026462083, -0.23928398459669503, -0.07522062108855199, -0.0925505636585953, -0.5245948587596758, 0.27306855623961385, -0.36924787209559595, -0.2279021741937603, -0.4590641142561895, -0.1046747816237847, 0.08136015819408116, 0.15024733885501904, 0.05857222779889809, -0.010824574937221035, 0.028943429082626374, 0.010841905268921046, -0.31078268576209905, -1.0112016199397165, -1.5370946641702399, -1.8458315184937584, -1.9927927737337694, -1.7277916580426183, -1.9228385213890586, -1.7491557383772378, -0.9946107748183981, -0.21562612713089105, 0.019524059826776227, -0.20111903454296837, -0.21845079517523877, -0.3403728591839837, -0.07579590698319118, -0.22958097272839834, -0.13555514690682072, -0.08988871976786643, -0.3085807563380748, -0.1871814659730173, -0.26283205353877453, -0.054174006624713125, -0.09236656993529693, 0.16274568521592675, 0.007387373564210081, 0.05645920600992913, -0.02881130291952271, -0.01764451353350186, -0.2289837665643851, -0.6731562325872161, -1.30118295983188, -1.4063480743228736, -1.6775521259375454, -1.4007013456280974, -0.5519978595895553, -0.6090300597938476, 0.5812635308060935, 0.7569068924597794, 1.0895964102244637, 0.32129883211053845, -0.2143339594393841, -0.543371940128718, -0.3093931742511484, -0.32721700255542163, -0.34206230577107155, 0.09206274665197639, -0.10205753821821578, -0.3591290502650425, -0.2224362910335346, 0.012121263656256664, -0.013048882161950987, 0.10576656746873359, -0.0445804735457934, -0.022148374661617655, -0.017584315333903717, 0.12334189836788255, 0.002766892589029542, -0.7610099288188287, -1.0048197121181566, -0.2008202577868727, 0.17154683879705981, 0.09347668856154548, 0.5121799235066771, 0.10074318199647592, 0.23880579988171105, 0.21919984582307303, 0.40906130095511223, 0.4528937909181716, -0.14188247083341227, 0.3695258967225653, -0.19714579517038486, 0.33269616956784465, -0.08259906310750398, -0.10024571332807497, 0.31877170810445266, 0.0678496341418271, 0.16043284266449143, -0.0039064847653354755, 0.31647419966927653, 0.14576534377654748, -0.07459375953116434, 0.009642507587261786, 0.003561691819156452, 0.12101754216457573, 0.06892829454895306, -0.4276336204158727, -0.44150075800930016, 0.22024147035870012, -0.1567709641506898, 0.48826920181568645, -0.09883716289237536, 0.04316680501641281, -0.3209224485117699, 0.28189434325831975, 0.7320876243687685, 0.6683343879817616, -0.3639767119641046, 0.04576970600740681, 0.058561468169668875, 0.09627799416154473, -0.16416281226289872, -0.5958014593268601, 0.17969581705493853, -0.20686184143343658, 0.15829331066668054, 0.05928014984449013, 0.41543150633339215, 0.1368939166503673, 0.03651047771935164, 0.0005772297079447629, -0.02022545026345495, 0.09292012414084809, 0.14330292024638763, 0.09414004126865115, -0.052361893467505076, 0.5636349759224241, 0.5345030773661059, -0.7739418366209636, -0.32900637110085335, 0.16081850558219452, 0.26029246135155404, 0.25242767904076124, 0.7191865919974263, -0.016777360539298833, 0.5555196148221025, 0.2732511853133456, 0.01584994547669982, 0.11830332537965928, 0.3887744558846181, -0.44546215801291517, 0.008693238676579236, -0.036536327148445645, 0.07955487479956559, 0.18333628516559128, 0.39920532042006773, 0.12256811317519456, 0.024092022719872857, 0.013121997721138427, 0.013253285570201114, 0.04150733713805404, 0.14153869302594294, 0.3836332571005035, -0.08585340663223044, 0.5561391358624886, 0.6636092175660632, 0.1583162156986953, -0.07573975847466909, 0.44289217698376504, 0.3863258257861838, -0.1348192379732912, 0.18716921583618087, 0.17609388492419845, 0.10934285063629952, -0.05637368831241813, 0.39737291526481855, -0.09676011795782621, 0.2448516207127491, -0.004267921546205567, 0.12601897416650534, -0.2783724302874269, -0.21766158241514516, -0.09122631992562179, 0.3090594693483574, 0.11149518474161961, 0.03396538765083148, 0.026352070875126983, -0.03405558208737042, 0.14780194575956876, 0.44933289776721597, 0.673124867287745, 0.4515492139164985, 0.4623550541370861, 0.9175324651435973, 0.699127182758693, 0.05742324164508193, -0.11439127537192721, 0.08415363434562333, -0.13301863211949383, 0.6167724562457704, -0.019489748978450173, 0.07449610242337407, 0.29143011753338516, -0.24842236582571356, 0.18935775847191322, -0.2973108451707476, 0.11726619322149943, 0.30176446793872735, -0.18524397123802644, -0.21809651522208265, -0.0915226926247177, 0.14016910739232358, 0.049267259328530766, -0.010278064686581644, -0.014100613544418706, -0.002945318384131621, 0.21217366832641038, 0.301383826733477, 0.51020392589334, 0.41403394642692487, 0.27057609873492316, -0.17058136318050732, -0.11932012504670918, 0.1750991089178495, 0.42549567088666157, 0.0671418459307259, 0.3057273167749893, 0.16504645868412587, 0.38832559235668335, 0.07199254626839051, 0.3124626824934898, 0.5407952929922549, 0.36238100546211865, 0.2288052244163044, 0.08427040663444854, 0.3804553618927713, 0.12034601056785384, 0.07226520701582433, 0.19315201258780698, 0.11371825696475486, -0.02864421226844633, -0.013466741641265077, 0.012355267793255919, -0.013848140724116003, 0.07758424797483567, 0.026104604976221257, 0.17692630858202033, 0.3957383926495922, 0.12199425796333183, 0.022048465703062327, -0.16094525101856968, 0.3592805838375459, 0.19539559563977668, 0.15203816641106027, 0.04236490817400897, 0.04497487061972845, -0.11255693221057064, 0.04945578406691684, -0.3772979454043706, 0.2947492328436151, 0.05604575243072184, 0.07086642088195479, 0.4874501259972299, 0.3992582101803101, 0.31470123758734364, 0.19884722295485646, 0.1558326316659676, 0.12407999581132122, -0.041781778538105746, 0.073113823922371, -0.016529935304574913, 0.019871624648980502, -0.07082322657719627, -0.08623198061554413, 0.17065808782783246, 0.20499079211729518, 0.25570120917660977, 0.002818690923259483, -0.257073968941293, 0.15553514436990018, 0.055818233552256735, 0.05148664927237706, 0.18715636289628795, -0.15674788961041597, 0.2985843656448098, 0.2830098878185591, 0.5547685437202641, -0.18657224006294773, -0.0978442111032874, 0.013257713538713349, 0.2189992121016609, 0.3850208848562744, 0.27779643928292785, 0.3338048839448958, 0.16463591241150036, 0.136771739456768, -0.010870083659267653, 0.04351316351491449, -0.03270761565663317, 0.0124725659977835, -0.016258069464219607, -0.004948605825880269, 0.021057662095500144, 0.04024035098383075, 0.19745578119777102, -0.38316292332789015, -0.2680779073109681, 0.02063593879115493, 0.190466416416256, 0.17833016157532178, 0.15572827390665545, 0.11617145457700608, 0.5953330111193426, 0.5581306165248386, 0.07556515446600931, 0.17501419006151017, 0.07475506431018973, -0.04701057323087593, 0.11937629947109765, 0.0855163360558549, 0.103059761523713, 0.09824304463932534, 0.27595012998123186, 0.14136974987503617, 0.01959623157407355, -0.05168915298090703, 