{"ClassName": "RvNeuralNetwork", "LayersNeurons": [576, 10], "EnumDropOutValue": 2, "DropOutRatio": 0.5, "BestAccuracyRatio": 0.9692, "Train_Loop": 0, "Train_LearnRate": 0.1, "Train_Lmbda": 5.0, "Train_TimeSec": 2823.6415009498596, "NeuralLayers": [{"ClassName": "RvConvolutionLayer", "LayerIndex": 0, "InputNum": 25, "NeuronsNum": 576, "NeuronsWeights": [[-0.0030847089240842976, -0.057022590055035335, -0.22645934421480224, 0.020886617236240888, 0.10467112194597958, -0.1650960879599932, -0.013016127068343972, -0.25127257846674644, 0.07961690043822989, -0.279617798824253, 0.2012921777414863, -0.03527576623739379, -0.39826159157470975, -0.00662879027790101, 0.13185903396261092, -0.12842491079319723, 0.296312680264713, 0.2869903288091363, -0.09217875211521716, 0.19855050653518355, 0.3233490015244603, 0.09539976497486488, 0.29304976459501875, 0.027381813291343465, 0.07282770839038512], [0.05674989306978233, 0.032929869598357114, 0.08990878607276345, -0.08194341492549906, 0.5776330476040928, -0.09227554560387571, 0.08359866567481902, -0.11863155914186294, -0.2742788414548904, -0.1360525531591436, 0.17263238298453515, 0.2827676331076106, 0.07777920998637573, -0.054160800555298906, -0.16893864774988515, -0.12257837734013188, -0.27899473894332394, -0.16248673782703324, 0.26585311069307027, -0.1379372605826527, -0.3592014267544823, 0.2748355943618913, -0.10424312985148254, 0.006097142341352427, 0.11412191106225919], [0.03436967179290949, 0.002049071484329473, 0.15381948009477517, 0.13659592442015042, -0.3896667899475711, -0.22816717844866025, -0.02020016655045128, -0.08618234653692453, -0.13540404259494526, -0.10709854751062717, -0.36092779037447476, 0.006539844351547806, 0.019121045337738663, -0.11011927422503362, -0.14963102763837183, 0.06365529883002671, -0.11097410107050192, 0.10525139244515104, 0.28652098324453257, -0.22501500721701126, -0.128112057424709, 0.2788533836731301, -0.013953981470856313, 0.09912587381257147, -0.0468313971459306], [0.10349085464678227, 0.2066408466004948, 0.0983979273881149, -0.15350078880164023, -0.30677290782029415, 0.46850869116082083, -0.19537963185083568, 0.03313130394662257, -0.015736828225766726, 0.157710328054471, 0.6364702258846539, 0.5156097378503992, 0.1269624766627731, 0.4819058119862496, 0.10684769382371792, -0.30681680957011426, -0.12368177773309778, -0.02387707015591677, 0.14761090608199023, -0.0581153660493427, -0.07163311754856955, -0.05856529587906195, -0.24458170987008815, -0.13716530933856225, -0.09802389395288258], [-0.2128682139457771, 0.07128887259739305, 0.013119800327053363, -0.08854977279779408, -0.12739852883293343, 0.1124462629359311, -0.3021522553053118, -0.31480097922416744, -0.1956516918472724, 0.22836284455578093, -0.17162717578661002, -0.028031334948129826, -0.018504480668613245, -0.17138977926053167, 0.10397871821688771, -0.06527927425485264, 0.3556930679913887, 0.3944700185792211, -0.2351800853246905, 0.2915351766890816, 0.19140493983026333, 0.17041486048305382, 0.1896220161271965, 0.022848625663318353, 0.022967686354828216], [0.34733131225698877, -0.2614341375486385, 0.0453614811378052, -0.044111578012560944, 0.10369064644958956, -0.045446558917103974, -0.00483443697010715, -0.22401014756305856, -0.1255811671659166, 0.14050533228567305, -0.12477849683047695, -0.028577286606026382, -0.08754286927884161, -0.08909189654788077, -0.3759511256680669, 0.38684257339991945, -0.24504326701816956, 0.03534971048342636, -0.12298149725850864, 0.12023287600790308, 0.13740802903091676, 0.08100236876575641, -0.09168716686942324, -0.1436447415973086, -0.315506217761535], [-0.0718100983648962, 0.12091058505560504, 0.15967921442444044, 0.2199960830806746, 0.10537736590997213, -0.31258321229404434, -0.22271244944093, 0.12670722764459266, -0.12572965932903318, 0.22034801760176795, -0.22211844578411194, 0.02440089085551487, -0.3376510149100836, -0.36040228014228437, 0.22300223058125646, -0.019451884498460525, 0.08316419806611898, -0.08772144166317916, -0.05002506545350501, -0.003123477074787975, 0.007800407686139299, 0.06362800554203747, -0.12611474647789717, 0.1333251055084774, -0.021693429569991724], [0.15098435100053778, -0.11908219695300841, -0.15346944624623973, 0.23006472616456164, -0.13530109420577724, -0.10751887762809412, -0.1723178447747885, -0.03012939072942477, -0.16189921302471047, 0.0065972256824643905, -0.0026555167312136098, -0.3019156934723359, -0.22564950408618506, 0.3983835204346757, -0.142784480465568, -0.3134355622757056, 0.021025009776640423, 0.15283962973123327, -0.3757852709952032, -0.10937595037541173, 0.04808240446409347, -0.046435679072145686, 0.24596378863551865, 0.09629519922074617, -0.4984960479670878], [0.04397043585732628, 0.24220202566351076, -0.06933792679402098, 0.09463194306135089, 0.21094732688432236, 0.3675568258665333, -0.3858840054698437, 0.12390837835340432, -0.23199752462528353, 0.06346176142686429, 0.071380993227388, 0.14950667794554223, -0.07399141850170657, 0.03813888209039733, -0.3131005894087243, -0.13580009345937336, 0.2965473193937175, -0.05642768002171054, 0.15815665422449093, 0.09348239645630335, 0.23879746882083466, -0.07763629306861115, -0.3857781205395391, -0.08218201534317095, 0.0018190824532253464], [-0.06236902011025317, -0.3295029324246697, 0.14962396687640014, -0.3066017129024821, 0.05497591418234234, 0.029916954129507928, -0.13701506844827488, 0.2179637845949829, 0.2494510402603694, 0.1073607927077728, -0.09919941663516899, -0.14342826760391172, -0.061264736322482895, -0.1317367607121664, -0.3889625181388411, 0.17244904132203615, 0.3313229274623971, 0.014236092048207041, 0.3759405338254405, -0.011712437893935616, 0.13500986387244537, 0.009734569964933378, 0.04550134588968942, -0.29467591780905894, -0.2740280076842451], [-0.16533401006171022, 0.11468427856415916, 0.1921014970674601, 0.2908756630600049, 0.37796595280778117, -0.4350206867128201, -0.12942058366590828, -0.15906914604003816, 0.43202210135147395, 0.27185704679473016, 0.1993651384343434, -0.1442047842539516, -0.10288943921912157, 0.08435779024874643, -0.10760030037726372, 0.045069427250109165, -0.12010586951294862, 0.16953692588787933, 0.1410126565638578, 0.46429136436510277, 0.01322687349896159, -0.09845426554383462, -0.15520970674746842, -0.07827322329436767, 0.0874099892747975], [0.25674386028772656, 0.08566042628480998, 0.23235344852146608, 0.06215283509691585, -0.10363782190053727, 0.128480960572473, -0.3518636792501987, 0.20344432385240047, -0.24496080341485124, 0.15931097447837053, -0.00855988296618435, 0.20709631182064175, -0.012049461270192963, 0.03453048369648642, 0.19031687021864535, 0.05451454862158946, -0.052691964440705674, 0.09916160173059861, -0.416316928501763, 0.16749667922983605, -0.2247592320689582, -0.11476617035516426, 0.023203049486349273, 0.004923853834297653, 0.001260139770842758], [-0.3026002520954194, 0.08979351237144469, 0.36411799952994295, -0.1694057800149693, 0.2837823322721602, 0.105529787459131, 0.0037551254739202748, 0.1723052054392355, -0.21087431370966425, -0.128013589416872, 0.19662591791494985, -0.03432949436932314, -0.15220391185269574, 0.1315878389623843, -0.038154614147074155, 0.19325508494795185, 0.33189195467789623, 0.149988227633308, -0.15741149232824386, -0.40533411992088497, -0.12070040751119308, 0.4851627182325638, 0.14249235035148833, 0.09930801527575538, 0.03429947183670979], [-0.0059668203252587525, 0.025405832751422126, -0.08432832134839698, 0.13389031814040042, -0.056708370367615404, 0.4284119169997203, 0.1842301142624704, 0.25883085155572905, 0.19705073606155893, -0.027151942023424698, 0.013451138979265746, 0.1918780492757148, -0.35969330281548373, -0.15345727151395397, -0.20848509542217988, -0.2235055540610215, 0.041067459080475564, -0.09400079540865693, -0.17594367181924955, -0.04122384739155772, -0.5166141519625974, -0.027563434149381706, -0.13570791778215233, -0.153520333223746, 0.04716193818115867], [-0.2817985324298285, -0.4448268708997389, 0.38710642161345354, 0.043620372118211105, 0.043904972584795976, 0.7157076358672783, -0.03395215177281639, 0.16382098676135645, -0.11839785872594516, 0.1606040857539404, 0.10002477500560092, 0.3111310018431678, -0.06345220196430766, -0.05800940590400671, -0.182135294551401, 0.09174624094667098, -0.40086545838323945, 0.024430302558914114, 0.020730040583575218, -0.06115379814939055, -0.19113570815795175, 0.03746496120182503, 0.2753655227002492, -0.01186031708656907, 0.1087764948156264], [0.12668633337352872, 0.35588696165148315, 0.09427378306200637, -0.22586060852317655, -0.3729786156406235, -0.11333384106583647, 0.2831580477185923, -0.05803099010831272, 0.13262988534409048, 0.14000987789492889, -0.2696520914213073, -0.1315330446905001, -0.02454277371984451, 0.3069771083693845, 0.032050906431636786, -0.125085403901339, -0.08210508478546319, -0.12320837935880993, -0.04845266069537112, -0.08347177515370713, -0.5824895208958327, -0.09284836288481366, 0.06313205785782107, -0.4197546255477042, 0.05614197831820305], [0.09739304285358465, -0.11891036801448822, 0.01951303594298972, -0.06229336719280074, -0.057620173224630075, 0.14236920451138202, -0.007314333546205208, -0.12053286185093783, 0.26125542283651354, 0.042637676458900986, -0.07187833435981252, 0.07745029932928675, 0.007372479516635137, -0.1941269894186717, 0.16304184358450888, -0.32163989315614283, -0.23646250999656096, 0.10739874321179652, -0.023212848865153787, -0.09565147193500709, 0.2681006248845614, -0.1027712684336209, -0.15997683411827504, -0.25993808640901844, -0.07768824865492602], [0.13205141356703218, -0.2194709230575748, 0.19144493295063705, -0.09882915776102864, 0.024809021955314696, -0.08813275341393627, 0.15030236897140853, -0.11695058685257186, 0.3180053087940712, 0.0321730310159768, 0.06561878300080144, 0.042801295684191276, 0.2905817478516904, -0.11314626271944583, 0.036839882760788804, 0.23220658392642599, 0.11440635377121472, 0.01136494458008872, -0.06517254376644438, -0.20763765698060488, -0.4280496395467569, -0.09803712890296055, -0.028499558589100138, -0.048390028755578005, -0.05283947391497233], [-0.0901689205000286, -0.053951988076011224, 0.22049216668722033, 0.14713093726838905, 0.13728574021765658, -0.380330800718582, 0.09610072646108601, 0.013557200462889307, -0.09942956589381079, 0.14807592537276387, 0.12199665461537919, 0.06590335811043284, -0.22385471407674315, 0.08948468632634063, 0.29841490609029997, -0.04872205372225816, -0.02278829582369056, -0.011715962011088765, 0.1237586655323598, -0.13631280019761272, 0.384696376142976, -0.39770225681824306, 0.21971836104113912, 0.3185169248407478, -0.04371903182996485], [-0.16538182701597823, 0.10965043350530321, 0.2644788665476409, 0.09707792683532565, -0.38647898425231797, -0.2925042838321295, -0.09354190093315731, 0.4114158949194732, 0.017640485768948413, 0.17590738756798935, -0.04681737370094989, -0.15769113310499244, 0.28479647958670673, -0.15580882911174593, -0.06667963630812554, -0.42982823529298253, 0.3380622079083972, -0.010200031875693776, 0.3008024244715675, -0.14624538768262646, 0.015611806989224134, 0.06310091107868912, 0.2249775093914411, -0.013239712753653024, -0.06559574818662593], [0.0499032407447685, 0.218996510460218, 0.11332114382962055, 0.16324006912558103, 0.021224263916096577, 0.4706242143462935, 0.05297476211981624, -0.27363414069498504, 0.0503755932182179, 0.13659842272633047, 0.21917577054295675, 0.12188992197262909, 0.2540202606756143, -0.04527096062503396, -0.2862111036644057, 0.14716070587819935, 0.14885097474113287, -0.2925313425644797, -0.2262300477075456, 0.1822391867766067, 0.26614642922047893, -0.11843305869869372, -0.13804001986945152, -0.23800893094436912, -0.18185248599925885], [-0.013168068199885766, 0.15500779862189715, 0.08339956802184464, 0.29015028909533397, -0.3313516056778596, 0.09267883150214148, -0.22392828265871517, -0.39735495508383406, 0.11834121433495907, 0.23041109696335096, 0.38171508440430385, -0.19744524461881352, 0.04607661863285232, 0.2392255585671159, -0.044639763191037435, 0.07500097157445511, -0.1201390561102999, -0.060289272703081105, 0.136546038502419, -0.3078884740740289, 0.2200650975088556, -0.1661719722829919, 0.0023503935585777254, 0.31455666871556875, 0.10498204724439002], [0.3818646037992562, -0.022478989307698947, -0.11519723368886373, 0.33864338550553064, 0.17334972798441978, 0.13077964309798337, -0.07787775906195905, 0.2752541810110752, -0.1519286127224347, 0.031383882200324585, 0.11255572151344109, -0.02227310433319219, -0.034879826882097675, -0.14422209369276312, -0.19700197908291034, -0.0360273006948433, -0.024920472184484628, -0.2724668909946061, 0.05668533955243467, 0.1579325223946272, 0.018668346229454576, -0.19858743306449234, -0.07827613561842249, -0.43202507131340767, -0.2549950485275355], [-0.1020221747408591, -0.15857561687225055, 0.1861420540018892, -0.1828743205252524, 0.19427796555460503, 0.5333621771788276, 0.15064797747773015, 0.15561163211144385, -0.13905016139570908, -0.06313331098814123, 0.28628684657052006, 0.0636626677258602, 0.4047638327331322, 0.15470216210818544, 0.16930688853759868, 0.023193921273112542, -0.16403079246418506, 0.08664011359740706, -0.12327911564212836, -0.12609974937574242, -0.0930390257668139, -0.14342232346221467, -0.08838269219449015, -0.1690875384526582, 0.12187943270678397], [-0.4400809885115874, 0.22776760068905663, 0.16778481196236678, -0.0592341220556886, 0.1843303680023029, 0.058227647752425435, 0.49229354385371993, -0.3382827653849444, -0.3390888791759072, -0.248200214198665, 0.20568895083314548, 0.13778846920580573, -0.13876373732780958, -0.07122450509561183, 0.17014665362378267, 0.30441066785232584, 0.16442431197860913, 0.20911683774118398, -0.1575240905470469, -0.08720812390248285, -0.2679188788832338, 0.06725169884853105, 0.16427065476012448, 0.16940359760418894, 0.12952831687919036], [0.1552585291183352, 0.21169189199446198, -0.28220783781783415, -0.04875144891719446, -0.2436599672731333, -0.10749381299527114, 0.011076152421340042, -0.16172054266501062, 0.06621793070034651, 0.11354911954490865, 0.0495548252577633, -0.19224984622197935, -0.1953350356075384, 0.04894100776058702, -0.019914742404957095, 0.21933048464555216, -0.18906928476808918, -0.123138157198844, -0.24385258215619068, 0.13350040969512658, 0.13116557448844476, 0.23178598816416704, 0.07956987196552048, 0.12376738434573228, 0.2600992039695131], [-0.05186408163037985, 0.273085670980303, -0.04516015275069611, -0.21952928283095569, 0.043044538226420466, 0.19436842016600256, -0.18895597202272305, 0.06688790239306479, -0.27502287104089596, 0.02174877464281079, 0.06043848650758075, -0.17067718755238273, -0.026968463538762526, 0.1059312441826566, -0.09967426392002211, 0.10848606679747108, 0.02537737583012928, 0.2280112619005204, 0.2966138750549475, -0.10128129841466375, -0.09978492480080567, -0.2212378653469015, -0.1097164971615973, -0.5882614869525767, -0.07289928843009853], [-0.023773474549555217, -0.12966474926377586, -0.09592993332456289, -0.3180339546319001, -0.0058240635106304615, -0.2173210688567737, -0.02963671860288635, 0.20891545430941424, 0.27445674808453163, 0.346807013411715, -0.14054614742804936, -0.0905401019232288, -0.16387889953411994, -0.04565152057524801, 0.4631178152894318, -0.29644771734274034, -0.0013861173528803877, -0.04112840035191719, 0.2744056951644467, -0.47260922207451667, -0.27755222628621334, 0.10850835062435363, -0.20627652515148506, 0.389595275439488, 0.18079596781506033], [0.04387647247629249, -0.4250493826417539, -0.15491464750171163, 0.23777542357592235, 0.32241746021044987, -0.1636265413865226, -0.055961155284912946, -0.028824445570632545, -0.12358063468095032, -0.04909563270145837, 0.1776035457042667, -0.03741783546983333, 0.07485419641412046, -0.029231977338721515, -0.013615364017498447, -0.04294616924970481, -0.22197605335041118, 0.2367215777479825, -0.01582982643306101, -0.4069337126991593, 0.16134335095034186, 0.3416812363341564, -0.16491810015419991, 0.26571774721220875, 0.07671767421834041], [-0.21641132400977853, -0.18840306052518305, 0.2552827677954715, -0.16648514683686602, 0.1298082984757313, -0.177005848192024, 0.18932665232094872, -0.1281316082555843, 0.5217791708647349, -0.148718501842002, 0.17269212869387113, 0.06528585143174563, 0.4211742615206909, -0.16643623509966746, 0.18364096782473519, -0.2035117182418352, -0.09231949301588464, -0.0971671545892453, -0.028954436266890895, 0.2621314530698322, -0.15256655146262088, 0.10041170890914324, 0.02975492364566712, 0.13101416509066877, 0.09712313222942968], [0.11439483216258839, 0.013177986705267335, 0.3510971449305131, 0.1722288007875708, -0.46160416631213436, -0.3929037566053451, 0.04550673812484047, 0.01644839848440498, -0.27639819718088326, -0.18011149431725235, 0.08733238908964203, 0.11967515388872464, 0.0246661212063418, 0.20837947433613313, -0.028319864551699894, 0.009721653296395478, -0.4229468455208933, -0.07335210553398484, -0.09817354049835612, -0.04184364566720491, 0.18027824353024702, 0.00258083502530306, -0.18499730551919566, 0.35450294272277166, 0.02675197915299051], [0.05484397887579425, 0.37749624618650846, 0.006606373538377465, 0.023870441970778807, -0.027828849927199396, 0.024990881054770715, 0.15798782011427573, 0.18745043848446186, -0.40530160498016343, -0.28763711540819387, 0.05297163062388207, 0.23946819525437793, -0.009197604002655532, 0.09042038418314013, 0.06630961205210996, -0.10091049057829742, -0.10743008773934418, -0.10983106571284638, -0.19424462445901358, -0.4695306422995828, -0.007761111464416189, 0.29757443085995067, 0.376800744340583, -0.10377724068537668, 0.0844391345492166], [0.1161769369230844, 0.2493290641654272, 0.05168169174874587, -0.0705505450411834, 0.08460273882749805, 0.3318195342743852, -0.16941305626566636, -0.009292859955800424, 0.06700184137678675, -0.16913077244380748, 0.3794843579663634, -0.33597049063359424, 0.1588276264356879, -0.07488773559786045, -0.2899209334769035, 0.05715870991027421, -0.028428294917518578, -0.2556456366178847, -0.046066611161615055, -0.3401470755854141, -0.2171422581710273, -0.001849667368240967, -0.11598702271025482, -0.22560843008796289, 0.08600160803147076], [0.16005562104759274, -0.06882042857301658, 0.11678503902043809, 0.040341459539636346, -0.2108064403753703, 0.06405249169932613, 0.326619200328436, 0.38293187474487744, 0.13716996532206108, 0.0038779107715791973, -0.009919283630580969, -0.28998198619353155, 0.16307135208850862, 0.13431951642218865, 0.09360879456638967, -0.09889659613586196, -0.09976789753407175, 0.2736275701829461, -0.11879357274288871, -0.05480643022774765, -0.12101419350834929, -0.1379103550594073, 0.14521632916810023, 0.1941128864230144, -0.07135123300488368], [0.13487267111300016, -0.41326737078517833, -0.02233165063672307, -0.33589255529302264, -0.18687267812015573, 0.07840374641661324, 0.05101966916192928, 0.15988070304275803, 0.0681028363983628, 0.09347571665682138, -0.23247098020642123, 0.04840838937884109, 0.1488699488274651, 0.021083906809139692, -0.007244770126878207, -0.10077754324839587, 0.17589452125426927, -0.03140119210106278, -0.30554113976246433, -0.09451652195681283, 0.18764738813362417, -0.0667385295560052, 0.0972778476857858, 0.24999454432274304, -0.27599422514863375], [0.20045618340458113, -0.22047822643267007, -0.13955689320705103, -0.1762661886941545, 0.03540870307752622, -0.030393163058899393, -0.4389405629547348, 0.0036385144889139777, -0.283632109881753, -0.336202270237445, 0.4302354419412949, 0.13503807148268743, -0.057914524779171354, -0.06042432759664304, -0.39011474229423093, 0.16807203785785105, -0.16319676943290234, -0.23011210093462742, -0.18949457039569725, 0.23434617304427097, -0.22719058404345513, 0.0010898097375239434, -0.06329054620834668, 0.07610214823484453, 0.07334289411449471], [0.10824763029852467, 0.15668975784004585, -0.12329980697275844, 0.12132362237558679, -0.1345513174660095, 0.26001735511726093, 0.05468380348291547, -0.027833230985480784, -0.23719281098269865, -0.05131660490370071, 0.04372430983214998, 0.15653562324554113, -0.10051115387710464, 0.0796689562217129, 0.15038195603088095, 0.00613273460005872, -0.037427617184885804, 0.15242901315258223, -0.07971823363685523, 0.13397760812354675, 0.009979329268950303, 0.028088307945745673, 0.04475925083305383, -0.2367485523959551, 0.3017704507830449], [0.38476411037367547, -0.11832486187594365, -0.02943772797531679, 0.2311702697990133, -0.2989003903728677, -0.24167187264030876, 0.14371886068363418, 0.3646752810489612, -0.13292543850311075, 0.15705962063807796, 0.13802218393510446, 0.13262217508461388, 0.055105061568392885, 0.15599151565160044, -0.23631851723506667, 0.034116276717110434, -0.13011209910536495, -0.4166287568214294, 0.2565097965802193, 0.06852903620969208, 0.03794454150069825, 0.12012076537676229, -0.05684706871280734, -0.11324610425382511, -0.38577860663635627], [-0.24493950071269338, 0.15878409130318952, 0.08389720837156639, -0.28829355267983975, 0.2953760720706522, -0.19053264677259274, 0.3694250063772141, 0.11589348787344582, 0.2789568792374042, -0.05776129669755628, 0.1677630546882749, 0.12818339512264443, -0.002022894007898867, 0.4454847169088833, -0.22040081202375542, 0.17527283306333324, -0.12397743920682765, 0.180557331324298, -0.05011171486023868, -0.18134309542026866, -0.1367885122457263, -0.230476724772269, -0.4186510164145543, -0.33054110276222454, -0.2882822811403799], [0.15741866358815945, -0.42538779662795195, -0.0946106548595945, 0.1510557898207004, 0.3141896816549151, 0.060083129984975225, -0.22811871697904285, 0.011059319124494791, 0.22349842537584025, -0.04181968282673372, -0.2104278726985421, -0.19015117934405948, -0.09585954313881836, 0.15841891991676235, 0.04509105867378003, 0.25152914472730087, 0.3376931912039941, -0.09167747955792485, 0.06607933469584776, 0.18444913504858199, 0.148381765192741, 0.11294590385974998, -0.3371034222464792, 0.07469203602434407, 0.3385592403018044], [0.2515730163838004, 0.2308220409741252, 0.1923379402341016, -0.1689415858711856, -0.15005058595272205, -0.04305227255808202, -0.03348089779943499, 0.053435617446358726, -0.1765663101006783, 0.026681408944784987, 0.34607040476745377, 0.003214736084905457, -0.30510156764703045, -0.40398457504605784, 0.0726474668682164, 0.17404832267899978, 0.15504557869219457, 0.14386449298421877, -0.13298913188155034, -0.11156131179403143, -0.1469148520404736, -0.38632720013942806, -0.19638670924709428, -0.27176674446736904, -0.28656852199694377], [-0.2961124596529433, 0.3287456081891986, 0.1583994376269158, 0.285152703456839, 0.07472678537410526, -0.36214616423417206, -0.03456872613975559, 0.2348747474896061, 0.21417604943503848, 0.1252889177729293, -0.08364308422801942, 0.1707256302601998, -0.06870661798421461, 0.21556378566548498, -0.14459486081364606, -0.1726730725451056, -0.20897944754722006, 0.06908705997423048, -0.30679150718049064, 0.032798012050388896, 0.23138557187118874, 0.4079513507584317, 0.5543101656093316, -0.32041227994225957, 0.012499352442518059], [-0.5657830820753307, -0.0067327784980286895, -0.06796866370586292, -0.1120981671899823, -0.174102191637223, -0.14305041739242372, -0.37781393274504016, -0.1928331731104526, -0.2343075579551141, 0.19084971107845988, 0.10534046761604117, 0.1589219154097382, 0.0008449976161252169, -0.21743560811603987, -0.2173683237809342, 0.2619466617009248, -0.22849461059135773, -0.13097053272119005, -0.03049449747511318, 0.04500919796798076, 0.222313577954092, 0.3317942213457972, 0.12613702606943544, 0.025383286669388733, 0.2388340518715646], [-0.0725015800785384, -0.04908298710054186, -0.24349926532042238, -0.2091322997057973, 0.09916236705794762, 0.09715431016137331, 0.05442880238356592, -0.26222224474739525, 0.007034272754257091, 0.17210818138413445, 0.06162892395157336, 0.3501594843122473, 0.07509187278011077, -0.0367638385864522, -0.36961231599767363, -0.29229094623030394, 0.02533490320229716, 0.04361056235999026, -0.07515498882178277, -0.30451548576897247, 0.17798180027100602, 0.010791950895382662, 0.05574840430788973, 0.05753223091655326, 0.11874036582779804], [0.2879627754136126, 0.07801326432119379, -0.32853668852158874, -0.2949370960155834, 0.2798251224197649, 0.10840324858610344, -0.510080034477162, -0.3466355120174781, -0.12468137649117736, -0.06389290760637764, 0.12299866663886365, 0.07228039557700731, 0.12197709612250543, -0.010313467478566677, -0.09056496867168562, 0.039718408337473574, -0.5300403333500248, -0.13331487718219917, -0.10157798186719806, 0.2363109571928553, 0.2081879116396359, -0.1184878620803063, -0.006770696498189772, -0.20657063167257053, -0.12312867689846727], [-0.09063790727306263, 0.05869276190931583, -0.11557569494135517, -0.4464173233806335, -0.1318925940759083, 0.050130949376037286, 0.15161024751023233, -0.4527852539814263, 0.1985157496299626, 0.05382250366345044, -0.29252916352231373, 0.04513199704217813, 0.12704410070324848, -0.08983925750111632, -0.11052269475643121, -0.15942101483084847, 0.024459449112531582, 0.42467085753413353, 0.158904316977723, 0.054796602580138194, -0.11170827883695757, -0.13893260596021198, -0.19200760407937023, 0.032893343689500865, 0.0960664320591299], [-0.1906010834406376, 0.46801092730014576, -0.0013620616480847366, 0.16139901193580136, 0.04592104751450186, 0.23839056317642285, -0.007693503209585885, 0.08714300903619063, -0.02126410315932354, -0.14915451685911615, -0.42041816106501717, 0.08363087919344965, 0.2355818395232099, 0.12107248566385621, 0.000550314309653635, -0.013305370563174415, 0.14811795941519654, 0.4100717202693245, -0.0019550007937451878, 0.1263356410988068, -0.02171665445349614, -0.2619473293505723, -0.3923627921564627, 0.2521634667809739, -0.2800566830912888], [0.34001256158596804, 0.1324191903374436, -0.003403465183509205, 0.029084562853269103, 0.1563329014913243, 0.1194691526236854, -0.11570750392733509, 0.33527138515819105, -0.030508498270898028, 0.23118963201354203, -0.3847835346352367, 0.16696412389757356, 0.027740912212100066, -0.30652271848221146, -0.02222108170869428, 0.07057502694480977, -0.006711914364436485, -0.24544298479950383, 0.02486398674853494, 0.6662974329395365, -0.23192839839861903, 0.14284620418373523, 0.3032881567438798, -0.10869705968745413, 0.06584214785455776], [-0.23183354262939262, -0.11486478951488525, 0.19427393036961005, 0.015323921983724773, 0.2589404233746855, -0.1695483377108916, -0.19144373313483704, 0.012254048418228438, -0.11934766109560571, 0.2458474621884248, -0.038970783753165775, -0.08950393269520471, 0.3728475865716102, -0.06959371551774834, 0.0976873658363043, 0.2177209986363337, -0.12177389224403587, -0.06979188477281281, 0.1718376191914829, -0.03278407199307792, -0.16245815033135486, 0.11900334964691342, -0.02225139993594489, 0.041554819818997994, -0.001091488724447092], [0.26811718994428146, 0.05333962442894171, -0.4331692483961603, 0.34880485751612533, -0.26838959991353417, -0.17227414705546423, 0.2840228855810162, -0.4407529365178806, 0.07043208346942756, -0.27617144343105193, -0.2808122558998026, -0.2800825993517772, 0.029701686005785845, -0.06099030194372671, -0.01110531353548789, -0.2667617372515393, -0.20288924184584514, 0.008531989539244654, 0.005758171704707715, -0.09477419755065587, 0.14247372809218806, 0.05825316429850133, 0.29415919788529316, 0.33502005936467955, 0.014506794949013947], [0.0822492552571931, -0.2572370897705171, -0.2620344974620727, 0.21854531034490712, 0.006193856085034696, 0.10971204415894298, -0.02199348094233992, -0.11557740099212932, -0.02898883484571517, 0.1713641621138135, -0.03676190197164315, 0.003733655528726056, 0.08014970656180083, 0.20191896931348274, -0.48157178288720853, -0.08872092106867302, -0.029314038706319802, -0.10529683881887525, 0.1720656393152976, -0.36021290613801715, -0.12913797822410533, 0.13087789469738564, 0.2961669784522255, 0.49046287081447487, 0.2870510612405204], [0.3184506353447314, 0.09407559280011238, -0.07004148997502084, -0.09341924092731314, -0.2008836140507161, -0.15822505882951649, -0.022629472298501634, -0.01357287014752108, -0.0674218911031893, 0.19610603204718355, 0.3030716786997741, -0.057808751477613024, 0.34862063443076735, 0.1485321507771, 0.38959223661637304, 0.10186028615491545, -0.01406109467149237, -0.012616939506164979, -0.4302221108993139, 0.0009558603024271643, -0.004800528747593046, -0.41801753965286564, 0.36488831840432084, 0.2332012746300759, -0.05323379737252072], [-0.05241029746003426, -0.03682874358048992, -0.03349824758302154, 0.2008904427199949, -0.17358174771842874, -0.07134774308140382, -0.13415385191348264, 0.38113879168744497, -0.0135405701513652, 0.2139015376181906, 0.044447393258307745, 0.20581412682399552, -0.1839165654833308, 0.12084152072858124, -0.14749552692073795, -0.2588030032258453, -0.13959800472685607, -0.01629906662494933, -0.0653967370414493, -0.11119415618114734, 0.15145698513406208, -0.09019973682909935, -0.3547598732294931, 0.14726780233343137, 0.027521877737217492], [0.24221488247969486, 0.4544747735730019, -0.02465289524952923, 0.21247666559402742, -0.06023940991592641, -0.09993161723402545, -0.01707787693845409, -0.07383995093370842, 0.12431543835637741, -0.03208314389822321, 0.022201003455301287, 0.11171924809243779, -0.024877274421857463, -0.085074796771098, 0.062395665147075986, -0.23780584133814595, -0.05871155146204847, 0.1488885936250973, -0.2546953935814141, -0.05300746001974491, -0.0635568230186497, -0.20303546280305404, 0.1872127543096348, 0.4878407232967791, 0.10424856927489386], [0.125348804679751, -0.001703778672471535, -0.18704366239766404, -0.09619108434674571, 0.029453345735293027, 0.03395184926604148, 0.4113961107094066, -0.29883415597412694, 0.12441739946922019, 0.19370535008118067, 0.30391800249102396, 0.018226819747293305, -0.1730707557260122, -0.10196810750909606, -0.21607821484693962, 0.07378779938446042, -0.1981078612135478, 0.10729710590785616, -0.3364942623201963, -0.3636785305434802, 0.06790063720287139, -0.18230353502866153, -0.17344510786563258, 0.14844977295102207, -0.4963167493649846], [0.2550280486835458, 0.36478323290943576, 0.23915530397941173, -0.061504035746088245, 0.18094342910421346, -0.04576057157840246, 0.23397895075352895, -0.23583392920180452, -0.1430185781824207, 0.09987147651568543, 0.22255012998446988, -0.015929686899049396, 0.05164863007584861, -0.02086436743381922, 0.14704827630622605, -0.09529622376111266, -0.16849814220875933, 0.11462462683948449, -0.39192160707167417, 0.14413648505020057, -0.39114819173670934, -0.08222639278856904, 0.1429925325731915, 0.14566517808080454, -0.13244439266550573], [-0.25019888043929334, 0.3811008775699087, -0.034914748830422726, -0.20972665388045225, -0.023380320959718655, -0.6114044834953943, 0.10708702651986474, -0.15861843921029128, 0.22579955386051734, -0.2667256289305272, -0.20772666538504897, 0.11528027467438925, 0.040175029997398616, 0.21118514777926442, -0.13357186434089555, -0.3096487703299879, 0.28222860473491584, 0.16125490012069554, -0.26563426808936624, -0.135817774404119, 0.12023335313112941, 0.34804550138702983, -0.203053933952411, 0.012756241739174688, 0.06469787875316405], [0.06862509183104304, -0.1324205657004616, 0.019285929616430556, 0.1437939053810389, 0.09330400426954254, -0.2899645075271189, -0.20083365447610033, 0.21301621864942344, -0.31691120054265925, 0.2855340773582066, -0.05821920505666182, 0.05790768007528451, -0.14871007111919826, -0.04147648379001324, -0.1306155757346002, 0.2145832777620979, 0.036884196871853604, 0.017349522787020875, -0.11099198504589364, 0.2914058496937548, 0.1795338442781999, -0.0994816366418223, -0.23658701933875428, 0.09509819750388455, -0.13354744489761877], [0.059941923363742496, 0.11726827149361002, 0.22670800291728704, 0.04427515562522406, 0.11758170923803979, 0.299651306146242, 0.11906472360368035, 0.14441332071007262, 0.29935015434033957, 0.08397145057191245, -0.12420226577226398, 0.13282147637877348, -0.09143102494430129, -0.05055434117385851, -0.3375816635640145, -0.2890219465014221, -0.10583582272505655, 0.05677691693018056, -0.23895942388303956, 0.05350234479238987, -0.10253198284111535, -0.07017913849653372, 0.04072332684807266, 0.009241777290527742, 0.002402729270262939], [-0.22938159634672828, -0.2984872468870348, 0.10101355136344405, -0.26491152986383365, 0.09086084654582656, -0.021341859699504008, 0.23780916703977423, -0.24350054007084476, -0.21787494507104896, 0.309598434183983, 0.07064189640699076, -0.1788412950282203, -0.17965574578013288, -0.5685442261478302, 0.12238865173236838, -0.3243866933091301, -0.05077530385415722, -0.01257071148466057, -0.2349571778359188, 0.009366650715267088, 0.15526553414759148, 0.09409283628698342, -0.2572341758456357, -0.346126436527474, -0.0812123903040015], [0.33424408902498187, -0.1240269509941878, -0.07057475243052994, 0.08138180855629536, 0.2710464445721675, 0.016497762474173578, 0.46470807387553575, 0.25124971114747024, 0.21561202825732276, 0.31011661992589346, -0.33008694230702074, 0.22664463322285167, -0.27290496336643705, -0.4588508635107017, 0.18688710261000627, 0.08576953454824843, -0.21699368817292575, -0.12449433094464285, 0.2024803770855421, -0.06155146930050326, 0.25615243327482246, -0.265408857729314, 0.07098053999747506, 0.061753226389984615, 0.17677192724689197], [0.1031237564069699, 0.01805049183166336, -0.0376242070984693, 0.440946777907772, -0.4148927406540612, 0.28341683761254216, 0.17756544030094246, -0.24159135973333154, -0.3708068812588557, 0.016693004738639633, 0.2824454462934093, 0.014288071638623721, -0.05993045770033609, 0.2544843656247575, 0.19839374704666013, 0.3423862453296907, -0.20430941659187987, -0.18299631790505433, -0.2728290956468817, 0.2359328764956672, 0.2128586275447185, 0.39656465955890635, -0.3492655622708046, -0.253888588962822, 0.19141812833216912], [0.36338781148156374, -0.23391733995628455, -0.2424881240700562, -0.14220531601626438, -0.17086197360908106, 0.034178407540225594, -0.050778469632132325, 0.010511432107666273, 0.09765582972093827, -0.007026597575497036, -0.24196535772898425, -0.01607270836300848, 0.048733034764364545, -0.034013872471138025, -0.07346408126725391, -0.2699689575206755, 0.0714148872659856, 0.502589318730907, 0.2842801545546204, 0.0009636320555514655, 0.2161620154577954, 0.07299990504047511, 0.11671264018099012, -0.0824255462074944, -0.13951863614202845], [0.1374226775738164, -0.17598512008052689, -0.3626544611578476, 0.16394846187313003, 0.02251201596567446, 0.1360769453533268, 0.32486308843141803, -0.1278450541086655, -0.2635927897030762, 0.08524847895345644, 0.12396735635320681, -0.06560779456695534, -0.03055985069040458, 0.04045937564148367, 0.1508855617787994, 0.18593011616652547, -0.13644962731665813, 0.1290162433951221, 0.12607836280255252, 0.27889882828038554, 0.10542055907787623, -0.30930106036525723, -0.13505686573391595, 0.05982826032706267, 0.03931635511386712], [0.37177821377591, -0.22785171363929727, -0.024879047046737792, -0.44814797713211724, -0.07843047490757712, -0.4090850496893018, -0.11270825360891855, 0.1311580954613999, -0.2649174873300558, 0.12439211427150489, -0.22848266118960436, 0.14738710909985145, -0.21219503723001634, -0.5398767626931793, -0.08796010075412752, -0.11535895799478009, -0.16419993360467258, -0.22365377455706809, -0.04415348914850132, -0.18972528574570596, 0.366350974554012, 0.11038014217800456, 0.03521244510357037, 0.21860840920504204, -0.4399131288174238], [-0.03397741824110002, -0.6005650969803598, -0.05197416042349242, 0.1521303941521458, -0.30653499835069425, 0.36337947807701854, 0.20526835631960344, 0.02711259467894194, 0.1851332874744683, 0.1670595869993448, -0.36786736275456866, -0.2093885183561987, 0.07134916028843089, 0.10359336208930661, -0.062003487633253945, -0.29086071024768395, -0.046460393093699315, -0.5335840475994107, 0.050742047752085406, 0.22794405289674524, -0.007833706919273075, -0.1539506538879461, 0.16072582144347292, 0.38162175327193737, 0.0796530756465537], [0.20525255759983577, 0.04739305281683743, 0.3344881966588459, -0.22931598235407483, 0.0870705798273698, -0.33679643308539237, 0.41900817634716636, 0.08983367800533214, 0.17414828377625116, 0.13083788912841876, -0.2745411617081745, -0.17336626208248787, 0.3312495869878608, -0.13386376037329129, -0.0520464007985029, -0.1628200578111528, 0.2761179864635571, 0.070083729664213, 0.10085952586235022, 0.09460466161847703, -0.06796882064101908, 0.13627812465704525, -0.18863283500153827, 0.06393669842759639, -0.1250238724932916], [-0.08500997433730942, 0.02607806603819477, 0.10129849265749849, 0.24507827669701143, -0.22987760023412793, 0.36564919884293473, -0.023703491077797508, 0.043561376523047764, 0.016306741992631917, 0.1835991172743714, 0.1572977082922436, 0.04678245302435156, -0.041782907906420856, -0.14136800939394534, -0.04607261064654184, 0.12209383315313295, -0.0265435965068587, 0.06670189803924134, -0.21555220620048926, -0.3273342418104314, 0.025604485645018913, 0.04661347462622072, -0.1010664619154362, -0.17009308543567525, 0.1053681922937021], [0.03586120425363062, 0.394099843449891, 0.2799921106216285, 0.10841759603768818, -0.1421816038584985, -0.03613422581934814, -0.1981278343350023, 0.11274390587977003, 0.1545764860484693, -0.05990279844243594, 0.4836011139829042, 0.22954262472098397, 0.22457488075698193, 0.24753381668664187, 0.2987397970890567, -0.24792933894441144, -0.025052841359669464, -0.0999462153113936, 0.13726129561195866, 0.17126499678057533, -0.08589038633446465, 0.07709694621986925, 0.02344115820909848, -0.02596125999470056, 0.21179259611932794], [-0.21570465863156604, 0.18680975562237112, 0.23164951175911427, 0.4360485403207786, -0.08486611418398028, -0.3347595299707182, 0.01295240942198545, -0.11858632269436371, -0.6163596294942116, 0.25392972625723137, -0.25052049695941875, -0.09411947683008696, -0.06490680922576994, -0.014532320741720197, 0.2616176378908075, -0.1296972194458132, -0.09594139292694277, 0.13461099658016162, -0.07321705783645276, -0.07591309606253338, 0.18365062095636875, -0.053986044335417656, 0.22943731280989102, -0.015135704922603598, 0.31293319997196345], [-0.07402659859553529, -0.054652626234417495, 0.2422254508276581, -0.14895082290688585, -0.1164747348662047, -0.28897103605456803, -0.12100996355140436, 0.27670921829077705, 0.540227921372385, -0.06051592808803237, 0.390635137913772, 0.2017268186800797, -0.13189329302310135, -0.44475740818092546, -0.18863308326193665, -0.23879250018176001, 0.20061096847633456, -0.014888160858807667, 0.34172649258895754, -0.12203211861915889, 0.13189074326105749, -0.15646126036328917, 0.1809941368898724, 0.23523623621351838, -0.046961601187584315], [0.1529534845781038, 0.042978489908019626, 0.023048095404249798, 0.10980606340933965, -0.030870137695701, -0.007833084702016517, -0.1554961764287671, 0.07633544897043805, 0.09795187170148063, 0.1149685201849989, 0.26251081728407394, -0.29527682198833843, -0.4037230535422567, -0.010465742631159822, -0.073045775030234, 0.266489879381693, 0.04187786259190875, 0.07000786847518964, 0.12053864902927536, -0.007573156602241957, 0.16429377152782637, 0.01271373665655194, 0.03800129716382752, -0.35901731338326376, -0.40508550815574856], [-0.19503845333231112, -0.2390800517380686, -0.07187375711088304, 0.029492933719498442, -0.23866481706321205, -0.03278141155484455, 0.24297934229305834, -0.010694146091832722, 0.21773891499521855, 0.05440450548011375, -0.2995181933090382, -0.1565985817368744, 0.020477001827414444, -0.18430022855186007, 0.08657589028063495, -0.023931545132651912, -0.40867818952980645, -0.08654073545992769, -0.41962743152926085, 0.17489703995325162, -0.3117568092078667, -0.0072444620442426114, 0.4686671368251511, -0.3714506542857579, -0.3441172065700217], [0.01567716802318203, 0.3904854906331868, -0.035222823319830385, 0.03295918513652724, -0.08901799935684562, 0.2142666167395612, 0.0947586711764213, -0.4854724835705575, 0.2312415723502987, -0.17218641005735658, -0.01061668810519962, 0.11438380427799974, -0.04854049856230798, -0.06402397030345827, 0.18493493508152867, -0.0028502311452160466, 0.03027655407101933, 0.12964316811670284, 0.2614091234366388, 0.11320652564406601, -0.09938566360625423, 0.10372371537488173, -0.05499659356610863, 0.16498334337809115, -0.12998011572590193], [0.19591078325111974, -0.03263882969458614, 0.27816850386207465, -0.05989080190411409, -0.11917260837618213, 0.05596978933880602, 0.20134403866551748, 0.16721900167095086, 0.4073606851736519, -0.09702805789033772, 0.218276078964996, 0.09276296873954118, -0.13611847255345455, 0.008214049681411765, 0.21611686795923846, -0.1822405559457531, -0.06610283576540125, -0.2699964395328462, -0.07970158544194482, 0.2069593228875203, 0.10052440679533503, -0.25583080633600397, -0.0671608660726336, 0.109431252472365, -0.20111507085449493], [-0.039507574667249946, -0.028391497489163624, -0.05692293763831671, -0.5587304551787412, -0.16512253530781937, -0.10879691980275956, 0.2620916733582181, -0.009066015773347164, -0.14916894238480274, 0.20439221949505074, -0.20496268289403197, -0.03784421537280867, 0.02928654844119371, 0.3456676210587621, -0.29925125624220805, 0.2378958176848612, -0.01791797613802363, 0.07944318549098617, -0.2630655393135042, -0.12253646604326314, 0.11543960356634851, -0.22495642706770386, 0.3901058079907351, -0.31797428627000546, -0.13634993746886523], [-0.056698469937071165, -0.03312156812954885, -0.09616424585760887, 0.14866275989794647, 0.12884942700636498, 0.0648430851741047, -0.17597386604103554, -0.0755931038626081, -0.07127892565608117, -0.05113306800748878, 0.02758228259023314, 0.04361131806982131, -0.0517355353446608, -0.1892374745893327, -0.019135079578415003, 0.032021877782390726, 0.1712683301050354, -0.03362135851354284, -0.05020839613297933, 0.12266124082894028, 0.1170211021763908, -0.00659100766873949, -0.025461171988678095, 0.16929240717226962, 0.5958947997723987], [-0.3812162501033692, 0.08402071728598229, -0.3128614062594317, -0.027633400728891366, -0.07752192372204018, -0.2509964488621355, -0.006750478349302903, -0.038913177366249996, 0.3294099351494215, -0.2463255817157175, 0.2695087253562193, 0.2415733619898, 0.1156746573616986, 0.03133202416029648, 0.17195017401386134, 0.0029356253535126444, -0.14963788737997882, 0.050302514696644186, -0.23280867578122938, 0.06267824456823054, 0.03185974822214048, -0.4225742405134475, -0.10078865445868306, 0.08620108950627454, -0.34315969939376384], [0.1218905675733769, -0.18620669978874113, -0.034473441936447496, 0.22761508761854254, 0.06969029924234314, 0.17194615887162618, -0.09809403923726923, -0.0516217837910534, 0.3317886930399939, -0.06099789584084366, 0.007997297464410415, -0.06441747862973946, -0.09196650514595628, -0.1034966266690874, 0.18194174539925279, 0.029804781311490103, -0.29523276905612994, -0.005139281519987731, -0.06575120670692158, -0.1820792564126968, 0.1640768816571358, 0.11074494613132188, -0.2581087382830854, -0.06135395176208036, -0.04215455025618583], [0.09550795050918925, 0.2799894283075263, -0.15025680275654257, 0.10563372512579797, 0.00038607964999968537, 0.13379477406300747, 0.061292329920189285, 0.17619523522131272, 0.038664069438454185, 0.11568644108686212, 0.062442834167048274, -0.33848094455222205, -0.03709110617429957, 0.03583190202961061, -0.23287331965685737, -0.021560328971536584, 0.310883782054402, 0.32319271924938897, -0.08150285035624019, -0.10134803798308634, -0.31587131186464523, -0.028268773786093656, -0.10714570030837857, -0.21360771361068373, -0.26154446176179946], [-0.0023246878965911696, 0.057679428968461184, -0.03211550151764433, 0.3869487350291773, -0.20505324041463963, -0.26484907894698334, 0.371892284583108, -0.0847412683368767, 0.09416141153853713, 0.01927088955869482, -0.2786586711265377, -0.13345302174492965, -0.12761400514556584, 0.16651488294745245, 0.32037973559084704, 0.15526042262385065, -0.027213289983342777, -0.13977150023788054, -0.15341155848012825, 0.12971366674356535, 0.06542299709252594, -0.11287405597310339, 0.26560895428117043, 0.08042567992492462, -0.10542983864114537], [-0.2659370258765338, -0.16141341559932776, -0.09371597527775524, 0.09713664755861044, -0.10421575579635595, -0.21030502916533267, 0.2783410112286978, -0.0683387766070932, 0.2209145355420464, -0.013448873189051932, -0.1975003983747366, -0.31428173891275407, 0.03116151688519462, 0.03189202124028667, 0.05069477098047439, -0.3542799851654173, -0.027301994310361795, 0.041061326726750225, -0.10152432691797274, -0.10055942562881764, -0.1266694101833888, 0.00387054604659313, -0.1506696462764117, -0.38070443268717036, -0.509013864727893], [-0.10662474320439223, 0.4205105089099847, 0.02310914270615038, -0.18370360808055736, 0.039952598297030344, 0.14543215192146078, 0.1461880323100763, 0.059326380734434345, -0.3439235209090846, 0.25942859653349265, -0.10740915850657358, -0.022026516398457215, -0.04511445076558977, 0.13320880175197675, -0.2887542540669798, 0.20311001841823653, -0.1652528902331803, -0.29773358016161383, 0.028493903172860897, 0.01735347807487832, -0.23314952220076388, -0.037431736552780474, -0.20738556725600638, -0.06796504546939845, -0.05935546842684858], [0.14990680479298474, 0.19104115764029714, 0.16422289023083073, 0.11406127080227857, 0.032644476588794054, 0.20399341994856715, -0.26438401795517563, 0.017424259330191313, 0.160217876665884, 0.14055188157330994, -0.16812459325015017, -0.28619775968235345, 0.08349576381517475, -0.3523761352153407, -0.05416690161466648, -0.06225281391241146, -0.3000009545621331, -0.1458009658200022, -0.14384884695401723, 0.13611956981511045, -0.1465135943396788, -0.07174983089003033, 0.11488855353113396, -0.02408476670705993, -0.10144721524859943], [-0.3772429023616396, 0.4653478142061276, -0.020995128890302327, 0.08828961438818397, 0.21939062942126242, 0.20097208025062455, -0.12807594446549855, -0.08288593944365305, -0.39109064136721045, 0.02773215467801325, 0.012609430017225259, -0.03551411780648087, -0.32248873855001337, -0.25136525129909365, -0.0668300509008854, -0.005579672241768567, -0.0558318512129684, -0.071759642050852, 0.08644102715641093, -0.09201477840976274, 0.09516554202254131, -0.16342715066174276, -0.2795343781671616, -0.04395898565655805, 0.14822538869450358], [-0.015138980508436787, -0.12436405473114631, 0.15838231488418297, 0.11167569509921305, -0.041541642697865096, -0.1643631686591918, 0.23629213586673062, 0.14284504399861753, -0.005248812988298116, -0.2919246309857644, -0.06857127084488296, 0.035723262454590635, -0.48432989393565834, -0.06659270098857023, -0.09411214954951751, -0.18551610863162604, -0.2572873000062935, -0.19992841009293486, -0.30074954887783883, -0.16449766588716325, -0.34958721188423386, -0.17388266828460883, 0.019507518059411696, -0.21489804608268823, 0.05746212376868952], [0.2266330557509374, 0.04166895031824671, -0.03178116465866735, 0.11165362357218049, -0.22273082546052528, 0.024180810259580736, 0.02180872238519667, 0.075181074951423, 0.5103627433151273, -0.10890645006231547, 0.04004107545709992, -0.39169306182819524, -0.21388483159460098, -0.34613932775075, -0.34258364819320825, -0.17071197877140046, 0.17566883942888392, 0.17289708146282445, -0.26723159919904027, -0.3582267147209449, -0.3997394123650979, -0.20574966341993767, -0.006659377197061483, -0.492689162523592, -0.24908000218988682], [-0.06880626274541876, -0.05411356730648401, 0.14178033244277266, 0.02545230688842174, -0.17443613314639922, -0.2174058426810822, 0.07001791013695945, -0.04246610104560869, -0.1498292509213589, -0.22908185543565288, -0.586463364229448, -0.12057353609560995, -0.24534996938171624, -0.09912600371669066, -0.1708544692669145, 0.1295396870839898, -0.2996053174767967, -0.002226763537513412, 0.20194219417384265, -0.34913797663484925, 0.0706251407966066, -0.12526306916364827, -0.13621461373775848, -0.08472865842423921, -0.1145364847200057], [0.20828597734362936, -0.2086253169386371, -0.20986377702306874, 0.03836321506128757, -0.15950353828853506, 0.11428879991316976, 0.3199193669396247, -0.2669760266226736, 0.35289682266025213, -0.0043423133567586465, 0.08684232368837477, 0.07187841937781235, 0.14788208164273048, -0.17507795036966553, -0.31852627710895315, -0.21961066991912453, -0.1616714385085501, 0.05011384700595332, -0.37916617772332506, -0.047895180533694695, -0.2050537720309405, -0.017872929501442064, -0.23391541100864593, 0.22579937895415467, 0.11109689213290744], [-0.07576994973032729, -0.3020377462729528, -0.03444795681709627, -0.44116698477747884, 0.26047427643617727, 0.4361017269364791, 0.0843081179679106, 0.3474170527080219, -0.16390162042799916, -0.11043686538124894, 0.10634217525490192, 0.11200001437985374, -0.1302956534773562, 0.2856247236814398, 0.018466804109390052, -0.2608961196656648, -0.03807151683439532, -0.10297662766908436, 0.03390740401443119, 0.05271786274161763, -0.43599580958258316, -0.12363400142123918, -0.16396328748491074, -0.34290793710733125, -0.12736363354086522], [0.35602184009027593, -0.1472041379338482, 0.05768980934053141, 0.020858755365433752, 0.024531429611366607, -0.020551470464411536, 0.004276211709604602, -0.028014225681516337, 0.1552256150098568, -0.06552899842610058, -0.021621073798918162, 0.38527928284634866, 0.1919013249711944, 0.0200599425313175, -0.11525201025946004, -0.040344245448645184, -0.35954163233580944, -0.1772009713406356, -0.44777013312763975, 0.143189449755711, -0.08927030954177619, 0.20837096559829252, -0.2846040209874956, 0.3683351176590795, -0.06204072682807552], [-0.006373029350081148, -0.22380607002121883, 0.049237506715698924, -0.16038125000609796, 0.08303154803018199, 0.2472285720961826, -0.016008347169814127, 0.11570454783180946, -0.22604566298611856, 0.22755733318469015, -0.0654179052912851, -0.08226517010180441, 0.0025537279091382105, 0.12456054785337965, -0.2734837221989064, -0.09377437793417955, 0.19576529960859126, 0.029830735027775543, 0.06667697590570892, -0.14535839227744565, -0.2886883033788302, 0.31279878851274484, 0.2933712819501672, -0.13001804815361853, -0.23410298786131384], [0.24571706200241095, 0.027157195106898666, 0.2869927441265976, -0.06851488402286328, 0.11344373023922628, 0.09747317841742703, -0.06836614518432381, -0.32211338490958336, -0.09706840791783367, -0.30469865675480273, 0.0024250174974984784, -0.3574721668533689, -0.24404892223553915, 0.19697601464691059, 0.11873564681906391, -0.049039595475253994, 0.30683445697035633, 0.15574650152598812, -0.13212665760321757, -0.02143838462727226, -0.147091316572511, 0.08007787748015495, -0.1320582300123797, -0.10596249124146985, -0.3078775301633234], [-0.081012532073993, -0.019368396206353757, 0.12569315293390446, -0.04549072771903208, 0.14764668630816857, 0.034891232905555784, -0.048171524119222604, -0.09578077491254859, 0.06321746170348719, -0.22017205995616368, -0.1891011562406078, -0.05153493594082845, 0.12021193754438418, -0.12796124361322983, -0.004536122511499268, 0.1263901312497947, -0.10754129850833341, 0.055274917045325944, 0.016765962102909645, -0.023942663009031313, -0.14978150596814124, 0.3374037844797865, -0.20947490055071327, 0.0714580428928804, -0.06409622272983022], [-0.06346345068062342, 0.1023119234839673, 0.06292031029819439, 0.2546521760462519, 0.18069291832063128, -0.2133667892618669, -0.1322889309734349, 0.06538370625763641, -0.2047827062972328, 0.017844732422791044, 0.43507180629350045, 0.01634793723292471, -0.1959827487355144, -0.07618361895929626, -0.031874404514648944, 0.13417659990963238, 0.33163115691121153, -0.4971118653711719, -0.05529069062361711, 0.22203068164977785, -0.008404978974722447, -0.2617651969648511, -0.31440334829375227, -0.014335776527393648, -0.24209402597554025], [-0.37937086515863117, -0.35840192419228384, -0.31595108714055453, 0.35802697936949796, 0.23169850462884534, -0.11191990127431774, 0.12109236708306234, -0.1623775501142482, -0.006678442445556689, 0.12981524345985795, -0.06837961567796559, -0.10211987050972283, -0.13959734202503885, 0.18018037389000768, -0.08668579869067261, -0.15619492944377245, 0.20981014507235402, 0.01712262423818658, -0.1096809932929896, 0.2768240503046068, -0.16658923091699998, -0.09484735337786246, -0.27736427544904746, 0.009960050527863345, -0.4400418387858858], [-0.15910129322996056, 0.10814128965312772, -0.0848072606934371, -0.17179890320178712, -0.25806557280502157, 0.33041904167315533, -0.05777880704829112, 0.3735015970090352, 0.2467316690049565, -0.06902951112985915, 0.34061898544073854, 0.25179471984185725, 0.23127022980272047, 0.056580104501287816, 0.2331905851768462, 0.19253677439622505, 0.28480112660155804, -0.2342286028073024, 0.1525819243943882, -0.017199217602687087, 0.18437582738459457, -0.08169566715133741, -0.11182741179189641, 0.20190960223350626, -0.26152535766724627], [0.09647917213851513, 0.14471841923516587, 0.06566253204315604, 0.0275196758846569, 0.40499375404806376, -0.0026072098199200425, -0.01708521633402829, -0.12728077253837422, -0.15049534502878964, 0.06420332743060081, -0.09432388108993538, 0.11916665535051282, 0.36325793122887545, 0.14535012255687432, -0.2457103230669496, -0.15073389781251745, 0.06285338855554759, -0.04180495206363851, 0.26092284644223834, 0.326028304474704, 0.15302032514470928, 0.14118606859845684, -0.26121887856593534, -0.35738635822033976, -0.5664576031700184], [0.09928222600581295, 0.4993890244670311, 0.1547491839122971, -0.02504262159812648, 0.15354893822726345, 0.1372374321910961, 0.0008552022259554838, -0.06762375019066122, -0.2136437270309339, -0.03425988274297026, -0.09660397104087069, -0.018092758359068838, -0.030374016319740686, 0.118136272599734, 0.1691050854264208, -0.09439300509392978, -0.18206033918895292, -0.01729914115324478, 0.12020979065428922, -0.16194496305427428, 0.08619367633325722, 0.3229560054188873, -0.12893475737863372, -0.17719547931815913, -0.02526318533188763], [0.15630570160419113, 0.07186346957354828, -0.018906130760305596, 0.1547444815435683, -0.030656999931467324, -0.14197085802788087, -0.028173740025308605, -0.15054614023300122, -0.0899216767859363, -0.0909203609736644, -0.14664605353103535, 0.35984843505340625, -0.26801113811303806, 0.08458721202546618, 0.1496848091805333, -0.0407552826201389, -0.3463484365753388, -0.34727951578955796, 0.11628195794740374, -0.003299875535322293, -0.00757805518720083, 0.07065582558127596, -0.2706705530809701, 0.14131132127185075, 0.03525166573582464], [0.2861808120087956, 0.4956863958454221, 0.042494491744963836, 0.1986074426067381, -0.38973401823158804, -0.020531344756259937, -0.04280149767702663, -0.013768227345781864, 0.049909831592170176, -0.024601907907562955, 0.06977885230874804, -0.11393633369449296, 0.12085790909581913, -0.3225775858876958, 0.08193018714824901, 0.21192082802951973, 0.1794934958076832, -0.06957710430802157, 0.1573111579633647, 0.40882165500059486, -0.4331078939342064, 0.115529449813939, -0.12315621298218081, -0.3132854918347873, -0.15220124893887774], [-0.0792699941019604, -0.04926462230917237, 0.32240024311220483, 0.04090839457889174, -0.23913974197472987, -0.08056918547003473, 0.10089753491562682, -0.033347937298035514, 0.3714006408031589, 0.09268812434280872, 0.28817363121210215, 0.09217835497647865, 0.10621285737006916, 0.11182226089831429, 0.021344550267447835, -0.1106725108382748, -0.054893819771719046, -0.039377232102969895, -0.13510793380268502, 0.2879866940838867, 0.3840941308856836, -0.06008179281290168, -0.16055242894825594, -0.22925592888160937, -0.09321368853783785], [0.02902415193876961, 0.3774509410447304, -0.16197960941199419, 0.5955399809355288, -0.024345113266389964, 0.19240849406179303, 0.10206917279646233, -0.09340742349287774, -0.08477805908486169, -0.32296273404410236, -0.129402756769726, -0.16190496001798932, -0.10867896273583483, 0.13078922947434726, -0.1874404189201808, -0.17258387405826933, 0.04477548752788269, 0.20445684327200286, 0.20910954757959538, 0.059228328564574585, 0.38848077146663773, 0.01453305158456079, -0.029809476410076183, -0.04637840402647256, 0.03815851056769519], [-0.09787019046458326, 0.28683186781885456, 0.12944182251454406, -0.015142148607169384, -0.05352761971361318, -0.11565141375644432, -0.0872816957728739, 0.2741294485154202, -0.2919507533452928, 0.3493467215018472, 0.014312785756495031, 0.04934065639517217, 0.16057580402835284, -0.06491439506179622, -0.2617091158591939, 0.11064912235903346, -0.11051072181338932, -0.3918579564239552, -0.23033242512856686, -0.20139630069290027, 0.07409501643120714, -0.4693171062779906, -0.013458327297919312, -0.04644290973907043, -0.028362206368936216], [0.25824203219908654, -0.1409666050226028, -0.019108556011174553, 0.3369191514935864, -0.4808557592266327, 0.03894837881381129, -0.09685393133004055, -0.04726552476286524, 0.3232529115396614, 0.2074715370022816, -0.1396183154984702, 0.0166248472317952, 0.17443670873747086, -0.04319281706226294, 0.11417645243302534, -0.03297531480035638, -0.07628620173851443, 0.10783618080427167, 0.30638007331392475, -0.07441452074705497, -0.25350096450709914, -0.09486508359707292, 0.1394144798853869, -0.05686088305509177, -0.12936624326419174], [0.24095830519806039, 0.0279994652540086, 0.1729100214095057, 0.22613737558818536, 0.1509591564121207, 0.0319453858108756, 0.017947207824370457, -0.0202496028859079, -0.10890922064276014, 0.25692422480391097, 0.335230923685857, 0.13555847246311378, 0.24793419463880936, -0.11994934432717873, -0.22615136822614057, -0.14889733132790361, -0.14027575766060685, -0.17896110163935214, -0.11874109802672096, 0.26129248635466, 0.26173234224396347, -0.074068056208052, 0.3064091767854341, 0.2606297729195834, -8.784556383315375e-05], [-0.1596586383625889, 0.09210659504189847, -0.1534442060409565, 0.14055942470141233, -0.01852334540865782, 0.08686471238787509, 0.059687910721182465, 0.3189651888009968, 0.022202474948942383, 0.021450907052449664, -0.2772977480747772, -0.08620114862804967, 0.0044567268893225594, 0.09779170052835452, -0.1722432019396334, -0.05953012300369094, 0.14997628576516978, 0.0030208002793025513, -0.12564899057766848, 0.2171062442046423, 0.34345286752432186, 0.10080128351651516, -0.11884340900155105, -0.020057336936134373, 0.1981387694498105], [0.0658139084288724, 0.4240864649934908, -0.2590561958347723, 0.3587743035178334, 0.20712782540038366, -0.03297928249822534, 0.22085785545911682, 0.19602929968554705, 0.12982465127840376, 0.19306996616392216, 0.034022457725624004, 0.04761156115394378, 0.14051977881797859, 0.01183362573415626, 0.09170152613357471, -0.19582687240742286, -0.14756958972326464, -0.1926265866061019, -0.27596279180569444, 0.03851222388876316, -0.2751483195855878, -0.1700729290891397, -0.25307250775971313, -0.11333413396558674, -0.002039262011968256], [-0.29434611490344864, -0.0726409123119527, -0.2706930833128513, -0.1441751443756404, -0.023990147692613904, 0.4125023679839161, 0.04900336165775962, 0.059402675272029554, 0.01952957996144321, -0.2718368464414439, 0.03551364835420606, 0.45027121895879035, 0.16385052369336642, 0.12638294261791658, -0.43364864517804974, 0.28955851296332885, -0.32379226799191385, -0.4423773388841869, 0.04638483263169286, -0.3620792726355165, -0.023468934725389065, -0.09368090923433327, 0.09002582766854574, -0.12943005862098522, 0.1670507284421347], [0.0029136438196372193, 0.17250577620466, 0.24917332171160797, -0.39676576823685894, -0.03297802765561512, -0.09509942585952598, 0.061995792041073375, -0.20964019563589867, 0.33572026080761536, 0.33781143243096723, -0.48167086045323837, 0.282375412963117, 0.1692944421082244, -0.23190453467235347, 0.024956508763874213, -0.4049345277216423, 0.2728159273574566, 0.06307292530181728, -0.24438233626863318, -0.0635945312809741, -0.22230327179140513, 0.22721017692388717, 0.07190774880192079, 0.006171035205733671, 0.07783111022309248], [-0.34175331621784655, -0.10208890611988373, 0.32999445588192095, -0.03711451231363747, -0.02750816862218449, -0.4771641126742172, -0.3422068545733399, -0.5359647491475584, -0.23196040142755076, -0.05866178032611596, -0.2173659925973193, 0.1198580198864394, -0.03192888386299546, -0.19036078594899078, 0.2152684119291869, 0.17161358437834567, 0.19512019709112108, 0.07986912302396675, -0.05617802668373199, -0.284668974101069, 0.19574797373516148, 0.07805702787579415, 0.15844772211435532, -0.12618106186368502, 0.1009971923206989], [0.05521687011410976, 0.14509139679532163, -0.13916564379685592, -0.0408594138698337, 0.010391077261406834, -0.10078302336061959, 0.06213289199425264, 0.29068670081006476, -0.1006133514595144, -0.11877979957632688, 0.17668098552303668, -0.22137637516495792, 0.02994811442000678, -0.3824024761348746, 0.37620010750733035, -0.1758028324127372, 0.28229005017680076, 0.419287224776552, -0.17678555345935004, 0.3275119858881127, -0.1515669619001821, -0.060193845421995594, -0.33324251737950644, -0.15585098581486206, -0.28005944222555823], [-0.0934940163732582, 0.10324017444556119, -0.13435569757045457, 0.2787904359516958, 0.09659466683528888, -0.005067112728332199, -0.2854344632783982, -0.25145063899775294, 0.18915747656597937, 0.10499936589931823, 0.1848555381724052, -0.2565861467248928, 0.08356811801153309, 0.08187257436751819, 0.21307673685113981, 0.18201112234674446, -0.3035077230297095, -0.6034066719029957, 0.07261715310875738, 0.04740603709783997, -0.1785401774514159, 0.07802990265040907, 0.24192409609400461, 0.22471401358763066, -0.019759616386099674], [0.1499529282625377, 0.07485905301550069, 0.37024491727511505, 0.03651998288848696, -0.1951031018685657, -0.06704593799961965, 0.07905352397106484, -0.0006027183993059401, -0.22678358466355597, -0.05896489970505041, 0.3966082155023827, 0.12420806696318266, -0.06892719925417488, 0.06531167055435907, -0.13705338723732483, 0.14972953663105204, 0.2244586152791443, -0.14932894855457793, -0.07931850788172645, -0.0879086765901691, 0.4804258339710167, -0.03729605908396852, 0.09446870562841703, -0.21171674626456613, -0.2766498323910997], [-0.24462378988694086, -0.10625673352393294, 0.23736491762695677, -0.015999754610355167, -0.04885190345127619, -0.10053022699300486, 0.13069014644881455, 0.33823131652077154, 0.04287165036274968, -0.12718241751362813, -0.021129449085694287, -0.004578208190404861, 0.3712403048558635, -0.003822284605949028, -0.06646789787538745, -0.3758902024779165, -0.10973977729744598, -0.09742650332911112, 0.19029680608202112, 0.08362617138516386, -0.11512019052456006, 0.1169846937246359, 0.09879667325811517, -0.06481388751222267, 0.22058058774356534], [-0.11697491670830716, 0.19087126018385997, 0.06993003966389474, -0.36871307504164796, -0.013443120579579351, 0.19099764342733574, 0.35849240997632853, 0.1745571248994969, -0.05497672973977008, 0.16249424825011446, 0.09262522669769625, 0.11562244061056035, 0.24534765499404967, 0.021989165992072776, 0.15527811518736045, -0.21998199162270618, 0.020582902163499433, 0.05722107081991439, 0.222324859259525, 0.3359919166768047, -0.014577830719786184, 0.30447302199980386, 0.0831798967525516, 0.22198263814099695, -0.08824277855239103], [-0.16402126834954325, -0.19004684111095282, -0.03232337789530972, -0.17126702823045456, 0.06420699494021812, 0.2500398530103646, -0.024784644393345462, 0.3233272763860064, 0.011189409755727561, -0.035638583180249685, -0.3387307428834485, -0.01469048394305675, -0.010785797657599374, 0.003671874723427275, -0.18904447996087392, 0.06628792641472263, -0.2763718453748625, 0.08364130503756416, -0.14401839524487323, 0.00668381761471577, -0.16086450225482096, -0.2455170151761389, -0.0622300308662457, 0.17821951458545562, 0.08612408609711485], [0.40009684737858914, 0.046260958091600746, 0.2605345571946264, -0.09664232977384345, -0.19870176101406348, 0.04865405839300761, -0.06317308265030923, -0.12880199892940283, 0.04062273366231713, -0.11849772387527226, 0.19374092411139657, 0.3288423746262711, 0.15104494620011588, 0.486993871575203, -0.10009320572047513, 0.019276944026780124, -0.009967062828595658, -0.09026475075744736, 0.05505933952198285, -0.03362958397753245, -0.05963360818752281, 0.15161727535896014, -0.1270495970890101, 0.3184878420372562, -0.23577626514718636], [-0.19253602070465048, -0.11636952715578353, -0.25887197661232153, -0.024771528905259736, 0.08420995593933187, -0.3941891802443928, -0.05359651561732213, -0.11498333435607057, 0.11297924337451977, -0.08856397852185027, 0.15634309544174235, -0.33912206011567725, -0.09124736164196134, 0.13061764243111937, 0.3183367919418966, -0.12642528791794272, -0.31834756814149967, 0.12462951734815482, -0.20910314738802277, -0.028120778152503252, 0.07974735092497183, -0.09762119026866199, -0.2135177964090073, -0.09309054463030544, 0.20317747596909938], [-0.09564661300173032, 0.30621477270029823, -0.024262297846050045, 0.23539254925776731, 0.09191789506860583, 0.03704051661539764, -0.16650315330447765, -0.04501498918686778, -0.10116015810125438, 0.19270695547068165, -0.08176178231550749, 0.07675472570311202, 0.04083831485767354, 0.05433959152635957, -0.4457398615727025, -0.11921807424708927, -0.2907790274419511, 0.15956225939294674, -0.14059000277178973, -0.15787361760718197, 0.04236931004704063, -0.019540748221181924, 0.09553132022951862, 0.20536858080292608, -0.12338760256317977], [0.01192421997199817, -0.07236405552739589, 0.6231210436563153, 0.11583568220247728, -0.00039679905856483775, -0.025190547179836164, -0.0239453868709071, 0.06134873856809746, 0.2326739304265686, -0.043548779297518034, -0.058173465488885065, -0.01354426303042818, 0.005362510393755839, -0.16399171706397966, -0.13718028218416606, -0.4658901553641486, -0.3169807547103302, 0.1644770169025611, -0.23117761231132936, 0.0692387057660825, -0.02332527098564906, -0.035055441769290874, 0.016790931851960476, -0.20242964031398494, -0.12823292094388947], [0.12756391292451502, 0.0817821165042911, -0.3258486066545035, 0.05600079922343222, 0.18835114740917133, 0.160758175168228, 0.13336850379734969, 0.05020494249815488, -0.198810311470657, -0.23543548827536248, 0.030457117997133132, 0.05876226597397412, 0.03304029973414262, 0.07409614664468393, -0.17795084735285038, -0.07047164539727882, -0.1362949498145765, 0.010691179566261658, 0.2825343499124662, -0.4191427569948529, -0.16944992695761135, 0.18188659357895415, -0.1258322083393957, -0.19717512268100298, -0.09916230210085292], [-0.282662264759566, 0.2201092617080686, 0.19975621787720987, -0.006276633329958441, -0.11743545630987959, 0.16895797069398627, -0.051420341631366995, -0.4623328696690473, 0.020153005538350848, 0.178746865675408, 0.011497068504684188, -0.1557550519158737, 0.1306498505298094, -0.131172710185301, 0.10051958759818325, -0.42601233079611145, -0.15944854223567156, 0.10733435706466574, -0.08943093267101485, 0.06312088850170498, -0.02133854982667329, 0.16561360110613582, -0.14276758004934742, 0.05911555781074619, -0.17081022814962868], [-0.03629543946860738, 0.4465399266423849, 0.23214949851047034, -0.05224040893534073, 0.01722556441602782, 0.2700483428240052, 0.0683950113296186, -0.4013203233143893, 0.048027143032525976, -0.5414670391084923, -0.32039010031800486, 0.009218043836969583, 0.06695333254404483, 0.0019278609582408612, 0.1701469874898187, 0.018297973279181236, 0.2549560694296804, 0.11540536568272941, 0.06711842517638879, 0.2706979081789395, 0.10501871648850625, 0.3796775874797081, -0.20380296191881175, -0.021931608282174667, -0.2708046182875998], [-0.3031898159480881, -0.006588518694426864, 0.06578428491306816, 0.13154080539027904, -0.15761165450482614, 0.17286661746822465, 0.08241509143018856, -0.01964154643645028, 0.08146877969282706, -0.055835592966276944, 0.0800971707092358, -0.16405830379346617, -0.10671728271820254, 0.36788922071579316, -0.5833865040990546, -0.26904043189494503, -0.11564037840163956, 0.17201014114308935, -0.052594238064668675, 0.08685475795883874, 0.1236823685547177, -0.31961744905906403, -0.20176806567986, 0.1729638979611372, -0.37879987046315694], [0.059450247323544085, -0.3557530103618237, -0.1899719876007108, -0.12931427048288638, -0.22819042390759636, -0.4384030019606924, -0.21431310658272557, 0.1743294178209312, -0.14626456697956516, 0.026664880154415937, 0.21467880757222169, -0.02051280973734085, -0.08747923123201147, 0.0981672383511444, -0.15075781206997657, 0.03896952049387778, -0.18334439106041264, -0.14186080736518647, -0.13834861197494466, -0.15849588291726702, 0.05562305312444531, 0.0769543428680469, -0.497194608380857, -0.08488441379541097, 0.22642514082530638], [0.23440732195796973, 0.0509600347720941, -0.3799750616168639, 0.17556306080128894, 0.23892217375160868, 0.17940193576928437, -0.07694205896243518, 0.17386092314718066, -0.3223305866166842, 0.014935742941616823, -0.07443494142664414, -0.368925374670281, 0.016964072996770888, 0.3787853912345304, 0.2061354334268488, 0.04284349548726874, -0.27665254066822426, -0.12129904976140116, 0.11378700222972185, 0.09221840062261241, -0.03602052011508397, 0.048737644711473585, -0.09321780371263197, 0.2304132495825038, -0.11301962238751966], [0.3153157007542328, -0.00934895782115948, 0.059685943387752925, -0.059875243692850064, -0.056481767740481574, -0.15138583871965394, 0.1311530627014243, 0.07297003913899175, -0.0019975827805859317, -0.1455371730735334, -0.20765859159911912, -0.16727085918661733, 0.2736379673844883, 0.006790382212128475, -0.0032891122836843966, -0.28492739793662525, -0.19524422628177934, -0.09237645003043994, -0.009557703140930785, -0.07439904518388914, 0.15937791421179545, -0.05686334324138844, -0.16413749116912177, -0.11044390185567934, -0.23465845444124073], [0.01567913906952714, -0.07120404655199936, -0.3127760505538572, -0.1684618636393295, 0.2565865758425686, 0.05090222526869263, -0.019490379525300198, -0.020717631177571767, -0.5371184795609725, 0.15046967911167694, -0.2502097950533759, -0.2351643521381285, -0.13755893555917506, -0.3206823273683473, -0.07266124012957086, 0.3374086795687677, 0.031270512724369794, -0.0703694512560157, 0.014047319561202651, 0.15346807816407054, -0.007399633836133535, -0.04375196211794237, -0.15318427245893457, 0.20957653397754122, 0.15081670666333785], [-0.25719560036954653, 0.03893937227826836, 0.038233346651310805, 0.3669776548067663, 0.2708368714491363, 0.0948625119355079, -0.03349263264774776, 0.05506308566885277, -0.17840262944808588, 0.1019268904126562, -0.16826793145607769, 0.2608100096716692, 0.18593397754205915, -0.09330427575236297, 0.21091753069994218, -0.01405721704826345, -0.2606198104638978, 0.09302242187253845, -0.03697230741679425, -0.3269826228226721, -0.08756029769099206, -0.5262058526605837, -0.26328338340374735, -0.39913749532143133, -0.11660071265759027], [-0.28908090819141596, 0.1850116796578216, -0.03422791608340605, 0.21393556281700102, -0.05689503783702436, 0.015176244332532897, -0.21766275927066922, -0.12369751426489944, -0.029580281019855374, -0.13957572968100188, 0.043095445053626134, -0.31232832156777085, 0.06914656571882652, -0.21029021248273105, -0.13125546608705096, 0.01815739429957018, 0.08293648611043082, -0.16515435889570157, 0.288356429678556, 0.39786959346897666, 0.010520184160833789, -0.11990698219687745, -0.02977372135749076, -0.28822954370746606, -0.1426062159061976], [0.38856039720630625, 0.4950063676820156, -0.049191290324798964, -0.14199716958050082, 0.22143784081144424, 0.21741123350343186, 0.22361435455133186, 0.0011195172601647678, 0.22839738986778138, 0.1168272876489737, 0.2902903923454382, 0.006528044360890905, 0.03892146101308605, -0.061126970274182416, -0.13579547184105797, -0.017154323303125534, -0.3622030530107337, -0.2822138404221291, -0.047542729841594134, -0.1798550656789982, 0.3297525398391142, -0.12388873969381123, -0.31718460075799426, -0.1784984144871234, -0.25951763222624197], [-0.3184221090765971, 0.29651463778286585, 0.2048841086604034, 0.06390055691326291, -0.06639221221827617, -0.16117189484019653, 0.2718273800949314, 0.1943030076260072, 0.1584850756098884, -0.20761270829746356, -0.031045920046664337, -0.05966531107074389, 0.08629013984673425, -0.006683695871200353, 0.30044424511356, 0.015848043272916033, -0.2643844368949737, 0.1308947480737731, 0.06325470923345074, -0.159374382428245, 0.0852110612864034, 0.17297338763212916, -0.16108858071016816, -0.2915033076948204, -0.006510589959993911], [-0.02007460139302054, -0.10091716925292164, 0.2670090843782387, 0.10341817875315025, 0.2764128995375179, -0.06536265327823869, 0.07799036514537336, -0.16167218234075173, 0.278464870256062, 0.36708450029219425, -0.12195193369033268, 0.011715726254827818, 0.007970947099698552, 0.10598757206589146, 0.45589974439645975, 0.08342181693243725, 0.023605070762023603, -0.15792520738703617, -0.15512671995080676, -0.04722300849052698, 0.18303415971241477, -0.115623128665805, -0.23784602695286294, -0.6002131798465087, -0.07900957158673508], [0.32118405941711237, 0.08087407836779684, -0.0198109960321436, -0.3372782300362709, -0.00706205989248964, -0.05865413253831605, -0.19125542594830525, -0.20268182773348506, -0.17714026238383382, -0.20761976999925466, 0.29967752085150506, -0.24323476553828408, 0.12850584156229025, 0.018191292112426444, -0.12174362448623503, 0.33569499556863325, 0.07462800344247708, 0.4784065667248007, 0.21323624703839952, -0.09246043270216217, 0.47808476642523895, 0.22880739491152008, -0.10381338666643282, 0.04563424585877597, 0.03344155975940062], [-0.024556052722336037, -0.13994018534567015, 0.07622707491499969, 0.1688094482009164, 0.14358848490592002, -0.08255525646606217, 0.21880628277170605, -0.3070091265874082, 0.015355490976769241, 0.08376775465363781, 0.014755341876569331, 0.1417063107767687, 0.11355768659651325, 0.03135185552042901, -0.6370356619165676, -0.3906143071468054, -0.022997554167591555, 0.17707028851872006, -0.02519542141647918, -0.15694238630584906, -0.3780183775953565, -0.037636434825923964, -0.08708015966746453, -0.16978339914930762, -0.34489239739513916], [-0.3968394103041214, -0.5291819688507614, 0.008127400738902963, -0.25074296070027235, -0.32063790080243726, 0.024309643332216104, -0.016369162597316852, 0.12065450728437845, -0.16618435941032936, -0.04672254548141736, 0.46825827518674074, 0.15218338621919866, 0.300052597608971, 0.35252859301939166, 0.10086308201323486, 0.019682899962572803, 0.23598348219851312, 0.05162614470907504, -0.11281518172653872, 0.1496502486785372, -0.028903286616638504, 0.1445519781734898, -0.17458872684233112, 0.26251538341680297, -0.001252871790201116], [-0.2533951143737899, -0.20339490268733387, 0.20138431833791504, -0.46496041090409257, 0.11637023669691957, 0.25434117316381727, -0.4460142688246181, -0.043148896646969186, -0.32228528271076545, -0.06579539788501824, -0.33680953710229783, 0.328341077238799, -0.39627148204345675, -0.1125083110279392, 0.3275552461062578, 0.18444381612507366, 0.0632398318501097, 0.24779744630988235, 0.19227137548336645, 0.008161891698058714, -0.24182497944011833, 0.24940355591941343, 0.09597311088840299, -0.003926163091780919, -0.044628547860036984], [-0.045851763478246994, 0.1376490489610313, -0.18920881257073147, -0.016911654349462034, -0.39031369282370815, -0.1960634250035088, -0.16913897031228275, -0.31677373846082074, -0.209223125103621, 0.023771718646475613, 0.4604086632602224, 0.20306330629864727, 0.16097741120120931, -0.2356678118577114, -0.1641665067042528, -0.18820565252583887, -0.03235468719442833, 0.0238344481039445, -0.2722665778932945, -0.2531007090879899, 0.6024823522980816, -0.19542128923160548, 0.16653818935055334, -0.32640424634701076, 0.24043767526387935], [-0.07124252128274813, -0.172723829433723, 0.18116553312095757, 0.05960767504008594, 0.0027137158501935534, 0.13125980143832938, 0.4344697848012542, 0.440898376827859, -0.14941419559261868, 0.0846510619420894, 0.09737503646369368, -0.16529978550878632, 0.32941636124491425, -0.13772077370223892, 0.07755231562245038, 0.1491841788846395, 0.0007319617244291947, -0.05349984501243673, -0.40906265947549214, 0.02816087061608342, 0.0017180799433289535, 0.020628506164182936, 0.25894819838122507, -0.14646020336395277, -0.027589834021840478], [-0.07297166966805901, -0.04885736769725029, -0.2829090788013172, -0.08419364716550749, -0.3036943396814151, -0.21482375076317212, 0.002479332884916982, 0.22923181764164172, 0.16923611191628743, -0.27368396349224877, -0.050565134807599936, 0.18868662116057036, 0.3198386321453029, 0.051173008023513544, -0.15872085177326448, 0.2345912468902129, 0.00487941085403103, 0.004094868275629635, 0.1748136358559029, -0.17985503248037463, 0.04932533772111083, -0.09496380431642615, -0.13332222138541425, -0.3691297599268358, 0.029111230235144506], [-0.029447938662317576, 0.16099552385246282, -0.22654326422499585, -0.018591776780244686, 0.21103717613985967, -0.09992900725144552, 0.25292085650850227, -0.003412150692350017, 0.08894275714241391, -0.037683122983425216, -0.19074898213428837, -0.038405895903704156, 0.39336465507427454, -0.21497186535620005, 0.03674087928428331, -0.24393775325034822, 0.004684023878723882, 0.13571100937440395, 0.33553609724031397, 0.2145009256207901, 0.030246958438358295, -0.020709575934783786, 0.28392609637768135, 0.11311791547477168, 0.04215117920864215], [0.18675352048382018, 0.05744719160851271, -0.2426145943653522, 0.0007962657352987692, -0.2487000847779764, -0.10609064582402519, 0.03663156300780685, -0.04378491431461676, -0.03658534268278817, -0.009360480845263726, -0.16674159169365677, -0.002486538924512697, -0.023812992032085777, -0.05828317112143316, 0.2165133017755981, -0.14014807919434777, -0.05380097882659678, -0.12838742425458996, -0.1024435727147073, 0.395108599940693, -0.21796760398826812, -0.11995720201800177, 0.07707316767147564, 0.061479920979119036, -0.5331329057087532], [0.11321280822131297, 0.10486729310325447, -0.14801374726527874, 0.35339548853238667, 0.010752061833144857, 0.09147486157652708, 0.044827472394178836, 0.20845130542492282, 0.006155981365239065, -0.2236308489378414, -0.07640440772337471, -0.04158950250025011, -0.11524900753076339, -0.36990202402312045, -0.2692348375414906, -0.10815973879858354, -0.15322961884363695, 0.1645727462007731, 0.24124299151010575, 0.1540631456454899, -0.022810607395664945, -0.43225585729372407, -0.07439498643893978, -0.41738423700183025, -0.15055442119055612], [0.011813559673980348, 0.013785038494927088, -0.2453802951101503, -0.35792971758031183, -0.030809272894500115, 0.203983554875061, -0.0296428480078034, 0.03113642901299205, -0.0584687842186971, -0.0314120196254403, -0.005869399218756401, 0.13025892081548243, 0.3521893903125526, 0.3078922685336203, 0.21278554814981476, -0.08855949095393745, 0.25971290742366077, 0.35195626124917756, 0.01316187176497817, -0.0384381825204752, -0.13202433788834683, -0.04521157527061599, 0.059548105033260544, 0.10990494885072687, -0.11498270436357637], [-0.2233157901936341, -0.16753207155410982, -0.21604700526622866, 0.27034305977886114, -0.11820296269280264, -0.14771929795444877, 0.07455457605750872, -0.11648504981167863, 0.634461883693644, -0.05196804104860296, -0.3240106627430175, -0.04489183238885415, 0.06108797843543525, -0.12520982947287917, -0.1336059866496586, 0.2362017080266446, -0.43391944928441584, -0.18882427119413772, -0.156880807153612, 0.29813205888476974, 0.2955309856691082, 0.08729315642351321, 0.015986594585657397, 0.16550336791669537, 0.17168872192407553], [-0.16680131855534497, -0.0063575443682111375, 0.11767702712248812, 0.165237367193959, -0.2664400642869194, -0.013380729437398561, -0.2015066988505799, -0.1774726619156567, -0.40970992743041523, -0.07060720142442732, 0.08290597062311195, 0.31693578898893693, 0.16977584572291715, 0.14785369943320398, 0.180102570798836, 0.48253265966044795, -0.21459774063782483, 0.28752158412215917, -0.08301524150175875, 0.12411642898093167, -0.4619053706050412, -0.31319642694855354, 0.34005605418644597, -0.15134872058204288, -0.03253823808155766], [0.18484229299818983, -0.10126087555452112, -0.1516780104908222, -0.1270100211037924, -0.17417745792479214, -0.3072537589182459, -0.26300076169112685, -0.09726002199923367, -0.008704088613368799, -0.10374306287952459, -0.3069716632060274, -0.17494080857006897, 0.03032651817775518, -0.07349515181498997, 0.3286370366514683, -0.23773547946925686, 0.20677101693700228, 0.09617298685508953, -0.17901051918126973, 0.03296285243705014, 0.05071519365327608, -0.16414802200211992, 0.05305750976959176, -0.23247015856286585, 0.29339033496346006], [0.2656576180455988, 0.15738296495777337, 0.0435621891143785, -0.07891621432472957, -0.010502632313213205, -0.1191650187458242, -0.10368132273626914, 0.3067224110662815, -0.2324350816222735, -0.07681940834165116, -0.20662135851908903, 0.10920401386479421, 0.14200578384682028, -0.12107677776861331, -0.053727700509513705, -0.13288763225257563, -0.13237304857107124, -0.25535095354836573, 0.014329531234893849, -0.08120357404523257, 0.32017820997454327, -0.07748985995070241, -0.16553349763011893, -0.02830281124263484, -0.2699348052553354], [-0.10970777516212685, -0.2319864721246397, -0.025117884263519935, -0.3361434001929184, 0.1283355478813672, -0.019026373348634554, 0.33753399640733667, -0.10203485982761955, -0.15499030474193864, 0.09803455780480527, -0.06113720543355675, -0.2635317299532723, -0.03432995139835317, 0.0619890111465228, -0.09334607666851082, -0.13652551285182646, 0.1289239613184865, -0.30762809986879186, -0.01834142536959989, -0.035881197471101425, 0.24303143045649628, -0.22512265573595655, 0.31522445195623383, -0.13183180036193606, -0.5047012835141313], [-0.10487046952524826, -0.17316734821700744, 0.15683337534717784, -0.03387985302859696, -0.07494424743185563, -0.05371678411272977, 0.22380709263160234, 0.3501918727760672, 0.14093225653994798, 0.1231938456081195, -0.10425940044546228, 0.2942178618355037, -0.21206643181485957, -0.0628381222554296, -0.11808113227530181, -0.3979944374870543, 0.01271756258393236, -0.23148855710297342, 0.09251759539960336, 0.06644271887918987, 0.15996907189807152, 0.1540751838761766, -0.1656887726421031, -0.06486440880463333, -0.20875247351428858], [0.1296900080311633, 0.29858801161975507, 0.16062291296917855, -0.3603596644091617, -0.1644586161963224, -0.28238494648074175, 0.25205193821206406, -0.20694056135454925, -0.24837572817291328, 0.11282516011842812, 0.21305455129263262, -0.18010513043228402, 0.22874219709924254, -0.1226063409531674, 0.11174856173768476, -0.21623173245307198, -0.17880980489454756, -0.1873807120609672, 0.17886673550180102, -0.2181186059161314, 0.195810374791214, -0.00881250674557264, 0.17647061541566347, 0.035610126075688336, -0.18291888360755099], [0.4221410876155988, -0.25398221417495065, -0.002400999548893692, -0.4419238762837407, -0.013621960767140394, 0.13810310256173372, 0.040738656315798684, -0.2246727754121605, -0.479010897728482, -0.3153120175787768, -0.27691870840989075, 0.24434337611411483, -0.050021877544946844, -0.34575823756989466, -0.0958472108959347, 0.040133606139094696, 0.13356447280852907, -0.32386729368946177, -0.23845567046274893, -0.24311152961233187, 0.010541458125633696, 0.04844880585273257, -0.28887999465139697, -0.27037991149275853, -0.3647041924342391], [0.038287972811022, 0.28598306585772887, 0.1758037700492317, 0.2996782253393461, 0.02959674453956378, -0.30943582663306785, 0.04491386225957576, -0.21437595515230262, 0.31368595622965023, 0.3951946822002669, -0.12245815547546336, 0.2073681536694214, -0.138511479061098, -0.25606962336011274, 0.06522047240023902, -0.3052211236731751, -0.30995301862470176, -0.17888126116724426, -0.28128767707359836, -0.4235872715554913, -0.21469288406849849, -0.20086575346976485, -0.15684662642460878, -0.00031326630061318824, 0.033438260260388764], [-0.34910720571806475, 0.0162744258494573, -0.11351320353324389, -0.04243422905031678, 0.17164598364536052, -0.15177996879337216, -0.09898381250514982, 0.07862664019225368, -0.06791018714424187, 0.09555453173907874, -0.3401292699363144, 0.13410075647423655, -0.22038449489524506, -0.12211462055493885, 0.12965267461231142, -0.09408526627935691, -0.17932722831998046, -0.04525204859024008, -0.10453086013806519, -0.3912724481099726, -0.18257996887960162, -0.1867201722131225, -0.17063144345415615, -0.07187418488683525, -0.16567881666836612], [0.16931219435502412, -0.04878730161394774, 0.11919830444712756, 0.18731301283074225, -0.03846271215664666, -0.28179199636956653, 0.4365917930924044, -0.07470596752846757, 0.16317317653081084, 0.18707857571199996, -0.0997875198454599, 0.2501089949314935, 0.00954133864362208, -0.3048879598621204, 0.05488841696384912, 0.20923455824388873, -0.12929273319662465, 0.0012937749778633664, 0.17921830654400508, 0.18608414783241387, 0.22340421904651953, -0.33930455406804694, 0.19093146164548255, 0.053880901662048265, -0.06424533963161302], [0.48563616196955267, 0.4077011719451039, 0.09530305272178047, 0.013572025115313326, -0.38355616243931745, 0.21243965866190284, 0.3014852600865143, 0.05490068119830497, 0.10790375475146435, -0.006494027459117921, -0.3680069942360078, -0.00722600777146725, -0.024541119782205894, -0.15085450482191182, 0.05685248768333041, -0.22497885831111508, -0.40356491171046704, 0.3417189833310443, 0.3410279252035726, -0.09369958544219856, -0.3137201730356025, 0.014217180031237004, -0.23034159683672867, 0.1821892625922167, 0.26412716530429137], [-0.45407157551642763, -0.28828816461696355, -0.16070068860737638, 0.02560752502662838, -0.2767425793072054, 0.037625273136865964, -0.0808351574360157, -0.03118677137670912, -0.48832066227508064, -0.14653424483078578, 0.247346355628745, -0.04293102407656172, 0.0769699234722429, -0.01480026313786829, -0.05734863882214378, 0.023076805090560374, -0.026945930288567323, -0.020946762372404865, 0.058432648816568074, -0.09250960317612696, 0.16035725420601193, 0.2962638024597996, 0.18451868770053897, 0.5020148832720506, 0.10412531415349036], [0.11957154254916172, -0.11761708225405612, 0.37322982311249897, 0.12808097019017672, -0.10667651705231283, -0.20844738407462549, 0.317359741393921, 0.007637501695105502, 0.22168817477503014, 0.28840929808994337, -0.18721137847491945, 0.3532451825020547, -0.04559145022412929, -0.27378568150953375, 0.005782144554324845, -0.08922969154281128, -0.059720613434997356, 0.2159836114807926, 0.2342975382174528, -0.20437897159563584, 0.23557523156092108, -0.05671345895910491, -0.20515650962450324, 0.2599192827500393, 0.10390512761689227], [-0.031501537967036856, -0.03504131721793119, 0.09228576183225899, -0.3506782330805534, -0.0051118012133857344, 0.19601947865607328, -0.32917731912184867, -0.11616089974498567, 0.11661044759830703, 0.19479297780398191, -0.05502942806167455, -0.27688658158640556, 0.21874725689110497, -0.0019426971867316535, 0.20628672971557938, 0.211727740479287, 0.4430774484548314, 0.15520944605739126, -0.014976457702614802, 0.07745915692422795, -0.21198321106641377, -0.13060099396641234, -0.327042694849537, -0.0969176814311044, -0.015865566254157686], [-0.30485042639666565, -0.3998269691789827, -0.1617806508618329, -0.27841637481066345, -0.2690479897835036, -0.0662725345411433, -0.3028103273336767, 0.05543684746935598, -0.2669584720221347, -0.11308526960419393, -0.2635005987366376, -0.02364796139936569, -0.2758014900661828, 0.20694940334813702, -0.05378765996004998, 0.41464058694416084, -0.5640794253413739, -0.4769290991888296, -0.2460463691592512, -0.02926616493560372, 0.19685174349117338, -0.24712202672482592, 0.22687253485109693, -0.27343724072185754, -0.09080211031077463], [-0.15900280248696197, -0.22891925972997876, -0.04795554273174915, -0.2933504943830267, 0.10508228625089898, -0.3680790251514603, -0.05869574509509902, -0.29884321805560243, -0.0716750717086173, 0.03752804908845856, -0.09063000872345112, 0.025638608167968598, -0.05850294188525683, 0.13411515897885334, -0.152594923739451, 0.5446536048648623, 0.40271600685602704, 0.21622894863615022, 0.371090703701561, 0.3695824159893869, 0.3154711541191429, 0.19921193608841767, -0.34676882625094485, 0.31575427062825356, 0.14942520694659958], [-0.4952830566301859, -0.11304340095190696, -0.1764779356287316, -0.2152994209073987, 0.030525111420902397, -0.00552987060836006, -0.41151808248972543, -0.2634186162376342, -0.07724434335562667, -0.4227614261274744, -0.1601235716992752, 0.2183728136902276, -0.18971177258505229, -0.40857163644662786, -0.18146812264032786, -0.09203259615637721, -0.14958575565584367, 0.03282573478575876, -0.05089876085587125, -0.5528817040500429, -0.2053435366030417, -0.07043718002581638, 0.0032509311707044825, -0.46954377099222055, 0.03203945070680974], [-0.2492654858197166, 0.2594092007108516, -0.011380127582401572, 0.04668047671652149, -0.44924854907806566, -0.17977794749545944, 0.06660425942217031, -0.028405804535033087, -0.34807376244678245, -0.29215994011350194, -0.16707979180756016, -0.01636900709357403, -0.04791693730263958, -0.153403848353552, 0.2317419064056947, 0.017118784735672007, 0.06591571618885841, 0.20993902750133048, 0.33559500183549923, -0.05295580504784315, 0.0670063086620888, 0.022396029081469603, 0.008617781463016186, 0.01714529134530782, 0.04824387270634683], [0.19041977851535485, 0.28791460129442603, 0.16396575820957296, 0.21517472469151935, -0.398675457280351, 0.10081760816822602, 0.11482818904491514, 0.05082538611982564, -0.5943637338639756, -0.05532453015582927, -0.27195657031122766, 0.3254064085900253, -0.23854696568680278, 0.19737582949267565, -0.03621623824005456, -0.22606764408091926, 0.05961756729525055, 0.2938296310372547, 0.4068510202604977, -0.08134261701986707, -0.10106615569846639, -0.07089299264486863, -0.25461004974986806, 0.018032961853286986, -0.0837393094307417], [0.10561469479543528, -0.33783076066911116, 0.024569048162006783, 0.11750236559984062, 0.014367146287597606, 0.4037543934211791, -0.13734292868620834, -0.02323610312464333, 0.42666637427111054, -0.0025975748226457285, 0.035134753464807635, 0.3114430775952115, 0.10891590072819826, -0.07088926672889967, -0.04473527234572111, -0.0405734812326077, -0.048913285285950375, -0.0847901336145697, -0.07283104074773467, -0.1174468662306985, -0.31345487016692336, -0.32269105631402384, -0.41350451841223457, 0.03867180966291962, -0.2608056029018327], [0.03487919501348154, 0.14887910783038946, 0.07331403252477446, 0.27664501183662676, -0.3752477503663951, 0.01854279553202454, 0.15327030804652872, -0.33620527020885077, 0.3598534763288571, 0.1519663155822407, 0.13668215818285456, -0.21361952338852994, 0.1334595481187205, -0.01219346621579816, -0.005880547048385661, 0.4532290074263778, -0.13526355506267354, 0.07780207016053116, 0.04134279674600141, 0.25135412446979066, -0.4943887669834803, 0.19219893270155253, -0.052606590565226326, 0.030705072671873685, -0.1736673739271597], [-0.2416839319666726, 0.04822578669154117, -0.07603275759845833, -0.16236205064089085, -0.04698068297322222, -0.512115157586634, -0.08625548752041151, 0.024852927703180854, -0.1783685542061234, 0.2351368534625738, -0.024491115109352833, 0.017200884893846122, -0.07366608815475922, 0.1512145135780032, 0.11058318488065035, 0.34145338751401233, -0.046560347533769454, -0.032035958713042566, 0.08914585656257683, 0.18181091442946473, -0.02968199664388261, 0.3044190076635776, 0.042706847112490086, 0.1797082088719348, -0.022569427757589723], [-0.0800105761029831, -0.3333962195856144, 0.17173457626753189, -0.24622673044846857, 0.15173706197755812, -0.012398852735790906, 0.021722088976456434, -0.1624074968502281, 0.37959114735581334, -0.27849068405351096, 0.27008193540196584, 0.15773257528917753, -0.003355626669969399, -0.1363227289940809, -0.44870928686896827, -0.20045597564200832, 0.4613231378595344, -0.21321949483903918, -0.058776250906834145, -0.05083867906258174, 0.1535791371695295, 0.16388388133374993, 0.1880902309564706, -0.15218063623520264, -0.05123926844325403], [-0.2118768585974085, -0.2577283834086177, 0.11877081477553024, 0.08634783277033038, 0.07465895257077859, 0.02634014708316291, 0.2091705127524342, -0.303087661942, 0.32741128375908435, -0.007103162580938983, -0.07831754264102184, -0.3262825069706042, -0.016857199082413853, -0.07217685602730647, -0.13116445165040122, 0.6146848651223421, 0.5143284793063085, 0.11439585172260211, -0.0673894109930967, -0.1349912444728911, 0.22344411911138176, -0.13062576977476728, 0.0136841442274213, 0.1011128391241295, -0.1428586053020982], [-0.16188557390806504, 0.20177576889966323, -0.3054631330194172, -0.2025115512821192, 0.014012382723349781, 0.19207588649966023, 0.18794161029878748, 0.15421990273824734, -0.17948736674383273, -0.1816687490430459, -0.04662365952191086, 0.23249393709875749, 0.5874138728060178, -0.2998993969180527, 0.0773405441240599, -0.07267937999761616, 0.01647756916846804, -0.17866176931149028, 0.28860394003610623, 0.1182186811343485, 0.25220368977930196, -0.026875809858382303, 0.2857667362345593, -0.3631740859271866, 0.16608538843012455], [-0.028133335539066762, -0.2426448438849016, 0.013310343472686415, -0.058027048848956084, 0.263194205105273, -0.14597047260840343, -0.005629239011871287, 0.12468376209173401, -0.12155289640133601, -0.13071436520641933, -0.04542681907956741, 0.15189570370717062, 0.2169298469174435, 0.0681400396269504, 0.07098721300793118, 0.10831888106766766, -0.09267239368269743, -0.1917896150846686, -0.10089912027128511, 0.009935544904840207, -0.1470027230820194, 0.4644181194891215, 0.01926334705833007, -0.2109678257111119, 0.06306053330951508], [-0.16034532385082534, 0.3490192794502122, 0.04181098536541959, -0.020724063188696226, -0.011891624827214346, 0.07365305989936567, 0.28260537257381596, 0.15743489679940093, 0.026636616727912198, 0.06313410472945957, 0.253043101485677, 0.19456012638934653, 0.266131705916796, -0.18199193250495124, -0.22629827002572994, 0.015894856081519654, 0.24017452949320323, 0.05543962785457486, 0.08621267836283268, 0.292998277016911, 0.14666011751325397, 0.12292846424472663, -0.11327188037462074, -0.1291510977112027, 0.04726075738275401], [0.07533977987269488, 0.01916761014440931, 0.21024955598689474, 0.08792577189542304, -0.13689233785212157, 0.2955479621951762, -0.031903164961594094, -0.032350460117062094, -0.34550480326045696, 0.09500287943599066, 0.2192560740192249, 0.3572824362325189, -0.027729799911492777, -0.05738312875772094, -0.17047590466882148, 0.31116335958819424, 0.29577415724107886, -0.2862559941795927, -0.1329894467246553, -0.23907497279397097, 0.04870558685330714, -0.08365391025918929, -0.054492153597003185, 0.15775136310654508, 0.120506791750844], [0.15497734758681286, -0.44332827499941785, -0.011368225187410642, -0.28665680426701345, 0.07697399157012152, -0.02343917945401454, -0.11669257195526965, -0.357465561407614, 0.044595697419271565, -0.043357136864929875, 0.2873530242790256, -0.1016761470872012, -0.41454830390446235, 0.0006547080549662582, 0.10686584372609707, 0.10810684292633323, -0.10741120496037113, -0.31835141003113804, -0.062263421423107285, -0.1392666416162874, 0.12240293887702344, -0.1049997789471335, -0.16545790705697952, -0.15492212627780175, -0.5602019194539788], [0.05682014964612311, 0.11054015443034443, 0.2460868282976087, -0.19724919453003828, 0.03304120563238629, -0.03351187146949761, 0.15383842054454994, -0.30171554244065296, -0.1264828400429599, 0.10674443997316962, 0.1450484323124686, -0.20297045104204145, -0.11196672382938969, 0.20335523805948472, 0.0165283662196202, -0.11798166503431287, -0.06802816785055377, -0.16443506570315486, 0.005065862114984066, 0.4415815613682954, -0.12547918300354743, 0.02428877874523118, -0.18358755139060162, 0.011875191036089153, -0.09945858982315665], [0.06855401635275729, 0.04683714497834958, 0.16488861123954254, -0.5510644617253044, -0.04980964591118104, -0.06157100718355746, -0.06619871580659323, 0.0620032655649134, 0.1774595660156845, -0.13645363258544263, 0.03285317798274951, 0.09802305664360896, 0.2714020328373977, 0.05576907884501695, 0.14308002257477065, -0.14500275187076958, -0.1572097996164455, 0.03291409182844642, -0.40424151940630687, -0.12712917761851236, 0.042308002282976515, -0.12359289890413569, -0.24584196064292368, 0.23753622504960087, -0.05449625179132513], [-0.016845394935229664, -0.17096097791910017, -0.24805958906789471, -0.21681350597417248, 0.03234833126944128, -0.05327946362132326, -0.02159006264884644, -0.019793299833489774, 0.2733496534578863, -0.020936398649081304, 0.22913366654868517, 0.08691735399458442, 0.16986912142946947, 0.03631290196070852, 0.1186914228629103, -0.05445117633879942, -0.3117472430849395, -0.16695796274546362, -0.43185196743808063, -0.034669695433014, 0.28992925330442293, -0.16443559540138114, -0.06289384903129322, -0.10622114146220123, -0.021498562630363958], [0.06842876315624372, -0.055683060883664696, -0.03386290471297568, -0.19031772553419574, -0.7079957363120548, 0.5034494254728632, -0.19731951219248545, 0.1891247831301213, 0.0364748774042942, -0.3993364451650355, 0.05910574999908741, 0.14645623744396077, 0.275935176450166, -0.15228690257155542, -0.22558631224671957, 0.19399501662727786, 0.09357433466176494, 0.018482943177102664, -0.2583919203099235, 0.030043710663040037, 0.18909440967327518, 0.1572195617755926, 0.04764243583739966, -0.006160066224828746, -0.3766111213572286], [0.09208130865052597, -0.28163399648891596, -0.18202474192724477, -0.13417120321433693, -0.28256582179155504, 0.1044417379070048, 0.155542633729326, -0.18804796446848562, -0.12067882710660718, -0.09981847195034582, 0.09912874701418233, -0.22309773633026442, 0.08024896742814673, 0.008118415142309411, -0.3182245435335727, 0.2602427467841266, -0.07359682009568867, 0.26879021336796605, -0.21134064500931882, -0.4126410179212969, -0.015440742818533066, 0.2846898711741475, 0.03670294612754709, 0.20102442019705385, -0.29764459698768175], [0.3057107355877672, 0.2339425019918619, 0.36924006539889215, 0.047258635430416744, 0.1795369659674707, 0.27154026096122025, 0.04358533201088195, 0.286760610195117, 0.3562629387890517, -0.0028297120794227035, 0.16318546897305197, -0.09942567140160484, 0.10783397408021768, 0.057146944091124766, -0.4366071084333548, 0.15585505435537436, 0.24213900121446957, 0.08422502943876399, -0.05268582733167989, -0.030284262320246468, 0.24780260595697887, 0.013565885176219853, -0.23301531977336234, 0.2046731303893556, -0.28662785106085564], [-0.1147560285084607, -0.3124163923512517, -0.252834753600549, -0.12992520806493454, 0.21215690892797662, 0.31272842839537296, -0.3489265237424493, -0.03473984944103884, 0.1799350645494679, -0.11658920289555397, -0.033504079418699706, 0.05124970141755224, 0.26431763073266074, -0.022185807244458917, -0.08981075253187251, -0.05678467271104413, 0.08034937450484679, -0.28139473757365496, 0.15189319215365263, -0.12502987171559515, 0.13714204734811347, 0.2414216936791322, -0.2859570872486493, 0.16588349664493077, 0.14832345929763233], [0.17863034339980466, 0.05087653114527596, 0.06809850664751495, -0.28161093745505805, -0.12576556101814057, 0.4421713963412696, 0.12043333988361683, -0.40326659830706124, 0.10370306247969394, -0.1880736741742616, 0.14477222519599642, 0.07389404751827357, -0.07040827516127598, -0.1502393344703006, -0.045837475679534764, 0.12811673751140013, 0.13422213513778045, -0.41863017934214847, -0.12630921102935905, -0.12647808337751745, -0.04954292864386551, -0.29357717862670163, 0.1902715253047381, -0.22544399185407116, 0.23331640658975134], [0.06411614576673023, -0.1544897328375067, -0.09138014980754879, 0.04268949160259595, -0.12702033628381795, 0.08076142031048193, 0.20133869675856064, 0.07943284867244471, -0.12352568796966013, -0.1190707463882979, 0.02734185176092155, 0.3562482068343526, 0.12852995376793225, 0.1775029318741295, -0.025180342816526386, -0.05572168499021536, 0.12712325069269362, -0.2757564491549083, 0.12536186968019858, 0.006821863538954334, -0.04844165843017418, 0.09162187903901788, -0.07208601450125952, -0.05344857954717498, 0.019793931059956436], [0.07081797965048517, -0.039854259221652304, -0.0010592290616938068, -0.00960726268436859, -0.2032791983053913, -0.3170221413561179, -0.16625697564775596, -0.22476459186055964, -0.3043495891565286, -0.3542030193593183, -0.2656857971789193, -0.21058175222851855, -0.0005891608079197811, -0.08326825893201716, -0.17074174808850123, 0.2651947906343334, 0.17204994551703306, -0.010886978814538283, -0.0381823283054422, 0.1495802688044792, 0.45453028404966556, 0.08418304054063876, 0.46110159710987664, 0.2833269973190945, 0.028415458589059705], [-0.2947250574576325, -0.13579136639610484, -0.021909391422933428, 0.0007002335814160677, -0.021326114598598785, 0.026448553080688022, -0.42915358878263454, 0.1635382086453758, -0.20577920911283953, -0.4072032238199767, 0.2616626279808866, -0.18218055152259363, 0.08101827969701436, 0.12653828443606957, 0.16806832097174024, 0.17730694131502314, 0.16741456892537654, -0.5021320238731609, 0.3347096883948635, -0.1437074028219892, 