{"ClassName": "RvNeuralNetwork", "LayersNeurons": [576, 50, 10], "EnumDropOutValue": 2, "DropOutRatio": 0.5, "BestAccuracyRatio": 0.9769, "Train_Loop": 1, "Train_LearnRate": 0.1, "Train_Lmbda": 5.0, "Train_TimeSec": 3234.825202226639, "NeuralLayers": [{"ClassName": "RvConvolutionLayer", "LayerIndex": 0, "InputNum": 25, "NeuronsNum": 576, "NeuronsWeights": [[-0.2295247412249381, -0.16709533685920788, 0.2033936737288478, -0.23747416216840014, -0.12430502314940868, -0.11577169723966538, 0.042751264111398735, -0.04453689960817855, -0.09351919686090956, -0.08617646588876528, 0.030381058498960205, -0.0706292038576412, -0.159844729706205, -0.05847573227670377, 0.196067357934294, 0.11825047573610518, 0.3216102081553004, 0.3101800750015127, 0.12635274157033166, -0.03477125423381998, -0.2768669695795642, -0.18055731978094602, -0.48863917740077534, 0.24452492746707585, 0.3008047382000168], [-0.014821376661250127, -0.14589416912526845, 0.3070525475502328, 0.2638154250717466, 0.02590138832838947, 0.050064682192784746, -0.2888082193969358, 0.21059028674327065, 0.4164789342989804, 0.1055316568631231, -0.06572907458221419, -0.20336795773495842, -0.030510756360982015, 0.3193413130702845, 0.20441466817002005, 0.06818494176580996, -0.25422947497487136, 0.1595617391871307, 0.008485874010604945, 0.021335984926197933, -0.051172331984663234, 0.10795347660827721, -0.05023910246965293, 0.08126178806353611, 0.02223445276607336], [-0.22760024905270998, -0.049248821822116054, -0.028183723205285966, -0.09968648791611158, -0.30900569541474, 0.16073944587979022, -0.07758767368865778, 0.1468947454461667, -0.24130460906596923, 0.14337308738042995, -0.10511549137222573, -0.1805415527364949, -0.012901538577425797, -0.0953102467061637, 0.018605619228993432, -0.14042018197395637, -0.15037495555480634, 0.043828577077794084, -0.1544100758881459, 0.14776709052369566, 0.10783014208636918, 0.44565985780797407, 0.4096142430416081, 0.15175436447431492, 0.2868536405727392], [-0.1564694490983416, 0.35154588744226667, 0.27862535196655175, 0.1862780126768296, 0.29048679968412217, -0.008869099948573165, 0.07906588428241877, 0.12334502991405295, -0.007378058775050871, -0.35812388490247826, -0.25659709637676625, 0.06388290974603883, -0.12070199112979627, -0.23599458727522446, 0.17159593170704254, 0.23335648258319872, -0.03689360571306849, 0.18748291802624142, 0.1567085111482827, 0.2736602640100096, -0.043466475040392145, -0.05747665007161875, 0.0193303193053978, 0.2485947190322257, -0.11274691722215302], [-0.13792227830900783, -0.12777458794445545, 0.23346947915204583, -0.19476356813234602, 0.20737488900739015, 0.16537568201835862, 0.15081566888188933, -0.09884599743583633, -0.045394935753146674, 0.2457394951685149, -0.06693355923652541, 0.11068625459435431, -0.03533229524751515, 0.42993853528606235, -0.09446847485224091, 0.11625368453651855, -0.028463591348073948, -0.10827687647940398, -0.01624088402177313, 0.17310316743584947, -0.06778833348078976, 0.1596530091918519, 0.051642390453633835, -0.27854814092656605, 0.1359518830277514], [-0.24892804596540358, 0.26455110188849285, -0.07278194901007864, 0.21315692328132285, 0.26853744198974444, 0.0915537890945752, 0.03533173365541762, -0.08808124164566072, -0.28964427324394854, 0.2782441360772193, 0.4176620376762153, 0.17040766594871928, -0.032251640552784885, -0.1898497733596472, -0.3016925539824786, 0.2158703053461108, 0.2135044038954981, -0.11031012855476063, 0.18172413299657159, 0.1090937917373303, 0.08796339017007317, 0.15714538139604228, 0.25952899419218806, 0.039064547933644354, -0.09808912192064712], [0.060305510143222385, 0.3929320509153136, -0.05342105782261973, -0.12340345729449934, -0.3027332083320916, -0.38900936832708943, 0.12535144872039392, 0.3410444626547642, -0.11202675573050365, -0.055755645983119696, 0.11492662638276503, 0.47578086589039253, -0.25167261187070783, -0.1981391830707236, 0.05276911785080209, -0.07281595488970094, 0.034675413476781304, -0.25085362459629945, 0.09880689641240697, -0.35704480804516026, -0.0426865743661206, 0.2095836037746676, 0.05112499108285028, 0.23870965005907993, 0.13712626475963263], [-0.21827135005776568, -0.31976906505761865, 0.11577923316731323, -0.24256049856882847, -0.0846363312366916, 0.3626959532906654, 0.209519879939125, 0.10350682916879014, -0.024443744237189098, 0.08174855300482471, -0.4095998850555775, 0.012449297671402428, -0.1177079701677202, -0.07689872701896128, 0.05894796804137016, 0.07328362119471207, -0.20442825174590573, -0.0805031015991988, -0.22760140573070742, -0.03733048089718464, 0.2695682880754302, -0.18735378709617334, 0.29195456271901965, -0.1436645310516989, -0.33286774787254475], [-0.26030991252290153, 0.08979044808447965, -0.23433810779308217, -0.16657703495854131, 0.22145885803760468, 0.07796448483510508, -0.14532840408056885, 0.6302279308972132, 0.14632781757317448, -0.037102885799801956, 0.25898560279433985, -0.20921231479477628, 0.4189080984619701, 0.0451814701923908, 0.12367266918276285, -0.32176554574909627, 0.3382220694335025, -0.13698515709476286, 0.21027532456257814, 0.049857808043552686, -0.19698493123439859, 0.01271130029601183, -0.22594443429018582, -0.10058533673487875, 0.03793061326786681], [-0.12036400640941733, 0.06885684305372786, -0.05448680893581048, 0.28489200447314794, 0.13365837738494976, 0.17608213021756086, 0.04245290729071709, -0.05212802686395879, 0.052395395057212656, -0.11097278119092094, 0.14030780512573837, 0.08588232893353949, 0.40888745895180817, -0.09892469680075394, 0.12010955466517906, 0.37688650921584294, 0.03323479082928244, 0.12639843173589624, 0.1652494299078782, 0.14431447275233006, 0.0028703243071965135, 0.07026581896069532, -0.11861234423019083, 0.33261327721411893, -0.014547503761039181], [-0.23694296892827835, 0.018414986335572352, 0.022393810850785616, 0.17475436140001907, 0.22377513611721297, 0.26566533858004177, -0.0883934613186415, 0.0781069649464329, 0.0571055652441592, -0.020783109963403053, 0.42658493932711794, -0.11516542175352988, -0.07147383899567719, 0.05445413993573596, 0.42240873979705984, -0.057429280299652795, -0.10451101414531587, -0.188111231803575, -0.2564082660375162, -0.17247529062740574, -0.12118276200961031, 0.10544884333266905, 0.1492811847738296, -0.21682641267490593, 0.18307529255545218], [0.002532196419927973, 0.25955701154312655, -0.027937767237685835, -0.10283951159746314, 0.10234733608740187, -0.28317300613065843, 0.10148384551556333, -0.17992827392602084, 0.03379639902493343, 0.0007533062469975111, 0.3642470241463936, 0.12275340869568327, 0.15784607137957934, 0.10907302390777235, 0.04076061355677325, 0.14968647537483312, -0.11166429410972084, 0.0041689829282721014, 0.06953973301564445, 0.157883965692367, -0.2462917058802934, -0.2507068480439051, -0.14035716685154295, -0.0768455379285103, 0.19975757875211336], [-0.23640243784187084, -0.03498936543316189, -0.0614624252842112, -0.012000628567048229, 0.06482826848771168, -0.0805787627433466, -0.21767360208481654, 0.44502374664882166, -0.04161543728651135, 0.30893297447679374, 0.2794780956022886, -0.14737653458771743, -0.41006746474778033, -0.22174984793530989, 0.28225699604291066, -0.3065074820397166, -0.21132817989748842, -0.2653122695393198, 0.20637443584471768, -0.1156092854195686, 0.07388869257849384, -0.20135014083273442, -0.28129611102861424, -0.19357268171714942, -0.05390335519235875], [-0.016578018976140606, 0.0034156321765835356, -0.09134441117929977, -0.0731710676600426, -0.45131147287840034, 0.04061748475400229, -0.23994446336491995, -0.10248829896619428, -0.04518454701745871, -0.16855321607646656, 0.025414960605346478, 0.028116254824277213, 0.2661249740600915, 0.21473467912424554, -0.12891116333837627, -0.010477356222820597, 0.09284769690130262, 0.05573845173742298, -0.17637502520222711, 0.014195240685258199, -0.04573798676301822, 0.33009964085290733, -0.15579182879301826, -0.037398891815881886, -0.08926858264906394], [0.11225971817994355, 0.17135078348572136, -0.011864705377888633, 0.05104434300098194, -0.05340568561686972, 0.438416444623494, 0.29997081553013466, 0.20646559192608488, -0.17013634631778526, 0.2860642981929507, -0.29062825255325014, -0.05327418719476433, -0.020016882104596585, -0.10695371291293747, 0.025058821387979064, -0.03456562319296684, 0.11624462527526278, 0.20033508364575484, 0.27394363958319684, -0.22886165160681524, -0.252597744079921, -0.08348404331139678, -0.19534897670398604, 0.027193130906609297, -0.018682669224881612], [-0.2744702085169722, -0.03808107294177634, -0.2086962691759715, 0.17722063919724976, -0.36858875217065756, -0.05964426366597525, -0.29174723284351434, -0.25666115373505927, -0.23356295186346748, 0.047412227840731555, 0.06353085684675618, -0.11819958707159856, 0.04873029004712399, 0.1662888194612789, -0.33698853754126556, -0.19700986851429655, 0.19131843441725327, -0.043377999045240645, 0.2690598188396313, 0.258793259217666, 0.1043966550707841, -0.1402287525082948, -0.2194664581824992, 0.07205177481736856, 0.2257553051281127], [-0.016710248600247633, -0.20308285422569522, -0.2776353007088084, 0.01735114192823954, -0.029856109299171246, 0.3402769454694831, 0.06783701011884294, -0.019369390628788095, -0.1953963548211258, -0.08821539964115546, -0.37679330644252373, -0.17129649878938144, 0.06642271326552382, -0.0631317938288487, -0.17838267072443467, -0.2722450582150425, -0.026217031721719266, -0.10137075193830114, -0.04375664807162404, -0.018904240365353393, -0.030678716399254166, 0.11907327906584787, -0.2307575711707861, 0.01898434949147112, -0.15237466632170635], [-0.052010788807030015, 0.03388258220110861, 0.01713941637350932, 0.04642068698004824, -0.2188010533149237, -0.48594261317969617, 0.2440278332616889, -0.16854618335700292, -0.06425185341267341, -0.03201522593954015, -0.05624614335082454, 0.09109768973656829, 0.06964688110455249, -0.3648223465013796, -0.16336855907964465, -0.3921782930786733, 0.3410456073578057, -0.12892433659456276, 0.3811973069986715, -0.20866117994780922, 0.004048988788848524, 0.2034480337740939, 0.007471577064994778, 0.07976636136885283, -0.4654695334650068], [0.19255003474557977, 0.03560686300539524, -0.07990254539581879, -0.05938551401850524, 0.480094054793531, -0.15659686690166313, 0.21479602856038094, 0.11612861326614557, 0.07037216721630041, -0.05906442441963493, 0.24290290090783015, 0.1896165869536574, 0.03258411555600768, -0.1833531788153949, 0.06998672916439493, 0.19466242049215718, -0.4464312307025676, -0.011451352518256033, 0.22656519860482732, 0.19126178559814594, -0.021720332225823154, 0.12822891353466706, -0.2514885468771757, -0.0563177536629967, -0.20162220780104811], [0.13302841972792884, 0.05258512986389875, -0.3938635777218922, 0.03361503090316487, -0.0742486065666862, 0.055883941565228176, -0.1884410069418991, 0.2756935545247478, -0.3599552181917037, -0.20031770900697482, -0.18065470193053565, 0.564250846504677, 0.06566423014179724, 0.10800287914042736, -0.027209287111642718, -0.282736678785269, 0.21085795948224637, 0.02258484612865488, 0.3083571831724329, 0.12332688403258048, -0.15066666556217426, -0.30081796063962685, 0.29860857407078645, -0.06747338373289168, -0.0680709224707072], [-0.2669382984017009, -0.028438966365939428, -0.5113429373611211, -0.14949443911400856, 0.23472235536955122, -0.015554915460248836, -0.18383823772678567, 0.087580634863377, 0.023662532575988354, 0.12265502135612108, 0.08573314502214345, 0.30367805247851504, 0.03233849735867875, -0.29251659405376773, 0.07464731447272956, 0.051265156145709985, -0.06471480777548627, -0.07481821826638961, 0.4021947564842791, 0.2548797986263457, 0.22659889555819518, 0.1896300498521459, -0.12073010029094158, 0.020580277489605472, -0.2031650437575931], [-0.17935316675395405, 0.5772298286570756, 0.3610435413653957, 0.38918443868246905, -0.23535252478047983, -0.0639994959914197, 0.3090196819212244, 0.005549299716396938, 0.11181222050188092, -0.14408899255057825, -0.12390038162165116, -0.1386154099939652, 0.07944182134368677, -0.08867485545468093, 0.04478020821504879, -0.08296694799007001, 0.2280539731979948, 0.1989082534058936, -0.07639766822908324, 0.052527788589767345, 0.1414966967341255, 0.12861505445404323, 0.18178845993162326, 0.08606259623409064, -0.10865796526586634], [-0.00047784824792414135, -0.3804014669417827, 0.037781595013298315, -0.05926000685748033, -0.18938541495190817, -0.10760291466313948, 0.4488966467480175, -0.13352563192032535, -0.13281962905047967, -0.03474219147518846, -0.13071158660691312, -0.03388083477006741, 0.0637729776291539, 0.26128292032614076, -0.11552995989243395, 0.12755245114488883, 0.040738366228962174, 0.405598819906571, -0.33210592754440166, 0.04836251654641812, -0.15678223298134122, -0.05166352699913223, 0.2313146407275493, 0.08173826352005319, 0.04116130375029173], [0.046758261904489694, 0.2918154954346059, -0.4074449610241155, 0.4503893538943381, 0.1317911729303599, 0.7061081877741177, -0.1488416927413757, 0.043664868468652696, -0.21569010404612282, -0.26166969265486806, 0.00667297535871841, -0.3278592196461428, -0.02602054652629893, -0.013772588949670312, 0.26804056184436986, -0.09157331869468958, 0.08794337714953895, -0.23684240439977872, 0.04535069073761697, 0.2736984230818401, 0.38250873412020897, -0.15926040582298862, -0.20249162716339186, 0.19279331588208803, -0.057690940927951344], [0.07952759972272197, 0.21056229918256833, 0.11401240140260686, -0.06655579285059596, 0.37132659793679645, -0.3673844181390294, 0.3968775055863217, 0.30421968134543814, -0.053639298569015226, -0.3003397535284679, -0.33304328243542897, 0.041374642340299125, 0.17077275566278774, 0.07240696184327935, 0.12466514051369645, -0.04552539890735245, -0.03975163008446826, -0.2162875511085737, -0.2314234178502154, -0.05967078495106023, 0.39425885805134814, -0.46217823367499733, 0.2702009035446987, 0.16753789967956595, 0.1410947653450785], [0.14019426636651536, 0.2547618129985376, -0.026418762352359227, 0.21122064889225967, -0.03536210937942123, 0.3776605668856555, 0.12015067226920428, -0.22920418601902734, 0.14592804266903156, 0.06467316451369907, -0.17423342904186784, 0.019391879678331964, -0.20420243740071342, -0.1645969526386341, -0.12349230154080075, 0.3243992148258758, -0.2485750899047658, 0.058867378583537, 0.16923489488684865, 0.20959552277443577, -0.05791932803557096, -0.1986470863778002, 0.05782511750385174, 0.023040897651844784, -0.2360820503192175], [0.17795925899396497, 0.20059346103858577, 0.2984764975722117, -0.11180944254201472, 0.27114774237341743, 0.11190852643035126, -0.1548799702212279, -0.049759404899051896, 0.5067768578234397, 0.035992971267934507, -0.13792845009507562, 0.01675858361744548, 0.45933665917427435, -0.021223084793915117, -0.31415542281080694, -0.0984024748658306, -0.3224284298563611, -0.0783591110860254, -0.36690270970643807, 0.026531856560072953, -0.07312174281160899, 0.15780100243079279, 0.027150489719645465, -0.05864905978317159, 0.013060358992931004], [0.09261310998922725, 0.1014583931478252, 0.10355963484119945, -0.08133156729142844, -0.0629132130417824, -0.00877186838345507, -0.25295464455717315, -0.2674448472034176, 0.11214643094063659, 0.032470296388871604, 0.3826736977439661, 0.13198855351013047, 0.3800331269892724, 0.15551695609736144, 0.03873802613512582, -0.19244570289664684, -0.10433080176596189, -0.06171185301756368, -0.07836641451265877, 0.008383937380057232, -0.11280491160997645, -0.15213636592991167, -0.2312011675987147, -0.18118807265514228, 0.16261974819976546], [-0.04987457233228815, 0.06788782785128794, 0.10459768076920596, 0.2956281002424743, -0.03740342016297581, -0.18415072468823812, 0.0680638471909309, -0.1986221221615085, 0.04439351538192525, -0.10751729632028766, -0.14783217626593928, -0.35227192646049493, -0.5079149944311815, -0.2401617789460649, -0.16337281767775028, -0.19062496186916847, -0.06589594584003951, -0.19017102061552293, 0.047756493485518685, -0.04129165760542058, -0.21057454154108635, 0.06178077897807663, -0.1100799789467517, 0.13949115999191833, -0.17184239462024395], [-0.019022281172014856, 0.16299215486925286, 0.16886291450761662, -0.02884484072771675, 0.20421327484794163, 0.359813390081996, 0.0071184870744515644, -0.06623534974337968, -0.10379453361664341, 0.12033711120919624, 0.17488161146759434, 0.09530686371210778, -0.3914315295328129, 0.10949723302442535, -0.019500656305279924, -0.07179573849988206, 0.15281294624999572, -0.14260622980726745, 0.41108027205132364, 0.015296621995803646, 0.3741812713786237, -0.04481258851767603, 0.04074142022375734, -0.006592252999548804, -0.13242356578447612], [-0.06921988166688187, -0.32651568928897023, 0.03405136719119834, 0.36950259202576247, -0.24855484967433508, -0.20011426877176786, 0.0837908374232005, 0.07363074298818707, -0.08461347008778176, 0.23098971904900933, -0.12134396697535327, 0.03476076355881289, -0.037149709460520416, -0.20131338710311938, 0.1464481520704816, -0.2969028812628271, 0.13242851928164073, -0.18093248181394045, 0.01556990587819977, -0.08527590116786653, 0.06393231187288934, 0.18873226803908313, -0.18782057071088273, 0.11690956773353336, -0.2166211067019464], [-0.04482370813671821, 0.3761886020244123, 0.13688960561994853, -0.1738191847846133, -0.2639385659101395, -0.06930633803087731, -0.2904902714940934, -0.11588098557956897, 0.21826272203346572, -0.38668220095202205, -0.04968459284362261, 0.1156848698497157, 0.08275906804997084, 0.18967651456931464, -0.1129718649753236, 0.30109684607407483, 0.2244997993488793, 0.24244887629953465, -0.010587343538340108, 0.3126446615145697, 0.17477428633318076, 0.05895466798105892, 0.1524788276465838, 0.14474072270772828, -0.12058794658298592], [-0.22194300813947226, -0.3928993656706841, 0.312205408725929, -0.24572601129607602, -0.16277436523037736, 0.028884604683274986, -0.012533210501462657, 0.13756899478745366, 0.06933794391051566, -0.16055301053966145, -0.05060456650306284, -0.07820024937232736, -0.006009922201477286, 0.45127043540920503, 0.08271162936976849, -0.06283073230040345, 0.07621452701364159, -0.6035469130056724, -0.20064917317565653, 0.023603677634962114, -0.15562691800518133, -0.003656512455412263, 0.19580298097078103, 0.2563341852111534, 0.1062478479717002], [0.2200809578980361, -0.14122019894801802, -0.0011036947985964918, 0.027048321481238046, -0.2285047584224204, -0.14941476994611144, 0.22721945536595567, 0.023195976891708863, 0.09773034645338032, -0.007229972941814161, 0.12507810288967458, -0.28358119810113325, -0.23034099797482066, 0.0778027226850653, -0.019283387354392605, -0.01664488838918824, -0.2510641558114746, -0.09068329753998301, 0.07653978375101218, 0.204265355828896, 0.16315281900937004, -0.27298623028526225, 0.41337083018575127, -0.34400794856523664, 0.027020650205198504], [-0.12876221547784875, -0.5004641476647191, 0.1783274996807003, -0.16494447669851708, 0.19425246605147387, 0.1804394997185629, -0.16516617480958756, 0.07931113702581082, 0.027019558885084092, -0.014117489767446126, -0.04414979416390459, 0.1750982614977521, 0.2655008806594048, 0.04760939005087687, 0.182148151676215, -0.14489059819862896, 0.3017262780135149, 0.22923572783992394, -0.06254707709900251, 0.09480646728185328, -0.07549787130400491, 0.11288957451844614, 0.24177299554478082, 0.2969243362033276, 0.09627312485237127], [-0.04586965000525447, 0.24917025145386038, -0.17607367381582187, -0.17034451554936034, -0.16635156999336562, -0.11483316261235424, 0.2790051713944025, 0.05245767382292517, 0.6060481271351885, 0.1311470458064019, 0.15841041619764196, -0.006044830524829815, -0.09650595107286059, -0.05419274339629816, -0.18332467865313057, -0.0709332368657122, -0.15095450271084598, 0.08567627237352105, 0.10004625171361424, -0.10456513671049929, 0.19339753501765247, -0.08269097211414608, 0.20290724482168038, -0.23740243653119514, 0.03690849969391145], [0.05585931331165121, -0.16256780409916366, -0.04054795416400645, 0.1036600023514614, -0.17731882565350976, -0.014456749369276937, -0.30544883133342493, 0.08094262402058952, 0.050756624955448124, -0.1761481821013181, 0.21704293311932044, -0.12103916564136223, 0.3923918837258598, 0.004434794100470837, 0.06910751756942732, -0.17777636785581066, -0.33096871266160843, 0.08924441961332195, 0.1229490206948116, -0.08036171157248012, -0.04542357597792135, 0.009606157795911077, 0.014934936880751544, 0.1252355356136189, 0.16664230646880393], [0.3847434242587868, -0.11024098120555363, 0.04133359821216742, 0.1945729605280374, -0.01817894290859098, -0.13336944730007474, -0.13713723930309568, -0.02977496172656447, -0.03053527078236978, 0.0151514188024478, -0.20543126159625663, -0.05814591666874288, 0.23441980681640934, 0.1418671277196239, 0.13236125899086293, -0.24231072783235377, 0.09064992086602404, 0.12618285839427446, -0.0993754773074335, 0.1844471653023142, -0.2761404041358183, 0.025435753285789786, -0.19729340634638748, 0.1910675831212098, 0.04471408374510289], [-0.07533240684581613, 0.27561173530491523, 0.02259079299784654, -0.17881288446905616, -0.03149639885243679, -0.07599255654885433, 0.2326024973300193, -0.3449119364065573, 0.09526163925914644, 0.08040939212843982, -0.33897286010150257, -0.030008277916451283, -0.439174037123915, -0.002471314356751081, -0.043595356502178245, -0.3317971003940283, -0.08641128184497701, 0.0871959906367421, 0.007750507691708934, -0.11707962194897378, 0.18433422810746436, -0.2069978304601595, -0.2890869568443575, 0.07984211771608345, -0.09429077679996925], [0.022372381013842552, -0.14616000093232578, -0.28507205548069176, -0.14144993987680057, -0.3084661920860289, 0.01301295940980377, 0.3080773388069896, -0.05436871139551624, -0.527603700644378, 0.15592128722167958, 0.23071574343102993, 0.03168417923530722, -0.17971494291414236, -0.17634726629486902, -0.14837545076778488, 0.32820370865423026, 0.0014841998555449954, 0.06821689286034276, 0.2694599278420668, -0.040934893946255685, 0.14012174495176413, -0.3204758150945986, -0.08688130827908086, 0.015646786007827, 0.4563513174203319], [-0.4435490970489636, 0.298950542377915, 0.04524861109565133, -0.10771033630927977, -0.046705192772283466, 0.05547069358442132, -0.6066261164087325, 0.0001728148657224192, 0.19448389818325465, -0.30749666056219177, -0.12456268765613376, 0.10797646094861758, -0.4577910545196378, -0.19194728946511183, -0.1464795509610774, -0.23974246183224657, 0.39080720483699455, 0.15338019846730033, -0.4038444292085084, -0.0037864331367190927, -0.12657145036669415, -0.048149973479776786, -0.06588769972040526, 0.2906530976638055, 0.3111617153906817], [-0.3231891612060611, 0.0629591835507549, -0.029241086194468604, -0.36108877949988205, -0.06322809605719504, 0.085614055396276, -0.21695969268216106, 0.11422301330151628, 0.20153841475523998, -0.130873252246946, 0.17576423099065516, -0.13623590972937155, 0.06430537696513898, 0.027705775421287434, -0.07695135169637182, 0.08316385245485283, -0.07776166634310756, -0.08894019795723038, -0.11185340547217817, 0.1574929873866663, -0.0054137063804389, 0.21075159729586102, 0.05373443280326751, 0.029209062845339858, -0.09192297136256276], [0.37501038390143177, -0.20554388549456865, -0.4873749254818914, 0.15161540670956264, -0.21247605011153148, 0.0048842165581576, -0.2512275778527989, -0.21486482096016313, -0.0008472424588923637, 0.22454779677292316, 0.04891899927694754, 0.15865566084264485, 0.18743295381025823, 0.05127050292127803, -0.14392849282336934, 0.23538018952315248, 0.13760578307734891, 0.150822095118145, -0.08260883831282617, -0.3924285776448602, 0.06301766631048279, -0.027266010088131048, -0.11695720766956413, -0.16592058564707937, -0.14699706598040432], [0.016558913590187564, 0.19730035363172435, -0.06341433184453649, 0.1496734931651745, 0.3776373405990688, 0.10777599824089758, 0.14850076555082659, -0.09404850120524162, -0.08075458853424403, 0.24018616696509926, -0.019876966354187734, -0.007179455841514505, 0.18986710404144586, 0.3190175496254184, 0.018294225317578024, 0.18513797218817385, 0.15092080834613536, 0.14757039945703385, 0.32596570582801154, -0.3994523091548, 0.16123444965917672, 0.0263977503015635, -0.15181532532285139, -0.07521728961992244, -0.07016074660512842], [0.3507453849533763, -0.3475199956021431, 0.18303012537706842, 0.06735121366702203, 0.4933050482568014, 0.0558843923758908, -0.0904317088164952, -0.11411496462601407, 0.2087912610083508, 0.0811506588163157, 0.10519104385286882, -0.06855303103124946, 0.059853378651970435, 0.15509624781940887, 0.43324760629997155, -0.01863226015278702, 0.0968670640712209, 0.17359660813941372, -0.23191084245886526, -0.21665609173698838, 0.2159032360279692, -0.017788541317376734, 0.05071308725542707, 0.0635818486371172, 0.14259082797628422], [-0.38709416702467087, 0.09115543916092689, 0.18027103207743733, 0.4644845060115519, -0.06438561118043681, -0.15181083398796957, -0.22274924584087644, 0.2549314133766653, -0.15678101731215527, 0.14356052425593543, 0.30819678548560264, 0.01082558670689404, -0.14631013488617764, 0.022681870166330945, 0.03983195352645442, -0.08464916366537269, -0.1458465438517972, -0.14778012381822797, 0.15529460350745264, 0.0298845305370128, 0.12473235398337112, -0.04401211381557106, 0.18827311226693766, -0.12239287687879614, -0.034818408140698635], [0.15956401159461864, -0.24315868781302621, 0.03284208301125466, -0.036429530971910665, 0.3132232801487336, 0.34170753643500545, -0.2096458291020875, -0.13740764736126937, 0.15755693902149698, -0.030558015413799273, -0.020458818066413028, -0.010936882901237966, 0.11014587391445704, -0.1383453903362311, -0.07701785325550574, -0.41082883770194456, 0.05462269540626985, 0.18063493573649508, 0.05072143381665136, -0.22374524251105052, 0.1006470745006238, -0.16333901410461432, -0.25861061651221556, 0.02714497323498135, 0.23923777342637162], [-0.10122438525020402, 0.07864530275893769, -0.10317287664936654, -0.009109702250720348, 0.13848102094998477, -0.1919403104045762, -0.10102438709239696, -0.12533920148642258, -0.04780338430788294, 0.03252767185973114, -0.21985698801920509, -0.2744661953148761, 0.1863174014441532, -0.09695553852707421, 0.15232135320239698, 0.13261297215491002, 0.14415961714569778, 0.040600064715716214, 0.2847884110354904, 0.04729746712063341, -0.08195628599204821, 0.04414062368840084, 0.0315531352402022, 0.3498893011727711, 0.02575070342518181], [-0.06900519262189887, 0.100283891953419, 0.4886766849667481, 0.1544763835937344, -0.06129909308081173, -0.23162124880423457, 0.09761989267718896, -0.004684746515114394, 0.10555061095816436, 0.22088450514977684, 0.11532711027897014, -0.4422735025591263, 0.4892933006741809, -0.0004503987127939409, -0.05016004913671855, -0.2649293438035544, -0.009818623874162576, 0.10055856758051973, 0.03247017750503954, -0.23549375881170106, 0.020744630139446545, -0.21201904543256603, -0.04631031475768065, 0.3806302734984821, -0.22513301365289345], [-0.07161629798184739, 0.14927342277121775, -0.05587097095572464, 0.18308460649564662, 0.19258256303195465, 0.21851871560106995, 0.027225823268386004, 0.026983608898330912, 0.29638758164692003, 0.13304512214347006, 0.3124958495770614, 0.23049207505710026, -0.0004944018755448064, -0.039094425788390307, -0.12827680712444287, 0.022157623807259087, 0.09052856088145003, -0.10366407248852678, -0.20227643981104718, 0.0556785038995672, 0.03456939102941866, 0.01613831710832363, 0.1367748776394291, -0.21429877237367778, 0.10288805780254417], [0.06141807116818456, 0.012154062322637828, -0.05252867777780903, 0.06688658794867533, 0.057256134058163155, -0.057209657243331116, 0.3507598380762831, -0.03694420365450855, -0.2968965379019078, 0.27761520418437285, -0.011569271298542402, -0.22572960969227623, -0.01973049073108318, -0.06395942448719097, 0.1025415007890711, 0.1410935263818292, -0.09162527130729717, -0.020920628594275376, -0.05643216413400985, 0.057723639714389374, -0.06805297291895267, 0.33354197336257896, 0.25220580206781257, 0.09740472106568504, 0.19238587897438744], [0.055888463253015254, 0.045286122543124245, -0.05500518661120828, 0.0631601492896495, 0.006638396150568549, 0.0840516033373755, -0.09264484243038609, -0.06155306973940856, -0.07780837914572265, -0.2954093014731381, 0.0005404243980464019, -0.31618017841075463, 0.13274193414618973, 0.07463526970565697, 0.3555997669130487, -0.019189383398034245, 0.11427436956387108, 0.11760338276451164, -0.602570796146117, -0.05224843306556484, -0.08725842185998739, 0.2546161385215268, -0.19928414488297289, -0.021557158574249082, -0.0029571087769321666], [-0.08707441554084024, -0.27912239998924115, 0.02964177534115305, -0.2152889766401219, 0.0998888867005169, -0.15430997460661622, 0.20688406290490308, -0.09618491682205622, -0.04444004408659543, -0.016956722125699014, 0.1981298155401872, 0.07139360109325983, -0.10856829678797025, -0.337987137717556, -0.11404685479692823, 0.21833950301409, -0.059590791045194984, 0.07037716573599148, 0.02739371204131067, 0.35930883286913606, 0.15281310494729755, -0.19729389314103835, 0.15820322076988222, 0.3778112412577357, -0.06769254415616349], [-0.11862270835412393, -0.07444238145077792, 0.3619461850856169, -0.10552776408265964, -0.10059964776198832, 0.022100070938309804, 0.058375016087956984, 0.0520863655673741, 0.1225151429377046, -0.1686209763002216, -0.07038318028883055, 0.03107968385564671, 0.24403894741929077, -0.06553025811999119, 0.04913722605856355, 0.21161605624790145, -0.33244549330249146, 0.10507687394244741, 0.028565979999925755, 0.1165823851013606, 0.04271971220778997, -0.10994691020990478, -0.021749195849615936, 0.13615487806222845, -0.02241887658704075], [-0.10017990580042023, 0.0983160277997165, -0.28733141588489547, 0.20358344673144868, -0.3272417171245221, 0.2353780851912765, -0.1857088430083952, -0.10945204536234561, -0.11683060222378393, 0.35183383481215663, -0.24679771095610195, 0.48941422372987, -0.25409473770262286, 0.24553072096506562, -0.030055946695763225, 0.15586987994764698, 0.21051611366755535, 0.08771163746788146, 0.594440735568129, 0.34123736627427437, 0.10167516654870243, 0.03683919463749151, -0.14376270564025148, -0.25245347508245164, -0.11596626079111311], [-0.06680371419499233, 0.08293467752505455, 0.04522602060707084, 0.08718815093977698, -0.22821565568234076, 0.053139850415621505, 0.33029393119631106, 0.4108243651228517, 0.1932551740625596, 0.04187123356932187, -0.3550302690283348, 0.024747340438705225, 0.19289911552450437, 0.1391854215188663, 0.13026355871219295, 0.04474603035225413, -0.4936293485632419, 0.017558264948451637, 0.45206089051395293, -0.02200362173845624, -0.1768945095188728, 0.24934575723583116, 0.012749970161361234, 0.19925052950937194, -0.438062441899805], [-0.10389820855002364, -0.20104197516100109, 0.024106955842342962, 0.03785276049313791, -0.14116030883160452, -0.15093061472109182, 0.218631372782089, -0.009132509396534434, 0.1247103664784908, -0.3164426708711821, 0.14784851938082147, 0.06188416073918149, -0.13205875979670598, -0.3343150731636409, -0.20852887073543072, 0.13160409469844805, -0.033616804393181224, -0.23111915545355904, -0.43503274231449807, -0.4647373594266679, 0.26225414160622723, -0.2484791926936552, -0.08602285859047847, -0.17850572928617633, 0.1286723582358794], [0.25359002484162946, -0.16000980740782983, 0.20973665950865392, -0.31998706382550046, -0.3790647771471316, -0.2530037077964314, -0.08569781987765078, 0.0335640656918245, -0.4814212402247392, 0.288135038596616, 0.16037590413910477, 0.009268916183968951, -0.0036135782779944344, 0.02359074598279657, 0.1786098077664155, -0.15193086378363857, -0.11615728047816379, -0.47174819188452616, -0.0164795443776212, -0.12679282461197924, -0.08188846159292194, -0.06769563458353148, 0.043847177360706445, -0.18459898898219054, -0.04692610223089873], [-0.1578674668236434, 0.1000171488861619, 0.07322958974851672, -0.019630051847934753, 0.20640700456951624, 0.04986599136159545, -0.08745928199972039, -0.1039521948044827, 0.2902884605110201, -0.53604110270551, -0.0069562425720697705, -0.08503543056323284, 0.0707516778149344, -0.22398949686966346, 0.16972971457913316, -0.053208721516172085, 0.0009077763976695554, 0.10554310401346537, -0.11875579421867066, 0.03627365191826276, 0.17153334900278167, -0.14814408731056644, 0.18352108279838222, 0.013209596057000908, 0.15318226727671352], [0.3037702212991166, 0.3344485867282689, -0.44595023308397824, 0.19052064970192603, 0.2004638949859861, -0.028208673268140326, 0.04731334664657408, 0.30667068279646603, 0.29657000291991503, -0.3619707407584563, 0.17259712099632238, 0.33487266721677195, -0.04123125145424201, -0.1733889694717135, -0.009754326448650923, 0.13773466311003504, 0.14066727476158078, 0.0006922239711507628, -0.3834063293502374, -0.09946111734208478, 0.013336930964789185, 0.3223617847846838, -0.10571175382248507, 0.05192655152419375, 0.26277012540340206], [-0.17999480117739003, 0.571856738224923, -0.22558774218418662, 0.13426054729691891, -0.2072817313878718, 0.14681194716243884, 0.231189224715474, -0.014594389369291905, 0.06911805480381639, -0.2360341753927812, -0.09871007036263517, 0.23830395830487078, -0.06163495221076688, -0.3144926469052147, -0.01679959401122202, 0.09951839401686415, 0.07001014377366885, -0.032698945591986016, 0.1690659295427238, 0.2639120824119642, 0.09899990146536372, -0.3227808719320139, 0.054782091096617656, 0.12580952868263245, 0.08993677066871245], [-0.37215736250643666, -0.2151480557264684, 0.06172991325719874, 0.3145284933636049, 0.2001603221758763, -0.07764526776057293, 0.2811877831482946, -0.2969007139151336, 0.3122665449781844, 0.2482772803689997, -0.1571844618407451, -0.12597910065311937, 0.27238053605509094, 0.11171136332166559, -0.06600429362288564, 0.15037637676472804, -0.015174470375147615, 0.283034989765447, -0.09299900424877676, -0.36262476453930786, -0.006676949955275277, 0.08816477761563839, 0.3114612479467075, -0.3156719561976073, -0.05263651690301025], [0.038288753346345926, 0.018970593556200382, -0.1541861467869205, 0.2035562154451817, -0.1643384241773112, 0.3494533372365696, -0.0604628673666089, -0.19059792698673259, 0.33809725577026006, 0.2066706027207348, 0.1678115881053148, 0.03564683990182479, -0.07497025289777187, -0.015069493732907623, 0.04076671405852779, -0.3355889437101536, 0.01995534940005144, -0.1388710812717952, 0.09151150594656113, -0.1707349859998829, -0.16776396549980968, 0.011879367864689972, 0.07763138226455375, 0.17865618281594822, -0.14278265203489146], [0.2526163210845627, 0.3445927687578171, -0.10764487641117866, -0.0327024745057513, -0.06732398698722727, -0.569525248582301, -0.10945571331563327, -0.1439475338912996, -0.21620745567462613, -0.25145416480641847, -0.18600746237229537, -0.14116439819454255, -0.05905431260872867, 0.37422201995804083, -0.07860757921882755, -0.2759599356674013, -0.11627160454581985, -0.09843106506888744, 0.015217122501030906, -0.043416435159955066, -0.21923754725602754, -0.2466882179402887, 0.2496781091133073, 0.20247887565998537, -0.36561993598530396], [0.22233134628705997, 0.08007051632644559, -0.1846596194203024, 0.26704943939380826, -0.06906060036662341, 0.01738410924062332, -0.6196478545624022, 0.23092400229473162, -0.06875846012431, 0.144546615666115, -0.024089791438499278, 0.14983681733711604, -0.09472963120709822, 0.3808452355831788, -0.035115613713463875, 0.188084268708658, -0.19662723287996672, -0.2486331773979927, -0.2835873401935896, 0.2651374334033586, 0.051152138216711183, 0.06068282916523878, 0.07154330194504165, -0.25721059217398906, -0.0015151456092088404], [0.12701709377974965, 0.39153870215504405, 0.09118177545980724, 0.10165694163049024, -0.1745452469414735, 0.14718072223744028, -0.20234711831302454, -0.002385891272764128, -0.16479090919213119, -0.2905051642517611, 0.32833461694752836, -0.0057626459291506, 0.14115008312987926, 0.15595901240213217, -0.2063714585042372, 0.04200537560981393, -0.33908287773728435, 0.0021729101224838214, 0.3554771973841169, 0.19030336220909022, -0.2131815876821345, -0.1930676230928244, -0.41462078458333873, -0.07309270494675647, -0.026446467594647315], [-0.011568509644363257, 0.09454131821872032, 0.29318638768628835, 0.01567811685799598, 0.20183831616207537, 0.18131436082013483, -0.4815088163640446, 0.05363051505446879, 0.025993125168010466, 0.1977819720339539, -0.28649063369789585, 0.15424984348343207, 0.22011376347150108, 0.054521526941341866, 0.05881519302510879, 0.47226414340937395, 0.16999685858109223, 0.45643770871621364, 0.15347482231010035, 0.07442325502990925, 0.05641793605863352, -0.015986002529853174, 0.06920522638658029, -0.10814049171879551, 0.1342010147906631], [0.2072101975529196, -0.06593394673282171, 0.1705272673499338, -0.2522990420077787, -0.2606894256574555, 0.2576497009806227, 0.22510722048877396, 0.08209785983660153, 0.012235100832649446, 0.3642254444461101, -0.031806706976047226, -0.09727947558776141, -0.17784465684865852, -0.1776432772259164, -0.03887079151824216, 0.05161009572404661, -0.02756104932391903, 0.05212743167483813, -0.14906231521488364, -0.15276838656994046, -0.2758091002852402, -0.08189031943348013, 0.031161059232429206, -0.3332498738325237, 0.00014789149523098782], [-0.282002961094207, 0.08154943120970129, -0.06456968454871127, -0.23590816577534107, 0.10360922056974485, 0.10893803238098844, -0.19599964192146138, 0.12864819766737126, 0.05697606393215133, 0.044774200452378475, 0.018726787290779798, -0.2065266198499563, -0.17689244427719025, -0.10288282109109621, 0.47951684681990064, 0.054677404328796295, -0.37775102824459084, 0.05419154752395736, -0.17428860147869976, 0.10147778806128524, -0.29545401792535236, -0.19415551023394864, 0.15646501776035587, -0.29440781052455894, -0.2669685626026148], [0.06535406768358916, 0.008402522706533421, 0.08068583285036222, 0.10259536837938477, -0.3664018741147534, 0.2572005037050894, -0.02463688171523067, -0.09231827445719935, 0.1819593764327765, 0.4021682455075154, 0.0850077296124533, 0.08586797599329966, 0.26513295696130146, 0.0786784813993592, -0.004553752382358266, 0.06807838524442675, 0.01326844188578856, -0.11586854927410146, 0.04770800077274433, 0.13401657531437142, -0.20201038025529913, 0.014206814697351666, -0.3106410873234916, 0.01594676532453751, -0.045124177213081026], [-0.09792170768894777, 0.3157898722032252, -0.23799497180296555, 0.05119051283536604, 0.3667077615118014, -0.07362839542355652, 0.15887160412449347, 0.1431844213248682, 0.185656402465908, 0.10954528431392616, -0.10653546671216539, 0.531071670598128, 0.14067749782633895, -0.15380682657721534, -0.09073665292579794, -0.20739536960605703, 0.42591291918452195, -0.013468527577113436, -0.012967666282254238, -0.02650684534376809, -0.3261949206072488, -0.337775268155058, 0.2844552847478957, 0.08532516789323231, 0.1634363687270775], [-0.00026745203392518986, -0.015062778330570924, -0.22827513189243023, 0.11738660354707613, 0.00028330194547542274, -0.17735102855500087, 0.1393014827863427, -0.2535155334818003, -0.10517529452380991, 0.02269458078501431, -0.018927437290141562, 0.19319406083666193, -0.3717594695907431, -0.10112822009473459, -0.08381830626791947, 0.23423668910531092, 0.42783111758552944, 0.028898856648066, 0.1668485903720209, -0.30580869319584225, -0.04617998919958702, 0.6602918659940163, -0.26999034112840986, 0.2755226866513571, 0.06937894677776629], [0.308859606146672, -0.2680431560520206, 0.05267316553118065, 0.12633005749871432, 0.4959709780412987, -0.001249208600632726, -0.2093019526805626, 0.20003744808738685, 0.4925561331251039, -0.05798088834501707, -0.009587537293845847, 0.014001862347964623, 0.12132966817171895, -0.029957767057453365, 0.06472276543073299, 0.12615731956159643, -0.06378660791694242, 0.33815498943276795, 0.030502299894401102, -0.304721221632189, 0.0029541327435628857, 0.09266674557845941, 0.3011617021595184, -0.2789930638980508, 0.16367422936849402], [0.22462660273659937, 0.3816159857989472, -0.03769442445093042, 0.24455499146154885, 0.07650774457156487, -0.1251615037948384, -0.019669761416669023, -0.27077609312864553, 0.11338988313110314, 0.34653058071960885, 0.04725833017741425, -0.4126558286230013, -0.22700335350085005, 0.21194821016439364, 0.4369024049043603, 0.030149687142792442, 0.1227848871183935, 0.020338803633433076, -0.08819454175699244, -0.10430557247175437, -0.44529281607147747, 0.23736676693106942, -0.16447203956524406, -0.0032724585376575884, -0.10795118266230729], [-0.4589345206258276, 0.14015629420051015, -0.10013393739017214, -0.00010079042438432558, 0.10828913983987692, 0.006147333247768337, -0.10874598983885696, -0.1553470870402287, 0.07844092469064248, 0.169610566976828, 0.040716460091037056, 0.3104206446279638, 0.4835792729536934, 0.4964540180653711, 0.04769879400531, 0.09195084738531067, -0.06682823526607938, -0.19046924973413346, 0.07658213212876659, -0.22537753915374473, 0.2573081283470455, -0.36858610609921105, 0.15220799584173092, 0.05510287249276213, -0.2226105773314937], [0.0028965494844246887, 0.09670461585821481, 0.042841137895752716, -0.32130763565536563, 0.2338761156136226, 0.08192043296301313, -0.0013867322439517983, -0.09685545887242927, 0.09678169806624, -0.146116298251263, 0.06894055368721033, 0.38940682318412956, -0.10847655734320265, -0.3675234174661085, 0.4941697272227181, -0.10798405391798105, 0.11465700963263455, -0.4506210484049829, -0.12599475179694886, 0.2453182544582717, 0.19371672379168667, 0.23175323446984333, -0.0960913812912024, -0.20073105304600242, -0.05493808000599148], [0.4285765794748032, 0.005323877243696436, 0.15496777446964896, 0.3577718354516534, -0.2642145587954567, 0.12959356829148405, -0.4160278942078785, 0.7567234707833336, -0.12518359417773325, 0.08518975545180509, -0.3712562872723541, 0.38081381164925016, -0.06570203034805847, 0.04308496506623289, -0.33611108593129513, -0.034072194637460806, -0.1669582580499169, 0.16961693306554382, 0.1664585575170425, 0.14817766704181018, 0.3374997886803801, 0.2703215426564313, 0.10501267280192707, 0.09162496961929757, -0.377115521888], [0.33779788825839374, 0.031387643350924845, 0.257630475563194, 0.04672202947033044, 0.5525028825309213, -0.028815315822428595, 0.37615406630299214, -0.0006798802550382533, 0.059155569826846756, 0.31781041096807217, 0.15737304257964163, -0.12686337436446585, -0.306478876199192, -0.08079982455762329, 0.08456570315624307, -0.11969934851063802, -0.010637846315317247, -0.16126342793502668, -0.05303705321085058, 0.08031690309401332, 0.21050196736453775, 0.10434577566537721, 0.0785622187431726, 0.3525716279838455, 0.15375827016420135], [0.09043325334789891, -0.1468289003819821, 0.14657967217368584, 0.026775406272388176, 0.13210804179724295, -0.06039479398350842, -0.05567792712692014, -0.23604115944924592, 0.07294132670797282, -0.05061076545775045, 0.35059164543741245, 0.1973652826294042, -0.21858506198094826, 0.16313480243134562, 0.05315694813948457, -0.05048414766170421, -0.029023242597789916, -0.2599154755516238, -0.11998997735760349, 0.057456077896404986, 0.04103636223176818, -0.03121931138376787, -0.24769695571404754, -0.22567398131976582, -0.006271445452650394], [0.06328696327753064, -0.2001452919295197, 0.006791107197986843, -0.07992838589178078, 0.5946393331594898, 0.08624414105872945, 0.0540466014781517, 0.1638147794886258, 0.16566208948584354, 0.5697166909039357, 0.08139611391733009, 0.2311715377706237, 0.2778277147246206, -0.3141704522293479, -0.07534058630104658, 0.23042624911469073, -0.031137666047343332, 0.047621715817619065, -0.1794729932716141, 0.19187836503171288, 0.0027110070361689733, 0.08261621381529337, -0.11299471377236923, -0.12012317832281429, -0.10012973193964646], [0.13624379964656094, -0.19153130946102453, 0.07643942324761492, -0.21907758108399514, 0.09657715695833477, 0.05028498094198319, 0.12180920285197919, 0.09351230476261287, 0.035606722687421766, -0.13764997143824984, 0.2227497603091444, 0.11436541993952272, 0.04549096018749271, 0.33389646859950983, 0.47888843745845716, 0.06508231324345967, -0.24272658143890852, 0.04062163831995107, -0.10481084443227598, 0.03366539985214352, 0.06225009224141606, 0.19040323550177443, 0.29810807844104975, 0.4074171144406866, 0.3871776334412057], [-0.2898667183868213, -0.137105611791419, -0.3849688740193751, -0.3388643895867268, -0.07202764431797117, -0.06154161584223457, -0.12238596351602114, -0.07893833862849219, 0.23289075752060923, -0.1746660892739824, 0.19233304769015722, 0.15766689987784727, 0.18401971751159632, 0.009511769065013994, -0.011039602468379671, -0.3764506585370073, 0.37982638261800983, -0.2097237683133846, 0.48557174510438883, 0.015250126480077094, 0.07856717507415335, -0.09592685410609328, 0.06084747231398946, -0.0011747854953745227, 0.11230182604808565], [0.4913111754829006, -0.1518447066820995, -0.13702062273502352, -0.13123000118704667, -0.1221128778631353, -0.016861446774463093, 0.21397102981384786, -0.07585473569184525, -0.18262753095071188, 0.14197167638907857, -0.19300877250340862, 0.19976777805053292, -0.0840805751559713, -0.11468477331240753, -0.21173973413286515, -0.09523966045506935, -0.09898087889274607, -0.13956009632939126, 0.4124494284832857, -0.08465708797249581, 0.012697543995408088, -0.06522888781928374, 0.1954108622361119, 0.02196443124489986, 0.05954539185957623], [-0.22955824534244595, -0.3037849202088669, 0.3145472099903078, 0.3461767777285054, 0.121782316074582, 0.06527802548103927, -0.07674662271242744, 0.16400493008979847, 0.1779137923679916, 0.1815435694357983, -0.23160509020256256, -0.5091079201397789, -0.02097815236768802, 0.18614466569876142, -0.04379980108556333, 0.2550306136554503, -0.03785323068115893, 0.005925896845185296, 0.20973498507427138, -0.05372734149426587, -0.11106796676200562, -0.07486656275213356, -0.5465251040654779, -0.15884288643951278, 0.006970430288656748], [-0.16880083297477314, 0.06423713386047807, 0.12092602949231752, 0.05680691122257502, 0.1675832940813752, 0.19362600731429183, -0.1581005235851911, 0.0567270585957903, 0.1606830158671799, 0.29927072009503, -0.17815630984130998, -0.4421188523308119, 0.0730000901421098, -0.10713240900658158, 0.13256314419416, -0.13844479939603066, -0.18974759521587614, -0.08195908941287876, -0.08741208886989728, 0.3759781044503558, -0.36316757790096577, -0.264532983350686, -0.1418622397975335, -0.08746457696540975, 0.2982647291871271], [-0.046272313327442686, 0.15525485559074462, -0.1716765847088617, -0.07530389213849174, 0.19822703892444724, 0.02404242023415739, -0.31814693141628264, -0.3740411032906524, -0.5028254283817385, -0.012000573006144882, 0.04088595827125773, -0.3848549113517877, -0.229199362582996, -0.2061420073744434, -0.07660106823303076, -0.219133710600665, -0.41051871808657864, -0.37970246098700805, -0.11740271744705179, -0.11252969049801713, -0.3185141647327292, -0.44201663019239373, -0.485870141491016, -0.19882143252206858, 0.3263403316848232], [-0.02748948143962219, -0.028949940643758026, 0.06341258993721212, 0.32518532263266053, -0.08863949093359373, 0.11136488200242993, 0.025204405316477253, -0.03445881633311659, 0.36379626344179694, -0.042694399573269357, -0.058895808798996904, -0.18136879957865637, -0.15290228101119566, 0.04563585557960065, -0.21206294246615776, -0.4573913769581484, 0.22180036664401387, 0.27708670454831336, -0.03551536949530783, -0.1702389736721746, 0.050003165186864165, 0.26460068077341076, -0.26091666842836014, 0.14944346271780606, 0.014844491873192246], [0.4993172661079944, -0.3193088132467107, 0.20257552741839124, 0.14162044178608635, 0.4946627265878727, -0.3499876076561868, 0.25402154742253913, -0.08466177183607647, -0.07749517299086957, -0.018531480454792422, 0.044724581121662346, -0.0025452202808585005, 0.18663312831727003, -0.3401374667861463, 0.10892002832535569, 0.055946500101477316, -0.2258892759044542, 0.2025852079304644, 0.24696737469154303, -0.3547402918880203, 0.26045723203733867, 0.18936927457334196, -0.2913202174590333, -0.342183994950296, 0.09607902191105781], [-0.20174744080627952, -0.2682733786300877, -0.21334555751956488, 0.3540080457751822, 0.22452567394697287, 0.4894085925732144, -0.3834163790520456, 0.0812846513060709, -0.037761991518547366, 0.0033135796158001427, 0.36782008731662524, 0.1583718778685836, -0.10948913915424689, -0.37369591464676616, 0.16094248020303828, -0.408094261799791, 0.03438247227650644, 0.11377446503695368, -0.1168717623276867, 0.012648118596773502, 0.08479714377877005, 0.01950517015807203, -0.2565665438338018, -0.15852802902086935, -0.079303478489733], [-0.07335434496827223, 0.2804766657857609, 0.20522032693894787, 0.17238487968667632, -0.30466978396124295, -0.3303186065757409, -0.040324742263379516, -0.13829282538806298, -0.076123744234248, 0.35210515324572517, 0.040307683556467376, -0.08896741893235485, -0.5489672195198031, -0.1942378215907697, 0.0022278255161402036, -0.15008854114579742, -0.26962531352570795, -0.051623801056250154, -0.11562133362034281, -0.15094021346759906, 0.2884186718982874, 0.4241798558519533, -0.1525156340018703, 0.0073960882734312155, -0.020938100678551105], [0.2530057594217655, 0.07546837380009767, -0.008005185423091529, 0.2748414899707707, 0.12253353012944627, -0.3114668405466514, 0.0852831808940148, -0.039817322525207394, -0.13872523380785573, 0.14094316502393175, -0.02954243492260175, -0.07851429901760065, 0.2787106231820561, 0.3721093051719009, 0.3286671118052037, -0.02599408231834715, 0.04097152651921928, -0.07692701226924949, -0.2154462378381629, 0.14780632304007138, 0.13433904133510766, 0.09777822070060263, 0.18286423588379214, 0.06277646735364126, -0.2085216084432894], [0.47188838043442677, 0.3939959452070806, -0.009679445479573058, 0.01853562781040423, 0.04054559693859289, -0.07031784034454579, 0.03098620560616093, 0.006579766663765863, 0.2007940215449317, -0.032611693223302304, -0.39742963405512033, -0.05322820772130074, -0.03864451477772584, 0.06450640557481299, 0.3385777184313685, 0.24447105047239664, -0.12740220247754744, -0.5575067840121819, 0.2822040586175651, -0.3733543013349061, -0.013610829677899523, 0.08731397699917831, 0.27822221089150806, 0.16292570345451982, -0.04723769390195343], [-0.21116798119645538, 0.3968809607202036, 0.2658922015422503, -0.09502458983050528, -0.13651068047714118, -0.006714047162771822, 0.361880065135613, -0.41917422110485675, 0.032832668822430085, -0.12016818430921701, -0.02548778506874689, 0.05069348478733452, 0.0856255503614167, 0.02581063939591575, 0.42675408206905185, 0.1845647199077158, 0.3897075514011993, 0.10922522464996025, -0.3295189435940792, 0.6267659341082862, -0.11127939293236841, -0.1248316872765255, 0.19291624910617003, -0.3037987747238086, -0.07071376321327821], [-0.15676205363606205, 0.3931947604149671, 0.03892366284959707, 0.12333945301530617, -0.04614627557845961, 0.05088071129265339, 0.11740019705435785, 0.18885352372892591, 0.21795117221216348, -0.1526729800178578, 0.0654924352887344, -0.053186685493181486, -0.19605699885298683, 0.07247331994652059, -0.21605109622004193, 0.05192190752000279, -0.2236781907308262, -0.13985618424126395, 0.001580028263086685, 0.0027389094054174794, -0.21204182533722227, 0.18501208816210057, -0.38719782187147456, 0.19854886735610383, 0.07983706360142657], [0.09551674036735462, -0.08055011706644657, 0.3432597068665787, 0.18932645832832745, 0.08441734409025513, -0.19449745101438248, -0.2335793434504605, 0.2236121005124962, -0.011509205556418111, -0.0016532387350638282, 0.031892639968128945, 0.00021644142951188116, 0.15322752513577326, -0.41320917459694223, 0.016778853376862125, -0.0031613341493477837, -0.0933160675464844, -0.2190675803286522, 0.08552524365660281, -0.09213435498511943, -0.328560265310201, -0.16825141789733308, 0.013293683674466556, 0.029844141403968415, 0.12664115264895337], [-0.024999363874962245, -0.0942034169548617, -0.16430876113052714, 0.0503044350691042, 0.28725349643136866, 0.15074878897242497, -0.00766194197337314, 0.044477355497424445, 0.22706455695127287, 0.04728780602994541, 0.07237453165713956, -0.08444078356654461, -0.017944602266019332, 0.19932041505786433, 0.21988456332667455, -0.15737120730696505, 0.07974159296201606, -0.3378110596750105, -0.32199923179293355, 0.2107980412459439, 0.04946801065460469, -0.32184248457007375, -0.22060662277277912, 0.056167087196853295, -0.07022840725255719], [-0.01754701631104147, -0.17371428489129082, 0.09975977943166792, 0.19940965273234376, 0.06289334870756857, 0.0908575966749807, -0.18630612426777302, -0.32337744523356654, 0.2533022740505367, 0.16890333159642948, 0.23027422347394505, 0.05513522800316344, -0.21161316368953786, -0.15363933515909484, 0.09461871246670278, 0.4075639981285851, 0.12554400672228733, -0.12232398798772091, -0.2726307515914195, -0.1861877841955257, -0.24251857969892457, -0.03257552809245368, 0.128527876020619, 0.07128466003729546, 0.14214946177810867], [-0.06919932350499593, 0.039005405810602245, 0.016183176594949496, -0.10337347245914205, 0.0706424487747971, -0.1468297615571342, 0.03692623753104655, 0.0162279570726827, -0.1289508302847968, 0.028626434390994104, -0.18818864668984095, -0.7167296009247572, 0.03645779020437381, -0.16117465737924797, 0.2130682949083546, -0.35990004906048223, 0.2297814714460779, 0.3771105251082791, -0.007359961941919914, -0.06847761308135758, 0.10298067995939275, 0.29397707493010045, 0.004054577543800625, 0.1834771652458127, -0.3539057668970201], [0.26779155621314105, 0.05281025433319651, -0.2822349535012925, 0.08413024757745402, -0.10876561344233228, -0.09308203193195243, -0.2307368907364694, 0.017349399798746695, -0.019247418643067272, -0.10191923970448882, -0.12851783747388296, 0.05427229582941986, 0.05791848329847411, -0.02034864694706665, 0.0481490604201093, 0.11023297501548728, 0.00985621757949424, -0.07708037161251892, -0.3891788418658712, -0.05003462499178626, 0.4031110145629625, -0.2106922525326566, -0.10678505554213737, 0.029540227866520552, 0.28786578485030234], [-0.15982705638378644, 0.2755948221349421, -0.26907695018377914, -0.1858101978865858, -0.17511749249483632, -0.025684503771566614, 0.10339968043162162, -0.1325919655462727, 0.010606758606085114, -0.11061140809901235, -0.2273998273335093, 0.18755169056575305, 0.09515009990106506, 0.15369383768345452, -0.06852097103661817, 0.03262595956286545, -0.04127008400913098, 0.25274203596759137, -0.4066324219281627, 0.13316784462445583, 0.2663961381280132, -0.15056870311737763, 0.052952139790311624, 0.04392152060855565, 0.11987362278340373], [0.11348595189595134, 0.058904559464108185, -0.3401111047162007, -0.2757551484656017, 0.19859446189279914, 0.004598763193185938, -0.46871392468820117, -0.0789479184958064, 0.19147075320182014, 0.08565697850445399, -0.03136389046872972, 0.2731800730649354, -0.16696237537760333, -0.18078160822093337, 0.26575598254773647, 0.3006819555198931, 0.058160858448239004, 0.023384246989032017, 0.13132363358516322, -0.1633659473434584, -0.17314248545359087, 0.4247902468716251, -0.42323641261365125, 0.20987152872047896, 0.380634838738339], [-0.22347182195381046, -0.43876506960453465, 0.0770560336719637, -0.37695720099842184, -0.07981854687010485, -0.32983412292604225, 0.02319942275030754, 0.2943374052086609, -0.21401251916906322, 0.041514828499608206, 0.09725420899824586, 0.2260172282195023, -0.030057701495432063, 0.19528449138684703, 0.44438579674443324, -0.08211160913351982, 0.26681778563311315, 0.288506780501223, 0.09007844381262081, 0.13852466639024888, 0.20509215769568043, 0.08942461640403403, 0.46073911151907965, 0.05609642965192949, 0.2607996493992152], [0.14260054539601552, 0.3458278579784999, 0.3267637748120674, 0.15061351419769367, 0.13599295619242552, 0.32754444412032024, -0.13015119145962978, -0.027489649841129154, 0.1451208434243349, 0.18203876972993482, -0.05928108334571255, 0.10509156659928483, 0.22966455370225497, 0.030704431751436664, 0.0625472377512839, 0.14763354225509956, 0.15612327286782565, -0.18917539792672666, -0.16525418633670189, -0.3405514712469857, -0.2888636541755625, -0.5640302789504984, 0.16424035780659327, -0.23309632252614512, -0.23744745967175626], [-0.05408026013999562, 0.20361163091819778, -0.0033614676695062533, -0.03677777376486464, 0.5505016339320902, -0.06584180359990358, 0.08592826648041844, -0.1797612973223036, 0.3021633342689512, 0.031135349473958067, -0.1037467526945002, 0.032099558971738086, 0.24650083204282372, -0.18224831559637159, -0.2656296221291906, 0.012236978754939787, 0.19435649644277345, -0.09801929065663953, 0.09916849679462049, 0.3136264549501812, -0.07158533961141407, -0.0065092970245140104, 0.38476810092326996, 0.0025227543326655053, 0.11902079895867601], [0.29869231105461397, -0.13031762119391932, 0.0042819121188484455, -0.025760784124764558, -0.032041955087827874, 0.1311270796250221, -0.337010790890875, -0.2516949192421695, -0.06408657362654681, 0.07578844242056651, 0.31149283753244084, -0.23922191813075358, -0.06020271881415586, 0.2383786710144724, -0.3493632116548506, -0.010039843854859992, -0.29300724878875073, 0.02930876318152904, 0.08051368354983603, 0.04664326136020951, -0.07566572065531037, 0.19501426900841917, 0.05525350268235675, -0.3469392010674085, 0.0314476655395587], [-0.07869992921168871, -0.20139082517312165, 0.3362436292098884, -0.04750840248819897, 0.3822853284951894, 0.2529631554175546, -0.6382546320697523, 0.24856721776343374, 0.09432720195907023, -0.0607638004074562, -0.15242893892509482, 0.13516202923879236, -0.06998933268151751, 0.17537531298976147, 0.01458879396412243, -0.1458272147031875, -0.04392351346439013, -0.04756660158782075, 0.2447736983704343, 0.25021791749856487, -0.016440475210522058, -0.1761440384998549, -0.17679412786038512, -0.19305103440786925, 0.15605264780770164], [0.2814230763405426, 0.05747054203224599, 0.11854739052699781, 0.31388646617455473, -0.18442769273068602, 0.274478931594454, 0.16169757314922095, 0.07396360621749822, -0.0405514413653459, 0.5769962377334518, 0.24227377358982952, -0.058049473198712835, -0.18613720018341298, 0.5143790750936579, -0.10411938986653273, 0.10466727299310134, -0.15302952637329753, -0.07913305890305174, -0.0512910435147034, 0.3124620328938707, -0.30827938828994417, -0.031260201332883264, -0.3337773583436779, -0.03513818762011843, 0.13961538605615245], [0.02262958255998459, -0.08255652255611932, 0.3395518519977309, -0.06638416587512048, -0.21746435501472683, -0.16930616501492315, -0.11325661851245582, -0.19842335894202154, 0.04198693312849577, 0.3800734923594828, -0.32702996961087666, 0.022701238137964867, 0.176529565640725, 0.1359356648175132, -0.031016513068852693, -0.2003748262250788, 0.14995970466599196, -0.17338273717485903, -0.18663076635604123, 0.09313078996526494, -0.09754779942554563, -0.27704012045623566, 0.0012357192713177596, -0.18164272195017664, 0.08033815812825504], [-0.12262668433380204, 0.19514377857536208, 0.1575055956886272, 0.12564047921150992, 0.07987762148635408, 0.15514467866548814, 0.3583819831711484, 0.12032672438000161, -0.08100223978067889, 0.012329358202711763, 0.3006491462799699, 0.009159264351214213, 0.12136731102744892, -0.23067363328549154, 0.0365626451608192, 0.393294458922539, 0.19593327369473557, -0.08252749659133458, -0.4719007560250749, 0.19217962868682445, 0.3043974832447951, 0.1679334572763303, -0.21035774688268546, -0.16386379280234423, -0.2071238957235631], [-0.02649163315805787, -0.14743583940168256, 0.20905808186257976, -0.12548889495979587, -0.021344525593835127, 0.0030911182913481708, 0.16429009436418673, -0.0677432669041108, -0.023808612809785197, -0.05334242045146208, 0.1914431401950209, -0.08786516749521461, -0.01625089401149301, 0.4467371680505317, -0.10709579351195535, -0.015503815707361649, -0.5128661180347719, -0.06960684892847903, -0.002612005979499714, 0.11083941246191162, -0.011692373753971077, 0.33946830021667235, 0.046612018918808916, 0.3800549437208139, 0.10600926318270341], [0.1811840461799202, 0.01727344571524639, -0.3413114701713857, -0.3475610778929435, -0.1221910114237589, -0.1756027265350011, -0.07932650837116041, 0.03932589463325652, 0.13025442533546958, -0.43249267233455113, -0.14566990400768334, 0.08075050064545408, -0.1875147912991271, -0.5383024110017104, -0.3457340128008448, 0.1207063422278892, -0.1548208617786807, 0.19294696509573275, -0.3454334371266654, 0.1095199888901934, 0.4544599240174246, -0.18081408896560341, -0.3244098155335373, -0.29341801989077665, -0.30073122136265606], [0.2597249599678647, 0.39423921974938386, 0.32340049770862717, -0.3151367694236054, -0.10721745564332982, 0.4162406453184998, 0.13893694784723282, -0.05576312287191131, 0.267656417169255, -0.018979177111543535, -0.1979530582009348, 0.13416030475313376, 0.06655169112783023, 0.2094505032257279, -0.31789510966337253, 0.027538984842053738, -0.2758734887317464, -0.09865014162709702, -0.025132068073979115, -0.2844356048972082, -0.2736474236110886, -0.10610396528141904, -0.13064740208256953, 0.03546855101047945, 0.14721900314152792], [-0.46404215360200746, 0.044049387433007826, -0.054789820723171616, 0.16726490383781784, -0.06851164223596667, -0.3471250359946076, 0.2925903488952245, 0.007372997016873918, -0.045315601833188765, 0.12509876484339827, 0.25317101470686476, 0.2204565925458149, 0.1487615755069318, 0.42495876103870955, 0.27858093356745267, 0.50302273317558, 0.15308958967583303, 0.23069584633585868, -0.024978329065449105, -0.2239408527254926, -0.2931954252502613, -0.07129772608460058, -0.13456118236228057, -0.0321558612274878, 0.12155786911572047], [0.3405904698728983, -0.12050403731512108, 0.009502870895866102, 0.2223503499642042, 0.005176216915882012, 0.16967671017322752, -0.1263073700623842, -0.02495206729922287, 0.05236994083528468, 0.0068604516278760585, -0.028217334415765967, 0.06863773793492171, 0.034410091499162354, -0.11435949787615213, -0.5067997850031737, -0.37876343049766276, -0.4093970182114645, -0.40643321666929294, -0.5513914473273276, -0.3136435864504655, -0.3629370783849165, -0.25044896172326964, 0.1709778579934705, -0.21283815455993177, -0.004800917605347911], [0.5863490240201612, 0.27198709894369955, -0.14452146137437144, -0.10669498063911487, 0.03393617047241915, -0.03689099596265, 0.07442936829693804, -0.3200625274385353, 0.00597829582649876, 0.21431522870218328, 0.28701385054422063, 0.07371522557561215, 0.032666298365719784, -0.11525220889022653, -0.12258341191321744, 0.08215698802894843, 0.5364213193750441, -0.004128216592747492, -0.24843540596346317, -0.4242926412610629, -0.41862532299563815, 0.2758529023311803, 0.1746553589083677, -0.3579056938516838, -0.09748514094264346], [-0.0489858486595643, 0.17759034963656087, -0.41400164003977225, -0.1067990083626381, 0.17724117218414345, 0.06641868968130267, 0.23432020014855695, 0.033597112247778206, 0.09946420389776772, -0.2578040315016592, 0.059416488597685925, -0.2690453121367592, 0.1572231014930099, 0.28045117366163325, 0.3747632056667933, 0.016474139938853403, -0.09581637887969525, -0.18481322398745176, -0.12034905561215181, -0.06523990319743031, -0.06111375749760569, -0.4776667874919505, 0.18974912002370048, -0.07653731455646516, 0.22798499352641718], [-0.06851887565584724, -0.30157443872397083, 0.036807706871865874, 0.12490639698565618, 0.05777299217657265, -0.002551691093047146, -0.033011881561749314, -0.10039024641160157, 0.19197203637618218, 0.2014556214787591, -0.2081219949188856, -0.2885315918689203, 0.13784158626671458, -0.16418073794666246, -0.30561474039775005, -0.09342424081397263, -0.04207832481738609, -0.022302576480622973, -0.020985520219929842, 0.13304431833954855, 0.3556484842996606, 0.00916064566498383, 0.21843821852335482, 0.005898781050330458, -0.05092884875668536], [0.2086871093360052, -0.1485946116305094, -0.059336482946898736, 0.06054369917511605, 0.15668743079640882, 0.2667722382343499, 0.24575881366614527, -0.2358765127729761, -0.08928410190014575, -0.11779885061964471, 0.1818005976906159, -0.1205407522115299, -0.32287966274477803, -0.1435418256024084, 0.0989955400578948, 0.281105527488154, 0.10454080875441091, 0.01358479144506738, -0.12924396878813094, -0.28924207871631236, 0.25215904598642036, 0.19854457685375237, -0.06276399856128646, -0.1496998229423554, -0.1528708776047089], [-0.09179843133418834, 0.3328546637189194, 0.32432601490239027, -0.3616951139131602, -0.07782419718219524, 0.16125302056483096, -0.10040107280531806, 0.25320188074728284, 0.08156809790672759, -0.3526611366056619, -0.15932153796266296, 0.2870700992492346, 0.12976805033853264, -0.19534814395940198, 0.13441758098445442, 0.09407903268833921, -0.09465483259876137, 0.05435359443107063, -0.1317073065744027, 0.19704099577935236, 0.07865852138176205, 0.13755294643706864, -0.01115543536296401, 0.10730618163590326, 0.11893963116926849], [-0.021271214145944385, -0.0025205244528648516, 0.051055140829185525, -0.6188878338123784, 0.0761595282597079, -0.2750997736270162, 0.5032707254882949, -0.2588788956472136, 0.27991217204345803, -0.37943524363442066, 0.08423451916661706, -0.4259713199552642, -0.3312856447741885, 0.17230744383044092, 0.011805450618125286, -0.004794461919909435, 0.06515650603737422, 0.07196030587801543, -0.2349491060108699, 0.05461191896295245, 0.21223787151469647, 0.08707736585489406, 0.4272291633784485, -0.08822278349234894, -0.22876676761684717], [-0.043478921616300625, 0.015971239006320883, -0.1684992316323659, -0.005217490111573836, 0.051200066332308704, -0.30914816037509574, -0.05957094172295146, -0.12945471285898952, 0.05353434508068201, -0.12626047832315085, -0.06650097486437012, -0.28569035746133975, 0.0073211344752348, -0.14691026200933438, -0.04953769242484466, -0.06428169009960373, 0.21711524805200863, 0.06304269007186647, -0.08044288529435228, -0.15454616427416928, -0.11826889049338775, 0.06714977466313203, 0.01172888618786925, 0.14027861104172484, 0.04693506958328805], [-0.1349402850582282, -0.07157634869311771, -0.20891174565203213, 0.035020944496070947, -0.03943933290991429, 0.15334997386378152, -0.3958496315900659, 0.01833658799112196, -0.0055979638308565095, 0.25979499671642625, 0.312910711416352, 0.08803031748655399, -0.26164422219369476, -0.25043058194551465, -0.14122053244531982, 0.2250235193973885, -0.208585399559675, -0.09459164578955606, -0.2339395418771542, 0.01560418589518373, -0.005728618461728451, 0.018657010513956917, -0.021089210576553646, -0.16459547733902755, 0.30503887698626264], [0.4143652019080138, 0.0027724954041311164, 0.16050497391588653, 0.37060641562984964, -0.33735343102209314, 0.23533878339872544, -0.2113835983000901, 0.11221440260368203, -0.03714661564567797, -0.13595005399528443, 0.17892108158473044, 0.09059955114703701, 0.17818082393170115, 0.05935375913706846, -0.1697551935399075, 0.05492934477635168, -0.09645562958386576, -0.3003252263964644, 0.1468311349626927, 0.17705563424370796, -0.15343207628429706, -0.23878350762902562, -0.26808126528669907, 0.32824615906907334, -0.10593392582970104], [-0.03355125789332291, 0.13431371994915942, 0.16137605285903925, -0.04724856159190609, -0.13024816147997725, 0.0017197751132995535, -0.16443258366398947, -0.031089430558089222, -0.29576193982080384, -0.14494185438887924, 0.014893784748957173, 0.10189803603516123, 0.14759677576783287, 0.15349544806862375, 0.12400326890582347, 0.07853865412203792, -0.07755158514084656, -0.41687657353950786, -0.3579699039976131, -0.4594784278094151, 0.03872289187980539, 0.18683792820118, 0.17889458397434516, -0.1057655050418147, -0.07846494848390205], [-0.1858399062299639, 0.24818640032981173, 0.15291493796742844, -0.16830099898934642, -0.2783968132203252, 0.09707324601053034, -0.14913834571661247, -0.03581470911734248, -0.06350464197318163, -0.007972982002291804, -0.021162839180336058, 0.17185736391594592, 0.01452753308013709, 0.0415746413072399, -0.33819861766457354, -0.07479041887834238, -0.004084197205141876, 0.08434220886943136, 0.3126050579560847, 0.11164616148424364, -0.17111015232192905, -0.03191094406273144, 0.05642343445816278, -0.10930700293489681, 0.16518211370437663], [0.02390637635703028, 0.2727426710278171, 0.14435478613414288, -0.01788656397627016, 0.24401387835454075, 0.11854904795129743, 0.2309113979556105, -0.07574196750547361, -0.22882516174924583, 0.21446924775176068, 0.35379529191307973, -0.05722758457090235, 0.01376805352157104, -0.015482749631491493, 0.05404160776643761, 0.1441819425724786, -0.09011020255152785, -0.19343585165644175, 0.38196886117506107, -0.21850295460897287, 0.09077367833282954, 0.22052808301756843, 0.20016886992241217, 0.025818181452746974, -0.07477986122044447], [-0.11200467904262935, 0.016776451517527786, -0.1808080441372866, 0.19721976046112366, -0.17822968788332605, -0.16850755737323617, 0.23800967575139728, 0.19405942166471574, -0.12039482469185653, 0.05855741125649845, -0.0514957283381539, -0.4785352149509511, 0.17634713612686326, -0.10279381258988844, -0.10568914809551534, 0.11944824499656681, -0.2629957998989346, 0.18793901606635915, -0.09249106030455735, 0.16786039297066957, -0.05029815338806993, 0.3769421771982894, 0.5288840408524836, 0.13985942903784276, -0.004252099892495033], [0.40694019953548805, 0.010671091065608304, 0.19477016793637217, 0.31187881814499696, -0.05697116573046443, -0.31618878895574926, -0.46869313998903694, -0.19773497562795886, 0.31005247284898657, -0.10783018165728916, -0.20626644685766132, -0.10932764234880907, -0.17915608193556676, -0.044885884938309736, 0.05023850269567499, 0.022056693595614074, -0.38923094712206924, -0.1307282762278763, -0.3377758671990145, 0.17583713194313055, -0.6602064761976081, -0.25982817103446654, 0.13398388521772578, -0.017924755794034138, -0.24716784086460397], [0.2434895698561652, -0.236591663351059, 0.010891262112636068, -0.26260668765976697, -0.2584531444505392, 0.22419787653003606, 0.03387114766719443, -0.24631926494077466, -0.06296669293726671, -0.3614341032505347, -0.14529654185819924, 0.29969926610511743, 0.4141885704997792, -0.17137191984459813, -0.09596659989483927, 0.2893276861078943, 0.09284616636122767, -0.11937631558604052, 0.12978815552429077, -0.22044308494779155, 0.369137086820875, -0.04233218115263267, -0.17082230660223402, -0.256666806188385, -0.3828348657710935], [0.012387554525710283, -0.4028810517330298, -0.07841697164624954, -0.2864754195094343, -0.36511925792661337, -0.4630089930790507, -0.49467998612306374, -0.25355588416207364, 0.16944604194536164, -0.025410188614799854, -0.00029984373516540836, -0.6945463785055082, 0.2807143441440831, -0.18533106724095758, 0.33359885670596073, -0.1853201805216679, -0.24184463803684336, -0.25061813553899487, 0.09419203678703533, 0.2465913573190318, -0.3235195471727178, -0.5711112234116761, -0.24695582441648234, 0.062274634934575954, 0.5750326782033538], [0.10678102684748088, 0.11059443399169318, -0.11558670006867063, 0.21233584203559486, 0.10474437353422604, -0.34439595586154365, -0.3419247733685117, 0.2061274385005239, -0.09435592709012372, -0.007633480881104136, -0.09729586560054665, -0.040329195098103315, -0.5483564176054088, 0.13104532077598957, -0.25104625150717286, 0.16239025122218187, -0.02934467399025099, 0.14919304138763836, 0.059993079551924, 0.010682750155813318, -0.07312164675434324, -0.2113368523785458, -0.26702204505713806, 0.03140574516509122, 0.09500706053292012], [-0.2529471303562552, -0.2218749876661306, -0.15805746236952792, 0.10786521608076555, -0.012854095692959333, 0.07364289260330856, 0.09602753395304624, -0.28053529875892264, -0.23201106895932297, 0.039241745876486746, 0.22640850370837384, -0.16130871186107798, 0.17235622392634817, -0.401873817759772, -0.44849967947810804, -0.13018005063216623, 0.25642621541826793, 0.22577254060849858, 0.002169804409787284, 0.16508580364687916, 0.09335969749528636, -0.12402688506371062, -0.19124368209855364, 0.1702039640795655, -0.41594720820861975], [-0.0028482420470759768, -0.019853608541857685, -0.11223175652173226, -0.4503538481662806, -0.5051552425805044, -0.017707847353313367, 0.20085508028998197, 0.13175744032512005, 0.11901445778279686, -0.6428032837642184, -0.11028506632336622, 0.041116435593751846, 0.1615965519385971, -0.4779428223221385, -0.544200916267118, 0.33439299983430176, 0.03061796105206092, 0.13427480115142545, 0.06335362817531884, -0.3920594410672755, 0.3526186208667048, 0.28823208336088696, -0.14195074163981997, -0.32716428790703556, -0.40679248633366333], [-0.10117021353265047, -0.447156164499984, -0.74199709967646, -0.1481338020244457, -0.5425545684342474, -0.2917106108467148, -0.26281591206937577, -0.2651394258756099, -0.1202220886277566, 0.03952071236230611, 0.05698041877308149, -0.0372616591166867, -0.23761865919587044, 0.0056639949057175724, 0.012518887413178413, 0.43793685543641614, 0.2385608135609084, 0.09320724334199862, -0.03959112960192004, -0.018740336353799892, 0.4949077374151717, 0.24856742860723371, 0.20382392564804136, 0.016722465767729764, -0.04432080329463118], [-0.3027069718626624, 0.24607212990311886, -0.1122792721197606, -0.13802220818762165, 0.38461916278039376, 0.07426372856185054, 0.5829588234762832, 0.1564670306808446, -0.3449597286121548, -0.1210271338664286, -0.3805709438341661, -0.2901905487909214, -0.07072439559367881, -0.16292397247323914, -0.2824425253480135, 0.1965761818553664, 0.09828745262038781, -0.13000014393650183, -0.1070012594813921, 0.12962064132859577, 0.1206279094875817, -0.1426205196983699, -0.1564555306663757, -0.06627656753176754, -0.22320612596167377], [-0.1380212177745004, -0.14386152363125548, 0.10089852568256748, 0.034739687108984466, 0.044638066728726764, -0.2581209451469004, -0.18678052158252953, -0.49213292449690493, -0.08716521045560086, -0.3111048466856042, -0.271242884170849, -0.04026357517360543, 0.1482881329399292, -0.37154513701017367, -0.04963789008749693, 0.03868046307381903, -0.36814128666507684, 0.045377297297720075, 0.0745445766844824, -0.1861387461563222, -0.41153593439305974, -0.3743385989359239, -0.0029070730737993295, -0.24862958505059474, 0.10403524489897954], [-0.03438794868263079, -0.17374146416132694, 0.18076299551410852, -0.18546758007827965, -0.09240610883764011, 0.05852997905855711, 0.1333194905819619, -0.05211932688580352, 0.09911914357390128, -0.18340297450966023, -0.21296578824764903, -0.4463797827545821, -0.21780331157882768, -0.47802028823745635, -0.17674317918371948, -0.3038098663972289, -0.13716049104298655, -0.26022038991908136, 0.0749492907097136, 0.10077576261709287, -0.41553475558033165, -0.09969373748596785, 0.1340219684309271, -0.40792932158389167, 0.16462502429214898], [-0.012320999821423708, 0.016578876485891854, 0.25174392926813227, -0.14871325087739365, -0.24288878755173832, 0.1699467443240113, 0.46230021971360274, -0.1702567381696745, 0.20181829034148033, -0.1540137200014713, 0.2252764546294797, 0.030791217015606425, 0.07202661398961895, -0.23045205727898146, -0.24508722267790264, 0.5304960979929518, 0.17784833043084486, -0.2739800433425466, -0.3000605153306263, -0.08368231987747154, 0.5591815523156091, 0.09388704354773761, -0.19202314683905453, -0.28383541082831865, -0.09125120532208414], [0.3066963125430297, 0.2504788946517897, -0.008926595777511667, 0.15077717754580308, 0.1404810476553569, 0.023525530232747893, 0.002769014135348275, 0.037076096395598855, 0.2471818081382881, 0.05776750838915512, 0.06637139347021999, 0.11403949826260516, -0.03575027726747139, -0.17108286588383118, -0.17776490677951404, -0.23512762078236896, -0.1452068348050679, -0.27246258289074293, -0.18830632720685364, -0.27248827420639116, -0.27663604432475425, -0.7192402961937763, -0.4364225946003754, -0.1418075977469669, -0.7355448777326472], [0.004549426896101815, 0.021977673934043433, 0.1738603323791858, 0.20179493142199448, 0.3692621722248062, -0.0556937315010484, 0.010673426819190866, -0.20549811336014875, 0.21166678123291144, -0.06305076158266697, 0.1383367620887926, 0.03260565158881102, -0.40406826959112224, -0.10478692728995269, 0.578633912028839, -0.3852976771454444, 0.4048554037374, -0.36700494722085736, 0.1400311560877374, 0.1480544283024058, -0.07103430242740899, -0.33510300942926363, -0.10629934041293469, 0.2000202005103383, -0.14252342568607437], [-0.002197085114867006, -0.2602496508566556, 0.20660324082779116, 0.14600698196406803, -0.1952040081543685, -0.06060229726112921, -0.043412838273928965, 0.3025813351223357, -0.08170989681606383, 0.13021560148486563, -0.28356595160318804, -0.005337382921012576, 0.08019172394176412, 0.2133262767004796, -0.1421994242285403, 0.0986939147143491, 0.038484390603697474, 0.27465843741062973, 0.21404804942068112, 0.35518285795748533, 0.17840985174581656, 0.03388716088327773, 0.33196689144279157, 0.06624431464634475, 0.20306694678921342], [-0.21122267706236725, -0.021783831879753385, 0.3159811102899238, -0.1816241020609723, -0.057392473671944055, -0.18816444970905427, -0.15336433814099973, 0.14941477324786445, -0.49950024736657533, 0.017165662915946428, -0.03547806346995732, -0.3017482670772007, 0.10354600167575566, -0.45165816078879384, -0.10322349800204306, -0.09836929735788874, 0.09681153615119698, 0.16147508899963306, -0.4138527177011878, -0.021522074709282007, -0.48324945829274796, 0.06356046742307823, 0.027628445285313837, -0.3064543579914021, 0.27075670472871904], [0.029528501146101234, -0.27295322447667764, 0.22633536865919876, -0.33407393070868335, -0.08356118238081915, -0.4839260040109304, 0.10646061211513033, 0.045824692016868236, -0.26795034575927507, 0.4844262386340249, -0.04290491877172041, 0.3544059625504824, 0.19513017139448693, -0.16669057802192075, 0.05510876374284628, 0.1288630235807875, 0.06761986459492937, 0.4303439758962492, 0.5250412521387884, 0.06361056665518333, 0.08710064992244566, 0.40656847347523284, -0.13972421690034775, 0.3936840811289739, 0.19191040143514093], [0.1589607128234495, -0.4768474409571512, -0.1466090715358313, -0.24040782935181204, -0.026202632453820426, 0.4302261970886742, 0.11240679470578639, -0.32589162776931957, -0.3419220178664782, 0.017007779704864848, -0.009181953435049134, 0.47310469371571606, 0.20913044435137707, -0.05414991882009597, -0.11222420012979213, 0.14296365783832693, 0.16673693752360827, -0.055274877029863285, -0.18783043205212613, 0.02211161228645923, 0.11999567974470521, 0.3511873720608598, 0.12413021192412937, -0.10440542100918772, 0.12793336498904231], [-0.14740824745829476, -0.262828204325119, -0.17288830495142238, 0.15055154366218712, 0.00927982948186828, 0.02879012653841404, -0.4475607433584156, -0.23360898322530863, 0.02387317090622067, -0.16665846669742934, -0.11589380395638656, 0.1974643070378426, -0.1664194680910315, 0.14161060105786283, 0.6671990807398955, -0.09515825435912667, 0.029597202404483082, -0.27459414220828926, -0.05620768227670714, -0.2645142250589446, -0.05892311771351218, 0.08358120460373848, 0.02343022675136019, -0.36638037130193357, -0.33705326041103667], [0.16809586494410567, -0.059807989985339524, 0.15964314009371822, 0.1244316214249697, -0.1770136490070475, -0.08246579570124433, -0.09176144563185504, -0.17546464160095873, -0.07934852433017248, 0.20246034521786616, -0.0007963932544907857, -0.023046086860111253, 0.023967603382280517, 0.4028038521998013, 0.019237300777273137, -0.18029032445159499, -0.04627229150884847, -0.09904097652402484, -0.20295621372667424, 0.1493992569522759, -0.0005006314058866626, -0.33381353012926984, 0.03459898973595661, 0.10985446739005325, -0.30006706310029635], [-0.14766041202689364, 0.057563131137889405, -0.16756976655924868, 0.14661006404299126, 0.32513818954376267, 0.3164709376547218, -0.16285253912366993, -0.2295402596968172, -0.004902437686911227, -0.4175169042494574, 0.02628039209245802, 0.06835312963867836, 0.16754785415771029, -0.23673843416847534, 0.07105674225428878, -0.32710185557565874, -0.03963902163880366, 0.08593522816066232, -0.4036673282095611, -0.023847994169548768, -0.08376389035957704, 0.22921770996776836, 0.0038035617429929692, 0.28190760600363485, 0.20497622034229884], [0.13400726230695525, 0.042020254210858345, 0.1527931779035648, 0.17604788252997974, 0.2553493770750587, -0.04077525049204915, 0.21018932144706554, 0.006449720319588924, -0.15711581460131, 0.28907286301562013, -0.1296452215872679, 0.3258112105047762, -0.2922666839406996, 0.0798370893171174, -0.2333189194618748, 0.25071370249531394, -0.24957164027230672, -0.14985481913551144, 0.2975249781698042, -0.09085209704585595, -0.35431558293071075, -0.11182745830074678, 0.06824110125581268, 0.08001851985719899, -0.1855989133847036], [0.21915751537779665, -0.02162449747865402, -0.18532582851148655, -0.2527280001108552, 0.0973854766608646, -0.32683321832882917, -0.054116287925851735, 0.06353025306043439, 0.029364458839213993, 0.431256723766523, -0.02943964725941687, -0.018102283262678216, -0.09303865986522228, -0.12672867555033393, 0.17456104590434426, -0.03510172112107009, -0.10730388748344191, -0.3272705790758815, -0.04449932027934582, -0.1481458870199715, 0.2662976867996464, -0.2373628068075652, 0.09267881879838738, -0.16861014332357088, 0.2039306710758027], [0.05048853833475473, 0.03393263213260623, -0.06966615141183025, -0.11793227043376295, 0.06422227209564416, 0.12307371121971436, -0.04928129363041859, 0.06004976753123048, 0.055853860557921596, -0.17445921709880702, -0.035318945965864545, -0.1100952614258531, -0.18432760970586853, 0.19095667022745763, -0.08758331795414774, 0.07842560434349928, -0.009406380674134102, -0.05400490173860493, 0.1282436606229703, -0.04646475364752701, 0.019060860633005085, -0.24743852163008134, -0.02305651411888788, 0.09075796394597622, 0.06762030157794793], [-0.09394617306257268, 0.2365715454730314, -0.02736348046018768, 0.28558654823903795, -0.362736978572979, 0.2163016266464879, 0.005862861710356633, 0.01068515371732036, 0.07033031511467487, 0.20290606403982947, 0.20549664607759804, 0.19247222767489264, -0.07297346650478057, -0.06287785817218955, -0.1211949368512, -0.07724953864006376, 0.06177104687563819, -0.3221007019483972, -0.14243210201269677, 0.08163121906458465, -0.534908584692547, 0.04097636557842494, -0.08710796155421764, -0.06383501903371068, -0.17763319891045415], [-0.01218920477997583, 0.2677993124325094, 0.2314049351359105, 0.13872821671917096, -0.19118972463289904, 0.05653732752582517, 0.27117588705951384, 0.01467505767121903, 0.2666670199808707, 0.010301349759657437, -0.4297402539728415, -0.18675694119956768, -0.00826545860987109, 0.2224332043009668, -0.20703968092377495, -0.21788577480963517, 0.01146392476600391, -0.1831039518722566, 0.2982584760586057, 0.021990386383607598, -0.412965372151577, -0.25944251243613636, -0.24530316631855495, -0.08586596280357688, -0.7220959415127842], [0.29454697361709664, -0.06018778875314059, -0.13180414004248314, 0.1294779323373429, -0.08360822029896475, -0.03929450035783284, -0.023094779402461883, -0.2521296407290481, 0.21417295822357665, -0.2413811893281733, -0.05102718987763173, 0.2111714286930736, -0.19138072263580236, 0.1259210197981205, 0.030372725067755492, -0.3403378202419072, -0.043351217756864395, -0.3131700458010203, 0.07163179927673777, 0.045854056889633545, 0.27899866200889334, -0.5548478555710235, 0.20933052676737882, -0.1398438732901609, -0.06120433264193944], [-0.12455873550613417, -0.3216360511280798, 0.2725318096322411, 0.08097025492464871, -0.29082967979476404, -0.19019087874297189, -0.3184081769222816, -0.2914401857862757, -0.10692653384529408, -0.2308873201540645, 0.009128040717024229, 0.1722830326108527, -0.2671625724036877, -0.21664211186096904, 0.05658848651970799, 0.06943334321825485, -0.19010315514654577, -0.18910453193850424, -0.22959716715587286, -0.37701792615704577, -0.058070880445287285, -0.06675923288881783, -0.5259467824293803, -0.15919912881880235, -0.27462854585369983], [0.07731777733526098, -0.057155171865339055, 0.31596693972815715, 0.15561243876662784, 0.4847340820508349, 0.056255452736095585, -0.05071016159152715, -0.14677323516027038, 0.41128189556843725, 0.6552787137260186, 0.019218031108351574, 0.08852160124934655, 0.1554554713676421, -0.13523599647320358, 0.16341781927215276, 0.01198678928540159, -0.11277440851775708, 0.23807348590021724, -0.3139843948943199, -0.34013569639398594, -0.09651070642101207, 0.07813046697716343, -0.5662372000061713, -0.3115242655137631, -0.6488562113388276], [-0.03982280754999157, -0.061913432889044814, 0.15184499207145505, 0.11556685631070952, 0.050771235126117795, -0.13143003568173456, 0.012888681570401593, -0.40752629763971004, -0.33609411523681193, -0.12389829735880081, 0.08951478766654812, -0.0756532861657711, 0.022569572218099118, -0.22084686699125816, -0.10054089228630524, -0.07110260894848806, 0.10108224238397154, 0.019013942551086755, -0.3084144152779228, -0.34490241580637154, -0.10825433606200201, 0.15132344058644462, 0.11132968558804379, -0.01977641940423887, -0.36052123502378364], [-0.3050445821758628, 0.06022961482149194, 0.3048548147347659, 0.05380597532134497, 0.1977942656189131, -0.1507771022655865, -0.16908896806624177, 0.049947162563176065, -0.30082628361101466, 0.05649622430801517, -0.0466719819216758, -0.26482494287651775, 0.11132233322749294, -0.43629215009592504, 0.07149035878396144, -0.028981216029812247, 0.27178342899541563, 0.11587935878829268, 0.1089629197993793, -0.0008297878135735599, 0.1872837771479641, -0.15993115695217058, 0.14632506786552688, 0.1599206324502389, 0.2615914916215073], [-0.008658669194621705, -0.40505220088050564, -0.2658659489170626, -0.19144592708841862, 0.07970938103846616, -0.08043542390677885, 0.023068057159558356, 0.09020517140643206, -0.17716845592690678, 0.022830911802729417, 0.02412815986245879, -0.1445704416692207, -0.16903571027432698, -0.3502454357029724, 0.30740075015961904, -0.09574060588122696, -0.17133074211252589, 0.05048039199613863, 0.12711018785475411, -0.1389022591077518, -0.0030288351863399553, -0.1131701380531667, -0.2297649169834533, -0.18276684063574106, -0.034519615716198104], [-0.12491874131836447, -0.09307853753793696, -0.09822050213605418, -0.005529764079444293, -0.36487350938672997, -0.16123892618765098, 0.17430514098086045, 0.28635470712185035, 0.11172569678290066, 0.04791234882876764, -0.3405336329798687, 0.3176328180892684, 0.05973569159114964, -0.18559978852391093, 0.19771751891060735, 0.05684290102444385, -0.012073345047303346, -0.0665256139021797, -0.06554403262251478, -0.14880993844114646, -0.4197522529106868, 0.3554166386582884, -0.3731420853438242, -0.011632161402281127, -0.08223516443529377], [-0.059554276642233984, 0.4578297305706502, 0.21711961139626346, -0.04421530519666509, -0.013437101715601297, -0.10967780533130259, -0.04478640256452375, -0.18123509037512636, -0.029186458127154806, -0.3143068279017117, -0.10890049444841321, 0.0366261353563055, 0.3534480085313022, 0.03647833196622046, 0.08719133964810502, 0.07342054620177982, -0.00615168383378606, -0.5059836775374081, 0.25973368088995175, 0.045118572998233866, -0.0711887308547558, 0.3703037301863072, -0.3321650828642455, -0.0743913748210479, 0.13425795545386895], [-0.06710480734151304, 0.010478084538767878, -0.12311832051103734, -0.01882429955954219, 0.1452448645683192, -0.12044061211313152, 0.2592210191745727, 0.31789888416905177, -0.15008870364876148, 0.04617133827546383, 0.4639887171892902, 0.16179450851375274, 0.188032769202069, 0.11690842341638538, 0.11951255060209877, -0.1154347936262763, 0.10363299558597823, 0.11690831176457464, 0.04604123732284703, 0.10742470970838668, -0.0073275445131855245, 0.002275152189234194, -0.00452161686761357, 0.22402096764499577, 0.26098791642078417], [-0.335148438526898, -0.39056733795297444, -0.3447089392718446, -0.38102527071871967, 0.07814670868699891, 0.012138706939187036, -0.12190093431814919, 0.17220056898130212, 0.03463610530119875, 0.2782846824370119, 0.28035143508154536, 0.17193452715332685, 0.1977404121445539, -0.2452316294115026, 0.2687952534634177, 0.3095171587834257, 0.5195585336472653, 0.055096227682495565, 0.2293853868565514, 0.18790952692842464, 0.05032825663529496, -0.1976027260992003, -0.0611393866833924, -0.22197081694243284, -0.20845936489102068], [-0.3702987250573442, 0.2609256614161484, -0.12224187575483869, 0.16521806909122772, 0.15988212395327225, 0.11872858818115738, 0.12169423351820201, -0.0031204849473311434, -0.23414112415756602, 0.0752401628325775, -0.1253539171097045, 0.2539188644696852, 0.12469795380632367, -0.24602357730202837, -0.08732090737195042, -0.11968620473812318, 0.039156831201545415, -0.22546763633149053, 0.11558398731155808, -0.15013992159710973, 0.05719650828511789, 0.10862025665078012, 0.2615141222665792, 0.0654423944641982, 0.00024140407039297419], [0.1716702657280601, 0.04610077185588666, 0.1698014607812868, -0.41447198555659975, -0.2172376079712318, 0.02950086825418756, 0.36203713718340685, -0.16206096391458966, 0.27945032954059223, -0.43640126748819347, 0.0609903489047604, -0.19057494516893522, 0.09173761192963113, -0.08730069437006492, 0.2974901516777457, 0.10185404349503452, -0.3747308276139331, -0.11380877973269132, 0.16100846456172516, -0.10655096367575832, 0.06785630340687088, -0.1377726114382101, -0.06613154516162634, 0.04993489650785208, 0.322450426782197], [0.36387088362040143, -0.0058062399264453765, -0.03101143153722004, 0.01596214922760094, 0.23374736570465024, 0.10995138577259951, 0.27428570773723754, -0.27209454800180394, -0.1193128126191973, 0.05078424478984089, 0.13046951137434257, -0.13920315899765526, -0.13644765753913582, 0.19360714736045914, -0.03428173408210052, 0.30214559440434813, -0.17461416507153743, -0.20625462138948786, 0.2009165991680226, 0.0820640534379892, -0.05909008949176587, -0.24211194529569474, -0.15555304354449098, -0.020244582872507872, -0.024477987201996624], [0.3379744197379267, -0.3403243428009416, -0.04375488332080632, 0.31820550700997013, -0.057189357122390976, -0.32167608431613787, -0.10507455990529094, 0.008703298202653026, -0.05373033843066354, -0.038981323006685394, 0.12747659255869323, 0.2279774766443434, -0.024658833313031623, 0.28530158002332334, -0.2151358148719214, 0.10629517704582181, 0.032377780576564014, -0.21261227937050625, -0.282768520386137, -0.08141253985176454, -0.2253353357245962, 0.10076621552755419, 0.05661673461436133, 0.1279714093732524, 0.08516353121185892], [-0.04606983038907314, -0.11460630158349519, -0.12560730744479853, 0.45265884015143415, 0.23004401899530966, -0.48709071870400333, 0.10372385200392517, 0.07726353705109992, 0.0664808110679953, 0.0374568286448632, -0.04236151298981981, -0.02572505496060882, -0.36965218028354774, -0.14830152196754176, -0.04521131449362299, -0.07377162192878402, 0.2262994098654224, -0.19008361866344986, 0.37846891587050313, 0.2295210848757588, 0.24541327366846835, -0.11388852392636405, -0.06256811507827649, 0.07374292656203986, 0.018655087794488722], [0.09410786437290401, 0.08361655215331673, 0.05127511308837851, 0.1247644252770784, 0.11270155252666911, 0.535810812457497, 0.24034291690669463, 0.09414860115636257, -0.17629628484439636, -0.06776614003049833, 0.14733909361897432, 0.14199737491920147, -0.21903818506107708, -0.19735691640110337, -0.043644361261989964, 0.041816015967088394, -0.02439531329783002, -0.10272345336430946, 0.15806559444382495, -0.19355548630480723, 0.2792747747077728, 0.008743078292194104, 0.15306187827952009, 0.2321094671377504, 0.3695621467968134], [-0.11096632195083911, 0.05157230361701133, -0.2632252673676161, -0.07206732212622426, -0.065899843597467, 0.08323998892496644, -0.3624945441536191, -0.09204379889535763, -0.07766866781080543, -0.1473253445428758, 0.28270107007306394, 0.055209257668533684, -0.2856013067062007, 0.2233744835139373, -0.32507507907985866, 0.07402801623880383, -0.11301661703716616, 0.30631480852169873, 0.1435052203527485, -0.4246082045695239, 0.040818037785725785, -0.1709676372638171, -0.21014433974727034, -0.2825262234748164, -0.028742449351765627], [0.2687534283366425, -0.2819907681898989, -0.13231312963473696, 0.017611695663411465, 0.061060655853815086, -0.4651533630308237, 0.09642895620867775, -0.1332036248347586, -0.14859486108127182, -0.05904076394091459, -0.04631865869779642, -0.246849493854801, -0.13106273777921487, -0.3038806670779378, 0.5241541666319961, -0.1789202733588922, -0.29992803185475475, -0.03182267849687182, 0.18042091350412787, 0.09597585987154152, 0.09646909130834683, 0.028519259539064583, 0.15502324488475264, 0.034364376317576495, 0.5712025873014507], [-0.26967515450944074, -0.1036343101328913, -0.16071086120182423, -0.08047803189637145, -0.16402637491239708, 0.11196333159224117, 0.005178345861667997, -0.03225829955438136, 0.06799574580724775, 0.21720006672951223, 0.036310787731869514, -0.37911410285851743, 0.20217156806674869, -0.006717081244929058, 0.030748581832673032, -0.32261064760595104, 0.18029298837929394, 0.34868816964553767, -0.3503337975895421, -0.028836090002597986, -0.316643015593748, -0.05823177277998811, 0.2694590332110088, -0.28533078999245753, 0.11539854311611486], [-0.25154934508351057, 0.1641853004756399, 0.08931076785538278, -0.26523850690512274, 0.11376614133788229, -0.33058998550865265, -0.09145654667629387, 0.07551732824356124, 0.14028092680039153, 0.01919100099064703, 0.17491361957506352, 0.2693323557049741, 0.39739194274641887, -0.13640802168130597, -0.09719938020805198, -0.11958661821217147, 0.1830211569356362, -0.11120997929268954, 0.05120226517325109, -0.14348945100567528, 0.053344442486438035, -0.21727695536389713, -0.13021677088940137, -0.2131088503186568, -0.12516511094101018], [0.14276157727342093, 0.09751413679149017, 0.0683147028538358, -0.2611124326928081, -0.2825568842651515, -0.00660492717622307, 0.1739383591490014, 0.04360226078283178, -0.5702070807076427, 0.09588188109955173, -0.08178286235874016, -0.12387962749695507, -0.11648486655534852, -0.14435493686319778, 0.03637773534731917, -0.16686635569582375, 0.09729118216688622, -0.0873977658142136, -0.21661400642885092, 0.23228682608642004, 0.044994155156061796, 0.03664529688582281, -0.5010835056690854, 0.5558085256866091, 0.0995237714446117], [-0.14992362455323527, -0.19845385672377658, -0.004490253684463794, 0.025936534263241502, -0.010223856030937367, 0.04456424578810594, 0.04595614102579491, 0.16781567874715264, 0.043696261562452494, 0.0858610774987384, -0.07241632370350724, 0.029817581004754887, -0.013749117722986324, 0.44455586667466346, -0.0009751247063219854, 0.36703631640562906, 0.12973629762867056, 0.11810029010264742, -0.010519250965063412, 0.02583734092889905, 0.053671074025373175, -0.05047793307455782, 0.2340791250343533, 0.18314059728271145, 0.2308897225508586], [-0.1946219133805365, 0.17251217218178813, -0.19217683440352884, -0.3534698326767701, 0.0403441676249179, -0.2991012078650212, -0.12438587261955407, 0.1690212320802076, -0.08360700795629186, 0.14005348255647793, -0.13002456207285487, -0.06967214296927374, -0.3278075605250752, 0.2755979510649492, -0.3234048105580235, 0.16099043982868846, -0.07710587998079003, -0.16057573557729546, -0.32090841425669436, -0.16880341293705367, 0.15910585002772568, 0.2824521628339594, 0.17154044841826005, 0.17649286276080658, -0.37021768223144924], [0.019125241769897734, 0.07678902522779785, 0.05500607841504708, 0.028669070103887594, -0.08472454048510296, -0.3104091946169428, -0.03915914421993265, -0.022505351214333585, -0.09364158759506933, -0.15733117314011685, -0.025756995652688026, 0.055255517687175994, -0.07754031370865191, 0.09758015064722478, -0.08893051579771163, -0.17070429834517703, -0.11019107719289149, 0.18711567816181346, 0.058682922986957466, -0.019221393942979496, -0.03945079378628466, 0.14495965254246962, -0.21914853627535763, 0.3698682327288628, -0.109345424623882], [0.5043423830133058, 0.12157466776115386, 0.15818659460415518, 0.2740858231061341, 0.18259490699665457, 0.24993119480676948, 0.49178394275077486, 0.12042710572277415, 0.06579301380838057, 0.020225791613703546, 0.05488225530347922, 0.07983939653969198, 0.02517267903276038, 0.06860285951169164, 0.055305665312766095, -0.4311488737822039, -0.2133440830299293, -0.3206686908314105, -0.08943993285142668, -0.11933951013086946, -0.2823568855675203, -0.07356840289114908, -0.23414129997364552, -0.18424000145242495, 0.042278423524805354], [0.06110683146917701, 0.10072389887542287, -0.3315197043052898, 0.046800563623616766, 0.18391325738051867, 0.04734049329344669, -0.023843729637569987, 0.4912551467876131, -0.6182430573550444, -0.36600405334555125, 0.29176773951073687, -0.17686477011406396, 0.005607993213818968, -0.14661229597400888, -0.09292967739535997, -0.23253696644187846, 0.1577402790830615, 0.2939292845822048, -0.024432432394705963, 0.24462659564631029, 0.09265916449511889, 0.30714954445404785, -0.016567881515835714, -0.04452090398796986, 0.22604488837498016], [0.14887674174364007, 0.3850239934498326, 0.2610950875532677, 0.1847394496791164, -0.004404455245440298, 0.16541273910725962, -0.07422812986218144, 0.013057578183353758, 0.03648935011088538, -0.09676323243719813, -0.2833178990220405, -0.023637381064456425, -0.31693440360720776, -0.2920290632338615, -0.239337532159928, -0.42107568925113414, -0.6614460507595858, -0.09453585395811825, -0.11461811831202048, -0.19844041679636645, 0.15455795793632554, 0.10913101952801467, 0.42232416654971017, 0.23064414488568916, 0.2652208469000651], [-0.02956070702608613, -0.032753030838885366, -0.24323288451260358, -0.0690323884320783, -0.10508960094001711, -0.11970944364393558, 0.15236645583164535, 0.04632164073554548, 0.026940219273643675, 0.2960986528156289, -0.38871521350104066, 0.2440780062577516, 0.41143360964010134, 0.434619708661982, -0.18266260914368526, -0.10414812630710521, 0.18954206626800787, 0.20162061264802728, 0.051694904886884815, -0.218764607067219, 0.001822565216277674, -0.17347424519719334, 0.18108692636800344, 0.1209816162593357, -0.3620462898694388], [-0.29244358031707046, -0.028254583350526902, 0.08065515402207749, -0.35153124016463655, 0.034835915079132015, -0.15277262118377202, -0.11637381090815598, -0.38218210455428653, -0.2952792033086774, -0.06507009446279689, -0.10984899848743172, -0.14680004960453302, -0.003283073569851945, -0.18635329426560815, -0.05112890900164681, 0.09138027161134758, -0.25024776371278684, -0.14886915677917598, 0.10305317576191357, 0.21911675193670188, -0.1265054922898106, 0.013471171488039396, -0.2581566762301152, -0.2681571216911406, -0.15094548816186001], [0.0866098332156038, 0.3457743673586882, -0.16063341626482944, 0.46420838441417855, 0.14745808315174647, 0.036386152969651565, 0.12514025071771934, -0.03224007895799302, -0.26679882269728616, -0.3588960704654588, 0.06648874497775888, 0.16139387380960762, -0.10037470023912202, 0.08092328412602869, 0.034376282445477066, -0.21865285041310073, -0.1236200666501441, -0.08562018466676245, -0.2532589095863043, 0.05984058407803582, 0.374511287845269, -0.026195148228460283, 0.1639380230049089, 0.024535922519418545, -0.19258885884721216], [-0.214850422314714, 0.0695621032925071, -0.41081538295739384, -0.13356310236776595, 0.18656063058580624, -0.013759156319375078, 0.20184789470733489, -0.0002724665236491899, 0.044229136436325464, -0.28058098330354353, -0.4252396198216566, -0.1640000381247525, 0.1534578456914032, 0.02343990686136417, 0.13464158661604977, -0.03434686230614254, 0.04346325203141964, 0.003593600829724351, -0.1990809331936856, 0.041549715076795925, 0.06958426305016231, -0.02657317743394555, 0.22155638423620413, -0.40779646465540675, -0.035382616785390876], [-0.2444205275724814, -0.6055850509829364, -0.1596466348785762, -0.18439467209126606, 0.1268745435306629, -0.4893448626729607, -0.15029269330626124, -0.1801665191153225, -0.007657727905992921, -0.09219600725371865, -0.4502155582799685, 0.24059205120506985, -0.06914402142104259, 0.28225581805437433, -0.18210478494992863, -0.4028129054222933, 0.11764492147911608, -0.11218072488967085, 0.00729073054363334, 0.3012880565834511, -0.31346930178722054, -0.03630767432967006, -0.03160702335419151, 0.4230869315798882, 0.06013689255100284], [0.253046162778038, 0.2815357451459552, 0.1332457343926694, 0.638063244869195, 0.2950832401001048, -0.18153947297304926, 0.036971371161151574, 0.07856973042657536, -0.11154702650476539, -0.05665598223161758, -0.3719653343540786, -0.0803631275153736, -0.36668062089697256, -0.14745130200303957, -0.03644291639186648, -0.38558970025135075, -0.3316477759436991, -0.419129887737568, -0.47410442477678183, -0.7305292525018994, 0.039575305649939, 0.07910052682574752, -0.05078308934927098, -0.24539720267864043, -0.37021614256145624], [-0.026652312390232556, -0.07847957580284394, 0.040771696019095534, 0.37686044983499206, -0.04322601381540726, -0.12193371448361641, -0.077713771592426, -0.23332737433265557, -0.6775327275749665, -0.15468360154451616, 0.13665906404611694, 0.4683818670054599, -0.04768157908157835, -0.05919994815356588, -0.09068860995878388, 0.3429751733929709, -0.22719565236046665, 0.007378257719269775, 0.2574440528647973, -0.1615995683361402, -0.17010863301406565, 0.21623974809982963, 0.24266775905142288, -0.31477858330287267, 