{"ClassName": "RvNeuralNetwork", "LayersNeurons": [50, 10], "EnumDropOutValue": 2, "DropOutRatio": 0.5, "BestAccuracyRatio": 0.9741, "Train_Loop": 10, "Train_LearnRate": 0.1, "Train_Lmbda": 5.0, "Train_TimeSec": 19.152388095855713, "NeuralLayers": [{"ClassName": "RvNeuralLayer", "LayerIndex": 0, "InputNum": 784, "NeuronsNum": 50, "NeuronsWeights": [[0.01552566767559437, -0.06651624879603861, 0.01247720827604488, -0.00927696434562605, -0.053210246281171894, -0.0327539355920845, 0.07527442489322365, -0.016038518668851882, -0.036271944922066375, 0.022652727470330394, -0.029618941511908182, 0.03610923855229143, 0.035497385674817514, -0.013802557427782513, 0.04329981324046233, 0.018235523255021223, 0.017037169282619242, -0.028871967659782557, -0.02904506940225867, 0.012196487798041116, 0.03402579749140982, -0.013217541689270145, 0.011431783554739908, 0.026216136688231872, -0.0014213922916791173, 0.015898754124049834, -0.021821067607352355, 0.04805623441680385, 0.060210288892135845, 0.014204407453000395, -0.013536795771442078, 0.036110812581683284, 0.03190067441079136, -0.04603872406522802, -0.027124287422000837, -0.004040565253652995, -0.01941682228715368, 0.043028195218581686, 0.020468940464751336, -0.011554437268249652, -0.0007235634896172253, -0.04336834436024843, -0.011327786159864777, -0.007006123357850313, 0.04534773665953193, -0.06023024609020021, -0.053923688368043614, -0.07895596491023181, -0.07013388196766682, -0.011054651933757289, -0.007452041717983902, -0.051496939009364966, -0.00796608999929821, -0.03376558992131178, -0.09065485233139813, 0.025914486243231793, 0.00030341836608744233, 0.042541448773701425, -0.0033590331442503126, 0.08318003740829107, -0.0007974538869447908, 0.016526423618919858, -0.0055794289630885455, 0.05962419709543361, 0.04100223524008151, 0.04030353272961487, 0.006932750447836356, 0.014861835083917353, -0.032804224731260594, -0.010104600699898896, 0.011507499712204486, -0.030947976882705275, -0.01880385754223151, 0.044371853013553536, -0.020482288410582347, -0.016596926544738367, -0.07539700861592177, 0.023206767039871797, -0.036536660496322704, -0.0007727853854517624, 0.01224925482476052, -0.019104526365389122, 0.010717063155285655, -0.02193241079242747, 0.055528967666187055, 0.023369406368935704, 0.027134007021698048, 0.0380120662794472, -0.002515613537637186, 0.013574708371914232, 0.011811493166488572, -0.03884183334375623, 0.030974309581894892, -0.045359273205645784, -0.0332323731195379, 0.009802029837944887, -0.09011547021424288, -0.03864237939478855, -0.061425638973802876, -0.005437036121117565, -0.022985571757653537, -0.053614249583856556, -0.0041760439114769295, -0.027735603785284942, -0.01944140953434829, -0.02205319824842865, -0.004557425426722976, 0.023022501372477248, 0.06514065461354702, 0.037675943173012906, 0.017207826101174366, 0.006407449552955002, -0.04946603835907901, -0.0026102273466090163, -0.016440689230704693, -0.015058609327593637, -0.007873725590903461, -0.03771885440184837, 0.004818085715677595, 0.032304766089060855, -0.0008444724899445058, -0.00431274093740409, -0.04572329375804569, 0.08314438307908092, -0.06920972108503126, -0.021917363815059245, -0.059331096085048995, -0.03319322976912933, -0.07038557952477907, -0.09882954052386402, -0.03597894037424855, -0.004086349487364062, 0.06628597420000623, 0.0068293308236483195, 0.009235538489508949, 0.017264050980023173, -0.03675091315705962, 0.03309458651500467, 0.016525875167680122, -0.01293108972524494, -0.04972808292310869, -0.0014439310779008321, 0.030248963287143583, -0.04267090243981575, 0.06035990425377116, 0.11161020894355249, -0.020563161567784313, -0.006967555111384907, -0.026716489297858224, -0.009954068572392887, -0.01112785128719215, -0.029949050845015472, -0.07264257623397596, -0.008561444740302626, 0.005494075150087513, 0.004418986129255495, 0.06186918624459626, -0.00882621138914184, -0.007810702965605486, 0.0044991633386397365, -0.039847713366361295, -0.08171410228801121, -0.012105044725808404, -0.009685928499542118, -0.025770425566502983, 0.004327203365916883, -0.04404587288293358, 0.009037531411644801, -0.01402427091301312, 0.005272951685670236, 0.019156572285272885, -0.007510888570398023, -0.012230399461417333, -0.04935349088099255, 0.04967049615686548, 0.023191245138595808, 0.009166264656986509, -0.08702384664255125, 0.000957450175082021, -0.026064818895376925, 0.026265272519559298, 0.018675954644193724, 0.0817843366152552, 0.04406677425956636, 0.13293082881040214, 0.09949713028371672, 0.03233449769665814, -0.017247516931214107, 0.021117550851451228, -0.03305100788313558, -0.04574709429440087, 0.04466565282115775, -0.0008113982738101997, -0.015704987166286863, -0.0019581649629384773, 0.0269147941872644, 0.019711179053701934, -0.02848795215560217, -0.0030268201972316077, -0.06381025049507598, -0.052179222021447265, -0.07699803668816221, 0.0035194337642761864, -0.029354291559473403, -0.037541222441415126, 0.019438033836911423, -0.0021053546422661194, 0.016529196782330165, 0.0022710621324781655, 0.06913174268343107, 0.06245656630197937, 0.0581606300113156, -0.017297239895496502, 0.08514263968839594, 0.15798574790628184, 0.026899183879137232, -0.020921489803928824, -0.0005044131976398573, -0.021388978827406077, -0.06099525665414695, -0.01563197306396737, -0.011555345487205604, -0.08374244317249112, -0.04829631823705023, -0.02769351177932652, -0.03961772929189552, 0.031233142429997644, -0.02410350732639928, -0.06238250211201934, -0.06721302950998409, 0.029336776096159638, -0.034169397512715555, -0.024088953777783195, 0.039635385200268436, 0.02894742720254987, -0.06990980643309229, -0.004376151939512203, 0.051039496750264646, -0.03479675124356943, -0.1288539035118444, -0.0240012927796883, -0.020730053457553348, 0.060998949448185805, 0.08865314106908861, 0.00530607540138547, -0.038784698535294954, 4.0998603439967364e-05, -0.02917218397291604, -0.014059372330472046, 0.06128688752311729, 0.008295025918075582, 0.00447811214373262, -0.026050319019062688, 0.00016356365202583245, 0.007988029034702254, 0.030567974409586827, 0.015676467551854992, -0.027505136874945834, 0.05016078009807104, -0.005491168075244799, -0.04759637984926775, 0.00309632022876506, 0.06830142129553023, 0.021002075078680217, 0.0005929331317463114, 0.03699222653946977, 0.027179183493397808, 0.03127847628280984, -0.020618715204562762, -0.0662839531244354, -0.042781181965819065, 0.04321928416565878, 0.012215521906329537, -0.018587604469942648, -0.007827118972878428, -0.058506397456902025, -0.019346747699916657, 0.02650891654620018, -0.005501295533169427, 0.03735994806339101, 0.03489087483578173, 0.0840810345918231, 0.06058698893890829, -0.04616889730975766, 0.02749677558429556, -0.005377325818947468, 0.012355625910996981, -0.031499860860781714, -0.04544929466021247, -0.0061916647417066695, 0.04556664928415794, 0.017150663217863897, -0.030273635624028836, -0.007583431633052192, -0.045079444780007694, 0.0021421854342699815, -0.10038248857286973, 0.05971834660863606, 0.015660671120078053, 0.03876047929304075, 0.006159675912061273, 0.03256163707205815, -0.06288220479576234, 0.019499177554169186, -0.06357875988402087, 0.06114244287833814, 0.02082878548245847, 0.034548290019092834, -0.014091223484766323, -0.05888721476000396, 0.009507084207890286, -0.016591921850192613, 0.02456269894884454, -0.042490486951085614, -0.03342805720232417, -0.007132888739672076, -0.005713275512249983, -0.054958258996619345, -0.03078426834224806, -0.02967772397555545, -0.11710969813454401, 0.03548530148438697, 0.12669218948797137, 0.015588011944762194, -0.042496023075865315, -0.026076152257440338, -0.01614403776299899, 0.05931079614345455, 0.02300200308677819, 0.020810325811414294, 0.0066118219826442415, -0.020825833852732366, -0.06363857751941691, 0.0019307771050246572, -0.0591868378547312, 0.014664200618295802, -0.019588971406095734, 0.013359022512596483, 0.028762511947786864, -0.059357682775052316, -0.05435364848833598, -0.053302509226512855, 0.0151093668716518, 0.00795109217267532, 0.026109630442716365, -0.030018081674319994, -0.04759270984128524, -0.058330357681914406, 0.018394162164940685, -0.026566402684195183, 0.060144555124481726, 0.03330720345077447, 0.03401874445980862, -0.007905475294492662, 0.0012346299828840993, -0.008882972596214489, -0.01832124345106203, 0.0764221152808149, -0.04347309312766124, -0.08868097781144181, 0.0496991441982594, 0.051533509034421825, -0.019731607020635665, 0.07691665791539071, 0.024732644020848907, -0.015450040528975426, 0.011045099343904742, -0.017751019175964604, -0.04423337964233351, 0.02743201500107094, 0.004499400492753474, -0.03452564193759309, 0.01764558160250106, 0.012915142861961491, -0.009139182069164548, -0.038830713045526495, -0.002690077470265548, -0.05866951895686784, -0.001843601016251065, 0.02159003810362691, -0.001189441833807916, 0.013864422358327149, 0.07369715447616959, 0.04632224731429345, -0.021280646656319433, 0.023021517717236074, -0.044046265476666305, 0.01744599164665547, -0.028171627477940532, 0.020189869999338143, -0.0391351433333565, -0.012213646241148103, -0.017760730101363205, 0.038935566236442586, -0.018926405355385745, -0.050958250425859046, 0.05020673472372572, -0.009287851390159538, 0.07808513560052185, 0.05222175250683756, 0.08294244522784443, 0.04169849661541447, 0.027850233382586437, -0.012712406978239638, -0.05744316240429607, 0.007864851879792358, -0.03235797285223141, 0.013528892949704732, 0.017093987028835734, -0.002045771244648179, 0.020696296661307942, 0.004532418085651018, -0.009495353455393252, -0.06541921713223267, -0.027859825223724242, -0.020486940363450456, 0.03617763831910571, -0.04238539388644984, -0.029783265278503022, -0.02259260005360436, 0.029317040482146197, -0.01861733452939334, 0.0150178959100982, -0.036385672358829745, -0.057854403381730646, 0.03438946107587121, 0.0027559453302699174, -0.008914053791155157, 0.034897095004625706, 0.04774268753098538, -0.05253287753975311, -0.06954577665002973, -0.056086588294115225, -0.015465552466558443, 0.05024614668737133, -0.011082927241441935, 0.04433555143948435, 0.027356532040426793, -0.0020455472115642618, -0.0007234914901377267, -0.027400678253009687, -0.03480567413327844, -0.0835081882905252, -0.05082011858892931, -0.0004553306827794429, -0.012721889444697721, 0.008194390160004728, 0.07075648510585272, -0.02107939528257843, 0.05655693291554948, 0.01748188799087132, 0.006880967634425079, -0.052805190271810507, 0.04609930744361721, 0.08145945068639458, 0.03576005850009998, 0.032989727299271375, 0.02852032652500259, -0.01338937512255708, -0.04256894211557097, -0.022054979917773672, 0.0339010288354555, 0.06267321166671463, 0.029559219116216215, 0.017997085390678465, 0.058797113480134736, -0.050458731222870576, -0.10442315928866476, -0.06779255426203769, -0.05738506760228766, 0.020580403695068993, -0.041631486516601056, 0.0016965272035470366, -0.057635690475016974, 0.008782537160181524, -0.024309117240748298, 0.0913734067513591, -0.07307646290270337, -0.0680995466181568, -0.02083280671209114, 0.01179200195888744, -0.01608443940523323, 0.06207843696926984, -0.06114845524328714, -0.05463572732619965, 0.01861798782191837, 0.008855772146792966, -0.019147043327508693, 0.036702884642063345, 0.0950237650286482, 0.0797730814468477, -0.016512295007628647, 0.02428838712536676, 0.0012634429984321827, 0.03004200154996227, 0.019087141074615246, 0.007714851743125008, -0.026150891377666127, -0.030636199376601784, 0.058134421860525524, -0.028907467717088395, 0.07666353955332761, -0.02868952077305492, -0.04640426598412053, -0.05317229962969355, 0.006552990629380758, -0.03237851087473706, -0.01322687953771549, 0.06807130532898362, -0.04425211222979511, -0.03297724222231967, -0.05706181120934912, -0.059247881047526645, 0.02622512668060218, 0.07352011831876293, 0.034780220004228264, 0.05834212790833728, 0.061699539072719786, -0.0020058485637574745, -0.0531620607954698, -0.06090958410904757, 0.0027269731723686343, -0.04805373660327143, 0.01913480872136989, -0.06777668941941412, -0.04061187861275248, 0.04875053241123772, 0.002000653324366579, 0.0381957652848857, -0.04219178167863894, 0.014520741046777867, -0.03813055185500554, 0.0073996453293169034, -0.02004327588555957, 0.0009907778186091832, 0.0018978567136235976, -0.005851966549453992, -0.01841681527933072, -0.006737805583917175, 0.029281040186540336, 0.045584325820386205, 0.013133711061117248, 0.08091208246505124, -0.0032052652957477554, 0.04967483016562107, -0.034111219329463344, -0.032102514302687256, -0.0023322768627719957, -0.004016412263343689, 0.016506862339824045, -0.032279178072481256, 0.02885759045025265, 0.0030090319213809244, -0.0427289514616441, 0.06218695897444627, 0.04008869122106506, -0.020107582634798966, -0.03600461826494113, 0.02385947174665018, -0.015086128779310278, 0.011365882277619862, 0.017428642259497435, 0.04177736014781638, 0.0034166092433769706, 0.05287726096839247, 0.025014533145669066, -0.012645371466688336, -0.0553003165923439, 0.016186505168512704, 0.011705853890305042, 0.056401493008690275, 0.02251571615359173, -0.04809347948979368, 0.004433009470745121, 0.01749823847958224, -0.0472929407478626, -0.10303533232787021, 0.012860048521847743, -0.07096834248687327, -0.04198799920076865, 0.05793423359682089, 0.0277020239923447, 0.012551862853492813, 0.03449773941724324, -0.06230730156608875, -0.014926890505386096, 0.014929030337430937, 0.04158707248539887, 0.05582232039716489, -0.014744050900371935, 0.05568682562163278, -0.09023483084984799, 0.06419920980826004, 0.008801410654623672, -0.010442198556419051, -0.014545210861374504, 0.03155785101026686, 0.041247018344298135, -0.041084161543418755, -0.07522564172811698, 0.0020932799141113053, 0.047149756735119897, -0.043621641907509924, 0.05789692607894396, 0.03616611520368677, 0.026898099398224785, -0.023812546182505948, 0.0010345622623912803, 0.02983269227135894, -0.01472303505569184, 0.010892440684543724, -0.017394594281089613, -0.05766117272762675, 0.02359114849718218, -0.045720754172932185, -0.03396595279278246, 0.02087318421852315, -0.007799363785195623, 0.0092561135575803, -0.03219401241727838, 0.04320815049118163, 0.039818707876408746, 0.0159278706555087, 0.025743342113593533, 0.016546388456849265, -0.007345750608466996, -0.12234184454280451, -0.10112704005556704, -0.03453662892020242, -0.004138892220305708, -0.061937492806546354, -0.031888244181386305, -0.07953518342927103, 0.018276266704971143, 0.012845595086136035, -0.06474275221197281, -0.08927361554303048, 0.018721564277802385, 0.01291381616445605, -0.004327327454235431, -0.052142053045751556, 0.007111764478506801, 0.00640840607430752, -0.030315742851803558, -0.007954371285515448, -0.006838094178695297, -0.06487622113233532, 0.0022350310850838342, 0.018799385549619543, 0.0722642691929363, 0.001296547798223776, -0.023107700318892012, -0.006909925355552985, -0.00023034388448147026, -0.019596126656344703, -0.010985351295591748, 0.007170597522778064, -0.001067368425147792, -0.007138888929652074, -0.003653928800105448, 0.004683439009719187, 0.020712284919225082, -0.025216455309373456, -0.018083132929904898, -0.017990348518429476, 0.0009682438004233844, 0.03445493400831709, 0.0010303542348746944, -0.0016482649565481321, 0.026185129234889692, -0.0551015822628843, -0.025960951468251375, -0.0305262540850904, 0.004326958765578461, 0.004985705619567293, -0.06219790945824282, -0.008458821586183992, -0.06014717494106642, 0.06267833536150998, -0.036295459346329675, -0.06444176922254585, 0.00039560641384744975, 0.010350829548299637, -0.021295159420143716, -0.027761757945770623, -0.03992433132084463, 0.0025484511665990485, 0.0020336266595254895, 0.005752890480537323, -0.028313831355056388, 0.05146113866996929, 0.0021143068434214124, 0.036249080590284415, -0.0490434387974751, -0.006016565663357629, -0.021350378754155384, 0.03373132316677812, 0.005152953472905829, -0.040176838911415255, -0.0305061758795035, 0.06087283700338161, 0.036360386817434906, -0.00026073268566573037, -0.007008396589729236, 0.015260880827057073, 0.017767005094168686, 0.021962204160053286, 0.011490255634748727, 0.031467110435371835, -0.004201942217714475, 0.07265882784169453, 0.02755607708144168, -0.023997969246270835, 0.03364319331667169, 0.0171085348005005, 0.006326165893398615, 0.006616919897760476, -0.046055979558298786, -0.03293598676239802, 0.02387380500549281, 0.008138755756245128, -0.004632338593855739, 0.01764116951167096, 0.04567928474048837, 0.012943746181220104, -0.033847631416553545, 0.016982902357975452, 0.015315137070390469, -0.03874757772156758, -0.06921942565158232, 0.00858439574709628, 0.013461084899609451, -0.0411301618326673, 0.03673955579914037, 0.007147313370084765, 0.00953453458696017, 0.0007183078324762799, -0.016344666852203576, -0.0076329242264656285, -0.0014940418733193333, -0.007626320467722686, 0.0382888338250326, 0.024358326463820294, -0.05146113487654598, 0.04571346131032139, 0.022132112901911215, 0.005192732854638888, -0.02026627603257513, 0.02467196023115109, 0.03955379127044407, 0.016563364882119902, -0.03468907420569092, 0.02973152950845631, -0.03866863548447268, -0.026027856533634677, 0.02371955417911914, -0.000516056378243305, 0.027394718112857826, -0.06524564706006686, 0.03224498065918883, 0.037303871887283346, 0.03166390704714389, -0.027447065425831172, 0.03905727231346487, -0.018084422872617426, 0.04609040633793032, -0.006611315155749685, 0.003982231149486087, 0.0051193872481527045, 0.02401951627941726, 0.0015933951933647615, 0.0011670214319580566, -0.016999293795559502, -0.04194970407807546, -0.039918714645868957, 0.05440828804268353, 0.00039518841923983326, -0.06748879569555953, -0.02679535394566046, -0.036488808849959746, 0.08144523615738349, 0.03652998674599835, 0.030171334500885348, 0.008277757473329376], [-0.014023980300635435, -0.005462807566131089, -0.0452532159782243, -0.0013956819477279757, -0.04219210365883902, 0.04269820482659053, -0.015555163813142965, -0.025006468032299143, -0.020927659623266683, -0.05542054234760555, 0.02235274985545548, 0.008037287844466768, 0.066667684479646, -0.05356559041424878, 0.02583606578813427, -0.00742453517058024, 0.057918344590688356, 0.011625427165602043, -0.039960877353769984, 0.009700117590574738, -0.06430712417465993, 0.00019736346297556754, -0.018840335842421622, 0.01855888203779366, -0.04390822557685554, 0.021474336262466774, 0.06312059250303004, -0.015478260797310975, -0.07333727282582024, -0.0034018708997619806, 0.026351397963637214, 0.030357203597131458, -0.004436042880242766, 0.030547069420728407, 0.0521613337229304, 0.02704023068990439, 0.01956155571078525, 0.049693494239970784, -0.03564412630899685, -0.02518274707732327, 0.023918059021946395, -0.012214007033112298, -0.025377522213744463, -0.031151100525353418, 0.0709108732411739, 0.044807143311330594, -0.012207758739286622, 0.03166936701160726, 0.0024646488288127912, 0.06204418996941881, 0.04890087206759753, 0.014048889648892135, -0.04517022546077911, 0.0230432753255985, 0.009990089403076776, -0.02184365224060971, -0.01969376146796098, 0.01941350888472176, -0.04140066984473857, 0.05313097223213543, -0.014351860441629451, -0.05220927712904824, 0.010888447218867508, -0.014056657199315991, 0.049908759571050745, -0.04586777411735947, 0.05494751428047352, -0.03823549393489307, -0.02531558902303537, -0.03130321198211358, -0.02689797907863969, 0.04596222837013395, 0.034029398954732525, 0.030139518470974885, -0.027502900777758115, -0.02398359030970367, 0.04576806725211162, -0.022101732709212854, -0.02510714148411175, 0.03379542422510081, -0.05486365702020975, -0.02425211702078194, 0.015575467272612773, -0.10052985677134164, -0.024896667866400234, -0.07310012530349921, 0.02661846669285559, 0.01357791750803986, -0.016750304384482, -0.0166252857024063, 0.06595779951400144, -0.016457629621080265, -0.048426765585472716, -0.08210394341421577, -0.0367002365247509, -0.0108079387914978, 0.021488819071723383, -0.04441656339274566, -0.01501924821917322, -0.0930869307763397, -0.03749659080646388, -0.05991410505845028, -0.07610845877538205, -0.061490598781321786, 0.004967654940430198, -0.0916379875638538, -0.02536112860467627, -0.011918222498521813, 0.0019575477402444487, -0.012398049087755113, 0.00978628466127525, 9.055245008845182e-05, 0.03957703171064084, 0.08659061514309856, 0.040756728444449566, -0.01852365547046853, 0.031617142756827865, 0.02489864336957058, -0.00970116624999621, -0.01800584975652995, 0.02478135762831032, 0.006432052820631641, -0.04150370834159439, -0.005560925740832553, 0.023930131270484038, 0.0704353635252977, -0.023241357036978112, 0.02891496942861999, -0.031010341722546585, -0.13431208315027524, -0.11213307975888191, -0.13371541114018626, -0.03599348668292891, -0.007233345231284705, 0.0016354417046046, -0.03558798369190397, 0.03928079509650959, 0.03655501529981855, 0.04870820296857874, 0.01689740056967105, -0.012062968923015548, -0.06251022738584633, 0.023948335694022858, -0.008607634500064031, 0.09168037134379321, 0.08106762602668897, 0.08470610348754343, 0.030162443824173817, 0.01737515068209533, 0.05306608683705634, -0.028312766831053413, 0.03271377877631862, 0.03997172981532103, 0.030635543220016364, 0.010610352346522038, 0.07929720119981257, -0.01515545965813062, -0.1053675259606319, -0.04018899184814463, -0.13474162827381173, -0.18426179854696384, -0.12410790006053152, -0.1074768635532143, -0.04257290210653334, 0.03415741711422746, 0.027646300844412264, 0.004260741313942709, 0.011444646881539716, 0.027314226308017598, -0.09247123073048837, 0.020879889164147732, 0.019493414635875252, 0.011092016301431421, 0.10174021520003665, 0.08534796848190011, 0.004870892750946181, 0.03903320576070018, 0.032908268744532156, 0.01302376670804927, 0.02106861271105995, 0.0070563195139823915, 0.02525362057084219, -0.044297262271608566, -0.043235200066415916, 0.05173365858877055, 0.009095443272276934, -0.04549104707785934, -0.1204451249421007, -0.11693647863526556, -0.06682757529505716, -0.08714253848681254, 0.013892820438499934, -0.014459799222804368, 0.000925024967869235, 0.013644192315537844, -0.03029690800291541, -0.054314678769157534, 0.011261772109597704, 0.011559082503630079, -0.026957700731535052, 0.01336294114802391, -0.019197940770639736, -0.003509481607737806, 0.04896644184519526, -0.01540270607723811, 0.05160082146290138, 0.004614649776782295, 0.0006978070443288155, 0.020295462800896374, 0.07585159580443003, -0.0625799061153577, 0.03247469405732296, -0.01670227049563225, 0.04857571760361932, -0.03436815517468565, -0.15930199925203165, -0.13812637004407702, -0.13017627987397126, -0.10377350590943277, -0.04264793690763205, -0.037674963279265325, 0.03375742680697112, 0.03610088805972929, -0.015478137591110613, 0.022186259452762074, 0.014803845442507537, 0.030528823210862345, 0.01844764991523914, 0.09402886722108451, -0.01738840344509013, 0.034145391639286274, 0.012283302212886666, -0.005643142768306908, 0.01229946600040512, 0.019409880732384203, -0.09113700129846751, -0.010777495576457616, 0.04047082036221426, 0.05012932176128629, 0.06343192147979829, 0.0014634865768408216, 0.07152224280567678, -0.04741973098089256, -0.1625583459231603, -0.17420377266540163, -0.17505840930620065, -0.028284802874058625, -0.07200233118164472, -0.02755772681561058, -0.053109184541153646, 0.009258403781270772, -0.0065391741173403605, -0.038688501696117296, 0.0036363505114391423, -0.0006840342728066483, 0.04517226160892887, 0.06181305595147208, -0.0374855159283847, 0.0029802750785290376, -0.01901642228819472, -0.017929769847084387, -0.07683079901741638, -0.014251703901421317, 0.010645577742261608, -0.04815854356344939, 0.13557680990437876, 0.05028125476865482, 0.18015077607382152, 0.08104315111039698, 0.05211010870547779, -0.04711097449209916, -0.12031883020761838, -0.09566992712976957, -0.11899951262494557, -0.0708062281704246, -0.08889380025273859, -0.09659219746858272, -0.013667538452090965, -0.004805262041705795, -0.03345663037863418, -0.04719929795889134, 0.007148311686623316, -0.008668548262627447, -0.004942497396269497, 0.056431080989188975, 0.010968522417754756, 0.029188154287081797, -0.12675009765198184, -0.06073766908581232, -0.06842691737899176, -0.054916301592144216, -0.012297817400640999, -0.06091840381193025, 0.14565270235138345, 0.11342784018380958, 0.12279678228462301, 0.09361720291287313, -0.04419509325280698, -0.08943600034691906, -0.12093344207027217, -0.16627529835431884, -0.1327199311003638, -0.0819638731087479, -0.07454714809790264, -0.07103614271171545, -0.01689735153330607, -0.02026743834896692, -0.01100198337824772, -0.03761820280688127, -0.050205454092612276, 0.032527669861341146, 0.02984216862795773, 0.03824164580425962, -0.01831136839163366, -0.012600275519650279, -0.016233086186543014, -0.06038765529755521, -0.009500508614427984, -0.011835392740680326, 0.009784870006897433, 0.029454625617413514, 0.09836503119687391, 0.1487789747555165, 0.05837291538062902, -0.012196274869595708, -0.0043782834442562335, -0.08474301963539138, -0.04347040929303215, -0.07976360122993127, -0.09225343647989996, -0.0378952034638806, -0.12658524093597212, -0.06373161295024025, -0.054569180721336985, -0.049712460962200805, 0.019174754510863947, 0.0017918251537403294, 0.07627552604261607, 0.03470348457035343, -0.011865159614198387, -0.041694945447995395, -0.040015678693900096, -0.09956804087049606, 0.07367446149426718, -0.03260806395118106, 0.05700121904957001, -0.014855381781183912, -0.010653723504345897, 0.08919890707001561, 0.022264313105124757, 0.10519006443243215, 0.046317093180857756, 0.03694910495285345, -0.024278238793042323, -0.010751280405789806, -0.059754233055837574, -0.0576486110493564, -0.09724946981510127, -0.02573539374207417, -0.014412594597137767, 0.0014648462752957906, -0.02724248266880174, -0.00045369163322406817, 0.04643762018889799, 0.007773247162254314, 0.014480209693431976, -0.001394710736896244, 0.009933031072626155, 0.06738584458237672, -0.0014146030272315993, 0.004732483845891186, 0.02271319571780312, 0.019791713689086325, 0.06629069238666592, 0.07411576629868434, -0.06732630153789564, 0.013581694991614528, 0.001662254715013609, 0.08695740480568089, -0.02629848353665661, -0.022555222567382405, 0.050232150462883166, 0.0022633210579444158, -0.06406285245436678, -0.0037214850393394653, 0.008002620312050719, 0.004822016382082063, -0.0548199379157299, -0.014209888635354018, 0.05888667766307766, 0.047837749448520775, -0.04185359956787373, -0.04166136523904767, 0.02627093014213842, 0.05974647138594773, 0.015114170187731493, 0.06787846491609265, 0.01287326594205821, -0.0741965663583825, -0.09117104196804278, -0.0005729053507878223, -0.006233071064615233, -0.023158171370692725, -0.07932400364552478, 0.013528178370973873, 0.009308066263723064, 0.05357805184672676, 0.05926575280957861, -0.0076645712033734355, -0.007952765618179185, -0.040511546397199755, 0.09405462825758716, 0.02725373303514203, 0.012465923968503136, 0.03516817598674062, 0.01743148769879639, -0.014344004933507699, -0.04768448778864546, -0.049424422883543054, 0.058288987284245225, -0.055843743329080334, 0.06019531217555709, -0.0005000113118776481, 0.016775140943301584, 0.05488193289291116, -0.015063617104954316, -0.04936117087513196, 0.02923944781844246, -0.0650472531046418, 0.04020417292460815, -0.020408376948756836, -0.08413327495261452, -0.027789855180905793, -0.01854245950499215, 0.035555578769129015, -0.006285480585117028, 0.02375845374483028, 0.11027534717729469, 0.06373115667422287, 0.06318498731101613, 0.006611079278243191, -0.012504071146599405, 0.037198648731717465, -0.017685661320551115, -0.0350853704656775, 0.020966422006340375, -0.013797421949043386, 0.06685764824271638, -0.017740487506217335, 0.02568966700119474, 0.007675717358362872, -0.02272695787220081, 0.03599604132013205, -0.03656565632490656, -0.04268434163192716, 0.022316453908524207, 0.018843424309915712, 0.054222862610246024, -0.0010293342831063554, 0.03345282047358439, 0.03000739290147137, -0.026336817070092552, 0.08465463261692555, -0.04776211799714466, 0.052282809599780274, 0.009398605910064218, 0.01638523068564839, -0.0346627845503503, 0.0038180680307075394, 0.07589060580082058, 0.07922263080732496, 0.0021274864835388718, 0.019281688537392337, -0.10162619344045616, -0.057871459663846554, -0.03739287763275159, 0.019473268559561458, 0.0024791145398053043, 0.024106363922854472, 0.01260258146459237, 0.007380812408576305, 0.016148082591389605, 0.02227851639080856, 0.034911109173897684, 0.0670870947214455, -0.041620100185577276, -0.04981160859247392, -0.1078401028170726, -0.03903889601620189, 0.07085372157822842, 0.12960147014218223, 0.024546582808474292, 0.010957505177772634, -0.06247944652794325, -0.011625331056170252, 0.01251348754198389, -0.029691175953635532, 0.06729274267182142, 0.06371251585129711, 0.032231091491908496, -0.001627490864279024, 0.03404132560503603, -0.03220032125602778, -0.07524665355785806, 0.07346226475847017, 0.027202591718057053, 0.03258840806704599, 0.007078206575860678, 0.032899736338328045, 0.0032942824022862893, 0.007018422029460669, -0.05379765477100008, -0.09768768989652592, -0.03934878604591716, -0.057851331672200156, -0.12672391474166703, -0.1553846477871359, 0.002828186110046103, 0.027546135876131105, 0.031432165806988724, -0.01014638451025084, -0.052506433517096406, -0.06321403340283781, -0.013216259632827443, -0.032146398687644226, -0.037743724221529065, 0.006818241063974985, -0.003918921090687067, -0.012374788321043228, -2.114549605192419e-05, -0.03406904624770981, -0.06606762594682615, -0.00426374355817505, -0.036304271892458516, -0.027708870116973802, -0.0459673853763737, -0.018989719359262254, 0.011927956733469166, 0.00501928855775247, 0.05429344845562503, -0.01183020006773185, -0.03260664580855699, -0.13201141658057416, -0.1875213357635561, -0.19458176033322588, -0.014752956493525118, 0.020853030782575735, -0.0069751533228093335, -0.02650617720063755, -0.044059820752204236, -0.053706750824915994, -0.006474646711595667, -0.028203267272267143, -0.09270358348157334, -0.09325227029310365, -0.028215453754658986, 0.010456774099648047, -0.040243828455051485, 0.07027078872128482, -0.0071079335161349936, 0.0693161976724596, 0.00013359783135901418, -0.010663975289002337, 0.020930733670122152, -0.05928270687708632, -0.02134295624732313, 0.03264844943795625, 0.038405102384674844, -0.07907739325708842, -0.0683088799664365, -0.05661790519473912, -0.08244599248896707, -0.08798535302883548, 0.014672910460663215, 0.06073672489145474, 0.015559231292862257, -0.0007515308222242551, 0.0484580257249105, 0.044598596230509976, -0.054036294923381495, -0.017847736997236536, -0.03598205655542506, -0.002309363141589225, -0.009880811145584837, -0.015390858067561823, -0.03617509318126429, 0.017422115628028107, -0.006924357507819258, -0.0072119030180799225, -0.04414769595031248, 0.0069784486423286815, 0.02988447519392903, -0.02124012161083497, -0.062435381490048875, -0.007681018361916055, -0.00859903145701997, 0.0475324950420278, -0.04884342885283127, -0.06604483073827931, -0.08764131052830267, -0.11569619125685539, -0.03408073252172939, -0.04996941194703008, 0.09705178459107736, 0.08455884166235167, 0.01044639563290868, 0.02599258415685671, 0.04315563235256701, -0.02987981790707608, -0.03427772964563858, -0.12842265673590725, -0.00849782018483455, -0.0223233512006026, 0.0464375275384221, 0.01747896698829278, 0.005268975856674464, 0.032415243094382526, 0.03533833377767812, -0.03474166290987583, -0.023042701890453623, 0.017273299978982668, -0.06029546914541523, 0.005781175481719298, 0.005011556705039899, 0.026345050106478446, -0.038045680413522874, -0.027292526615524677, -0.024076151244662326, -0.007715744693910249, -0.03900924856747053, -0.0439284915304421, 0.017427812957534622, -0.03572342689068238, -0.0027497492336197795, 0.10319958164199376, 0.022907406429308788, 0.012922436027066431, -0.1079711275118854, -0.11779212493372088, -0.011149000586780236, 0.033461984665408104, -0.014724459043710036, -0.051544037346666155, -0.0690386481748462, 0.015344361721055997, -0.004320016038045131, 0.0022074494223178766, -0.019206496048424934, 0.0030740129493025225, -0.005977053008476551, 0.008884310502284814, 0.011925699698207384, -0.05252803789321164, -0.08428222047467239, -0.020638072272035086, -0.03666753583093263, -0.012624155311077455, -0.08946666452298255, -0.016118953208598213, -0.007668572125937067, -0.06522382925570756, 0.028393745516796555, 0.03893013677277976, -0.06688707717612184, 0.05097496298599703, -0.10859377993892957, -0.09037825335346733, -0.11195254227258657, -0.01959820773410074, 0.05739225963882742, 0.02085806725815158, 0.009299260909639395, -0.02254785795906971, -0.006174077073312058, 0.01365205385117411, 0.020957041080530637, -0.06050501200675118, 0.009568864429361432, 0.0035234753677482987, -0.012635303017338716, -0.03325983777341395, -0.027207702673035634, -0.04146159732093273, -0.020923283322841338, -0.04822275154879365, -0.048464988820473495, 0.06920487298787893, -0.03172680725539171, 0.034624725925767125, 0.020621505232544864, 0.029588128538696013, 0.03400112678442622, -0.02978563744450395, -0.05717520945819205, -0.033615184722841966, -0.13459402184562919, 0.04826762652416593, -0.02282196281248799, 0.012413873232941955, -0.015667074486434174, -0.03055551859508166, 0.030540672269306974, -0.0020306661049566055, -0.025430840559605247, -0.010471581099184505, 0.0630549132383326, -9.788304811078643e-06, 0.005572725514564136, 0.057032313782615536, -0.012892652123260035, -0.10472316038769648, -0.017214327316345403, 0.08388976064927516, 0.03155219111616606, 0.020402266896249133, -0.023469517977781944, 0.06204793867288728, 0.06181283418228719, 0.10581874792294131, 0.01789635525361066, -0.014312418450089676, 0.09108394387791853, 0.03834627832005963, 0.03275863454776433, 0.02658374931077354, 0.016504613207646276, -0.03964514941644004, 0.03924140783212256, 0.01032757287249388, -0.023306073871696337, 0.046010689756813786, 0.022984724916989142, -0.006618236509975223, -0.03217243854429426, -0.044521364746691425, 0.028797838764374167, 0.006936572062620704, 0.026985830327712203, 0.031060476745180438, -0.0428084959811063, 0.00748596418847386, -0.03420481030395777, -0.07018427063109711, -0.004107827599769038, 0.04682097863641611, 0.032369318189882305, 0.04808099187590804, 0.025401224398852996, -0.00047418003914622255, 0.014100806516853843, 0.013184844091230136, 0.0630445623183383, 0.001530227383820992, -0.0026787983520513473, -0.03513695835036011, 0.018266919918328534, 0.0522412260747952, 0.03477850643986219, -0.036165727101414934, 0.06016681195975048, 0.0033959824416889316, 0.05243669736468387, 0.05209400273176338, -0.05288606166804535, 0.04005033868699941, 0.05629564081879602, -0.015782817603509636, 0.020091098617882306, -0.023820688566024942, 0.06436777113037793, 0.025602557983312086, -0.0005700665866557936, -0.006192899643496223, -0.007229139882476531, -0.023058285057778176, -0.005287989021123446, 0.017922734594446106, 0.011360553231650325, 0.04836146816599005, -0.039421149727973004, -0.010037798898782316, -0.09051753707453322, 0.017948599461951188, -0.04767873121572825], [0.024581622725126318, -0.012257271026335044, 0.02069821567329133, -0.013683428533655975, -0.026450103401967736, -0.025623602610219984, 0.033623465587780975, -0.0608236789487373, -0.0387190121602124, -0.005045867030550218, -0.016553100623358304, 0.01820275476061984, 0.023534379522084304, 0.022789984972515, -0.004611334844267338, 0.009439727838571122, 0.01689652755614403, 0.0135377003714583, -0.014649976255396772, -0.018010361359953715, 0.002999364540806112, -0.0007484476548361112, 0.03897126990239822, -0.020158794565460356, 0.05890203994513591, -0.044147066674062804, -0.006010782922973252, 0.006758791700880576, 0.03888246389554989, 0.014635864007758025, 0.0294492305398655, 0.009530741933996226, 0.02675714833146161, -0.0007384302372141074, 0.009343819738289544, 0.03851644780007982, -0.03746638466430649, -0.030681051065446246, -0.025457285883617852, -0.05711000809503519, -0.010060439619582648, 0.01661612616351609, -0.023802052042020006, 0.048307785389354735, -0.06451939428499637, -0.017123606745265918, 0.06241135682596576, -0.029481962239376575, -0.02827502149019782, 0.04728501105936329, 0.029816057224308808, -0.011172983735034378, 0.0069568012984203, 0.039142446738632784, 0.026316558236946844, -0.02894204975724488, -0.051775703726623615, -0.04694382124035384, -0.02012067253399579, 0.021918538780483096, -0.016543967665144186, 0.06398992529480341, -0.05873956003015362, -0.07368936664745045, -0.02296198575780162, 0.012998685720756024, -0.023812745486502494, -0.072301270202764, -0.03860593638808403, 0.025839538439250926, -0.024082500402196696, -0.04190474357429977, 0.0008502481542200965, 0.02181526600298293, -0.001303120366931803, -0.031026793817098438, -0.006906392161053996, -0.019974522830069903, 0.055128340590062254, -0.0199922869371079, 0.012325553029683647, -0.013864306792242322, -0.0006489958435356261, 0.011031795837245633, 0.014876464592409874, -0.02086181527615493, -0.01038996928988578, -0.012609088358061103, 0.045305963313629224, 0.03169088189284765, -0.004637627426214361, -0.004093951481084252, -0.019073517369536067, -0.003091652241678838, 0.004581560141542514, -0.0063860307599034735, -0.0234421018106354, -0.031028587076389995, -0.007608915181902356, 0.04950088888725975, 0.016463801661543934, 0.011674378957309075, -0.0022824388230333415, -0.03306494837802493, 0.000260019671612366, 0.018279524188665616, 0.015369962905214517, -0.051413353311903484, 0.0003260908121726876, 0.03872738176548496, 0.04612600269952567, -0.012597836408047425, 0.08128304173789744, -0.025374091225003486, 0.03747548629095994, 0.056364516428017784, -0.023273765744316426, 0.05170557220252373, 0.01501535932675214, 0.03956754044682918, -0.03397286705206488, 0.01979276796862382, -0.01627764774911857, -0.0003009515947372493, 0.055756410096284265, 0.05041149549514764, 0.042210845983443754, -0.006985323141348973, 0.024391907486580988, 0.08514230690707277, -0.009336324846656559, 0.04924191769840164, 0.0876790382028397, 0.020155825752174377, 0.011171774872136449, -0.024391903953018303, 0.04652759628619476, -0.060997646222859234, 0.016421834163467, 0.06779091108340345, -0.017832287862666038, -0.03008268266829872, -0.028944803344489303, -0.016280377376237744, -0.05448570835418126, 0.03061591043572397, 0.0052331846119101095, -0.002223375112704581, 0.04138335851084447, -0.02480421926934021, 0.015114503897188209, 0.042106612012594795, 0.115471539817658, 0.09309010880167068, 0.019175009099953347, 0.015985305709737413, -0.007666671402579372, 0.026177806271842182, 0.015331802659117436, 0.08303684337989715, -0.0078398469882371, -0.010403826521312557, -0.019982934397072192, -0.046538581864103055, -0.04807947043888124, -0.0016612868178852954, -0.0066120891077698744, 0.023401073230762535, -0.08401164803788211, 0.02440560071603142, -0.03589573344467974, 0.025296557140633502, -0.014477608015496534, -0.007967925105746542, 0.05085794946122501, -0.025481657056729272, -0.011922092455860242, 0.027348996364589286, 0.02300921469433004, 0.002325558976096898, 0.016284958682910383, 0.08847243757914268, 0.01847728940698016, 0.0682472183364907, 0.036521172827976886, 0.0646390578394834, 0.02360497313379656, 0.06420693223236099, 0.028710325730271193, -0.019208288783869293, -0.06453296362928312, -0.056635869501456, -0.0009649486945844235, 0.008295904503372625, 0.02348441085577163, -0.055285075606523994, -0.033937881252795316, -0.08096318333111417, -0.005331053361604961, -0.01901753040344648, 0.058627281202440915, 0.003756678398187062, -0.0037054898672699323, -0.09245529714544543, -0.052517511825924304, -0.00772151355489912, -0.01861634195993321, -0.0007003613062078874, 0.09069216551180044, 0.1359898872759556, 0.10181179803027242, 0.08597020801932788, 0.02456355540028374, 0.03355175319772314, 0.04966956678875803, 0.005878275795996628, 0.0235968348241267, -0.03783756946681686, -0.021156030521772937, -0.02662555891020812, -0.060555553417419784, 0.010348666772482985, 0.05729400732529539, -0.03473514441857294, 0.020333376543390826, 0.024839674473421388, -0.046608195120034085, 0.007338040595239392, 0.030871047656506917, 0.021204319069742846, 0.03532257766528947, -0.03299497792897939, -0.007850418122185345, 0.0005213423912320217, 0.007761289155985496, -0.015122929025191726, 0.055722229293454856, 0.10662618778378222, 0.005346556140751964, 0.014727905793841718, 0.023659278455678934, 0.029800346022349187, 0.06674026651881042, 0.06173996918921624, -0.022301378301228157, -0.03921089039975159, -0.08037124632959353, -0.07881534148566546, -0.01574500260029756, -0.003779556726941448, -0.02861104933510193, -0.011491766226139705, -0.0014129719343276808, -0.020073089440824393, -0.037874803848544754, 0.007119636068173756, 0.02851956217694695, 0.004751668564869474, 0.05201338971105984, 0.011140268382425779, -0.024387033281679002, -0.05040797346195675, 0.03781884210179843, -0.034300517539376935, -0.03704225948822644, -0.010220680886981333, 0.05544950564518892, 0.006552374423254216, 0.06138579602178617, 0.06715951205712657, 0.06792251299678398, 0.026052853691669008, 0.03918741784999055, -0.008741358688772457, -0.08047821832576521, -0.07923442528617083, -0.13419017291760932, -0.03066512984254931, 0.030253590520383986, 0.05907224576026246, 0.06442323169989389, 0.018604686969784043, 0.00816802991481013, 0.0201003382845683, 0.0013533462187267748, -0.10012359514186142, -0.006249268315559685, 0.06037098860075292, -0.0025116263752176403, -0.019141519592238553, -0.03617574225217302, 0.026893455453624714, 0.03499625877466012, -0.10553332873158967, 0.09317690203313778, -0.11688895341365121, -0.0023511455429408128, 0.06689391882058221, 0.12378344099072965, 0.06666938674648525, 0.04275318975047923, -0.013849888041586518, -0.10426500651611254, -0.0701290476195168, -0.17380808832706307, -0.12151989363813545, -0.08183470081036265, -0.0004984107610031646, -0.012569922244144887, 0.019059441708174422, 0.07135244679548998, 0.017045302702393145, 0.028591528722867122, 0.03144368225588343, -0.004474389023961919, 0.0002743366157517974, 0.014275764823820909, 0.02467664761180902, 0.03247294755648078, -0.07377435020273966, 0.011661312333800238, -0.0036595043947294345, 0.06319425097401025, 0.011129317638706957, 0.03595708704003345, 0.09333405972045682, 0.08290611779801796, 0.08260595254453172, 0.060015236525724915, 0.018554149976975767, 0.027176281761051062, -0.11215539912517308, -0.05619607202150677, -0.06501126981360995, 0.041131245011438576, -0.029069253814424323, 0.06404721565137272, -0.005844102541705004, -0.00714413585042273, 0.00024238196255094103, 0.009439305569797421, 0.06050443354944689, -0.04232752863704247, 0.006300749373219834, -0.1377626995353162, 0.05925104008188871, -0.054231169399127144, -0.0722022332682513, 0.005326635729992218, 0.03793970847885779, -0.017275483201295516, 0.010833853069410376, 0.05513812792455023, 0.09132834913533053, 0.06598629165796557, 0.10494516664898663, -0.0018244813985758518, 0.07177768480377679, -0.009841750892717448, 0.05451513983192083, 0.04999334575988756, -0.04205898710367936, 0.00476429691818516, 0.027635198740838477, 0.036222863710201364, -0.002354202172672191, -0.051245690495452335, 0.0010941733801657205, -0.03471523030015208, -0.004090289724389275, 0.016272119816318893, 0.011033371219241347, -0.0542076482041676, 0.02984124393803048, -0.030867161771542972, 0.0017477951377339106, 0.07207284426603804, 0.011870237952249391, 0.035726492981204436, 0.07624155971914479, 0.026929797394379888, 0.03773236089698407, -0.030996036430685627, 0.021920135981218596, 0.08318368785365428, 0.012715437050367756, -0.06626901935471637, -0.05984799442108405, -0.041260039334429656, 0.009695721064480316, -0.0030487560938032526, -0.08160682788660514, 0.04228286992795957, 0.025855154797178547, -0.04711834838693783, -0.0005490546556782825, 0.04913435750941498, -0.040196121049021434, -0.02963366942072766, -0.034805096177943896, -0.023656813638459884, 0.05617126806702911, -0.004991095655535696, 0.07372376655154927, -0.007732075346412399, 0.06038222026423098, 0.07138611003080435, 0.03416142238909419, 0.05566131718589775, 0.07350318614856212, 0.041337936136781765, -0.025065128114761973, -0.04788850955108774, 0.005823074039364801, -0.07488944992398858, -0.10921260045453941, -0.12087679884787375, -0.018357101948541035, 0.007354350128829368, -0.0023922406145718395, -0.05834627240660076, 0.012136380878758152, -0.0022507394086190395, 0.026792421560797364, -0.028039886406474004, -0.06559574004616672, -0.09717093756183351, -0.01785293686309535, 0.10344700501380918, 0.01613578462926302, 0.0051666143123734985, 0.021527957701515388, 0.02458760855686361, 0.05438284728642809, 0.07920102418948699, 0.060236433601130936, 0.04715253114251605, 0.07064219825169381, 0.021045058230606838, 0.02647675684815508, -0.048294817332599264, -0.06448162819918674, -0.024680941505453857, -0.06891832587031564, -0.07657976978625936, 0.02006224100471638, -0.0021276439096154175, 0.03804583810069279, 0.08008413859673251, 0.0169055526461538, -0.014103066801910527, 0.0043088743173984355, 0.03422793537926466, -0.030656753951087367, -0.01954346507719549, -0.03413580475706579, 0.04121128032895137, 0.021642811118246407, 0.006865988907413463, 0.04968026701894837, 0.0701247723979041, 0.0421147573678041, 0.027192895892285882, 0.0010401361080914495, -0.011235353172328287, 0.011726406856777453, -0.0229050819967437, -0.09066700356691182, -0.08118398592301189, -0.05189775377003956, 0.0004648595280372091, -0.004342248452793096, -0.0896181372029919, 0.009422638984876617, -0.0057569601533085085, 0.004208278203895503, -0.028179442700537342, 0.0031151753004826413, 0.006679061235149274, 0.05272840336497831, -0.033593915250050635, -0.03574015333660392, -0.1033307578610271, -0.05379451951295112, 0.020127555512306185, 0.03278273587117301, 0.01568711907943283, 0.005820232976596987, 0.0872168905666778, 0.04215261773961658, 0.027985330903932307, -0.05253611816700822, 0.03304233821068082, -0.03506683909942826, -0.04736880096022001, -0.06252771355308541, -0.04598054643467482, -0.012185461577927527, -0.028995860306437853, -0.08678631850623764, -0.07571881721832426, 0.03731490611800606, -0.030530870332085985, 0.03387599558109507, 0.03894763326358004, 0.015711322767847858, -0.04164475745837021, -0.05317605077068857, -0.0247180498354135, 0.012376883713478207, -0.08659536832171952, -0.06998630454032959, -0.01423607265263457, -0.032296958096234354, -0.021955025471316433, 0.0032998661391154317, 0.007400938225466845, -0.03754674704563813, -0.08974946967616003, 0.005343654293543101, -0.02342027810556474, -0.04390558922290612, -0.0072912153590860935, -0.04369060843816059, 0.02117841751643722, -0.030151696846920054, 0.021980936193371953, -0.023610106325084795, 0.03539678079085647, -0.05820928614762156, 0.03493394374681294, 0.02086283436536147, 0.10289507718299132, 0.010367014762474236, -0.05807570996402422, 0.02273029214240964, -0.04481920770244713, -0.03531358787621575, -0.06810384100685099, -0.05484201352957369, -0.05569519106310771, -0.033077529606113695, -0.026218381803952365, -0.13496811056393748, -0.029272377824241864, -0.023170893600958115, -0.08141837091696409, -0.06979054111474475, 0.03745625424006889, -0.0037043705515929486, -0.017596102318515924, 0.00286508538780972, -0.017931147809530056, -0.02226642337371146, 0.05271357199086709, 0.008486620221036597, 0.023850766995920373, 0.04531281935382525, 0.0009776160793705413, -0.03964983526444303, 0.04391045018787231, -0.0049780794564446545, 0.0046608648400739945, -0.030588869354931252, 0.04676553330675812, -0.014411761773361596, 0.010848479731947133, -0.043250744326019476, -0.0061166832635141605, -0.1338788818899674, -0.04613424738460853, -0.12012156625946584, -0.04226456324524423, -0.033496586484164294, -0.048945548239079165, -0.002821375358940555, 0.0032369531694482956, -0.038805650752599334, 0.05861878801553384, -0.002860627004564063, 0.04450862201164473, 0.08895557611011304, 0.01512979154015685, 0.03939285487631279, 0.06072720919279771, -0.018236177618366368, 0.030814856702950942, -0.036642456087730944, -0.018603989664652328, -0.028003664459291235, -0.011212678102789007, 0.021922019749344622, 0.017782877722555202, 0.028355947185038262, 0.0875477945284012, 0.005406552072099709, -0.07633952740294696, 0.016517438718673227, 0.008785648782219902, 0.016082336696616628, -0.004018088475355504, -0.044254204300143665, -0.04032958851263662, -0.017048401745786652, -0.004386525580160176, 0.02531209585593121, -0.043215633188976886, -0.03313757083650013, -0.01414062966969366, -0.04853985598042628, 0.04570479014682507, -0.006183839191993096, -0.028457326019874194, 0.008124922526084884, -0.024235831528931162, -0.03605329982217391, -0.017061515973026818, 0.003068743689772955, -0.009831718993178046, 0.024948101961760505, -0.022863150515109502, -0.02133405372927901, 0.07121776219373764, 0.047013457297020965, -0.0419955934745281, -0.04824054961870842, 0.04839209784345467, 0.07687778208759798, -0.031156367731842265, 0.022264612456376516, -0.044225081857624096, -0.04470177147856322, -0.06477941948813747, -0.05553796815322497, -0.04237726629139024, -0.07040378980910054, -0.00826124542696821, -0.015617427230859933, 0.037498158455615944, 0.013762763875648858, 0.04399874128918341, -0.001369477123624483, -0.018303015221980336, -0.0022788846166818537, 0.04589437332835723, 7.814553906148682e-05, 0.043783780363480226, 0.010520100311897743, -0.03860994887640481, 0.021563433276597075, 0.038711490081025486, 0.03499176690013845, 0.0817826905960574, 0.020971761637298036, 0.012847128175673713, -0.019267418568884923, 0.022055028566696833, 0.015763721178720557, -0.015578203599582762, 0.00027948557710712803, -0.09898975031536161, -0.031549300014492805, -0.0337808697601212, -0.007066600138590026, -0.07908956023391238, 0.0646737394732231, 0.01564614014551004, -0.012269614776268171, 0.035554694609723894, -0.04866589724393298, -0.018619566880933375, 0.03429126909979461, 0.017488534434319206, 0.06672167363172496, 0.0040679205282385415, -0.03860198073948516, -0.033370668804620925, -0.05054973642303905, 0.017292736546267166, -0.00671080241252931, 0.07178312965668074, 0.002463773406602964, 0.07976340583644792, -0.00037705238873016845, 0.04417336299742773, -0.06797127751731592, -0.08287725813320006, -0.026009219935822198, 0.04925382008189591, -0.0692880620779116, -0.03551819719585659, -0.0018471132773803165, 0.04165767701288827, -0.03393553410679983, 0.015542956525834591, -0.009635628530084884, -0.042015366514769156, -0.05619021036266342, 0.012135970025540059, 0.04706081046082477, -0.008698643612794222, 0.035603891840156734, 0.005208078303252128, -0.002065533500734298, -0.03909775360722838, -0.001220132596341982, 0.05922207123145636, 0.04112038328964876, 0.02184031636522747, 0.0012583780772956246, 0.08756693723484703, 0.027017676088520782, 0.03143237858634083, 0.04402436351109415, 0.061152449063327945, 0.01817804111808526, 0.016544309733148067, -0.019730676057836363, 0.016705059146972758, -0.04497489905218653, 0.01777512379961116, -0.03556309469177137, -0.004543162430649055, 0.001747885525783391, -0.027259737492553393, -0.0056555082713659775, -0.04741311346482829, -0.012266614797213226, 0.020661874157383964, -0.017419478979198537, -0.01632762417149885, -0.06991670504425418, 0.0019430604767475385, -0.008151848180467401, 0.016566384033778542, -0.05551344194727356, 0.041527282666766814, -0.033954304659003294, 0.03373547287630521, -0.04190985101051959, 0.0343978100125034, -0.014019116111119913, 0.029507396194481193, -0.013735775403109003, -0.061501240549589005, 0.009018821560942629, -0.009909330490054918, 0.0133017948873346, -0.004632856348896683, -0.0022508244684466033, 0.006539898557912096, 0.02986885328047575, 0.04552485397602407, 0.09707910595049896, 0.034522344699011345, 0.021382476203005842, 0.03586756832032591, -0.029620945055288516, -0.03271451115506395, -0.012444932728586882, 0.03715158019205963, 0.023060439369978928, 0.011602414187108057, -0.007995674611240903, -0.09547789449171624, -0.01627547195468576, 0.04829989359211651, -0.014918080247131043, 0.005002021312872886, -0.006872529000688603, 0.013456339778625991, 0.007815942964847715, -0.02258725338206214, -0.01088862382781574, 0.055749468003300405, 0.025288055706917757, -0.025565184662619745, -0.014165655788658511, -0.0100150786065717, -0.0879144247284647, -0.036823665776619295, 0.0006598509360257832, -0.018454870442246994, 0.007865030333863406], [-0.009217837520398878, 0.031064762061636282, 0.07679032923859001, -0.01267397489692573, 0.06018311684514003, -0.03525174469615493, 0.02886143885075122, 0.002039245231769412, 0.001198397802305979, -0.031951817563504493, -0.015457671434210679, 0.01793531684895582, 0.043944390584670055, 0.04709737703100477, 0.01754423590714403, -0.032495603802958274, -0.029437505729399245, 0.07091749033386929, -0.008985092578128509, 0.030727925369830482, 0.0285470791203303, 0.029899822923484996, 0.06937364126296815, 0.011959843734477683, -0.03138414378838352, -0.00289453268719472, -0.002537099483236125, -0.02862010740873542, 0.006275001890466712, 0.034106893088594784, 0.125267560417016, -0.03086782862703241, 0.10714983668873224, -0.03480621590490231, 0.04430797252702674, 0.03215376241966034, 0.01645711927310565, -0.046990148051219476, -0.017408673858398765, 0.005474008085604014, -0.00038988721308585853, -0.03803704662599718, -0.03665355295761381, -0.0006860973591812662, -0.00951284465681365, -0.024061151177403487, 0.02808083274169137, -0.004837615722388845, -0.031518641852910624, 0.017665616451787877, -0.001080675259336539, 0.1024255059177829, 0.05757520581739041, -0.02283939922375855, 0.019745835047446807, 0.0269550755798238, 0.04889809283152015, -0.021832098252307582, 0.03874878972646479, -0.001742293906996524, 0.04812329387125986, -0.0025251297081662002, -0.028047609593982663, -0.09327263602308951, -0.021639868350929403, -0.06283514187063909, -0.028795133067392484, -0.021880295760068277, -0.019069865774792718, -0.017708362176779534, 0.0096093648162697, 0.007877584318481927, -0.025870922907910095, 0.0177018436745356, -0.015356702250836603, 0.005785766620594236, 0.1205871118740008, 0.002090066513232547, -0.017850826336395943, -0.010658706138573748, 0.03416948419835452, -0.020921001260616405, -0.03827187359142899, 0.023874661306731576, -0.0037510187515389275, -0.005267714137959574, -0.019950497483481433, 0.03702019275647344, -0.0025201369226231546, -0.008114858759001047, -0.009240900328892784, 0.020594655743434383, 0.032450713167107854, 0.01985899057548451, -0.021848907973925302, 0.01233572243855335, 0.011846999909476118, 0.020113787256333542, -0.03975533603191318, 0.04138312160139896, -0.04318696741129073, -0.02187896853098078, -0.058704302527663066, 0.048057689533731025, 0.0070341120455413315, 0.008235138341489553, -0.030510247988291928, -0.002396579935047586, 0.036196696175828234, -0.03072570709360911, -0.015933600798459572, 0.02023555610493605, -0.0011562680315680095, 0.03657792656077823, 0.02454408178295772, -0.0050314835113276805, 0.060779810344772374, -0.0647982260371174, -0.019259755197498868, 0.05244589490061275, -0.11828024186393735, -0.04699406870535231, -0.04559913856995972, -0.01933807999451346, 0.03579664225699363, -0.06332154333176543, 0.03459907041610351, -0.03458567588090475, -0.021526515182761972, -0.04784671551416685, -0.016964216206529513, -0.0012178320496445017, -0.01521356803175194, -0.0008917609693779678, 0.05648606077836118, -0.01238871678053245, 0.03130905295687104, 0.00948366692332516, 0.009976371248355705, 0.02419312624005398, 0.02580602100289042, -0.04527035498754604, -0.014457960118837638, -0.027721512149565218, -0.00870590638367861, 0.027595500840853354, -0.0032055488421987776, -0.008419032619312187, -0.0015063073530125549, -0.0024312711291369455, 0.005007610776206603, -0.03642280512880569, 0.07308988006165895, 0.05295946632260734, -0.01384750772118665, 0.0406545634076527, -0.031969446377957934, 0.02588951410806788, 0.015372077711024166, 0.023995816898188967, -0.015090607458766937, 0.02535976582569988, -0.0006843129678477877, -0.021876979260165293, -0.0047683918015513985, 0.018247457695265222, -0.005558652157148724, -0.023841833558953526, -0.03980116782680432, 0.06920034227309303, 0.03762315284176999, 0.039873065305908076, 0.02111494135888797, 0.03345597637684893, 0.03748493293686794, -0.01274460377493411, 0.001193033326880836, -0.02285836888873577, -0.04306538637040065, 0.04005151852572427, -0.10056614451146237, 0.03481711073251601, -0.02674038525889535, 0.045477520558561586, -0.025301872640136565, -0.062526653093108, -0.05889992544194167, 0.06564329357286504, -0.047387251015451846, -0.04527780424694739, -0.016915843107911138, 0.07233613283408002, 0.03606603083740686, 0.06447437039146543, 0.017300124058564223, 0.0359777774678367, 0.05653907557165803, 0.039550922853684535, -0.06271155293613398, -0.00043203951463813143, -0.012275553833920832, -0.03801673115523539, -0.0011838880653799006, 0.009777849566550091, -0.05335057869620715, 0.03593049445279991, -0.014454306383291387, -0.043070833736907024, -0.01321816135341961, 0.07664060117235173, -0.05331923122796435, -0.011421487300238533, -0.02462665718444839, 0.05612155625944003, -0.028807729268233873, 0.02783201724884905, -0.009806977435313507, -0.026672934361340776, 0.1082584709102545, -0.006905408941892329, 0.048135858958692886, -0.056048470368440566, -0.0185872332099573, 0.002274224866245067, 0.039767292373526865, -0.03240481037524471, 0.040181734458988254, 0.011497589940145613, 0.041497674757015976, 0.0034983742862182586, 0.03480299723050175, 0.012665525596854108, 0.01203741273947109, -0.03818568114602462, -0.008132496342904225, -0.03190143270579495, 0.02091715423730761, 0.03388850095892475, 0.050235999295712194, -0.05842213314882065, 0.037598847394197554, -0.009439004534788664, 0.02409675217568334, -1.8503603053606975e-05, -0.04861403996735202, -0.0031045468419881104, -0.05015849651771307, -0.002136154055228421, -0.04570564151665759, -0.05543713987942188, 0.05448141749093949, -0.028600360581382777, 0.02083042466158464, 0.012596177604783513, -0.029492897917459827, -0.025003037091449985, 0.023598846841422907, -0.03361990772966082, 0.05913302493143448, -0.026481168777398697, 0.024620827668703105, -0.002785858424002983, -0.009680818710178344, 0.024552669164816306, 0.02818985069832708, 0.009492852635429922, 0.013818993878015957, -0.018310127064064454, 0.01017744859266896, 0.041314946691588306, 0.09288932956209837, -0.0324880170877682, 0.005386313403630321, -0.030531373936740647, 0.049083751737689904, 0.034829903425587096, -0.01369116420087514, -0.01400625549348367, 0.027190366051129566, -0.002651568672788727, 0.015661462182568687, -0.029338591512692618, 0.08037138602497086, -0.005761480478457803, 0.022278695594527363, 0.012231798165717797, -0.014306599113075705, -0.05609047032289723, 0.016554522079064878, -0.05050816273022335, 0.0145561089656964, -0.02310024852712469, 0.038706017587147847, 0.024391732244224636, 0.002742217882277189, 0.036470322383077326, 0.0519398796183532, -0.0446557921262909, 0.0065955973350992165, -0.014234760942117938, 0.02147663794389575, 0.018655300196185862, -0.06057876217102442, 0.03634652670163237, -0.05608661294587013, 0.0317551911609037, 0.014113612288810955, 0.061123087560641144, 0.0018958855941050335, 0.04166386040781505, 0.005685929184713859, -0.021352640545762143, 0.04308826117157128, 0.0021693384658483766, -0.052202831824617386, 0.010684008312790375, 0.02394742213993148, -0.09926738943658932, -0.03072637820811638, -0.08447220239683284, 0.04516181880606681, 0.0281194229711678, -0.022944441427654134, 0.024608770294055154, 0.022039429857381092, -0.018776545996710668, -0.008310008671116989, 0.06629797415667175, -0.009008011844105882, -0.031208449435074108, -0.06346110673030082, 0.024600333308297053, 0.01838299025598999, 0.004830336229221554, 0.05485872722557698, 0.008677355198715023, -0.005792489485378399, -0.04073266355465412, -0.04515431184784018, 0.016787362725433543, 0.01242876176152065, -0.0013217611321600328, 0.01776144803304447, 0.004817607659961269, -0.022523340400449485, 0.05542762175827665, 0.05402372249070442, 0.03243724621840697, -0.01047532392034492, -0.03237463134916914, 0.04734162674080894, 7.41721040753857e-05, 0.04061529144577455, -0.008869245951255338, -0.005026616123855925, 0.0218778291776332, -0.06866993672245965, -0.00839138577023053, 0.04454934660917968, -0.036858671373346856, 0.006680531618301289, -0.016565424090121236, 0.03222731730491261, 0.028400960382958078, -0.03617574381487736, 0.05682844016967765, 0.09840980257280312, -0.009608766892312593, 0.030082672317193408, 0.0011883712130239987, -0.00032572064056770635, 0.0015624389008972773, 0.029003215298415454, 0.009818951012775426, 0.008253748973781736, 0.012999187982211013, 0.04248982387770546, 0.006218616854776771, -0.0036783323182203453, 0.051672936774211656, -0.032551357445023396, -0.03628962441691781, -0.024785516986768306, -0.005415434423437236, -0.013791007574316587, -0.00920974186674381, -1.2501194938086057e-05, 0.009008097033526728, -0.010285230224524594, 0.037045214415945334, -0.0322661522248895, 0.031029085128553423, 0.04365743965508817, 0.013701866724515952, -0.008536134964032355, -0.008983609430042158, -0.07264537835680725, 0.03894005608616021, 0.035213175952179855, -0.026922057808915028, -0.01202386512563323, 0.020057852690679074, -0.0055371621094770455, -0.0723847881568253, -0.004967715891825049, -0.05971552202153269, -0.027031981724559558, -0.03582355891416301, 0.005562316964313407, -0.04550719970877247, 0.022301565951944883, 0.020130855994545147, 0.010242271763129845, -0.017762401752143712, 0.11034719537283831, 0.03021059270750751, -0.02488976450654462, 0.01854149142212915, -0.0006253525856054633, -0.02698819942283389, -0.034810976997789136, -0.000733757376092146, -0.010499238595440776, 0.007868581310623813, 0.038891278326657126, -0.020652514563649606, -0.01008693838432863, -0.021395009671203783, 0.05533768970531981, 0.07833643143814013, 0.007868356393268872, 0.046759576987491815, -0.00033690090395956687, 0.05321417517492568, 0.05994051760685709, 0.004758106370423708, -0.0027913502292476475, -0.009242089282070123, -0.01756743458566682, 0.0003315308459430905, 0.03790949808032356, 0.034553476829053124, 0.004194811707948809, 0.04588244099290192, -0.021780319749060358, 0.0255193761424968, 0.032816702389516644, -0.005144737302878412, -0.0033131841674922074, -0.01499197906896824, -0.08759821333485444, -0.06930455164323616, -0.0292373224237697, -0.02903741373490243, 0.011261573744212867, -0.001538643562803026, -0.032690349226651684, -0.017108129644832396, 0.021817592808154047, -0.021025654614699064, 0.009312315289104409, 0.05663548042184253, 0.005667168709422983, 0.03697412146703387, 0.01744948072638681, 0.03761642155519097, -0.009138401833947029, -0.03461676076504002, -0.036071083368185916, 0.025331416542054373, -0.024007076071846562, -0.02540929078271095, -0.008914443188718394, 0.0133675230812495, 0.061915948238577365, 0.014771406816914216, -0.0015523442017597775, 0.03305925561320115, 0.0006804725116706963, 0.006088014289030344, 0.004459822906482358, -0.020951844758060067, -0.0781455700599443, 0.04371886706775928, 0.04946664090743982, -0.0017349910230802148, 0.01003368888316299, -0.04979880982853983, -0.018086898332585373, 0.014231835535657433, 0.028916179737019536, -0.012910198658229174, 0.014819971605022622, -0.041096574797366996, -0.03586933525854115, -0.00729096127025071, -0.0033892545015340608, -0.004813010585201097, -0.010075965218129484, -0.024793802317246438, -0.04778431233102349, 0.029862434001930834, -0.00963077425106212, -0.03988012951713236, 0.004787781065540286, -0.019214841263863938, -0.002629294368333817, 0.03283897631211844, 0.026108611369879915, -0.002582747947062238, -0.026738743122878106, -0.007906714634610318, 0.012403170075369155, 0.04275327397593422, 0.026567526413909828, 0.0017146680306207626, -0.010264577745350048, -0.0523215178854358, 0.0076843017597821115, -0.01038763365589593, -0.07433069519290758, 0.06503222693275083, -0.023839878632352877, -0.017711719496989287, 0.008151959931582511, 0.0950766321178199, 0.027367676302785526, 0.06571710966587298, -0.03905397659684009, 0.004475135710733649, -0.007970335050415405, 0.025165789733367184, 0.034333698567136035, 0.06992569266921768, 0.03800125479899103, -0.02160252859011994, 0.045271429144780106, 0.00243812275546287, -0.022538334120522946, -0.010837502784794718, -0.030983602391600026, 0.031558942239193935, -0.019283880698435663, -0.03279057451510561, 0.02172745581606251, -0.0565741824586287, -0.04469517289428905, 0.006106081457227916, 0.011627672512017226, -0.031060425861823553, 0.012856982513678181, -0.011773992059761332, 0.03477654468244749, -0.002617207842059992, -0.04792400121989988, -0.005103096226034956, -0.035207379249538893, -0.008561319193159975, 0.02622746537823269, -0.08100529588428133, -0.05346382585463218, 0.02331598172860722, 0.013128777068095265, 0.0602023571470202, -0.00689875733133421, 0.028577366334431618, 0.006993180957700406, 0.010548307894281002, -0.059728256387648324, 0.024491940353417407, 0.029449212208606447, -0.009943731874856383, 0.046031419997951344, 0.024634611122825473, -0.008541995878801133, 0.01753575720149936, 0.004135929835817271, -0.02138548516119929, 0.01336743859447349, -0.010262181492608992, 0.018305210806079136, 0.046049310766139544, -0.04936595650392504, -0.014525237528511916, -0.006617862197839519, -0.030339318189558918, -0.024643129196609177, -0.07444273270470994, -0.007932509538892902, 0.006952740679213981, -0.009720495019855975, 0.012610154579996551, -0.0007070928876029015, -0.026400499677764252, 0.022041960335251635, -0.019555209949317743, -0.02638040211641923, 0.051083374006078354, 0.0074001028032783705, 0.012332361811834471, 0.04978364315984522, -0.0311009514472246, -0.06438324244039353, -0.0014762777915306045, -0.028398926083470593, 0.001186160579278758, 0.024253113255786503, 0.021528132256046273, 0.04831552371166285, 0.029085331472567883, 0.005393765478048869, -0.029016503622613727, 0.0030647594804146827, 0.05531421911566557, 0.012549467302102749, 0.019170661410308373, 0.005212766454988221, -0.04150334449395459, -0.006982150251592724, -0.05454488924584298, -0.07277809920328616, -0.023578283849998737, 0.004431240627913507, -0.021152108311827424, -0.012904054839997525, 0.005360123107614989, -0.03767395111893599, 0.0433214939504255, 0.06894374433307489, -0.033604314245135075, -0.09907279814929115, 0.06504534016348269, -0.029616808158080564, 0.03729488018380168, -0.0402558358886177, 0.07521308950638474, -0.010013026322634318, -0.0406340874585434, 0.026639857117117836, 0.10342442948255566, -0.011505512049317575, 0.01801854351143051, 0.024240682185272762, -0.02920946222125702, 0.03219431828814222, -0.06325628769121559, 0.018009761088602777, -0.020751865844094386, 4.0789253137218894e-05, -0.003622996145649121, 0.02695361944883862, 0.0005453192934563425, -0.002344604741267776, -0.008272950029748484, 0.026415454381013725, 0.04648638656665937, 0.0015643255688894432, 0.013394693129295154, -0.03847975441247138, 0.07966686022776791, 0.044912607792229796, 0.014358309873466658, -0.00021866327416305244, 0.05916889631473905, -0.03751986981655243, 0.002803460734631652, -0.023120507107415974, 0.008552789388359008, -0.030024680008900118, -0.06778264116253244, 0.024269708098923558, -0.006392013929995667, 0.05383357364182252, 0.010060288310949723, -0.014824879147382791, 0.007489939228564045, -0.032735313363014135, -0.0021865404888545205, 0.003069907431481556, -0.04481571644007598, 0.04448695849731753, -0.02582218242375085, 0.0076824102241719525, 0.017153183348315896, -0.022305076411818038, 0.004271764005539075, -0.0037372049895765883, -0.007940266782622036, -0.026576239852472577, 0.0057392510696596885, -0.007845183207593111, 0.02378549580347055, -0.012314499205292416, -0.015137762213071355, 0.04204398082705282, -0.011590900757231418, 0.016834369255128847, -0.012646247447475419, -0.04108677216805875, 0.07096281097154843, -0.011243789418119694, -0.02190073039909435, -0.00893924877940938, 0.01824160898064773, 0.04720039663437731, -0.05460587637529462, -0.024563513040551602, -0.024180141885452294, -0.010674079069252279, 0.01082185300404418, -0.03184728797010501, -0.01487105420206052, -0.05106894365517194, 0.050401483961717355, -0.07468081059995825, -0.025798210449526623, 0.0016595298505575628, -0.004409652561099242, -0.003470907580904643, 0.047712827070538574, 0.05678543001835427, 0.006263805449827258, -0.012736569807989262, -0.017555392679354225, 0.004183678255381119, -0.05917886555031301, -0.03037690707303158, 0.0157044037958543, -0.07253535006024203, 0.016602539792843343, 0.02474868057799551, 0.005932617874786851, -0.044240299828672024, 0.026976135154217745, -0.0019921276734703075, -0.032696693170642235, -0.05168421398139466, -0.01200870006581038, -0.01413371901000532, 0.0448642065309162, -0.012332173024425828, -0.01626254116682199, -0.012821746717117126, -0.05481714095058908, 0.021955408679085384, -0.004249900230548792, -0.008398534149360625, 0.024499009247597656, -0.004374368608050316, 0.028131041896121867, -0.011758093029166833, 0.0023284247549936743, 0.013395225535361563, 0.016455334883532385, -0.04007424980348049, 0.02836268894024679, -0.002712472508782837, -0.004218577387812206, -0.007302342820111123, -0.015533716173679425, 0.06262954060812218, -0.0030190653357908236, 0.028927519822595903, -0.003283107030384883, 0.008469346919131147, -0.05147887909037408, -0.01873391046809919, 0.024516443491915865, -0.025254847140048498, 0.008559145821757088, 0.021771713236660578, -0.0023092608688523213, 0.011937597974754573, -0.0324801575537254, -0.002791370767911101, -0.027154272181804707, 0.006364309571154519, -0.006540642339145629, -0.011900913913413571, -0.02011292627087576, 0.016301780312694737, 0.01857338671065917, -0.08374127682540397, -0.020867569245883833], [-0.06867950727270111, 0.035147343269586066, -9.047770359768167e-05, 0.052039782276566526, 0.005146156059824811, -0.09080794694427834, -0.01346331971871623, -0.005810495061379954, 0.028387004131086187, -0.028119551989050893, 0.0019611108261268183, -0.004824316996225207, 0.0023332049351166358, 0.0028307749393189927, 0.06479026649280671, 0.007756126856579979, 0.010613871386322133, -0.02148893502673303, -0.018176689309679868, 0.024095111817811297, 0.06273183367397153, -0.055589150087023344, -0.010753185235312117, -0.06541608860214453, -0.03317043523005978, 0.07815594131847906, 0.004215955670198089, -0.08173944717992658, 0.0250781129593183, 0.00875593284966323, 0.0005958572710631956, -0.0014544581797422927, -0.021904238381356054, -0.06557100899381253, -0.03945274117675686, -0.0231420058072982, -0.05727283437309277, -0.027979090781455253, 0.019902709855499898, -0.03261204694714071, 0.04480217219494693, -0.0023732616135434246, -0.023285231587469646, -0.03611440870305157, 0.00830413888613542, -0.00859116188936714, -0.005035407118014384, 0.02375846776145464, -0.03770578260479264, 0.01553079102910843, 0.06110266945423587, -0.05478000678515899, -0.013833334297011824, -0.04052689207484258, -0.06623120676910536, -0.01653333958067399, -0.013831417565194353, 0.010901528677618481, -0.042287970544080865, -0.04413957295227655, -0.006767122893826896, -0.0176445606652082, -0.052321719085255555, 0.03210063692286959, -0.06448093645507505, 0.0015370871115575964, 0.06472954459335796, -0.010933631336380811, -0.006647235941624798, -0.03593470395515891, 0.021723355817467926, -0.012931321888403203, 0.0006555986851911239, 0.01938872236817519, 0.04798883491501228, -0.08320137307641394, 0.01025509664194052, 0.04264173717621709, -0.01523597903131737, -0.030110587825521035, 0.04568789706961435, 0.01792405023281552, -0.03902474643670437, 0.033131203525244866, -0.08409765249933075, 0.0021978961076657357, -0.05208858921265912, -0.024664736366913725, -0.008970570881459628, 0.03720021331873225, 0.010508558896992606, 0.014153227621750948, 0.05837055784894653, -0.02661585013435257, 0.045246167533018515, -0.012349525762738922, -0.012642830231466529, -0.009566031170632415, 0.008672686141898558, 0.010170684550955142, -0.010088359835420559, -0.05142433207818346, -0.06231464504392342, -0.0493878177990982, -0.030046947117585866, 0.022668728312367995, -0.020706046365625813, -0.032110825622792785, -0.023611921496472416, 0.03140962843698609, 0.03763051933338015, 0.03214814833651227, 0.07968495244082922, -0.060617975309643975, -0.015183808716667413, 0.015661359000344943, -0.010050468790333148, 0.010647458094442027, 0.05371978222123815, -0.013765407544510872, -0.0022618628014033824, -0.009247051211752436, 0.015727705070174288, -0.028633690915257602, 0.04417277823027697, -0.003681096303753236, -0.006860074518326011, 0.12723664422492068, 0.0631326459303403, -0.05043112157732792, -0.053293710798593186, -0.03578443556918421, -0.008994444006686036, 0.017769817741798664, 0.01173080581452834, -0.03969469945286251, -0.03085267371768717, 0.006458001364104082, 0.024162928297804278, -0.04458692654425761, 0.026736869523206187, -0.020132168823870072, 0.01892284652809724, 0.02318338973657185, 0.0513791086058099, -0.04306109088502714, 0.04425468318130795, -0.01216751133306111, -0.02404997435729098, -0.03693559794836001, -0.03379929094020754, -0.018253235489385043, 0.028413054911993085, -0.012694230542044294, -0.025600858928370437, -0.037693115764819284, -0.0037679224236117454, 0.0008506358954326435, -0.03617117359332869, 0.02914441135768818, -0.033630400660992515, 6.525885467154113e-05, 0.012645329484737382, -0.03548496827362835, -0.03827311261729141, -0.045216392793617444, -0.01144073249929688, 0.02507469017792592, 0.010702003771809418, 0.04043460985141859, 0.011922899191640352, 0.03626756462965331, 0.021342574532902118, 0.07544131543976301, -0.028479196374236737, -0.010580871538704918, 0.07079819437179846, 0.011857474879494435, 0.008834399193760807, 0.025944468454156478, 0.03434144387493826, 0.034011830666946394, 0.03850445551173483, -0.022580343722769132, -0.03480886021491167, -0.04706725717590101, 0.028315091138648926, -0.025412273616044003, -0.029531723386159066, 0.010233067722699028, -0.015882530651440126, -0.013101887876147597, 0.019122593680896312, -0.05899668905677806, -0.007598332914268285, -0.00818819498882048, -0.008550247847575838, -0.022430223127566384, -0.0069317740592838295, -0.018177372585132613, -0.04799746611020768, -0.05404053630905801, 0.00999992470474976, -0.03040655707919051, -0.008806775081527628, -0.002410059871964692, 0.05846074419230697, -0.023172965942278745, 0.11684268570917891, 0.04251317765009578, 0.02111656469641154, -0.009934449806711567, -0.03798879894835605, -0.023058580561281492, -0.010365814595088074, -0.08542881031984598, 0.03638398374911399, -0.0379422873069696, -0.032889764485240024, -0.060359788907287666, -0.05146961045255831, -0.0645416652662414, 0.030275633611123832, -0.03254271953561138, -0.008946229621271258, 0.03499854844367024, 0.013797069262296109, -0.020723359658423805, -0.026665264722022144, -0.01813793609191224, -0.006154594654401404, 0.00367711278670577, 0.016574477876338145, 0.042040298157210186, -0.004048537689312622, 0.041502520762093, 0.022698033535271618, 0.05905274576353009, -0.031569564804922276, 0.0015635213962556106, -0.02270799132258717, 0.005008702525652389, -0.01936880870085793, -0.016330833571481903, -0.06834844552122098, -0.05344008514655523, -0.07476742594214172, 0.005227172133878385, -0.014849920305265845, 0.015515059644420112, 0.053998221851242104, -0.01789882100687699, 0.029736413988915012, 0.0032105165405490383, 0.0037113711977396382, -0.05337724389615249, -0.02003822008666318, 0.0025545673791865205, 0.026124144706617673, 0.00441673779529283, -0.01746539917932606, -0.004713327761576433, -0.043434634332988144, 0.011653232592866526, -0.00017940497434568606, 0.001992282136459434, -0.022480930709585463, 0.04596420027172704, 0.014509397132654315, -0.014076953774755319, -0.08279372411976658, -0.04687696516789206, -0.037497232296465455, -0.09047836812960637, 0.0046829704286647286, -0.03302919815823667, -0.026508007881768172, -0.06195489780843824, 0.052297251792083464, 0.00033240311626313014, 0.03754656355487094, -0.04209686943231195, -0.017629537155119494, 0.01226959630472839, -0.06791255547342498, -0.0495881183095119, 0.035456624910792524, -0.045862605636122426, 0.019841769275000296, -0.017040542895573187, -0.02542760182613688, -0.0032372113237750634, 0.06640378217468242, 0.05945694393296562, -0.045897143420530175, 0.03669536391424206, -0.03712890765443776, 0.06172580270580422, 0.004182084647586442, -0.0355821859487811, 0.05699112374775845, -0.01721509698250387, -0.03463226611015473, 0.014981906703933769, -0.012851405147329808, 0.046506839148700276, 0.03460574931512724, -0.06948609786791306, 0.005744356368927931, -0.004868058755231559, -0.016493200437839316, -0.024734858073994562, 0.015387042306120128, -0.050175468348694824, 0.02933040743271176, 0.0006037256551941495, -0.010328317440080805, 0.0043479518061956095, -0.010278314994967704, 0.06661572787355692, 0.0479201257346357, 0.023907249222263477, 0.040426381464214914, 0.023838131903387683, 0.0832540481428735, 0.0035972559798106304, 0.05670750484423909, 0.012749084695390206, -0.017272102909226737, -0.010681868008704905, 0.01022841573797114, -0.03535048558556681, 0.05955680492544587, 0.03786093221003038, 0.03062901001959713, -0.05348704843160977, 0.0052481189762427286, -0.02169780931463054, -0.010998435006901487, -0.028592413990160118, -0.009102154481744324, -0.015523102747164029, 0.044118384411734844, -0.048869361413158625, -0.016902475809883608, 0.04706442755119519, 0.059512095176681226, 0.04599528556168316, 0.03694790040053643, -0.057736582302749334, -0.07895316410017303, -0.05640136050321323, -0.01299724568610469, -0.10469565729901982, -0.04216847583659075, -0.02772425617072683, -0.007236310409846396, -0.008395398424779849, -0.00874749186938759, 0.016523314061843288, -0.07921979647870801, 0.03330041713874833, 0.029567298439963228, 0.013150185425047803, -0.056686044655533084, 0.09870887458713247, -0.03223221642378882, -0.031467712552941104, -0.04881963342748479, 0.013790903480691539, -0.07590476394045854, -0.003401424433958066, 0.03265802734979169, 0.030271756546058796, 0.06954249672242803, 0.05916929927937655, -0.012819735901569764, -0.13012091873117654, -0.06509757886925142, -0.012350975325872614, -0.0028191288800688196, -0.01811438253877037, -0.011598637095576946, 0.004391606946114241, 0.07935492285469818, -0.05429973607504718, -0.003935777042549173, 0.020571247200822665, -0.009874585135187791, -0.058606841519869585, 0.043073771672176214, 0.012358251977150958, -0.029874814311005977, 0.02931430649923927, 0.029417323617808997, 0.02187223639253669, 0.00883189178189938, -0.0021350415812377006, -0.05731975491658514, 0.03162528030272402, -0.03447519635803382, -0.02718435505642872, -0.02742729590061024, -0.056937661202877236, -0.058535507823697694, -0.04424378695615736, 0.04727130566889575, 0.027397281633873796, 0.09673529036867877, 0.020597863429841688, -0.027153252265339198, -0.013277132849655367, 0.000947345616864319, -0.014288560164911502, 0.017254967190182668, 0.01772941280264099, 0.0019592224626432887, -0.002725076458050198, 0.0026532781962541946, 0.005648652799142772, -0.041002660893974335, 0.01798920702119567, 0.04053171641206878, 0.03224881735548043, 0.08052037446504405, -0.05000400239441872, -0.012137815306987832, 0.026260347590524844, 0.047526077752787776, -0.05669133738788997, 0.012136730833317545, -0.012912088967569882, 0.013209227231443911, 0.024867652104427946, 0.034556200093585454, 0.031899336378379606, 0.027573976150339383, -0.030582452817273773, -0.027966246511769273, -0.07030170413040895, -0.036235119182236056, -0.036580498727224214, -0.02540726165405548, -0.003449029973217451, 0.010379951118978778, -0.011317521094094764, 0.015493276101802374, 0.01662620563655305, -0.0080298306822405, 0.030067049395104725, 0.015316875857568366, 0.004242725750106714, -0.08064472438547089, 0.04028334412149323, -0.059629036055941734, 0.020988783989599417, 0.04454217459076265, 0.0849234729507516, 0.09089857997070573, 0.10400188786148136, 0.09881616601998636, 0.08862753823461589, -0.003394889281772126, 0.04773667780910061, -0.06628135951499449, -0.08102633975937212, -0.06023277362632942, -0.1011566200129607, -0.03644983886173368, -0.0433781874046985, 0.01833753611486054, 0.018940261879308164, 0.04194306292835239, 0.033891520354790046, -0.021405429808450848, 0.01820631950015845, 0.04711521936866494, -0.018342851843004587, 0.03706657849158044, -0.012573208138879485, 0.00804749444098579, 0.03358361715843608, -0.006127701608493714, -0.05390659875224553, 0.04922999996539164, 0.1386436712953761, 0.20402272915359645, 0.1755919547074682, 0.11443455321220086, 0.17927487092268035, 0.08321830904799828, -0.004654158605542223, -0.08862603269382677, -0.04571643739840979, -0.05522604666190665, 0.004688478270316264, -0.05228091076356941, -0.1215125979397828, -0.013210917710791723, 0.003777122636398866, 0.009779793417400215, 0.0038416045751260165, -0.03271259506344129, 0.06493734755893502, 0.029591713844913548, -0.031376040987533854, -0.015679107864245995, 0.012438300589144937, -0.030786661183639423, -0.060268461517519224, -0.08974568556733917, -0.011442498268541814, -0.027393393736336327, -0.014240148597262706, -0.031215926514366298, 0.14121602965105384, 0.1221728351368329, 0.1088058075502105, -0.13793576796152598, -0.131309869320935, -0.12386243862589194, -0.03935228180346135, 0.012768550901456528, -0.06543369801271891, -0.01770284191065382, 0.030566798582165107, -0.0060463899981024775, -0.0012262956437758016, 0.030549885013662216, -0.03455987143273104, 0.04321244219685665, 0.01583553798318174, 0.025066106704662895, 0.03101254551301047, -0.0015056422428292005, 0.00072913026096529, 0.0009388753159321313, -0.0849796357438745, -0.028313130734994002, -0.02450888291072725, -0.07806368579785106, -0.12461957030884378, -0.1394022879563092, -0.07720972743001374, -0.11468095023192905, -0.2215965278367066, -0.18178064400783142, -0.12876614558809274, 0.0003283245257824444, -0.020501204653463903, 0.001979667940261778, -0.0004698857724028313, 0.010505396665260291, 0.06906094955125225, 0.016936297739837486, 0.027224225506074312, 0.012175700147799385, -0.04039270414011767, -0.0313840981332949, -0.014917877270033951, -0.02681401444643757, -0.009034874973956386, 0.019850604320834984, -0.06056249347614412, -0.030217219652537826, 0.010998275345589887, -0.00032944637551262496, -0.052610343080492006, -0.1237193668901493, -0.07934719622383687, -0.2841200876623599, -0.2670585400519585, -0.32341228001323896, -0.20054406512978412, -0.02841242636982915, -0.07298200209511843, 0.06205562164585815, 0.004531268881995535, 0.05190950634499992, 0.024322719676549944, -0.02097487404944766, 0.012985408113464466, 0.12323142872239658, 0.1127623989907865, -0.01911176880120639, -0.04542272134841088, -0.00860089869653191, 0.03579381221431231, 0.024391935629140125, 0.02589130957171445, -0.0230641049735917, 0.015766253827854005, -0.0035569386615190626, 0.009793430923862825, -0.01941743412632507, -0.042048254644894104, -0.06404324918697833, -0.10263340763133987, -0.08318164540212272, -0.0965319768137735, -0.11781048869691141, -0.05974390677707086, 0.04536860965856026, 0.0429373378833632, -0.01186592952799422, 0.056327524358942234, 0.08383672961145264, 0.02587521926574691, 0.0426518263274419, 0.05698216677344046, 0.07365185172773389, 0.022060748185176022, 0.019948744651847865, -0.016442177580878098, 0.009419469620564181, 0.043167524522681196, -0.03897285696714579, -0.0017398616655342751, -0.01398089406351905, -0.001300266428815319, 0.014129072888049621, 0.04162206962573054, -0.018340352576540393, -0.005341322457979412, -0.03408634272596285, -0.06490630908193869, -0.010445921619462055, -0.028330786768710075, 0.04392332328282908, 0.038914148099637114, -0.010739307664961955, 0.008598661199706252, -0.011394637446079384, -0.03800564002479455, -0.0032463370218910608, 6.777175314912725e-05, -0.0013564247394590805, -0.0373074855367067, 0.0014214791802523933, 0.06962028443710581, 0.009341096075823044, 0.06413274636264231, 0.038407724990910476, 0.07798629481106532, 0.04380980916548778, -0.008417597195672985, 0.02760650371233151, 0.05502738749052345, -0.04453704179842442, -0.009725827846374897, 0.04692999935413304, -0.00042554324799934357, -0.06033539360050244, -0.007564245296287728, -0.0792035381243349, 0.04593886981853969, -0.04157148502706393, 0.05019405157636855, 0.03607229383337742, -0.008766590991582744, -0.0570513577911487, -0.030633870270081767, -0.039618682904111927, 0.004837070917184337, 0.06388676228059269, -0.004037438880155351, 0.0575534543560568, 0.01920089490416202, 0.04902790079273753, 0.013217234600139516, 0.037120438790305466, 0.05264503949703798, 0.015045384095617594, -0.06882839110237775, 0.016555833915757535, 0.0738237583537983, 0.0297736168448839, -0.00613143946157552, -0.031629791430494006, -0.020022962660989147, 0.024210878548545665, 0.005098979946505494, 0.052819309538203164, 0.06040083286939457, 0.054749899837623135, -0.03431774419631374, 0.05369355218643104, 0.004891512790830427, 0.04903969801916375, 0.05607219980082129, 0.01500594407848752, -0.019859869154608252, 0.04595189630242949, 0.01227770090950795, -0.002948879781914599, -0.025996621891299598, -0.01464674884478447, 0.021900580491267297, 0.006461258134570764, 0.027233220389090745, 0.008516488681604083, 0.0010903515009345875, -0.012135580759940971, 0.022863827350085034, -0.03767200603084727, 0.004804409328236969, 0.02684648026704921, -0.02156542684636849, 0.006692070782991756, -0.02070795948074789, 0.07600842284269306, 0.09023265863783106, 0.075733155405773, 0.1173977425659632, 0.013904657187244849, 0.0491743342855713, 0.00999814386762911, -0.011069886133256726, 0.014568662936378757, 0.029211074254523135, 0.01666890897093499, 0.0038671380519410565, 0.008055457152673615, -0.02153784133119431, 0.00880264361919766, 0.024850969315817248, 0.05389826352847773, -0.033371950616984905, -0.021483864189701475, 0.03935671923750373, 0.012473860251538613, -0.003988108434304751, -0.00551433978657715, -0.01757148847086437, 0.010030424827571913, 0.03643634841300168, -0.02406488611545724, 0.001963412210388921, -0.02365412468554046, 0.020823110156177136, -0.006163689410771784, 0.04401767783950809, -0.007105219347187788, 0.010195112758434658, 0.008515880766632514, 0.036981844130644, -0.007940393430800654, -0.0005673455084861072, 0.051962896822129984, -0.02494343411780819, 0.023494581890041062, 0.07549905586077936, 0.04085671862147599, 0.022428534020349163, 0.0050643069963993105, 0.01811296676499859, 0.024463470802579223, -0.022140003547687772, -0.022665357656122175, 0.05748182107246081, -0.07298588296117785, 0.011488934594113372, 0.0510476638185005, -0.060245371821943054, 0.042969106493640566, -0.01064877132862282, -0.0027034500696999204, 0.04433655498729575, 0.07673029192471362, 0.032126238225884104, -0.040043673020153686, -0.02766441574350431, -0.019760729958976257, 0.016875057153449863, 0.04184748434251539, -0.007958937578703463, 0.03371450262907721, -0.014927773383992482, 0.01679799230985068, 0.030340821255147324, -0.017711113722718528, -0.03734168659341323, 0.04878460524415638, 0.002874935474883916], [0.0902443442362707, -0.10529261337330251, -0.021450532464244405, -0.010779313173962508, 0.006045051742446039, 0.037132573787684364, -0.0007784659641558356, 0.01614296415440341, 0.004430235252947423, -0.04484928384608481, 0.020160000683601877, 0.0142510055639674, 0.05579966970705575, 0.018817651123947055, 0.020487152698368722, 0.029096838827745303, -0.028352756220094647, 0.013820316277275995, -0.03286628876539046, 0.03593742192567292, 0.0039884843914927024, -0.001074460283869059, 0.016042695932406918, 0.010036599497828645, -0.0015047945857128789, 0.033544856253454006, 0.03576360588037804, -0.013881794047136417, 0.02657963242577901, -0.011102575664714284, 0.04184457859900318, 0.042973358495690776, 0.04811348889579001, 0.055383791800805854, -0.05200958513668073, 0.0563730162948954, 0.03155027827689755, -0.005390514607269783, -0.004911663214922303, -0.058227595310651546, -0.002421111133029671, -0.009956354276419504, 0.02654566026004599, -0.007023131132779625, 0.0069563746715479114, 0.02428979766382865, 0.04237898988784461, 0.025662069041706412, -0.004433220838546209, -0.0473915520575922, -0.008140424948088197, -0.004704402137662338, 0.01841798517352799, 0.03075461604232243, 0.007297527341086099, -0.001947866851283509, -0.022001185643225504, 0.028741725663868428, -0.03096357275836608, 0.010692184739632895, -0.0034924649667839257, 0.0004814423244456644, -0.008121115099351126, 0.0664608748505488, -0.004956042816528073, -0.002228895798571668, -0.02093042264543948, -0.062388239347618606, 0.02724442580350487, -0.04950278028482135, -0.01743464860665101, 0.05322518332299043, -0.07015668858998061, -0.013650739549775996, -0.08278485180112201, -0.08662110822146035, 0.0014638264131212287, -0.028667342635848726, 0.07863331657532566, -0.025791248362315118, -0.0015488354256843026, -0.003626390747275383, 0.025230576211440592, 0.032036570695375945, -0.026700415451178076, 0.05707124549872629, 0.0006272952274349002, 0.01145141027566071, 0.010816821697067559, -0.018927777525441048, 0.060797052987231294, 0.08453514323812465, 0.04144646702849225, -0.006449408809488701, -0.019021041318828244, -0.02155863228158081, 0.012505353370757652, -0.0929666943318414, -0.07086191131628292, -0.06817672615332031, -0.010759769047149394, -0.006807745462184353, 0.02444089614581181, 0.0950650574470589, -0.023285257671238357, -0.044830819400534336, -0.017306832630120023, -0.031189059395008087, 0.0012025025689970485, 0.012079845760207646, -0.014300719465462922, -0.06470091601938066, 0.061871103300670804, 0.02192698408425392, 0.019773050564752776, -0.008949259876258909, -0.08747963298745813, -0.018010013033353853, -0.011913362689673067, -0.027735083496960005, -0.012895609866128002, 0.03264641403910705, -0.0016335995956605663, -0.04672055641095096, -0.020052781229171465, -0.03131515184364206, 0.01569505460767999, -0.027818891918525976, -0.023702274872843005, 0.02976825283155398, -0.011702177520333777, -0.05503742635174112, 0.007136240830828787, -0.05095340763659359, -0.04119002305213774, 0.0006773974958178496, -0.016259122095358125, 0.005396284455467463, -0.04175903699366894, 0.005011814242543381, 0.01694568925603512, -0.03322035542538004, -0.021745435492063123, 0.047407014847786165, -0.025954984425553475, 0.04007129908176441, -0.03696469077253252, 0.014291995157049462, 0.02767547299852005, 0.002739912286808605, 0.004834712132055535, -0.0168985548673749, 0.02847449624302657, -0.01809357237052983, -0.0039030970392391097, -0.04127110803259358, -0.04305627935076151, -0.02327838341734784, -0.017404979765657067, -0.023709973660439233, -0.006532529881186171, -0.016978136569554946, 0.002143356744565352, -0.006663514037553118, -0.03230637690626218, -0.010475760773670139, -0.0003328013911898008, -0.048685880687054595, -0.047606121251196024, 0.04796999408179438, -0.027618759765970228, -0.008208165112839167, -0.042589494303388445, -0.00736575191792416, -0.007714017327103576, 0.014212921411746763, 0.04294188405738953, 0.016095342710102618, 0.020689129643605014, 0.03664237582026906, -0.016829750985860256, -0.03267285168584056, 0.03718514950592864, -0.043126806945198465, 0.04754676789675766, -0.024659411063757294, -0.051649945501399154, -0.018077302777439568, 0.0001869430451344277, 0.016833956303953925, 0.012727059676810006, -0.04325451014483516, -0.0113296434420021, -0.021045675535167323, 0.061389056314471384, -0.06290712859328497, -0.016282281895702962, -0.030744343001876815, -0.006242829587943697, 0.0260713506327188, 0.020125206242685278, -0.020282292743888906, 0.1026272684677556, 0.06285461344589474, 0.015220521864887314, 0.054057757346397846, 0.020702222802869832, -0.01613801333631994, 0.04380480250990298, -0.002693804152261013, -0.061046646969358326, -0.058914096832744706, 0.017173796167437767, -0.05560404038667327, 0.011017136518839381, -0.038602645976617146, 0.027345366811177354, 0.028144479200803648, 0.08216694125601913, -0.006910014956250523, -0.01583586727424472, -0.017623453640531212, 0.036867987338152906, 0.0015760158735490003, -0.04141505026667458, 0.041178413042813715, 0.010765808195373079, -0.011801567795953006, 0.01962743304476363, 0.03090862844688154, 0.05907136822301389, 0.013194479455583313, 0.026406795564922834, 0.018589147645598977, 0.02589818575745294, 0.03094056031082156, -0.026777085180663112, -0.01427401840888592, 0.028754044151994018, -0.01046031209804827, -0.05845682785836307, 0.01732698664636839, -0.01831865508187498, 0.05655793361250354, 0.0038620610508616287, 0.047958321761761485, 0.020992041026075648, 0.02079797123310392, 0.0037875886265927253, -0.04418217256997094, 0.04547231960043885, -0.032775868954255646, -0.003333895825543023, 0.048619169095455515, -0.019913381971873714, -0.04242145347762885, 0.02597174011225688, 0.01850438406828809, -0.012718099434121416, 0.002106152286158042, 0.02659938238098445, -0.0020980239106050376, -0.004133512668102826, -0.006801119083578591, 0.05374370662823201, -0.00012626724742692506, 0.05280874477349665, 0.068226799531935, 0.05346066164977085, 0.020966688115270145, -0.02042339589908449, -0.008568732087474874, 0.026047192087308452, 0.05026514731074963, -0.019288290375597962, 0.01037826525829741, -0.035412490861237336, -0.061133076589209454, 0.02653284734021183, -0.04322812768129443, 0.00462312826977405, -0.018620056509862423, 0.039602659714594604, -0.09971146654177648, -0.019668942348958343, 0.046506549564586316, 0.048493145309153655, 0.042560434222628195, 0.087257939513874, 0.00046996111611785185, 0.047993262064308796, -0.015924857962247456, 0.06204095736268587, 0.160564651588766, 0.07520402596625651, 0.04215363940012256, -0.00932875314021317, 0.06529949847955056, -0.02033942688203597, 0.0356605884106813, -0.05036250232560474, 0.004161812587668299, -0.09892504971076196, -0.028388199125106036, 0.01331975291881137, 0.02472994003021127, -0.0787209654914724, 0.006403990465960075, -0.007076187562306963, -0.012578436475533115, 0.012772987870101319, -0.02023182557878253, -0.01537296836215051, 0.09740220426521214, -0.005032358252117939, 0.08517585676933286, 0.051022624100340246, 0.10966902360950793, 0.03320917135161725, 0.08540025425991347, -0.017968995614784086, -0.01850418815319676, -0.004517615784618385, -0.001059552897151997, -0.0233447702384034, -0.049233231832482224, 0.010108754653822563, 0.06415426391514428, -0.009368552692191272, -0.06054283251984982, -0.08619243645779649, -0.1089093696380477, -0.06419258987988374, 0.027290899336715753, -0.01942227217099308, 0.0230520938747526, -0.04107147936725176, 0.02899672991499088, 0.03725361735289598, -0.0014335054687948197, -0.05085785297661476, -0.08162285895005722, -0.05046414365440425, -0.1113484454543954, 0.048134304404381226, 0.009777367200766884, -0.06876899385689478, -0.1205021041723948, -0.1692163012971071, -0.1528371703376635, -0.012781958401382822, -0.07859888235519477, -0.046342491842056036, -0.08542220486689328, -0.06687807982964, -0.02021192160983012, -0.013513310724381623, -0.07866661655183797, -0.0687685441143236, -0.023912422647030338, -0.019568576143283858, 0.05504656512476986, 0.044217228872646994, -0.01856907965454891, 0.03931986511026826, -0.036514992559604574, -0.03688176655335399, -0.0729734652964634, -0.015073187852798226, -0.14514616975796188, -0.16047487743051864, -0.19614834285178098, -0.16666367455330627, -0.12431699338043747, -0.15668558542091107, -0.18040722747535318, -0.218536063686056, -0.07844425211689111, -0.054071965951339146, 0.009320350535499736, -0.034043513586152006, 0.0024868056234970495, -0.06057202045258463, -0.06293629339058175, -0.05227832606603689, -0.05045012961978083, -0.13468092790028924, -0.03505828374735343, 0.035560788317716745, 0.08680971414414532, 0.04667952891807921, 0.020974984436751117, -0.010824574937221035, 0.02515985046606531, -0.027244369277671758, -0.03975528498202735, -0.10275127928767512, -0.17753934132033256, -0.2568154736626282, -0.27768506851401414, -0.2707740394407556, -0.26548130788122154, -0.1794033774746648, -0.15289817077718681, -0.11663002611870307, -0.008336945631283484, -0.005687502290661711, -0.03160408314015601, -0.015965575197315597, -0.06654677522366466, -0.03186103638741468, -0.059722562959134, -0.09306941093551632, -0.039611220436891324, -0.015372985286501537, -0.05450790063723422, 0.012714108734550856, 0.03440058093493508, 0.0755296919920624, 0.005654957798142187, 0.056601535522532984, -0.026366899572843654, -0.028465577340320482, -0.04485156058168786, -0.10682481891055763, -0.18086183102535228, -0.20405690200060322, -0.15273320823952977, -0.16950235702981256, -0.18715964389255718, -0.08917828350363692, -0.019185188043500126, 0.050094056324132684, 0.16044354615397552, 0.06866377678557765, 0.014591715323761282, -0.06257839122117548, -0.015350912037033542, -0.026631289314005435, -0.01205727684280241, -0.03792676944645542, 0.011595779877467774, -0.0006039913647383084, -0.04248771902905598, -0.019405321548197362, 0.0473761558255699, 0.05414586675208299, -0.048511160950911285, -0.02133506316102422, -0.016858170813968596, 0.04984941626874619, -0.021769408047213105, -0.1150300942906083, -0.11724678324898466, -0.04780905460892754, 0.010696382277618446, -0.053701749669912, 0.05789747168547563, 0.05172050498189833, -0.014427669081682934, 0.006982124943440169, 0.08163549559163659, 0.049672312086333915, -0.02624794594622482, 0.03088624541673227, -0.032084327473053155, 0.06510342275751474, 0.03097733792814593, 5.8213953489654385e-05, 0.03717066621312046, 0.02320507959376848, 0.043445659656164363, -0.01888094796842815, 0.07611988610447248, 0.056835479264146296, -0.0771140015204991, 0.009642507587261786, 0.0037374198799464114, 0.029558748008889555, -0.0432302510818622, -0.06818673223022904, -0.022604803584373893, -0.021514950591387142, -0.03901303183383645, 0.048263821284541784, 0.012225355625546353, 0.04941859599216025, -0.029456440932779143, 0.07331728860677225, 0.03785352125927182, 0.09196207478524558, -0.014694797854555379, 0.007800794804064467, -0.03581755105786744, 0.028552736805990946, -0.014446995934976158, -0.001630069740605279, 0.01684702484093871, -0.042842452783957756, 0.05247820799580993, 0.03900615948518483, 0.07822093134408206, 0.020301659751223524, 0.028512549738142903, 0.000579863927677065, -0.02030618423522059, 0.06062044968169971, -0.004192421518685483, -0.043226421504886745, 0.04688789109158957, 0.005930916292820813, -0.01066985117582786, -0.028968035049936593, 0.05311751168243653, 0.023860594517627412, -0.004220127708343665, 0.06601683405256717, 0.12299424488570418, 0.0555980242308385, 0.08740366743985417, -0.012179028193885104, 0.057321265495300096, 0.0022398078642727665, -0.025486419411814645, -0.060952178056376774, -0.006583842933237836, 0.046667434803818464, 0.017149174156293356, 0.0396016471251875, 0.02370076839896254, 0.06462831978724284, 0.010459070445823908, 0.013135168819799939, 0.013282418240967608, -0.021806352939460583, 0.03909061395924104, 0.046192315438425, -0.0296088371538329, 0.028993122446109507, 0.046600626262524376, 0.06449752357223035, 0.004380959543546306, 0.031563214502446583, 0.03385793872835992, 0.0793907792103609, 0.08635643975972947, 0.03659350774047216, 0.05986915728848607, 0.010084187149198806, 0.028922527965153787, -0.014710279397246121, -0.04183587981325858, -0.010600115043349389, 0.03938506339943386, -0.020139481376940768, 0.03522871054301559, 0.037832606707368995, 0.0861409462979962, 0.035104769684819265, 0.03092386564684382, 0.026352070875126983, -0.03408134278615754, 0.004396468910650691, 0.08225208038052094, 0.06612781626339567, 0.09130818442746905, 0.10331168016570932, 0.046300480991654805, 0.030453507200811518, 0.06448021455772647, 0.0016638087436254539, 0.038416501171198644, -0.015509057345095398, 0.04314431302103981, 0.02147905793437119, 0.010722167046406496, 0.050059423547319695, -0.020012788079616452, -0.020352985902352263, -0.02271715949374438, 0.0223807349664363, -0.08085668920003862, 0.01889618465625707, -0.025772904078557236, 0.008066987213267558, 0.04051663100509716, 0.005460885303936105, -0.010278712055193512, -0.014125541188625907, -0.0031855767312357636, 0.029089961094952176, 0.0683713412343029, 0.07072426486833996, 0.06932946301881819, 0.044517574033922716, 0.07309474742368381, 0.0011873718730932494, 